nep4 3 O Si Au 
cutoff 7.5 7.5 127 127
n_max 8 8
basis_size 12 12
l_max 4 2 0
ANN 50 0
 -2.4792798e-01
  1.6234571e+00
  8.4585285e-01
  3.2067753e-02
 -2.1619123e-01
  1.3396330e-01
 -3.3306155e-01
  1.1310750e+00
  1.2215892e+00
  1.2951721e+00
 -8.7290102e-01
 -8.9714277e-01
  3.3408090e-01
  1.1301542e-01
  6.6260546e-01
  2.2286622e-01
  1.0148235e-01
 -1.1310861e+00
  8.6422211e-01
 -8.0884761e-01
 -2.1057228e-02
 -1.0420111e+00
 -6.4279515e-01
 -1.3457580e+00
  4.0170667e-01
 -4.3551108e-01
  4.7598085e-01
  7.9694939e-01
 -1.1906834e+00
 -7.3997438e-02
  4.8791048e-01
 -6.3707367e-02
  9.5513351e-02
 -2.7474096e-01
 -5.6637742e-02
  1.2841651e+00
 -1.9619289e-01
 -2.3030883e-01
  3.8936755e-01
 -2.3471242e-01
 -1.0228012e+00
  1.2844558e-01
 -2.5126156e-01
  2.0130888e-01
  1.5235493e+00
 -1.1276288e+00
  5.1031357e-01
  3.3764616e-01
 -1.4904873e+00
  1.0781750e-02
  7.2330707e-01
 -1.1419711e-01
 -9.4951981e-01
  2.0992132e-01
  2.0850101e+00
 -5.2371705e-01
 -1.2529446e+00
 -4.9179831e-01
 -1.9699386e-01
  4.2578861e-01
 -4.1266065e+00
 -5.5493510e-01
 -9.9856544e-01
  4.7548775e-02
 -2.4342191e+00
  1.1680270e+00
  6.2914741e-01
  9.9991816e-01
 -7.0999867e-01
 -1.5546964e+00
  1.7321559e+00
  1.7743955e+00
  3.9290532e-01
 -1.9531450e+00
  3.1965718e+00
  1.1048961e-01
  1.3656056e+00
 -6.2930810e-01
 -6.4729564e-03
  1.4264740e+00
  8.4191263e-01
 -1.2567922e+00
 -2.2732718e+00
  8.0729389e-01
  5.7166237e-01
  1.9666877e-01
 -1.5512414e-01
 -7.1841037e-01
  2.5939496e+00
  8.2533605e-02
 -1.4807767e-01
 -1.6093696e+00
 -6.2379289e-01
 -1.6483355e+00
 -1.1163169e+00
  2.0292974e+00
  7.0815915e-01
 -5.9514724e-02
  8.2597172e-01
  3.2648242e-01
  1.0130322e+00
 -2.1134789e-01
 -2.2275972e+00
  1.6495124e+00
  2.7073758e-02
 -3.2140657e-01
  8.5467726e-01
  7.1371067e-01
 -2.4020241e-01
 -2.7808833e-01
 -4.7591720e-03
  1.1021830e-01
 -9.0160117e-02
  2.4443638e-02
 -1.4039299e-01
  2.8829446e+00
  2.2451755e-01
 -3.3210546e-01
 -3.3943704e-01
 -1.2274604e+00
  1.1384390e-01
  9.6095562e-02
  1.4326272e+00
  8.6397380e-01
  7.8262821e-02
  5.6839693e-01
 -9.1740057e-02
  5.2594328e-01
  8.8648844e-01
 -1.5361335e+00
  3.9314735e-01
  3.3085617e-01
  7.1898049e-01
  8.4405065e-01
 -1.9545923e-01
 -2.1279219e-01
  3.1069595e-01
  1.0751772e+00
 -8.2095242e-01
  3.6082789e-01
  2.6866174e-01
  5.6840211e-01
 -1.0565376e+00
 -6.2909341e-01
 -4.0822300e-01
  4.7580081e-01
 -1.2253911e+00
  2.6290530e-01
  9.4004011e-01
 -5.4306507e-01
 -6.2321022e-02
  1.0685070e+00
 -3.7966415e-01
  1.6625106e-01
 -2.5799707e-01
 -8.9618945e-01
 -3.7258878e+00
  1.8791899e-01
 -6.6930223e-01
  6.0072351e-01
 -1.1045524e+00
  9.6071295e-02
 -7.4769515e-01
 -1.5628971e-01
  4.4047105e-01
  5.9731102e-01
 -2.4518416e+00
 -9.2345577e-01
  3.1835541e-01
  1.3972875e+00
  3.5217294e-01
 -6.5183485e-01
  9.9377048e-01
  1.8560441e-01
 -8.9711577e-01
 -1.0820717e+00
 -1.1691664e-01
 -4.7212836e-01
 -9.6276098e-01
  3.5335775e-02
 -2.8901452e-01
  7.5945616e-01
  1.2669923e+00
 -1.1301115e+00
 -1.0821842e+00
 -6.4444298e-01
 -3.7752208e-01
 -4.9162257e-01
 -4.7818547e-01
  9.1581121e-02
  9.2221403e-01
  8.0397472e-02
  6.9004703e-01
  1.9719781e+00
  1.1689472e+00
  5.9889418e-01
  4.3204051e-01
 -3.8116419e-01
 -3.2170799e-01
  4.3244860e-01
 -2.3113482e-01
  1.6899101e+00
 -9.4385493e-01
 -3.7476815e-02
  1.6245166e+00
 -6.8889832e-01
  1.3631423e+00
  5.1819277e-01
 -1.8000358e-01
 -4.6311483e-01
 -5.2520788e-01
 -5.9488678e-01
  3.7356347e-01
 -3.9547995e-01
 -3.7262750e-01
 -5.4458827e-03
 -3.9546275e-01
 -4.2208299e-01
 -1.0187648e-01
 -2.4371410e-02
  1.7316465e+00
 -1.4986119e-01
  4.8122737e-01
  1.6923669e-01
 -1.6345500e+00
  9.7202606e-02
  1.1552531e+00
 -5.0400920e-02
  1.7226222e+00
 -1.3855323e-01
  3.2629460e-01
 -9.4880618e-02
  1.5075040e+00
 -1.0031103e+00
  1.4432931e-01
 -7.2639421e-02
 -3.8205466e-01
  6.7315614e-01
  9.7938776e-01
 -9.2867589e-01
  6.6067171e-01
  9.9053159e-02
  9.1362512e-01
  1.1504284e+00
  5.7174832e-01
 -3.0352086e-01
 -8.4565634e-01
 -5.9706086e-01
  9.5197225e-01
 -1.1298643e+00
  4.0246603e-01
 -3.3778405e-01
 -2.9283220e-01
  2.1008928e-01
 -6.9427192e-03
 -7.0883751e-02
  2.3004955e-01
  1.2526979e+00
  2.9662529e-01
 -1.9854453e-01
 -1.7067415e-01
  1.5798326e+00
 -1.5805765e+00
  1.2498796e+00
  7.3538280e-01
 -1.1320725e-01
  1.6623735e-01
 -2.5871776e-02
 -1.5023563e+00
 -2.5631595e-01
 -3.0812421e-01
  6.3804549e-01
 -2.1039683e-01
 -6.0388708e-01
 -1.4526849e+00
  1.1392145e+00
  4.9751330e-02
 -5.6917495e-01
 -3.8820934e-01
  3.6158869e-01
 -1.2892774e-01
 -1.4704454e+00
  1.4631307e-01
 -1.5033814e-01
  1.5292082e+00
 -1.4602083e+00
  4.7417033e-01
 -2.0853820e+00
 -3.5061994e-01
  1.2984025e+00
  2.3435533e-01
 -1.3810121e+00
  1.7067564e-01
  1.2334362e+00
  8.5898888e-01
 -3.0186114e-01
 -5.6258804e-01
 -2.0032597e+00
  8.6139041e-01
  1.8939580e+00
  1.3149674e-01
 -5.5370456e-01
  1.0968851e+00
  5.4952312e-01
  1.2409495e-01
  6.7721593e-01
 -4.6834442e-01
 -1.0511346e+00
  1.0137566e+00
 -1.0092800e+00
  3.6273538e-03
  1.1345705e+00
  2.0153315e+00
 -3.2514518e-01
  3.3271563e-01
  5.1739854e-01
 -3.7901607e-01
 -1.0605750e+00
  1.2285682e-01
 -1.3143297e+00
  3.2101536e-01
 -6.3884580e-01
  7.8291494e-01
 -9.8396540e-01
  4.2702249e-01
 -7.8654671e-01
  4.9223110e-01
  8.5756248e-01
 -1.0956262e-01
  1.8304011e-01
  2.1790110e-01
  4.3654370e-01
  1.5399188e-02
 -9.3729228e-02
  3.4565747e-01
 -7.2951967e-01
  3.1950465e-01
 -6.3197947e-01
 -1.6302454e+00
  4.1575694e-01
  9.3826979e-01
  3.5089296e-01
 -5.2931100e-01
 -5.3274757e-01
 -8.9908016e-01
 -6.6384539e-02
 -8.0643588e-01
  4.5183909e-01
  3.7357524e-02
  5.6124479e-01
 -3.8772792e-01
 -9.4907397e-01
 -1.2436135e+00
 -7.5449347e-01
 -4.8944432e-01
 -8.1992722e-01
 -8.7344021e-01
 -6.9684702e-01
 -4.9292862e-01
 -2.7870733e-01
  7.5162612e-02
 -2.4155763e-01
 -9.7168393e-02
  4.8746690e-01
 -5.0425906e-02
  6.3399956e-02
  6.5528941e-01
 -2.0290257e-01
  1.9517685e-01
 -1.1222316e-01
 -2.0359120e+00
  2.3528731e-01
 -3.7034035e-02
 -1.5570748e+00
  1.4610071e+00
  2.0312580e-01
  2.7661569e-02
  1.4886378e-01
  8.7102199e-01
  2.9738820e+00
 -2.8159359e+00
  2.9775932e-01
 -1.3512714e+00
 -6.4852387e-02
  1.7444158e-02
  9.8556125e-01
  1.5321016e+00
 -9.2901491e-02
  4.0333420e-01
 -4.6483815e-02
 -2.2338071e-01
 -1.8709324e-01
  9.3055242e-01
 -3.5559171e-01
 -5.4782426e-01
 -1.0509543e-01
 -6.3495860e-02
  2.6739916e-01
  9.1468406e-01
  4.1975904e-01
  2.6521695e-01
  7.8019178e-01
 -8.2361150e-01
  6.5695632e-01
 -1.2702779e-01
 -2.6567635e-01
 -3.1932342e-01
  2.3499630e-01
  4.3212306e-01
  1.4670870e+00
  6.9752413e-01
  9.1831028e-01
 -3.1205353e-01
 -3.1609812e-01
 -1.3020260e+00
  6.8657476e-01
  7.1581578e-01
  5.8178860e-01
  1.2665006e+00
 -1.0522200e+00
 -3.7734041e-01
  1.4514403e+00
  2.5906554e-01
 -3.7301582e-01
 -3.1668848e-01
  2.3400694e-01
 -1.8384928e-01
 -1.7081836e-01
  1.5498611e+00
  2.4685287e-01
  5.7181031e-01
 -4.0413564e-01
 -1.3655301e+00
 -1.4149587e+00
 -3.5610762e-01
  1.8256700e+00
 -3.1794614e-01
 -2.4032559e-01
  1.4272059e+00
 -1.3294066e+00
  1.2025753e+00
  4.5196932e-02
 -3.6979252e-01
  5.9471808e-02
  1.2290872e+00
  1.1736186e+00
  2.0551624e+00
  1.1008019e+00
 -3.1223193e-01
 -7.3685825e-01
 -3.2349932e+00
  1.9146148e+00
 -8.0653018e-01
  4.8619387e-01
  8.7297654e-01
 -7.6409620e-01
 -1.9686475e-01
 -7.0181027e-02
  2.3899901e+00
 -5.1036423e-01
 -6.4075452e-01
 -2.5845902e-02
  1.1231324e-01
 -1.5171634e+00
  8.9199942e-01
 -3.5349045e-02
  1.2538938e-01
  1.6761471e+00
  2.5881681e-01
 -1.6982055e+00
  1.4504598e-01
 -3.6184108e-01
 -6.5485710e-01
  6.3472819e-01
  1.4099824e+00
 -7.6942843e-01
 -2.8996632e-01
 -6.8568057e-01
 -7.1603507e-03
  2.6518989e-01
  3.7691221e-02
 -1.5714396e+00
  9.3541026e-02
  2.3311210e-01
 -1.2990329e+00
  5.2252490e-02
 -3.4818161e+00
  1.0698429e+00
  8.6089566e-02
 -2.3791604e+00
  7.6678902e-01
  1.4819364e-01
  5.3108495e-01
  5.2119903e-02
  2.9750440e+00
 -7.3826259e-01
  6.0453123e-01
 -3.4469068e-01
  1.9828672e-02
 -1.0666071e+00
  3.7316391e+00
  9.1065097e-01
  4.0822917e-01
  3.6018014e-01
 -1.2615315e+00
  3.1304317e+00
 -9.0424842e-01
  5.9751618e-01
  3.3797884e-01
  6.6905487e-01
 -4.0155879e-01
 -2.9841563e-01
 -1.5104514e+00
 -1.2177168e+00
 -2.9160857e-01
 -9.2729375e-02
 -1.2713684e-01
  4.9268052e-01
  3.5925934e-01
  8.0865723e-01
 -2.1978123e+00
 -3.4337535e+00
 -3.5949159e-01
 -3.2113048e-01
 -1.4914397e+00
 -2.4341486e+00
 -5.9651840e-01
 -1.9498569e-01
 -2.6429731e-01
 -2.1339570e-01
  4.8871523e-01
  1.0804081e+00
  1.5873280e+00
 -4.8249766e-01
  9.5999324e-01
  8.1304216e-01
 -1.3421098e+00
  1.7823504e+00
  8.5481560e-01
 -1.7184768e-02
  1.7466748e-01
  1.4876358e-01
 -1.7832960e-01
 -1.3862304e-01
 -1.1222357e-01
 -3.6495497e+00
 -2.8463545e-01
 -1.9112612e+00
 -2.9259568e-01
  5.2091718e-01
  1.4054041e+00
  5.3287584e-01
  1.1734567e+00
  9.6556589e-02
  1.8898979e+00
 -4.3967509e-01
  4.3912653e-02
  3.0566138e-01
 -2.6876621e-02
  1.5957222e+00
 -2.2772765e-01
 -1.3069172e+00
  1.4602427e+00
  1.6557794e+00
  2.9314108e-02
  5.8410764e-02
  8.5151142e-01
 -5.9127289e-01
 -5.8057088e-01
  6.5617520e-01
  1.0035811e-01
  1.1503268e-01
  8.4774488e-01
 -6.5326357e-01
 -1.7094021e+00
  3.2573813e-01
  1.0417783e+00
  1.3009313e-01
  7.0851810e-02
  1.5674694e-01
  2.6849115e+00
  4.9251598e-01
 -4.5719698e-01
  1.6012521e+00
  6.1971597e-02
  1.1664156e+00
 -3.9070553e-01
 -2.3064223e-01
  1.6393617e+00
  1.9969383e-01
 -8.3982611e-01
 -8.2830119e-01
  2.8800273e+00
 -5.6838971e-01
  7.0478004e-01
  2.9709005e-01
 -1.2977244e+00
 -2.8825557e-01
  1.7151265e-01
 -2.5660317e+00
  1.1900463e+00
  4.7633410e-01
 -4.8699334e-02
 -3.9705074e-01
 -2.7020890e-01
 -1.9426537e-01
 -3.5206142e-01
 -2.3982175e-01
  5.2655518e-02
  4.4624192e-01
 -1.1070662e+00
 -2.3996146e-01
  2.3481104e-01
  2.7256802e-01
 -1.0654539e-02
 -2.0092697e+00
 -5.1266272e-02
  6.4848340e-01
  1.2462221e+00
 -5.5126297e-01
 -1.6278014e-01
 -1.4694711e+00
 -8.1716573e-01
  2.8174953e+00
 -5.2510403e-02
  1.3079804e-01
 -8.3220281e-02
  4.4187326e+00
 -5.8338851e-01
 -3.4856629e-01
  3.6093477e-02
 -2.8261220e-01
  5.9328949e-01
 -9.5019603e-01
 -7.3681414e-01
  8.9305729e-01
 -3.6711633e-01
  6.5611500e-01
  3.3439839e-01
 -1.1714780e-01
  2.7045703e-01
  3.0026707e-01
  1.2067082e+00
 -7.3761219e-01
 -7.9033351e-01
 -6.4684808e-01
 -1.4709325e-01
 -5.6198239e-02
 -7.9787821e-01
 -1.6934204e-01
  7.3744482e-01
  1.7496223e+00
 -4.9836969e-01
  5.7046193e-01
 -1.4635673e+00
 -2.3185809e+00
  6.7391276e-02
 -2.6037696e-01
  6.8067968e-02
 -6.4115852e-02
  8.2234377e-01
 -1.5848692e-01
 -1.0177540e+00
 -1.0524699e-01
 -9.8744579e-02
  1.0001422e+00
  2.6854810e-01
  1.1961057e+00
 -4.5016596e-01
  7.5832152e-01
  1.0063324e+00
 -4.5718765e-01
 -9.1847664e-01
  2.5241908e-01
 -7.7597842e-02
  3.3370128e-01
 -2.5459355e-01
 -7.9470879e-01
  1.5781894e+00
 -7.8725433e-01
  1.0202560e+00
  8.7376529e-01
 -1.1547213e+00
  6.0422170e-01
  3.3991775e-01
 -1.3623384e+00
  1.1956914e-01
 -7.9143292e-01
 -4.7976318e-01
 -5.9098423e-01
 -3.0220422e-01
 -5.9837759e-01
 -4.5594245e-02
  1.1830672e-01
  1.9683857e-01
 -1.3335593e+00
 -2.8457978e-01
  4.6192405e-01
  3.3679408e-01
 -5.0794333e-01
 -5.2704966e-01
  9.8862511e-01
 -1.2262377e+00
 -1.1570572e+00
  7.4307942e-01
  1.4746929e+00
 -5.6104436e+00
 -9.9612927e-01
 -4.4050407e+00
  1.4387510e+00
 -2.8260903e+00
 -6.8983525e-01
  3.0511370e+00
 -6.1544734e-01
  2.1107106e-01
  1.1104866e+00
 -1.6010569e+00
 -1.7063303e+00
  4.5622313e-01
  1.8765497e+00
  3.7257758e-01
  4.1628936e-01
 -2.0539422e+00
  4.0618584e-02
  1.3645409e+00
  2.1188519e+00
 -6.8409759e-01
  3.1908089e-01
  1.3833401e+00
 -2.3353657e-01
 -3.6300090e-01
  8.5909694e-02
  5.0248367e-01
  2.6337359e+00
  1.4576192e+00
  7.9982430e-02
 -2.3645477e-01
  8.3430183e-01
  6.5285033e-01
  1.1878731e-01
  1.1868883e-01
  2.1420553e+00
  5.7827985e-01
  2.8826597e+00
 -7.9907358e-01
  1.0873697e-01
 -4.8114505e-01
 -1.9349466e-01
 -5.3030962e-01
 -1.0118706e+00
  5.9219062e-01
  2.2812411e-01
  2.3001197e-01
 -4.8777086e-01
 -1.1228384e+00
  1.0462815e-01
 -3.6371538e-01
  2.1787371e-01
  4.3413356e-02
 -4.6651936e-01
 -2.7805260e-01
 -6.5284294e-01
  4.2465705e-02
  1.4681565e+00
  1.3031541e-01
 -4.2505392e-01
  2.0822777e-01
 -5.8138037e-01
  5.7602769e-01
  1.6939230e-01
 -7.4709350e-01
  6.5519017e-01
 -4.5374388e-01
  6.0158089e-02
 -1.9559595e-01
 -2.3992682e-01
  9.0738088e-01
  2.2461483e-01
 -7.2521520e-01
 -1.8736903e-01
 -1.2993869e+00
  2.0058371e-01
 -3.5882944e-01
 -2.1728313e-01
 -4.0235868e-01
 -5.0643045e-01
 -2.9125038e-01
 -5.1934719e-01
  3.1143296e-01
  1.6656090e-02
  1.1793931e+00
  1.3149575e+00
  2.5589530e+00
 -1.1265281e+00
 -4.4771039e-01
  1.2337645e+00
  3.9503109e-01
  1.0789587e-01
  3.2529888e-01
 -4.7215408e-01
 -1.7778900e-01
  1.0864775e-01
 -5.1296932e-01
 -3.5890889e-01
  5.2773511e-01
 -1.4378221e+00
  1.6071413e-01
 -4.0347955e-01
 -6.1056799e-01
  1.1496001e-01
 -4.1679054e-01
 -1.4461020e+00
  5.6920302e-01
  7.4555464e-02
 -7.1505971e-02
 -8.0438143e-01
 -7.3491520e-01
 -3.8842404e-01
 -3.2022589e-01
  2.0693131e-01
  5.6521767e-01
  8.3244497e-01
  1.3661394e-01
 -9.0935946e-02
  8.0979502e-01
 -7.9563510e-01
  1.4416089e+00
 -8.7497836e-01
 -5.6887060e-01
  1.2253487e-01
  2.3354700e-01
 -1.2849389e-01
  6.2864006e-01
 -1.9945318e-01
 -7.0311326e-01
 -9.1966999e-01
 -1.0287266e+00
  1.6787432e-01
  7.8620985e-03
  4.3405417e-01
 -6.7765951e-01
  3.8848552e-01
  8.7604038e-02
  3.1539854e-01
  6.0694927e-01
  1.3370436e+00
 -8.4907627e-03
  5.9708172e-01
 -1.5196378e+00
 -2.3414412e-01
  7.5555575e-01
  2.8019422e-01
  5.1273829e-01
  4.5511317e-02
  1.2555671e-01
 -6.5931574e-02
  7.1736008e-02
 -5.4155219e-02
  1.9719315e-01
  1.1481606e+00
 -7.2609708e-03
 -2.1459475e-01
 -6.2483132e-01
 -7.0354414e+00
 -1.6266584e-01
 -1.8607998e+00
 -2.3426569e+00
 -1.1147702e+00
 -3.8510129e-01
 -6.0381013e-01
 -4.3067360e-01
 -1.0938964e+00
 -2.6475355e-01
  2.0159480e-01
 -6.1210990e-03
 -9.0660530e-01
 -9.3493855e-01
 -4.5925960e-02
 -8.7382448e-01
  4.4266334e-01
 -7.6070225e-01
 -9.2817122e-01
  1.2224417e-01
 -9.0593481e-01
  1.6559289e+00
 -6.3183904e-03
 -8.7821084e-01
 -3.3868015e-02
 -7.8129554e-01
 -6.2807059e-01
  5.8322471e-01
  7.1416271e-01
  3.1649513e+00
  7.5067991e-01
 -1.4738026e-01
 -9.3009330e-02
  4.0904662e-01
 -2.6737881e-01
  1.4125693e-01
  1.5061760e-01
  6.9429323e-02
  3.3976480e-01
 -9.3126506e-01
  4.4551480e-01
  2.5968274e-01
  1.8795390e-01
 -6.1535585e-01
  1.7451641e-01
  3.4763277e-01
  3.5899073e-01
 -2.0551279e+00
  3.2947713e-01
 -1.7762915e+00
 -1.3000116e+00
 -3.8817808e-02
  1.3886799e-01
 -7.1303570e-01
 -1.0799676e-02
 -1.3376060e+00
 -3.0908999e-01
  1.2558702e-01
 -9.8616469e-01
  9.2913771e-01
  9.0025067e-01
 -3.6017710e-01
 -2.3838855e-01
 -5.3424019e-01
 -1.5409178e-01
 -3.3259124e-01
  1.5548415e-01
  6.4011300e-01
 -1.0779743e+00
 -8.1489444e-01
  3.2613522e-01
 -3.4972036e-01
  4.8134136e-01
 -3.9130437e-01
 -2.6722834e-02
 -3.8817379e-01
  1.1697695e+00
  8.2701451e-01
  4.8290916e-02
 -8.8274837e-01
  3.2169455e-01
  5.0765467e-01
 -2.0684874e-01
  8.9630145e-01
  2.8200796e-01
 -3.7313652e-01
  1.1434798e+00
 -3.1676692e-01
 -5.5194658e-01
 -8.0924219e-01
 -2.5615849e+00
 -8.0693346e-01
 -7.2992378e-01
  5.1357996e-01
  2.7310014e-01
 -3.7158063e-01
  9.1434360e-01
 -6.4497417e-01
 -1.0267565e+00
 -1.0453398e+00
 -6.3573584e-02
 -1.4845740e+00
  3.5525447e-01
 -9.8247021e-01
  1.8936537e-01
  2.6682073e-01
 -9.8920351e-01
 -3.8169354e-01
  1.4784416e+00
  1.4301032e-01
 -3.4802040e-01
 -3.6632180e-02
  1.9565658e-01
  8.7052882e-01
  7.3611915e-02
  9.5899272e-01
 -6.2675524e-01
 -1.0975552e+00
 -9.8320827e-02
  7.7085209e-01
 -5.2959341e-01
  3.9582705e-01
 -3.1494731e-01
  1.0720821e-01
  2.3432842e-01
 -4.0506778e+00
  1.0819091e+00
  6.8726552e-01
 -1.8006399e-01
  1.3472406e+00
 -1.6826731e+00
 -5.6854850e-01
  1.1936228e+00
  1.3865643e+00
 -7.0563948e-01
 -5.5630088e-01
  3.1876817e-01
 -1.7199334e+00
  4.4947851e-02
  6.3156384e-01
 -4.1035321e-01
  1.0774888e-02
  2.6260269e-01
 -4.9664557e-01
 -3.3906665e-01
  8.3907914e-01
 -4.8520947e-01
 -6.5489864e-01
  1.0092583e+00
 -7.9048437e-01
  1.0535929e+00
 -3.3490467e-01
 -3.8996381e-01
  5.9445262e-01
  2.5467518e-01
  1.7709753e-02
  1.7076226e-01
 -1.8644407e-03
 -1.1264428e-01
 -1.3353541e-01
  1.2541572e+00
 -2.2207719e-01
  7.2063729e-02
 -1.1752311e+00
  1.3884397e+00
  1.9190854e+00
 -1.1796712e+00
  1.8303716e-01
 -8.2795680e-01
 -5.2379947e+00
  3.1211178e+00
 -5.3874860e+00
 -1.4716250e+00
 -6.0312176e-01
 -1.0542511e+00
 -6.1932760e-01
  3.1398849e+00
  2.2951074e+00
 -7.4096388e-01
  8.8720441e-01
  1.5374669e+00
  1.4854176e-01
 -2.0797973e+00
 -1.4164268e+00
  3.2198231e+00
  3.0652351e+00
  6.8152893e-01
 -4.6816301e+00
  6.5225178e-01
  3.3173919e+00
  1.4282070e+00
 -1.0138358e+00
  2.0715063e+00
  2.0866582e+00
  1.9395791e+00
  2.9059799e+00
  4.2724773e-02
  3.5447037e+00
  3.3816493e-01
  2.8960843e-02
 -1.2094337e+00
  1.7548633e+00
  5.3561896e-01
  7.1991146e-01
  2.5042922e+00
 -9.9136871e-01
  2.8553963e+00
 -4.3672466e-01
  1.8870665e+00
  2.5320309e-01
 -8.0453646e-01
 -1.7406139e-01
 -4.3350807e-01
 -4.7170556e-01
 -1.8500005e-01
  9.8805297e-03
 -2.0746028e+00
  1.4628978e+00
  1.4751494e-01
 -1.0976112e+00
 -1.1892723e+00
 -1.8794483e+00
  6.7493874e-01
  3.3744910e-01
  2.5744897e-01
 -1.3380454e+00
  3.2394710e-01
 -9.1311991e-01
  1.0225136e+00
  1.5481542e-01
 -1.9743943e-01
 -1.1655943e+00
 -5.0440586e-01
  3.0509448e-01
 -9.3352360e-01
 -1.4800365e+00
  9.9698764e-01
 -7.8843009e-01
 -5.9342974e-01
 -9.2939359e-01
 -2.2918469e-01
  7.5081789e-01
 -9.1059542e-01
 -1.4207090e-01
 -3.9664310e-01
  1.3499340e+00
 -6.6286331e-01
  1.8596932e-01
  7.1069884e-01
 -7.3452467e-01
 -1.0588624e+00
  7.3264688e-01
  9.3821937e-01
 -5.4484296e-01
  1.5237612e+00
 -1.3662320e+00
 -4.9185058e-01
  5.3056371e-01
 -4.3419513e-01
 -4.2801830e-01
  1.3700718e-01
  2.8275087e-01
 -8.0955368e-01
  1.9631323e-01
 -1.1775891e+00
  5.0786471e-01
 -2.5481206e-01
  1.9992015e+00
  2.6095751e-01
 -9.4384873e-01
 -4.9077043e-01
 -1.6829839e+00
 -8.9973547e-02
 -4.2456743e-01
 -5.2684197e+00
 -1.4304323e-01
 -1.0542332e+00
 -1.0892310e+00
 -5.8648527e-01
  3.3464897e-01
 -5.6513709e-01
  7.9122913e-01
  8.7823999e-01
 -3.3410731e-01
  6.1108875e-01
 -8.1784862e-01
  2.1278259e-01
  4.2217021e+00
 -2.1624240e-01
  7.3164469e-01
 -9.5540255e-01
 -4.3244421e-01
 -6.6162363e-02
  4.9296385e-01
  2.2136706e-01
 -8.1477290e-01
  8.3453834e-01
 -2.3632647e-01
 -6.8324661e-01
  6.0197186e-01
  1.7408058e-01
  8.9790136e-02
  1.0272303e-01
  8.7272570e-02
  3.5001624e-01
  8.2986780e-02
  2.3205116e-02
  3.2123399e-01
  1.2677577e-01
 -5.2336466e-01
 -1.0957150e-01
  3.9722008e-01
  2.6408204e-01
  7.8831005e-01
  6.7243582e-01
  6.1568260e-01
 -2.2304967e-01
  4.1754869e-01
  2.3054214e+00
 -2.5066546e-01
  5.6775874e-01
 -1.0345694e+00
 -3.3455014e-01
  4.4728100e-01
  6.4593261e-01
 -3.0922484e-01
 -1.5890967e+00
 -2.9189146e+00
  4.6581912e-01
 -3.8545626e-01
  2.4337609e+00
 -7.2375298e-01
 -5.0043166e-01
  8.8495123e-01
 -5.1722968e-01
  7.8650403e-01
  1.1456329e-02
  7.5352430e-01
  2.5359374e-01
 -6.9490594e-01
 -1.3975684e-01
 -9.9930996e-01
 -7.5742060e-01
 -7.3801869e-01
 -9.2580360e-01
  2.9616708e-01
  5.4181331e-01
 -1.0763654e+00
 -8.4373915e-01
  1.8920365e-01
  1.1098961e-01
 -8.4718782e-01
  6.5245569e-01
 -1.3542303e+00
 -3.8564716e-02
  4.6390122e-01
  1.6361670e-01
  5.8845961e-01
 -1.0446520e-01
 -7.1266556e-01
  1.0113313e+00
  5.3109568e-01
 -1.6964912e-01
 -2.8942287e-02
 -4.8167038e-01
 -5.5180722e-01
  5.1168859e-01
  3.9826071e-01
 -1.6184748e+00
  6.8814951e-01
  5.3082079e-01
  7.3359981e-02
  7.5389110e-02
 -7.4100628e-02
  6.6667664e-01
  2.6561698e-01
  2.5547042e-01
 -5.7890320e-01
 -1.6511008e-03
 -6.1223638e-01
 -3.8258272e-01
  4.7124210e-01
 -5.0272569e-02
  4.7889748e-01
 -3.7625772e-01
  3.9807358e-01
 -4.2216307e-01
  6.0820627e-01
 -1.1686429e-02
  3.3892927e-01
 -6.1129701e-01
  8.0472946e-01
 -1.3451680e+00
  1.1349603e+00
  8.2308292e-01
  3.5902920e-01
 -1.0275662e+00
 -8.2384449e-01
 -3.9037079e-01
 -6.1279941e-01
  3.2315072e-01
 -3.9533991e-01
 -1.7483355e-01
 -3.5861981e-01
 -1.2593285e-02
 -9.3884033e-01
 -1.0325087e+00
 -3.9255565e-01
 -6.9976127e-01
 -1.4894025e+00
 -1.4486976e-01
 -3.1313807e-01
  3.2953031e-02
 -1.0583104e+00
 -5.0586201e-02
  3.8519114e-01
  1.5453016e+00
  1.1090108e+00
 -9.9255532e-01
 -3.9369678e-01
  7.5635004e-01
  4.2663431e-01
  1.4236456e+00
 -4.1813341e-01
 -9.6955951e-03
 -8.8871591e-02
  1.2870350e+00
  8.5049659e-01
  1.1923307e+00
  8.7803975e-02
 -1.2156057e+00
 -3.2570496e-02
 -5.8982843e-01
 -1.2700880e-01
  1.1573570e+00
 -9.4907975e-01
 -3.8150412e-01
 -3.8950354e-01
 -2.6713762e-01
  4.8716012e-02
  4.8793721e-01
 -6.9621259e-01
 -1.7231089e-01
  3.9010400e-01
 -1.1556435e-01
  1.0873857e+00
 -7.6955634e-01
  1.1628431e+00
 -3.7896019e-01
  7.8094018e-01
 -4.4517267e-01
  1.7609024e-01
  9.6309096e-01
  1.2049983e-01
 -4.0058121e-02
  1.0062619e+00
 -2.8865479e-02
 -2.5214964e-01
  1.0642724e+00
 -9.1600031e-01
 -3.8373953e-01
 -1.4267597e+00
  1.0079395e-01
 -1.7985409e-01
 -3.1181777e-01
  2.5176281e-01
 -1.5414502e-01
  2.4907865e-01
  4.9196828e-02
 -4.5302793e-02
 -3.9027679e-01
  2.1979728e-01
  5.6297366e-02
  8.6137462e-01
 -4.5011157e-01
 -3.0040824e-01
  8.7515898e-02
  1.0356732e-02
 -2.6658747e-01
 -3.2479340e-01
 -1.5191115e-02
  1.6062499e+00
  2.3811136e-01
 -5.1238645e-02
 -5.7651281e-01
  3.0889007e-01
 -2.2977316e+00
  3.3600450e-01
  6.3138103e-01
 -4.6469244e-01
  3.9087719e-01
  4.2087913e-01
 -6.6906774e-01
  1.2330765e-01
  1.7685238e-01
  1.4660977e+00
  1.3492810e+00
  1.0362895e-01
  9.2146432e-01
 -2.9695445e-01
  2.7029669e-01
 -3.9679599e-01
 -3.4134558e-01
 -3.0175948e-01
 -2.6565574e-02
  1.7853510e-01
 -2.6476663e-01
  2.4901424e-01
 -1.4989262e+00
  3.2775033e-01
  7.8515691e-01
  3.9934468e-01
 -3.9567429e-01
  1.1455120e+00
 -1.2682813e+00
  5.5965379e-02
 -8.4852827e-01
 -1.5098803e+00
 -1.4564599e+00
 -3.4370180e-02
  7.3636788e-01
 -1.1172703e-01
  3.5403907e-01
 -3.3676872e-01
  3.6239953e+00
  3.0524337e-01
 -1.2173808e+00
 -2.5569806e-01
 -1.9435918e-01
  8.4135234e-01
 -1.5828137e-01
  2.4110827e-01
 -2.2132745e-01
 -1.3096780e+00
 -5.5142176e-01
 -3.8260299e-01
 -1.4176787e-02
  4.6142769e-01
  5.2760166e-01
  2.5580335e-01
  1.0288782e-01
  2.0220841e-01
 -5.9210163e-01
 -1.6232404e+00
 -5.4456091e-01
  1.4132851e+00
  4.3593243e-01
  1.1723820e+00
 -1.4815335e+00
 -3.9542332e-02
  7.6820737e-01
 -1.0332792e-01
 -4.7039682e-01
 -1.5665811e-01
 -7.8171045e-01
  2.3481449e-01
  1.2960887e+00
 -1.1473317e-01
 -4.9167487e-01
 -1.2623136e-01
 -4.2203507e-01
  6.8929857e-01
  1.5428273e-02
  1.0001093e+00
 -1.1934638e-02
 -6.3599214e-02
  7.3796165e-01
 -2.3823628e-01
  2.7097496e-01
  1.1513021e-01
 -1.5497019e+00
  7.6063447e-02
 -8.8776849e-02
  4.1629878e-01
  3.6166632e-01
  4.0142134e-01
  8.8631177e-01
 -1.0039641e+00
  1.1893903e-01
 -1.9422781e+00
  7.0054841e-01
 -7.8568411e-01
  3.1398892e-02
  5.5213290e-01
 -7.2888595e-01
 -3.9115837e-01
 -1.8698466e-01
 -3.0359459e-01
 -3.0878401e-01
  1.3878602e-01
 -4.4296536e-01
 -1.2132514e+00
 -1.6706410e-01
 -2.9426593e-01
 -2.1666950e-01
  6.9154143e-01
  1.4930852e-01
  2.1137029e-01
  2.4550290e+00
 -1.1854786e+00
 -4.8920751e-01
  1.3278127e-01
 -3.2945502e-01
 -1.0676825e-01
 -8.1666298e-02
  3.4365296e-01
  9.8719007e-01
 -1.0797659e+00
  1.2665501e-01
 -4.5955324e-01
  8.1244987e-01
 -2.8712130e-01
 -2.8628429e-02
 -4.1848153e-01
 -1.7914830e+00
  7.9789597e-01
  1.2709120e-01
  8.1643927e-01
 -6.2550420e-01
  6.5952086e-01
 -2.0267992e+00
 -9.4590825e-01
 -7.8250229e-01
 -1.2201333e+00
 -6.8321720e-02
  7.7372760e-02
 -3.0967459e-01
 -5.4350413e-02
  4.4833388e-02
  1.2631360e+00
  1.7366523e+00
  5.9503335e-01
 -5.5081654e-01
  6.5324336e-01
  7.3478025e-01
 -1.4554793e-01
 -7.6493812e-01
  2.3137143e-01
  9.7991896e-01
  2.2385010e-01
 -7.5615704e-01
  3.2773901e-02
 -2.1618429e-01
 -1.6473290e-01
 -6.1779656e-02
  1.9339254e-01
  1.6899385e-01
 -7.7771479e-01
  9.5822513e-01
 -6.2693521e-02
 -3.1392705e-01
  4.2881656e-01
  3.4673646e-01
 -5.6167084e-01
 -2.8443885e-01
 -9.7987980e-01
  4.5247686e-01
  1.6136040e-01
 -9.0957999e-01
 -3.2156581e-01
  1.6353014e+00
 -4.1611707e-01
  6.6437566e-01
 -1.5535450e-01
 -2.6554820e-01
  1.2311404e-01
  6.1238813e-01
  5.9521681e-01
 -9.6356565e-01
  2.9124312e-02
  9.0453684e-01
 -1.5380132e-01
  1.5222236e+00
  8.6041045e-01
  1.3691428e+00
  4.3781406e-01
  2.7080727e-01
  1.1799385e-01
  1.0763080e+00
 -8.6666811e-01
  2.0260555e-01
 -1.2594762e-01
  4.2237115e-01
  2.0837390e-01
 -7.8591257e-01
 -1.3989741e-01
 -8.3047718e-02
 -9.7342843e-01
  5.6232300e+00
 -2.2021867e-02
  5.5607760e-01
  7.7298534e-01
 -2.5088893e-02
 -4.3143246e-01
 -1.2854603e-01
 -2.0050766e-02
  1.5704795e+00
  5.8746308e-01
  1.9348571e-01
 -9.2088616e-01
  1.2649621e-01
 -3.6685616e-01
 -1.0288316e+00
 -1.6158088e-01
  5.4533976e-01
 -3.9859781e-01
  1.1138862e-01
 -2.1928139e-02
  6.8732664e-02
  5.2615225e-02
  5.9046483e-01
 -1.8782741e-01
  5.3761953e-01
  3.1016104e+00
  3.3150205e-01
 -3.8354494e-02
  2.4405530e-01
  1.5032624e-01
 -6.1433716e-03
 -1.4211553e+00
 -1.6099353e+00
  7.2262210e-01
  1.0898305e-01
  7.5335348e-01
  2.2971552e-02
  6.9858074e-01
 -1.9138179e+00
 -1.3106039e+00
 -1.7130345e-01
 -1.1691861e+00
  3.0113769e-01
  3.8491556e-01
  4.3773705e-01
  5.4924172e-01
  1.7695719e+00
  2.8400844e-01
  2.5030592e-01
 -4.9195749e-01
 -9.9580646e-01
 -1.3263237e-02
 -1.0495194e+00
 -4.0957630e-01
 -2.6454610e-01
 -8.8562542e-01
  5.3182161e-01
 -7.4299920e-01
  1.9363451e-01
 -6.6443067e-03
 -8.0058289e-01
 -9.5160782e-01
 -1.3214291e+00
 -2.7475059e-01
 -6.4327961e-01
 -1.9796014e-01
  2.6611894e-01
 -8.0674195e-01
 -5.9983909e-01
  4.1353354e-01
  4.5289436e-01
 -5.6375498e-01
  1.1295629e+00
  3.0933857e-02
 -1.5073275e-02
 -3.1389183e-01
  3.4535673e-01
 -4.2259949e-01
  6.2477136e-01
 -6.6188389e-01
 -2.9796770e-01
  2.2886878e-01
 -1.7949000e-02
 -3.0815989e-01
 -1.0441363e-02
 -2.2495832e-01
  1.2592797e+00
 -1.1615810e+00
 -1.3190652e-01
  1.1995582e-01
  6.0063845e-01
  4.0108868e-01
 -1.4869208e+00
  1.0348217e+00
 -5.9289527e-01
 -1.1672530e-01
 -2.3122838e-01
 -3.0692843e-01
  1.6857664e-01
  9.6999127e-01
  3.4722629e-01
  6.2176085e-01
 -9.4986349e-02
 -7.3533177e-01
 -9.1896176e-01
  1.0959023e+00
  1.3845756e+00
  1.4115087e+00
  5.0486261e-01
  4.3968210e-01
 -1.8277100e-01
  7.2902268e-01
 -2.8496292e-01
 -1.4956450e+00
  1.8799928e-01
  1.9609860e-01
 -1.4179426e+00
  6.6842252e-01
 -6.2604630e-01
 -1.0504390e+00
 -1.0293781e+00
 -9.7898674e-01
  6.1455619e-01
 -8.3567548e-01
  1.6699578e+00
 -2.1228039e-01
  8.4970444e-01
  2.0208025e-01
 -7.1394056e-01
 -1.3965096e-01
  5.5425501e+00
 -2.5554425e-01
  3.0374875e+00
  2.4400736e-01
 -3.5621196e-01
  1.2571703e-01
  1.1264445e-01
 -4.6401773e-02
 -4.6747336e-01
 -3.5393938e-01
 -5.5452454e-01
  5.3697877e-02
  6.7114413e-02
 -1.7210140e+00
  1.4747534e+00
  1.1644552e+00
 -1.0546232e+00
  3.6128733e-02
  1.1391149e+00
  1.1223374e-01
  3.1466129e-01
 -1.3917148e-01
 -1.2185261e+00
 -1.6995986e-01
 -4.7288969e-01
  6.0080725e-01
 -2.2974554e-03
  6.1641924e-02
  7.8038239e-01
 -4.6497601e-01
  5.9291780e-01
 -7.9242595e-02
 -1.0401070e+00
 -8.6282909e-01
  2.1855293e-01
 -2.4763613e+00
 -7.0077902e-01
  2.8266469e-01
 -8.5050881e-01
  4.5331925e-01
  4.1141084e-01
  1.5108258e-01
 -6.3340288e-01
 -5.5903482e-01
  2.7767020e-01
 -1.8804273e-01
  9.1719329e-01
  6.6610658e-01
 -2.2653159e-01
 -6.9475240e-01
 -4.0187489e-02
 -3.2227901e-01
  5.8195639e-01
  1.9813567e-01
  1.6590603e-01
 -3.5695961e-01
  8.4105253e-01
  1.7396082e+00
  6.2189639e-01
 -1.1762793e-01
  6.1898905e-01
  1.7430799e-01
 -3.2745600e-01
  2.7165791e-01
 -1.6393054e-01
 -1.4243988e+00
 -4.3130758e-01
 -5.2544010e-01
  8.9687437e-01
  1.2614008e+00
 -2.5952497e-01
 -8.8772857e-01
  1.1233318e+00
  1.2465938e+00
  6.4784393e-02
 -7.5925517e-01
 -7.0510876e-01
  1.7037047e+00
 -3.2198218e-01
  1.2863401e+00
 -7.5211322e-01
 -2.1032082e-01
 -3.3701909e-01
  3.1924963e-01
  9.5903501e-02
 -2.8634700e-01
  7.0354939e-02
 -7.3692739e-01
 -1.2181700e+00
 -1.3004926e+00
  2.1378295e-01
 -5.4193938e-01
 -6.6507403e-03
 -4.6741498e-01
 -2.2817618e-01
  3.2200158e-02
  3.3303130e-01
  9.4982034e-01
 -8.4813643e-01
 -1.2356260e-01
  5.4270482e-01
 -1.1845089e-01
 -7.4156314e-02
 -1.3888887e-01
  3.3342665e-01
 -1.7012713e+00
 -1.0474101e+00
  2.4366409e-02
  1.5467241e-01
 -6.3562691e-01
 -1.0227210e-01
  2.5957689e-01
 -6.1897159e-01
 -9.3458223e-01
  2.5211793e-01
  1.4834307e+00
  1.0863677e-02
  1.2183249e-01
 -2.1518719e-01
 -6.6343749e-01
 -2.1924233e-01
  8.3046985e-01
  1.6557096e-01
  2.4066949e-01
 -6.8647170e-01
  3.4238634e+00
 -2.4043062e-01
 -6.6260323e-02
  9.6859360e-01
 -6.7023408e-01
  3.8250121e-01
  4.6462409e-02
 -1.6019657e+00
 -5.8338529e-01
 -4.7372672e-01
 -2.9601339e-02
  2.3209821e-01
  3.6699703e-01
 -8.6778605e-01
 -2.0490386e+00
  3.2097623e-01
 -1.3647109e-01
  2.2255415e-01
 -8.8561678e-01
  8.6010319e-01
 -4.8900742e-02
 -1.6090579e-02
 -1.7547578e-01
 -8.1499183e-01
  1.0271817e+00
 -4.6762502e-01
 -1.4064207e+00
 -1.8365613e-01
  1.4653793e-01
  3.9403957e-01
 -6.2016439e-01
 -7.7800803e-02
 -8.5164338e-01
 -6.6763264e-01
 -1.6477667e+00
 -2.0599399e+00
  1.1461709e+00
 -3.5015991e-01
 -1.8295309e-01
 -2.5627217e-01
 -9.3993789e-01
 -1.6678669e-01
  7.6396602e-01
  1.9517863e-01
 -5.4105139e-01
  7.7522680e-02
 -3.1367210e-01
 -3.9197960e-01
  1.2349460e-01
  8.4000564e-01
  2.4592698e-01
  7.1429217e-01
  1.2454596e-01
  1.8169214e-01
  2.8108621e-01
  1.1776897e+00
  6.3733250e-01
 -6.4692587e-01
  3.3306447e-01
  1.2881835e-01
 -5.8654040e-01
  7.9655007e-02
 -5.6191611e-01
  9.9736989e-02
 -7.4650794e-02
 -9.9921301e-02
 -4.2201412e-01
  4.7438142e-01
  3.0355200e-01
 -2.9653389e+00
  1.2597533e+00
  1.5548895e-01
  1.0556539e+00
  1.7769505e-01
  9.3620914e-01
 -1.7622904e-01
 -2.0075011e-01
  3.5654233e+00
 -7.8284281e-01
  2.0726679e-01
  8.1592286e-01
 -5.9791332e-01
 -9.4243884e-01
 -2.4144617e-01
 -4.5286608e-01
  3.4180398e+00
 -4.8629814e-01
  7.5589716e-01
  8.0404252e-01
 -2.8978673e-01
 -3.3306217e-01
  4.5158005e-01
  6.6749167e-01
  8.2255769e-01
  3.8068235e-01
  3.3638990e-01
  7.0758587e-01
 -2.2578277e-01
  4.9064863e-01
  1.5905086e+00
  5.0275481e-01
 -8.9395761e-02
  6.9694459e-01
  2.5957105e+00
 -1.3381749e-01
  9.0062726e-01
 -6.3460374e-01
  1.8141034e-01
  8.5608028e-02
 -5.7315028e-01
  1.3576088e+00
 -2.9696062e-01
 -2.9586881e-01
  7.8143841e-01
  6.4088744e-01
  5.2644837e-01
 -4.3208283e-01
 -1.4614029e-01
 -1.3990068e+00
 -1.8459916e-01
  7.0574647e-01
 -7.6444781e-01
 -1.6112298e-01
 -1.2756099e-01
  7.4375033e-01
  5.4412627e-01
 -8.3312136e-01
 -3.5145214e-01
 -7.6849705e-01
  4.3705806e-01
 -6.2647653e-01
 -1.0572843e-01
 -1.8463889e-01
  5.8732164e-01
  5.3141987e-01
  4.5898229e-02
  1.3441504e+00
 -4.8341939e-01
  6.6213399e-01
 -3.5343192e+00
  3.7051760e-02
 -5.7178277e-01
 -5.7388741e-01
 -6.9742924e-01
  5.8000451e-01
 -2.9653469e-01
 -9.3418047e-02
 -3.2509983e-01
 -1.1007112e-01
 -4.0511876e-01
  2.8332527e+00
  4.9586961e-01
 -6.4535356e-01
  1.7979704e-02
 -4.8913136e-01
 -2.4489102e-01
  5.9249699e-01
 -8.5110450e-01
  7.3686326e-01
 -8.0723040e-02
 -6.2495279e-01
  2.6154160e-01
 -6.2863594e-01
  8.1425148e-01
 -7.0531261e-01
 -1.2170957e+00
 -3.1738198e-01
 -5.2697974e-01
  1.3250571e-01
 -4.8097235e-01
  1.7877869e-01
  3.5071942e-01
  4.6850330e-01
 -4.1340420e-01
 -9.7628301e-01
 -6.9481623e-01
  2.6426417e-01
 -6.9786972e-01
  9.8104739e-01
 -2.4567059e-01
 -2.4772181e-01
  4.0025631e-01
  2.3792773e-01
 -1.4682454e+00
  5.7900751e-01
 -1.9465126e+00
  3.1267927e+00
 -6.1096418e-01
 -1.1636754e-01
  6.6912895e-01
  4.1199842e-01
 -8.6516673e-03
  7.5301683e-01
  3.5440931e-01
 -1.2890817e+00
 -1.9949640e-01
  2.4663271e-01
 -9.7661567e-01
 -1.2457867e+00
  9.4367445e-01
 -2.1292021e-02
 -1.6355109e-01
  1.9574915e+00
  4.3617794e-01
 -2.0297748e-01
  1.3796858e+00
  4.0859476e-02
  1.2680264e+00
 -1.5881871e+00
  9.7485721e-01
 -1.2313011e+00
 -1.3907926e-01
  1.2271482e+00
 -3.1757414e-01
  3.4254450e-01
 -1.9473676e-01
  1.5386301e-01
  1.0710008e-01
  3.9282599e-01
 -1.9887748e-01
  1.1876035e+00
  4.8555188e-02
 -1.9997001e-01
  2.8682762e-01
  1.2290769e-01
  5.5720687e-01
 -2.4609526e-01
 -2.5191879e-01
 -2.3627918e+00
 -7.5326842e-01
 -6.5381229e-01
 -3.4367880e-01
 -1.2570125e-01
  7.1859413e-01
 -2.2659524e-01
 -1.4463358e-01
  1.2503700e+00
  1.5528225e+00
 -7.0611519e-01
  4.5188900e-02
 -4.6467149e-01
  5.4929185e-01
  3.9609915e-01
 -3.9662713e-01
 -1.9066021e+00
  2.0279159e-01
  1.7547219e+00
 -6.6650100e-02
  2.3600087e+00
 -3.3441946e-01
  3.7365845e-01
 -1.6264480e-02
 -1.4442816e-01
 -1.0416133e+00
 -6.3054186e-01
 -1.8630216e-01
 -8.9798987e-01
 -3.0617520e-02
  3.6838424e-01
 -1.6442420e+00
 -3.9997455e-01
 -4.7417960e+00
 -3.3088538e-01
 -2.7667150e-01
 -8.3014682e-02
  4.3098971e-01
  1.0212920e+00
  1.8230836e+00
 -1.5507342e+00
 -1.0171343e-01
 -2.2495219e-01
 -1.3666451e-01
  4.5558903e-01
 -8.5540450e-01
 -1.2641965e-01
  2.1301483e-01
 -1.2692509e+00
  9.1820329e-02
  2.9702432e-02
 -1.5034952e+00
  7.2175235e-02
  4.5992538e-02
 -5.8334386e-01
  3.0431795e+00
 -6.5717953e-01
  1.9427755e-01
  1.1894573e+00
 -1.7938086e-01
 -3.8143668e-01
  1.7356652e+00
 -1.7893701e+00
  2.8950232e-01
 -1.0265939e+00
  4.1929984e-01
 -3.5500869e-01
  1.4600554e+00
  5.1567876e-01
 -4.2689088e-01
 -1.0327179e-01
 -1.6160375e-01
 -3.2677674e-01
 -1.0571715e-01
 -3.9653376e-01
  5.8573771e-01
  1.9638945e+00
  9.4095826e-01
  4.9209037e-01
  9.1420305e-01
  5.1189774e-01
  2.4294512e-01
 -1.4700079e-01
  8.6317348e-01
  1.3902732e+00
 -1.2795824e+00
  4.9103710e-01
  1.9150622e+00
  1.5593760e-01
 -1.1306136e+00
  9.4435997e-02
  8.3071858e-02
  1.0489007e+00
  2.3954114e-01
  3.7683976e-01
  2.5427186e-01
 -4.7755688e-02
  8.8208729e-01
  3.5551679e-01
 -7.1551192e-01
  6.5188509e-01
 -1.2791209e+00
 -5.9456027e-01
 -9.7746223e-01
  4.1717535e-01
 -3.8609374e-01
 -1.5238346e-01
 -6.6761053e-01
  1.4196305e-01
 -1.2993699e+00
 -5.2740145e-01
 -2.0699399e+00
 -1.8794969e-01
 -2.1721193e-01
 -1.1797967e+00
  2.4558682e+00
  2.8554418e+00
  8.3482355e-01
  4.7783777e-01
  8.8531733e-02
  2.9716125e-01
  3.0450192e-01
  3.7418332e-02
  1.1257298e-01
  6.3186240e-01
 -2.4945138e+00
 -1.8797584e+00
  3.3877298e-01
  2.0036265e-01
 -7.4732172e-01
 -2.3194799e+00
 -1.5074309e+00
 -3.5916302e-01
  2.0802310e+00
 -1.8383928e-01
 -1.9356039e-01
 -2.8093880e-01
 -2.9532750e+00
 -8.9590013e-02
  4.6217889e-01
  2.5252674e+00
  7.7142906e-03
 -1.7844621e+00
  1.5795904e+00
 -2.7377766e-01
  1.3295304e+00
  9.3643093e-01
  8.5186684e-01
  2.3419535e-01
  3.7389058e-01
 -1.5711533e+00
  1.2778260e+00
  3.9351639e-01
 -5.6614719e-02
 -3.1353611e-01
  3.0962756e-01
  1.2014757e+00
 -1.0656729e-01
  2.7366338e+00
 -1.7553882e-01
 -3.3573225e-01
  4.3603344e+00
 -3.1226969e-01
 -3.1356567e-01
 -1.1942612e+00
 -5.1207066e-01
 -5.6223971e-01
 -3.0369731e-02
  9.4695032e-01
 -1.4599055e+00
  2.3347743e+00
 -6.7039973e-01
 -8.5405022e-02
  1.6715825e-01
  1.4848657e-01
 -1.9454262e-01
  4.4512019e-02
  2.6891825e-01
  8.0798119e-01
  5.1003778e-01
 -3.4677774e-02
  1.6018322e+00
 -2.3545609e+00
 -7.7792937e-01
 -5.3017205e-01
 -9.8717904e-01
 -9.3468922e-01
  2.7872249e-01
  9.1435325e-01
  5.9313282e-02
 -2.9326510e-01
  5.7175603e-02
 -1.1984694e-01
  2.5366157e-01
  5.4889441e-01
 -4.8287964e-01
  7.3459446e-02
  6.9636768e-01
 -6.0542649e-01
  1.4078036e-01
 -2.9325506e-01
 -7.3914975e-01
 -1.5652150e-01
 -1.4767179e-02
  1.0802689e-01
 -1.1702818e-01
 -2.5131185e-02
  6.0779613e-01
  1.2180120e-01
  4.6568644e-01
  9.0777349e-01
 -1.2790759e+00
  4.0818495e-01
 -5.9501320e-02
 -5.2272737e-01
 -1.0139263e+00
 -3.5452044e-01
  1.2993722e+00
  1.7481065e-01
  6.3618195e-01
  1.4953291e-01
  8.5384548e-02
  5.3556788e-01
 -6.5852153e-01
  3.4085073e-02
 -5.2640396e-01
 -5.0672722e-01
 -1.1125684e-01
 -2.5964329e-01
 -2.7998582e-02
 -7.8982300e-01
 -6.3413352e-01
  6.5899217e-01
  1.2630097e+00
  2.6521698e-01
  4.8790771e-01
  1.3827822e+00
  8.6763489e-01
  2.2823235e-01
  9.5622730e-01
  5.2757847e-01
  2.5212097e-01
  1.8535176e-01
 -1.0977497e+00
 -3.4234953e-01
  6.1716795e-02
  3.3151916e-01
  2.5743493e-01
  1.2282199e+00
 -2.6326972e-01
 -1.5666031e+00
  1.3129265e+00
 -1.2965067e-01
 -2.1208024e-01
 -1.8209836e+00
  2.0713395e-01
  3.5247177e-01
  2.6376231e+00
 -5.9018987e-01
  5.1039124e-01
 -6.1998963e-03
 -8.8518476e-01
  6.5451169e-01
  1.0104200e-01
 -4.7040737e-01
  3.0212215e-01
  2.3605853e-02
 -5.4230690e-02
 -2.4595037e-01
  7.7063864e-01
 -2.2128742e+00
  8.3116430e-01
 -2.8072071e-01
 -7.4245378e-02
 -1.0407060e-01
  2.1376419e-01
 -5.4284060e-01
 -1.3494095e-01
  1.9283673e+00
  3.2734582e-01
  4.2269841e-02
  2.3539439e-03
 -6.5566021e-01
 -6.4754528e-01
 -7.8682876e-01
  1.0322122e-01
  1.4334895e-01
  6.7025602e-02
  4.0822334e+00
 -2.3389673e+00
 -3.1014647e+00
  1.0938710e-01
  8.6265743e-01
  2.5287554e+00
  6.9292110e-01
 -8.3002830e-01
 -3.9051408e-01
 -1.3257775e+00
  8.8735956e-01
  4.7754398e-01
 -5.1025444e-01
 -3.5784468e-01
 -1.4282364e+00
 -1.4400601e+00
  4.3114239e-01
 -1.6119517e-04
 -6.1495864e-01
 -1.5759168e+00
  6.1522686e-01
 -1.0680202e-01
  1.3877223e+00
 -1.1738524e-02
  9.2911676e-02
  1.1437037e+00
 -1.4270232e+00
 -1.7035307e-01
  2.5282993e+00
  6.9233495e-01
 -1.2265831e+00
 -1.0436064e-01
  6.5507501e-01
  3.3025268e-01
  3.7815499e-01
 -6.8593878e-01
  1.1557434e-01
  6.5124023e-01
  4.7951549e-01
 -1.2638830e+00
  1.3066915e-01
  3.9955461e+00
 -5.9346062e-01
  1.5938321e-01
 -7.8061098e-01
 -4.0732828e-01
 -7.4843824e-01
  1.2044710e+00
  1.6966243e-01
 -1.2175985e-02
 -8.2808542e-01
  1.1026937e-01
 -7.4354541e-01
 -2.8862602e-01
  1.3709865e+00
  1.8648379e+00
  1.0152128e+00
  3.5434183e-01
 -3.6779964e+00
 -6.6192591e-01
 -1.4255528e-01
 -6.4911699e-01
 -7.9504174e-01
 -3.3664909e-01
  1.1104255e+00
  7.2024876e-01
 -1.0711468e+00
  2.3877808e-01
 -4.5638373e-01
 -8.3263844e-02
  3.3333993e-01
 -1.1445950e+00
  1.1954154e-01
  6.9621354e-01
  2.4212849e+00
 -1.0905727e+00
 -4.5612857e-01
  6.8291003e-01
 -3.3659914e-01
 -9.7142446e-01
  8.6752605e-01
  1.0576171e-01
  5.8798361e-01
 -2.0519744e-01
  2.2276612e-01
  3.2319349e-01
 -4.1275096e-01
 -5.0106175e-02
 -5.9587854e-01
 -1.8178469e+00
  7.1748531e-01
 -3.3639381e+00
  6.3715851e-01
 -4.5698069e-02
  2.0622689e-01
  6.8264836e-01
  1.1518734e+00
 -8.1551611e-01
 -1.3699232e-01
 -2.2151616e-01
 -2.1821888e-01
 -8.7092519e-02
 -4.6691197e-01
 -8.0296892e-01
 -6.6030735e-01
  1.8658391e-01
 -4.4256181e-01
 -8.8562459e-01
 -7.9016745e-01
 -9.6802063e-02
 -3.4781536e-01
 -1.0776978e+00
 -5.2796683e+00
  1.8262686e-02
 -2.6163461e+00
 -1.1160386e-01
 -1.7614530e+00
 -5.6186432e-01
  4.3169703e+00
 -2.3610987e-01
  5.5502459e-02
  2.2899938e-01
 -1.2921374e+00
 -1.1030535e+00
  1.5276597e-02
  1.4217604e+00
 -7.9762608e-01
  1.5434605e+00
  3.1229866e-01
 -1.1877301e+00
  2.9251740e+00
  9.2010635e-01
  4.7071435e-02
 -7.1095645e-01
  9.7116107e-01
  3.2816061e-01
  1.8299330e+00
  1.0732833e+00
  6.6972452e-01
 -7.2338027e-01
  5.0114202e-01
  5.8219713e-01
  5.0658798e-01
  1.6595392e+00
 -1.7163393e+00
 -3.2390743e-02
  7.5658882e-01
 -1.5897872e+00
  9.5409267e-02
  1.7787060e+00
  1.3333875e-01
  3.9945040e+00
  1.7276953e+00
 -2.8805938e-02
 -4.0129575e-01
 -1.2171639e+00
  1.6709774e+00
 -7.5267786e-01
  2.2531389e-01
  1.1141782e+00
 -1.7582574e+00
  2.7805603e-01
  5.5250518e-02
  6.9354558e-01
 -8.0884510e-01
  9.3800172e-02
 -1.0454075e+00
 -3.2588109e-01
 -2.8710750e-01
 -8.7707657e-01
  9.4046533e-01
 -4.4209379e-01
 -3.6702570e-02
  1.3211313e-01
  3.3408186e-01
 -5.9928137e-01
 -8.3417100e-01
  1.5563641e-01
  7.9627341e-01
 -5.5736923e-01
 -1.2566403e+00
 -1.1880864e-01
  1.3942949e+00
  1.3365002e-01
 -2.9729742e-01
 -3.8027391e-02
  3.2318291e-01
 -4.6261093e-01
  1.7804544e-01
  2.7639878e+00
  5.8690369e-01
 -5.7490140e-01
 -9.5683831e-01
 -6.8211383e-01
  4.7542861e-01
 -5.1035470e-01
  2.8879660e-01
 -6.0084856e-01
  1.2832284e-03
 -1.8592629e-01
  7.3378295e-02
  1.0270587e-01
  2.9837075e-01
  8.0664247e-01
  5.2489007e-01
  1.7169129e+00
  7.7003527e-01
  4.9525851e-01
  4.5681268e-01
 -3.9158106e-01
  3.7829322e-01
 -8.0254942e-01
  3.0487764e-01
  1.4552994e-01
  1.0124515e-03
  6.1289048e-01
 -4.9250832e-01
 -4.0733099e-01
 -5.2850509e-01
 -1.5161574e-01
  8.7026693e-02
  3.4977093e-02
  8.7077677e-01
  4.2285693e-01
 -2.5584507e-01
 -2.8746806e-02
 -2.5518113e-01
  5.1099811e-02
 -1.8007830e-01
  1.1155373e-01
  8.8487923e-02
  1.7081626e-02
  2.0745006e-01
  1.4699382e-01
 -6.2222487e-01
 -4.5249516e-01
  1.5581937e+00
 -1.1984268e+00
  1.9332722e-01
 -6.0731041e-01
 -7.7942109e-01
 -9.2325388e-03
  6.5273649e-01
 -5.0154701e-02
  5.0617647e-01
 -8.4217566e-01
 -1.3187096e-01
 -5.6873673e-01
 -4.6316233e-01
 -1.6788536e-01
 -9.0315974e-01
  4.5799753e-01
  1.8829651e-01
  2.8520483e-01
 -1.2488527e+00
 -1.1140651e+00
  4.3660000e-01
  1.3840044e-01
  1.3552185e+00
 -2.0475547e+00
 -3.2175717e-01
 -1.0612565e-01
 -9.8363414e-02
  1.3212417e-01
 -8.1487067e-02
  1.3370180e+00
 -8.4310398e-02
 -4.3760186e-01
  2.7550310e-01
 -5.8017278e-01
 -9.8958336e-02
  5.8823663e-01
 -5.6944346e-01
  2.5680464e-02
 -4.3003757e-02
 -6.3394284e-01
 -3.8898200e-01
  5.9106058e-01
 -3.3286247e-01
  3.7744552e-01
  7.9013973e-01
  8.3912355e-01
  2.7081198e-01
 -3.8909727e-01
  2.5159171e-01
  5.4375517e-01
 -8.6737728e-01
  3.4001283e-02
 -6.5295674e-02
 -7.1218556e-01
  2.7434651e-02
  3.3694917e-01
 -7.0835871e-01
 -3.3160862e-01
  5.5758709e-01
 -3.6428723e-02
 -3.3861995e-01
 -3.8723570e-01
  1.5454701e+00
  1.0886532e+00
 -8.9528555e-01
 -4.6047446e-01
 -9.5910646e-02
  3.3490306e-01
  2.5577798e-02
  7.6294011e-01
  1.6127840e-01
 -1.5231340e-01
 -4.1002303e-01
  1.0452838e+00
 -6.9193393e-01
  4.0590483e-01
  4.0746072e-01
 -3.1332108e-01
  2.7928999e-01
 -2.7234516e-01
 -8.1256568e-01
  7.8931564e-01
 -3.6488953e-01
 -2.6739874e-01
  9.7480416e-03
  8.9002773e-03
 -1.4724547e-01
 -5.2861279e-01
  1.1534814e+00
 -1.4659868e-01
  6.2212265e-01
  9.3576914e-01
  2.8910944e+00
  1.5440375e-01
  2.5761631e+00
  7.4364287e-01
 -3.8943842e-01
 -1.4220493e+00
  5.0085105e-02
  1.7151822e-01
  2.8350198e-01
  4.0325275e-01
  2.4936116e-01
  5.0227582e-01
  7.0656341e-01
 -6.6648495e-01
  4.4854376e-01
  2.7366271e+00
 -1.0916970e+00
 -2.5263712e-01
  7.0573360e-01
  2.0772123e+00
  1.9498446e+00
 -7.4011400e-02
  1.0632963e+00
 -1.0846490e+00
 -1.7491382e+00
 -9.9515253e-01
 -1.6899434e+00
 -5.9960246e-01
  1.0028973e-01
  6.7965519e-01
  5.3147078e-01
 -3.9024591e-01
 -3.8380006e-01
 -3.9742622e-01
  1.4214166e+00
 -2.1400023e+00
 -5.2790850e-02
  1.5788300e+00
 -1.0810904e-01
 -1.2534621e+00
 -2.6479429e-01
  4.8777935e-01
 -6.0339205e-02
 -2.3295638e-01
  1.5508008e-01
 -4.0322399e-01
  1.9372376e+00
 -1.0361119e-01
 -8.5740227e-01
 -4.0481701e-02
  2.6090777e+00
  1.1681058e-02
 -3.2996557e+00
  1.5080121e+00
 -2.3724177e+00
 -2.2972987e+00
 -2.8991899e+00
  1.1375604e+00
  1.1739458e+00
 -1.1183105e+00
  3.8871095e-01
 -3.4988818e+00
  3.1600854e+00
  1.0598012e+00
  2.5296347e+00
 -2.5693419e+00
  1.3437566e+00
 -1.6048021e+00
  1.1034547e+00
 -2.6208809e-01
  1.8837938e+00
  6.9958991e-01
 -2.0469346e+00
 -3.2791696e+00
  3.0388579e+00
  2.4232221e+00
 -3.4247074e+00
  2.4324880e+00
 -1.8317350e+00
  2.5176392e+00
  1.8134400e+00
 -4.1859207e+00
 -1.1384557e+00
  2.5210230e+00
  1.8559340e+00
  1.0472015e+00
  4.4916515e+00
  7.2510093e-01
 -9.9224979e-01
 -2.1302247e+00
 -8.5811779e-02
  8.7069941e-01
 -2.3779371e+00
  1.7037135e+00
  2.6634073e-01
  1.2219611e-01
  3.0993829e+00
  2.0016050e+00
 -3.4029617e+00
 -5.4071248e-01
 -2.7141576e+00
 -1.2285531e+00
  2.3897727e+00
 -7.6228315e-01
  4.2338810e+00
  2.3748100e+00
  5.2290368e+00
 -8.8717693e-01
  4.3511865e-01
  3.3829463e-01
  6.0054404e-01
  5.5024326e-01
 -1.7349458e+00
  5.7219434e-01
 -4.0687943e+00
  3.1860595e+00
 -4.0344161e-01
  8.9841682e-01
 -4.0964518e-02
 -1.0283724e+00
 -3.5178742e-01
 -4.4402916e-02
  3.6843827e+00
  5.6015193e-01
 -4.9153352e+00
 -4.5110111e+00
  7.4047527e+00
 -1.9588785e+00
  7.5520211e-01
 -3.7402303e+00
 -7.3774964e-01
  3.7904000e+00
  8.2510345e-02
 -3.4485967e+00
 -4.3022523e+00
  4.5045014e-02
 -4.3132105e+00
 -5.8834141e-01
  2.0332895e-01
  7.4988075e-02
  4.1521266e-01
 -3.0555208e+00
  3.4428403e+00
 -2.8394702e-01
  3.4439483e-01
  3.5055423e-01
 -4.2600098e+00
 -2.0714929e+00
  2.9900000e+00
  8.6420929e-01
  6.0395122e-01
  4.4678879e-01
 -4.1311008e-01
 -6.2678730e-01
  3.1866005e-01
  4.9060345e-02
  1.0289980e+00
  1.0587831e+00
  2.4020983e-01
  7.5855899e-01
 -3.3625454e-01
 -1.0264574e-01
  3.3327882e+00
 -5.5305642e-01
 -1.5524724e+00
 -7.7591091e-01
  7.0916480e-01
  6.6267657e-01
 -8.9795351e-01
 -4.8983368e-01
  2.3227298e+00
 -5.9791680e-02
 -1.1041217e+00
  4.7744781e-01
  1.2616493e-01
  2.3987268e-01
 -1.1322406e-01
  3.6693400e-01
 -1.1624811e+00
  1.4539584e+00
 -2.9251304e-01
 -3.1871918e-01
  1.8852939e-01
 -1.8513901e+00
 -5.0731039e-01
 -1.7124379e-01
  8.5018933e-02
  7.8185761e-01
 -7.9780585e-01
  9.3152833e-01
  3.5757476e-01
  1.0103890e+00
 -1.0155979e+00
  6.9859064e-01
 -1.8489318e-01
  9.0031967e-02
 -3.2883173e-01
 -2.1171668e+00
 -2.4041488e+00
 -1.4142294e-01
  1.0706373e-02
  9.9386811e-01
  5.2791798e-01
 -2.0001864e+00
 -1.8191289e-02
 -3.1467652e-01
  1.9909259e+00
  5.4406941e-01
  5.4637633e-02
 -4.9062550e-01
  2.4327548e+00
 -1.0075424e-01
  4.4988719e-01
  3.4938979e-01
 -5.9640592e-01
  6.3355529e-01
 -1.3048565e-01
  5.4920673e-01
  3.7220322e-02
  5.0918717e-02
 -2.6020098e+00
  1.0804991e+00
  3.7731180e-01
 -8.3107960e-01
  9.8434433e-02
  1.7024796e-01
 -9.1578621e-01
  1.6466061e+00
  5.4122746e-01
 -1.0719440e+00
 -6.6911536e-01
  8.9290828e-01
  1.3763304e+00
  1.0501901e-01
  6.3969806e-02
  1.8150469e+00
  1.2592798e-01
 -2.4551947e-02
  7.2042370e-01
 -3.3124626e-01
 -3.2756126e-01
  3.3279307e-02
  4.4505680e-01
 -2.8003109e-01
 -2.9147614e-02
 -8.8257891e-01
 -4.7071117e-01
  1.5104213e-01
 -3.3693337e-01
  2.5782317e-01
  6.6968387e-01
  3.6179563e-01
  1.0294705e-01
 -1.3838017e+00
 -1.7827639e-01
  1.9358006e+00
 -4.3462092e-01
 -3.1096321e-01
 -6.5406907e-01
 -2.1738002e+00
 -1.8907221e-01
 -5.1326799e-01
  8.1375241e-01
 -6.6190965e-02
  1.2946912e+00
 -1.1586497e+00
 -2.6892116e+00
 -7.4004918e-01
  3.1718733e+00
  1.5992917e+00
  2.3287215e+00
 -1.3621435e+00
  2.4071737e-01
  9.4365001e-01
 -1.1145664e+00
  1.5024508e+00
 -1.1748571e+00
  3.1867149e-01
  1.3952982e-01
  1.0979344e+00
 -1.0521378e-01
 -5.2719235e-01
  2.8569597e-01
  6.2222165e-01
  1.3937738e+00
 -3.3444318e-01
 -1.5019107e+00
  1.5567193e+00
 -1.3547239e+00
  1.0244910e+00
 -1.4839654e-01
 -2.8615695e-01
  4.6005335e-01
  1.6954292e+00
 -1.0174842e+00
  9.3485677e-01
  9.9332577e-01
  3.4966476e-02
  1.4135584e+00
 -1.0903192e+00
  1.3092504e+00
 -7.9488441e-02
  4.6459848e-01
 -1.4283814e-01
  3.0490458e-01
  5.7288863e-02
 -2.8258482e-01
  2.8941622e-01
 -2.5834844e-01
  5.1050097e-01
 -2.2361749e-01
 -2.3182856e-01
  5.3525716e-01
 -1.2619081e-01
 -7.3764586e-01
  3.4676951e-01
 -1.0295897e+00
 -1.6344091e+00
  2.0893271e+00
 -4.9173567e-01
  5.7373238e-01
 -5.5940634e-01
 -1.0685229e+00
 -1.3628229e-01
  1.8263894e-01
  7.5429004e-01
 -4.0902784e-01
 -9.3102342e-01
  7.6032752e-01
 -1.3549522e-02
  5.9829003e-01
 -1.6712615e-01
  1.2740142e+00
  3.2556546e-01
  9.7074962e-01
 -8.9034088e-02
  1.4097399e-01
 -2.7426487e-01
  1.3434708e-02
  3.3097765e-01
 -3.7539989e-01
 -4.4059375e-01
 -3.4660506e-01
  4.9235086e+00
  1.7606676e-01
  1.0437081e+00
 -1.3300821e+00
  5.1696569e-01
  1.8498102e+00
 -4.2023930e-01
 -3.1637400e-01
  3.7635434e-01
  8.7384748e-01
  6.8247610e-01
 -7.0802641e-01
  6.8504758e-02
  1.1254623e+00
  1.6901224e+00
 -7.8988492e-01
 -3.7403036e-02
 -8.8064648e-02
 -7.0762253e-01
  4.6945202e-01
 -1.3406016e-02
 -1.1528865e+00
  6.7285672e-02
  1.9106274e+00
  3.1797311e-01
  1.3613297e-01
 -8.9049488e-01
  4.8161212e-01
 -2.4688210e-02
 -4.3102223e-01
  4.0529320e-01
 -5.6770825e-01
  1.8462563e-01
  9.3238908e-01
 -9.8885036e-01
  1.5552561e-01
 -9.7998673e-01
  2.4131224e-01
 -2.0310089e-01
 -4.6713054e-01
 -6.8891215e-01
  5.1387751e-01
 -4.7071970e-01
 -1.3164783e+00
 -7.5441611e-01
  3.7541330e-02
 -9.1313475e-01
 -1.5453674e-01
 -7.1353042e-01
  1.7423299e-01
  2.0155421e-01
  1.1899251e-01
  8.1570798e-01
  6.9440377e-01
  3.8664937e-02
 -1.5982956e-01
  3.1792110e-01
 -3.7201443e-01
 -2.4286458e-01
 -5.0560433e-01
  1.6080261e+00
  1.1818300e+00
 -9.9868125e-01
 -6.8879473e-01
 -1.1045464e+00
 -8.6420566e-02
 -3.2113239e-01
  9.5944807e-02
 -9.1192991e-01
  7.1906054e-01
 -5.8667082e-01
 -8.9531146e-02
  9.8181051e-01
 -9.8192757e-01
  5.7336979e-02
 -1.4634421e+00
 -4.0514770e-01
  1.9396291e+00
  3.8291194e-02
 -1.7429674e-01
 -1.4669281e-01
 -5.7876313e-01
  8.6208391e-01
 -9.8438099e-02
 -5.6417882e-01
 -1.6213175e+00
  4.3352681e-01
 -1.1320308e+00
  1.4787553e-01
 -5.5519164e-01
  9.1631085e-02
  1.3379445e+00
 -2.1634918e-01
 -1.1331179e-01
  1.5440513e-01
  9.7790383e-02
  3.1708923e-01
  3.0535116e+00
  1.9244552e+00
  1.8725504e+00
 -8.3933973e-01
  8.6575824e-01
  7.6514138e-03
  8.1426132e-01
  7.8368568e-01
  3.0008159e-03
  1.3431370e+00
  2.2151490e-01
 -7.0813966e-01
  7.0520036e-02
  2.6118925e-01
 -3.3002555e-01
 -3.4237075e-01
  3.4044486e-01
 -4.7689545e-01
  3.7275653e+00
  1.5893553e+00
 -3.9293817e-01
 -4.1820702e-01
  5.1876366e-01
 -4.6947414e-01
  1.1358202e-01
 -1.5273725e+00
 -1.2615715e-01
 -3.7946308e-01
  9.8573983e-01
 -3.3917987e-01
 -4.2896375e-01
 -1.0782039e+00
  2.1104331e-01
 -4.5724860e-01
  3.9844118e-02
 -3.1600106e-01
 -1.0353312e+00
  8.0746228e-01
 -5.1686066e-01
  9.1101192e-02
  1.5477576e+00
 -2.6517630e-02
 -2.0632977e+00
 -6.8531764e-01
  1.5436395e+00
  2.2175586e-01
  1.1224971e+00
 -6.4419687e-01
  9.4222590e-02
 -2.5943333e-01
 -1.0465801e-02
  4.4264894e-02
  3.5529098e-01
  2.0979850e-01
  3.0686474e-01
  5.8374178e-01
  7.1688813e-01
  1.5454998e+00
 -7.1758819e-01
 -1.4271553e+00
  3.6535957e-01
  5.5871439e-01
  3.3345178e-01
  3.7866509e-01
 -4.4295803e-01
 -1.6323489e-01
 -1.4172374e-01
 -4.6705559e-01
 -6.6581768e-01
 -7.8469497e-01
 -7.8573805e-01
  3.3538967e-01
 -1.9200982e-01
 -2.5212157e-01
 -5.4407865e-01
  6.6262603e-02
 -4.6923999e-02
  1.8728250e+00
  2.4337104e-01
 -5.4356998e-01
  1.0081596e+00
  2.9711413e-01
 -9.1355354e-01
 -4.4126925e-01
 -1.9430718e-01
  4.5809025e-01
 -6.5805912e-01
 -2.7526253e-01
  1.1219464e-01
 -1.4629367e-01
 -3.0058154e-01
 -4.8153418e-01
  2.7031848e-01
 -1.4120318e+00
  3.1554997e-01
 -7.3037308e-01
  1.0325826e+00
  2.6813221e+00
 -6.1589870e+00
  1.8698413e+00
 -2.7271726e+00
  1.0092422e+00
 -2.0597875e+00
 -8.3715463e-01
 -1.5022722e-01
 -1.4478824e-01
  2.7713926e+00
 -1.8079741e+00
  4.0585837e-01
 -2.2816079e+00
 -1.3347870e+00
 -1.6797379e+00
 -4.1288048e-02
 -1.6818954e+00
 -1.3141079e+00
  1.9270645e+00
 -6.2476367e-02
  8.4413463e-01
 -2.0064482e-01
 -1.4801909e+00
  1.0344772e+00
  2.1602435e+00
 -1.7498827e+00
  3.5902364e-03
  7.5754553e-02
  1.8591958e+00
  1.1803975e+00
  6.9902533e-01
 -9.2638171e-01
  1.0608665e+00
  4.8319173e-01
  1.9604293e-01
 -3.5061145e+00
  3.5647023e-01
 -1.5132747e+00
  5.0680286e-01
  1.0988104e-01
  2.5944927e-01
  9.7339630e-01
 -1.9293417e-01
  1.4005888e-01
  2.6045421e-01
 -5.3844810e+00
 -2.2824223e+00
  5.5982747e+00
 -1.9246885e+00
 -5.6288689e-01
 -2.8994498e+00
 -1.8391861e+00
 -6.6169500e-01
  5.7386732e-01
  1.2213343e-01
 -2.0894942e+00
 -1.0004324e+00
  1.6733123e-02
 -1.7532246e+00
  2.9589790e-01
  3.7818557e-01
  6.5674961e-01
 -2.9388583e+00
 -1.0138615e-01
  5.1332164e-01
  1.7287934e-01
 -3.5099828e-01
 -3.4159305e+00
  1.9528115e-01
 -1.1114074e+00
  9.2096490e-01
 -3.1052604e+00
 -3.2041955e-01
  3.9722908e+00
  2.1277702e+00
 -1.6337537e+00
  6.6955650e-01
 -7.9787296e-01
 -6.1068738e-01
  9.4658554e-01
 -6.6721433e-01
 -3.2808575e-01
 -3.6399066e+00
  9.2617311e-02
 -2.3605254e+00
 -2.2250779e-01
  4.5312576e-02
  4.6059170e-01
 -5.6406194e-01
 -2.9782858e-01
  4.5447701e-01
  9.8882429e-04
 -4.2987302e-01
  1.8393418e-01
 -2.3058119e+00
  1.0698357e-01
 -7.0039821e-01
 -2.4789524e-01
 -7.2927815e-01
 -7.6566076e-01
 -7.2840339e-01
 -7.2120768e-03
 -3.6749058e+00
  4.7314507e-01
  1.1477395e+00
  4.4477427e-01
  9.6720690e-01
 -1.1466197e+00
  1.9544480e+00
 -2.1767066e+00
 -4.2349833e-01
  2.6873618e-01
  1.9244023e-02
  9.0762669e-01
  2.2097628e-01
  1.7946532e+00
  1.1735321e+00
  6.1634403e-01
 -8.4400296e-01
  1.6204379e+00
 -5.0221539e-01
 -3.2244997e+00
  3.6488944e-01
 -2.9017996e-02
  1.9306588e+00
  2.8328788e+00
 -1.0591872e-01
 -3.2635405e+00
  1.6699212e+00
 -3.5455272e-01
 -2.2792902e+00
  1.2214415e+00
 -4.2098993e-01
 -1.1266923e-01
  2.5583005e+00
 -6.9422334e-01
  1.4478843e-01
 -9.0799689e-02
 -5.0822705e-01
 -1.3119441e+00
  3.1991408e+00
 -6.5829867e-01
 -4.8481366e-01
 -5.4885674e-02
 -3.2177123e-01
  4.1184363e-01
 -4.2500210e-01
 -9.5561720e-02
 -8.1024659e-01
 -1.6910380e-01
  8.4421948e-02
  9.4870144e-01
  1.1603818e+00
 -2.6442951e-01
  2.3260139e-01
  9.4474447e-01
  1.0300541e+00
 -1.9963750e-01
 -1.5342543e-01
  6.8150155e-02
  1.2431661e+00
 -7.8687668e-01
 -1.3898176e+00
  3.7094352e-01
  3.4568489e-02
  8.9755304e-02
 -9.0211117e-01
 -2.1568537e+00
  1.3053450e-01
  5.0337029e-01
 -1.7179197e-01
 -1.9187671e-01
  1.1157966e-01
 -2.0232488e-01
  1.0207865e+00
 -5.7697870e-02
 -1.6121781e+00
 -3.4913021e-01
 -5.0820470e-01
 -5.6287444e-01
 -8.6249352e-02
 -7.3161757e-01
  6.0411870e-01
  2.6082754e-01
 -1.2668707e+00
  4.4446546e-01
  4.6626920e-01
  4.9357045e-01
  5.7811663e-03
  9.4108216e-02
 -1.2297245e-01
  7.1235597e-03
 -2.4990177e-01
 -6.0395998e-01
  1.3766661e-03
 -4.3967381e-01
  8.8132107e-01
 -5.4144090e-01
 -4.4212115e-01
  3.9237022e-02
 -1.5261769e+00
 -5.6647938e-01
  5.6615824e-01
 -2.9234862e-01
 -1.2970128e+00
 -1.5601811e+00
  7.3581487e-01
 -1.6632818e-01
  3.1642371e-01
 -8.9094692e-01
  3.6245251e-01
 -7.3833007e-01
 -3.6449137e-01
  8.5098112e-01
 -5.3922153e-01
  4.5534825e-01
  1.7029765e-01
  7.5069517e-01
  1.2865568e+00
 -1.2179147e+00
 -1.4714956e+00
 -9.1691995e-01
  3.5475597e-01
  1.0151331e+00
 -1.2068165e-01
 -8.8032603e-02
  1.8901360e-01
  7.0413068e-02
  4.0381607e-01
  5.4233092e-01
  1.0425491e-01
 -1.5457284e-01
  4.1814515e-01
  2.0129941e+00
 -1.8171906e-01
 -5.0916631e-02
 -3.4589088e-01
 -4.5681590e-01
  1.3765644e-01
 -1.5888618e+00
  4.3547931e-01
 -1.7053342e-01
  3.0949235e-01
  3.0942559e-01
  1.9587168e-01
 -4.0329993e-01
 -3.3568532e+00
  9.5074937e-02
  1.6506642e-01
 -6.3540876e-01
  2.1400140e-01
 -6.4764476e-01
  9.5911101e-02
  4.5837584e-01
  6.5237761e-01
 -4.8828602e-01
  3.0261669e-01
 -1.2867351e+00
 -2.2436769e-01
 -3.2407463e-01
  9.3402225e-01
  3.1131065e-01
 -7.5483578e-01
  2.7734768e-01
  5.1993895e-01
  5.0048232e-03
 -4.9390994e-02
  1.0531060e+00
 -3.0738854e-01
  1.2206632e+00
 -7.8670412e-01
  1.4787813e-01
  9.2996109e-01
  1.5055932e-01
  1.5181433e-02
 -1.0478806e-01
  1.0077754e+00
  3.0338904e-01
 -1.4907125e-01
 -7.2889483e-01
 -3.8775466e-02
 -4.9108323e-01
  7.9773122e-01
  8.7474063e-02
  1.2777109e+00
 -1.7445467e-02
 -6.9902384e-01
 -5.5495471e-02
 -3.0492634e-01
  7.6444149e-02
 -5.9856391e-01
  3.5365969e-01
  1.8038543e-02
  7.6917827e-01
  1.6022263e-01
  1.6921861e-01
 -8.1694730e-02
  1.5110402e-01
 -4.0116277e-01
  1.5338686e+00
  8.1925231e-01
  7.3349088e-01
 -4.8763579e-01
  8.1849682e-01
 -1.8303224e+00
  5.3925931e-01
  2.2241467e-01
  3.1734475e-01
 -9.6989572e-01
 -2.8778350e+00
 -6.9742672e-02
 -8.2233143e-01
  1.3559906e-01
  1.1654944e+00
 -1.8244672e-01
  1.2213063e+00
  2.9943395e-01
  1.5325470e+00
  8.1512600e-01
 -3.9691493e-01
  1.1102803e+00
 -2.1425091e-01
  1.0718383e+00
  1.2409416e+00
 -2.3949718e-01
  1.7013298e+00
  2.5643737e+00
  1.3493307e-01
 -5.5699363e-02
  5.0450176e-01
 -1.4458468e+00
  1.1154246e+00
  9.2124552e-01
  3.1451082e-01
 -6.8459272e-01
 -5.8134764e-02
  1.1484636e+00
 -2.4189942e+00
 -8.2718217e-01
 -2.7771944e-01
  2.4064791e+00
  2.7714813e+00
 -8.1305817e-02
  3.1876731e+00
  5.7868069e-01
 -2.1658762e+00
  6.6972911e-01
 -2.6592058e-01
  7.9288733e-01
  5.3583676e-01
  1.7072883e+00
  3.5171863e-01
  3.3387980e-01
  2.0344560e+00
  3.7451482e-01
 -4.3241969e-01
 -1.0041385e+00
  4.1939086e-01
  8.1288934e-01
 -4.2897400e-01
 -7.6120412e-01
  8.6364096e-01
  1.3063829e-01
 -9.3138599e-01
 -5.4716453e-02
 -3.3325833e-01
  4.4553810e-01
  1.5219208e+00
  2.6347790e-02
  8.2585551e-03
 -6.7697865e-01
 -8.7627482e-01
 -6.8125206e-01
 -3.0177331e-01
 -2.2018535e+00
 -2.6789649e+00
 -1.5251869e+00
  1.1250257e+00
  1.9723761e-01
 -4.3182820e-02
 -6.1224896e-01
  6.7366785e-01
 -1.0679635e+00
  1.9921269e-01
  8.5275400e-01
  1.1638439e+00
  1.2435935e-02
 -3.2900417e+00
 -5.3290170e-01
 -4.2795226e-02
 -2.0929614e-01
 -1.1465859e-01
 -2.4822178e-01
 -7.1108989e-02
  1.4949578e+00
 -5.7726336e-01
  1.9311275e+00
  8.0128157e-01
  8.1550175e-01
  1.1957446e-01
  2.9650766e-02
  2.6253793e-01
  5.3069130e-02
 -9.3359008e-02
 -6.2273198e-01
 -1.6293937e-01
  1.9819318e+00
  7.1759975e-01
  1.1314601e+00
  5.1791556e-02
  9.4363213e-01
 -4.0811457e-02
 -1.3879555e+00
  2.9448032e-01
  1.4746982e-01
 -4.5786142e-01
 -1.6662264e+00
  2.6235025e-02
 -1.5624785e-01
  5.4520065e-01
 -1.6225497e-01
  4.0851855e-01
 -8.9411736e-01
  1.0151233e-02
  8.8332075e-01
  2.3043294e+00
  1.8543810e-02
  4.1863802e-01
  5.7789826e-01
  3.6232957e-01
  2.2494893e-01
  2.2125153e-01
 -9.1710812e-01
 -8.4659946e-01
  1.0429522e-01
  5.4055538e-02
  1.1983855e+00
 -8.2494155e-02
 -1.9835672e-01
  4.1288710e-01
 -8.8999331e-01
  1.1213054e-01
 -2.6496071e-01
 -1.1034540e+00
 -3.4816396e-01
  1.2443261e+00
 -1.0218278e+00
 -7.4603450e-01
 -5.4986078e-01
 -3.4405485e-01
 -5.8595872e-01
 -2.1533170e-01
 -1.9285072e+00
 -3.2216719e-01
 -3.5576656e-01
 -2.4825273e-01
  1.0419031e-01
  1.6191913e-01
  6.8536973e-01
 -5.7045080e-02
 -3.7556040e-01
 -2.9230051e+00
  1.9520916e-01
 -2.5781995e-01
 -8.5024732e-01
  1.6431216e+00
  1.1800379e-01
  7.3386180e-01
  1.3269471e-01
 -7.2829589e-02
  9.1704845e-02
  5.3038085e-01
 -4.2372510e-02
  8.3063871e-02
 -4.3683720e-01
  1.6430320e-01
  2.7546186e-02
  3.0788364e+00
  1.0668743e+00
  7.2712570e-01
  4.9695265e-01
 -1.0660031e-01
 -2.4139236e-01
 -2.6934296e-01
 -5.9654069e-01
 -7.0747173e-01
  7.6483577e-02
 -4.7083646e-03
 -6.8211228e-01
  1.7775217e+00
  3.4965649e-01
  2.2252688e-01
 -1.1075807e+00
  3.9318362e-01
  1.9218938e-01
  9.5114952e-01
 -5.2214986e-01
  4.7438508e-01
  2.6532021e-01
 -3.6191890e-01
  5.1127070e-01
 -1.2618594e+00
 -3.8892102e-01
 -1.4274703e-01
 -7.6492608e-01
  3.3282172e-03
  3.8526654e-01
 -1.7814654e-01
 -8.4549046e-01
  7.9586130e-01
  4.7716969e-01
 -2.8344655e-01
 -1.9102023e+00
  2.5296739e-01
  3.0702302e-01
 -5.3112096e-01
 -8.3138667e-02
  2.5809723e-01
 -1.0320320e+00
 -8.3916634e-03
 -5.3218049e-01
  4.4428918e-01
  1.3913113e+00
 -1.8044716e+00
  6.8472254e-01
  3.6717537e-01
  2.2487228e-01
  2.9878262e-01
  1.3342056e+00
  2.1258185e+00
  1.6640421e+00
  1.7704767e-01
 -3.5137287e-01
 -9.5936638e-01
  1.3551404e-01
 -4.8166114e-01
 -9.2006767e-01
  2.6538387e-01
 -1.3142043e+00
  4.5130548e-01
  6.9911718e-01
  6.8524021e-01
  2.0077942e-01
 -4.4988275e-01
  1.6649820e+00
 -2.7022836e-01
 -4.1744702e-02
 -8.5585243e-01
 -3.1493866e-01
  8.4214669e-01
 -2.9872197e-01
 -7.5656343e-01
 -1.4733334e+00
 -3.3093545e-01
 -8.7535167e-01
 -4.1318169e-01
 -7.2876823e-01
 -2.1651891e-01
  2.6684446e+00
  5.9127724e-01
 -1.4647001e-01
  1.7408873e-01
 -1.2341207e+00
  7.1659845e-01
 -4.0970686e-01
  5.9801924e-01
 -1.9766606e-02
  2.6367897e-01
 -2.5594160e-03
 -4.5189118e-01
  1.1025251e+00
  3.5608968e-01
  2.4510247e-01
 -2.0382482e-01
  3.5710236e-01
 -7.6357031e-01
 -6.0172266e-01
  1.2651074e-01
 -1.9394578e+00
 -8.8718325e-02
 -9.9443421e-02
  4.7007181e-02
 -2.3729269e-01
 -1.2289302e+00
  8.1038135e-01
  2.1332948e+00
 -5.0353967e-02
 -2.9593062e+00
  2.9951254e-01
  6.7653373e-02
 -8.9525157e-01
  7.2672671e-01
 -2.6092548e+00
  3.0927068e-01
 -9.3848014e-01
  1.7492467e-01
 -2.2988446e+00
 -6.5629154e-02
  9.0355396e-01
 -2.1214634e-01
 -6.7752510e-01
 -4.9135128e-01
  3.1379914e-01
 -2.4917462e-01
  9.0430832e-01
 -4.1010988e-01
 -4.1567692e-01
  3.6298215e-01
 -3.2402128e-01
 -5.7156926e-01
  9.5259964e-01
  1.1806470e+00
  7.4617434e-01
  2.6471951e+00
  1.5070120e+00
 -3.1259786e-02
 -1.7394103e+00
 -8.8293776e-02
 -1.1626501e-01
  4.5318738e-01
  2.9666132e-01
  1.2186007e+00
  1.7750638e+00
  2.6827729e-01
 -4.2567176e-01
 -5.8727380e-02
 -1.2036920e-01
  1.6336609e-01
 -2.6494607e-01
 -1.3294272e+00
 -1.1566653e+00
 -1.0977614e+00
 -9.5422024e-01
 -2.9922119e-01
 -4.2786273e-01
  6.3164301e-02
  4.9134001e-01
  4.1560400e-01
  2.5532943e-01
 -1.5259029e-01
 -1.8058160e-01
 -5.4176158e-01
  6.2027234e-01
  1.5945719e+00
  6.3538784e-01
 -1.3494600e+00
  7.8027714e-03
  1.5161100e-01
  9.0423256e-01
  2.6086354e-01
 -1.5545143e-01
  1.0905592e+00
  1.6927638e+00
 -4.2059892e-01
  7.0136571e-01
 -6.3787776e-01
 -7.8561956e-01
  2.5380072e-01
 -4.1531122e-01
  3.2973081e-01
 -8.8076437e-01
  2.0916475e-01
  1.0412786e-01
  9.2878886e-02
 -9.3487877e-01
 -1.2237132e-01
  2.8852865e-02
 -8.2497972e-01
  1.5264074e+00
  2.7187443e-01
  2.5057530e-02
 -1.2593102e+00
 -5.5123675e-01
 -6.4369403e-02
 -7.0218754e-01
 -1.6244426e-01
 -6.1577135e-01
  2.3247668e-01
  2.1740746e+00
  6.9711989e-01
 -1.1141336e+00
 -3.2705119e-01
 -1.7828390e-01
 -1.4960662e-01
 -4.1786659e-01
  1.6398309e+00
 -2.1313404e-01
  5.6470834e-02
 -3.1535500e-01
  8.3762780e-02
  1.0760735e-01
  4.2803022e-01
  1.0437241e+00
 -6.9033158e-01
 -1.5823694e-01
 -1.8805273e-02
 -8.0616689e-01
  1.4251330e+00
 -6.5567946e-01
  4.1427689e+00
 -1.1966538e+00
  3.6754137e-01
  3.8447719e-02
  2.8059477e-01
 -7.0784163e-01
 -5.3064138e-02
  1.6034970e+00
 -2.3804691e-01
  7.7280533e-01
  2.3166472e-01
 -1.1309958e-01
  2.6907107e-01
 -1.3842623e+00
  6.6421926e-01
 -6.8898439e-02
 -2.8690785e-01
  9.6560007e-01
  1.3039023e+00
  2.1853397e-02
 -1.9299780e-01
 -1.4028637e-01
  1.2578303e-01
  3.6398046e-02
  4.5686311e-01
  2.4674848e-01
 -5.6585127e-01
  1.2250915e-01
 -3.2498777e-01
  7.4011171e-01
  9.8249644e-02
  1.6182022e+00
  1.7568253e+00
 -8.6250561e-01
 -4.9559885e-01
  4.4166347e-01
 -2.2650082e-01
  4.5486230e-01
  4.3648911e-01
  6.5658230e-01
 -4.0675399e-01
 -2.6375773e+00
  1.6593143e+00
  1.2560098e-01
  1.8626642e+00
  1.3400375e+00
 -1.3703916e+00
 -9.6855897e-01
 -1.6125108e-01
 -1.8664019e-01
  7.3073804e-01
 -9.9154130e-02
 -4.3031314e-01
  1.6503516e+00
  1.0061648e+00
  4.5335162e-01
 -7.2337198e-01
  4.1802940e-01
  1.8815359e+00
 -1.7738105e+00
  1.2473517e-01
 -3.1372160e-01
  4.2898530e-01
  9.3578696e-02
 -7.8230572e-01
  1.6933489e+00
  4.5174143e-01
 -5.6846696e-01
 -2.9390889e-01
 -1.1393590e-01
 -3.3539000e-01
 -1.4200747e+00
 -2.2148716e-01
  5.2013552e-01
 -1.6450194e-01
  3.2010481e-01
 -1.9721543e+00
 -3.9660460e-01
 -6.1573349e-02
  7.4473694e-02
 -3.7234718e-01
  4.0656129e-01
 -2.5357900e+00
 -1.4448318e-01
 -1.6647196e-01
  1.6939780e-01
 -3.6804712e-01
 -4.0608802e-01
  1.6687007e+00
  2.4202254e-01
  2.8335065e-01
 -4.6325916e-01
 -1.0494696e-02
  2.9878151e-01
  3.1240252e-01
 -4.7811791e-01
 -3.2871598e-01
 -3.2292116e-01
  4.1825768e-01
 -9.6949443e-02
  2.7111924e-01
  1.3480905e-01
  4.6976228e+00
 -1.1429038e-02
 -1.3120295e+00
  2.5052515e-01
 -6.6664106e-01
 -1.2335289e-01
  7.0545357e-01
  8.8351190e-02
 -7.2201306e-01
  3.8798842e-01
  5.6695696e-02
 -9.4501293e-01
  1.0990199e+00
 -8.8839662e-01
 -7.1585459e-01
  5.9138906e-01
 -1.0520510e-01
  1.0198771e+00
  2.2841433e-01
 -1.4256236e-01
 -1.0091249e-02
 -2.9603541e-01
 -9.9166715e-01
 -1.2821060e+00
 -1.5177335e+00
  7.7218479e-01
 -3.9357048e-01
 -1.4800090e-02
 -4.5009747e-02
 -8.4452075e-01
 -6.1757880e-01
 -1.3173574e+00
  4.0660200e-01
 -2.4860647e-01
 -6.1727929e-01
 -9.3418807e-02
 -1.8797082e-01
 -2.8617387e+00
  1.5962692e+00
 -2.3719518e+00
 -7.2174758e-02
  1.3936044e+00
  9.9374838e-02
  2.2324298e-01
 -9.0974873e-01
 -7.6922041e-01
 -1.0602865e-01
  9.1047633e-01
  1.0126148e-01
 -3.9487702e-01
 -1.9087743e+00
  1.7992651e-01
  1.0431676e+00
  1.3460141e+00
  4.2354554e-01
  4.2035693e-01
  1.0426599e+00
  1.2644854e+00
 -3.6351886e-01
 -1.0570175e-01
  2.0824967e-01
 -5.5266596e-02
 -9.8675257e-01
 -2.3630061e+00
  4.1387403e-01
  7.7606529e-01
  2.7409470e-01
 -1.2866857e+00
 -1.1419763e-01
 -4.9822614e-01
 -1.4650328e+00
  5.6539935e-01
 -1.8464753e-01
 -1.1200769e+00
 -4.6648785e-01
  3.7247531e-02
  3.1327423e-01
 -3.8808489e-01
  4.6071991e-02
 -2.9338298e+00
 -2.1190578e-03
  6.9769897e-02
 -1.4783939e+00
 -1.2103747e+00
 -3.7213585e-01
 -8.6521173e-01
 -5.0200093e-01
 -5.7294959e-01
 -2.1489975e-01
  7.8362966e-01
 -3.0480561e-01
 -3.5236710e-01
 -2.6907957e-01
  4.1530761e-01
 -1.5277416e+00
  1.3129184e-01
 -6.0326177e-01
  3.5341296e-02
 -3.8069597e-01
  4.5276254e-02
 -1.0242240e+00
  7.9221994e-01
 -1.3367175e-01
  4.9369103e-01
 -7.1504140e-01
  1.4893998e+00
  1.7980926e-01
  6.7663312e-02
  8.4865475e-01
 -4.7937989e-02
 -2.4903953e-01
 -6.5588939e-01
  1.5505230e+00
 -1.2266320e+00
  2.8678815e+00
 -4.6457759e-01
  4.0776721e-01
 -1.0209755e+00
  2.2545733e+00
 -3.7938328e+00
  1.1817063e+00
 -3.1848505e-01
 -1.8091567e-01
 -3.2849070e-01
  7.1713448e-01
  2.4841187e+00
  9.1006696e-01
  2.5410092e-01
 -3.8045147e-01
 -1.7062944e-01
 -3.7944272e-02
 -1.9103843e-01
 -2.6297730e-01
 -9.4897056e-01
  2.0034258e+00
 -4.3395784e-01
 -1.5006977e+00
  1.6586764e-01
 -1.0202034e+00
 -3.1918361e+00
 -1.3658184e-01
 -1.9904503e-01
  1.0981252e+00
  1.1482937e+00
  2.4310814e-01
 -1.5196748e+00
  1.0203407e+00
  1.5194652e+00
 -8.9650261e-01
 -2.4447632e+00
 -3.5951026e-02
  8.5481423e-01
 -3.1287324e-01
  6.2387013e-01
 -1.3935038e-01
  9.2351878e-01
 -2.5940385e-01
  8.3609724e-01
  3.5299659e-01
  1.0368152e+00
 -6.9342643e-01
 -2.3444864e-01
  2.1703325e-01
  3.3416131e-01
  1.0053451e+00
  2.0197880e-02
  2.4291008e+00
 -6.5100884e-01
  5.0928521e-01
  5.3300983e-01
 -2.3468745e-01
  1.1659487e-01
  1.9217665e+00
  1.6448717e+00
 -3.9324975e-01
 -1.1975099e-01
 -1.9870892e-01
 -5.6008053e-01
  6.6278303e-01
  1.6640915e-01
 -5.9835190e-01
  7.8564584e-02
 -3.0978152e-01
  2.0352417e-01
 -9.6193212e-01
  2.1100460e-01
  2.7710068e-01
 -6.3116848e-01
  4.2623711e-01
 -1.3393494e-01
  5.1541798e-02
  6.6223860e-01
  7.7794862e-01
  7.6886618e-01
  1.6228318e-02
  3.9565593e-01
  1.5953472e-01
  2.2180447e-01
  1.1072642e-01
 -6.4428061e-01
  5.6365222e-01
  2.5045255e-01
  1.1168060e+00
  7.9509988e-03
 -7.3243093e-01
 -2.2289900e-01
  1.1248153e-01
 -4.1569152e+00
  4.6979710e-03
 -7.9519063e-01
  1.6788095e-02
 -1.4113033e-01
  1.8476097e-01
  1.5150349e+00
  4.7960359e-01
  7.3208666e-01
  3.5271317e-02
  6.5112978e-02
  2.1112134e-01
 -1.0517614e-01
  7.1461982e-01
 -4.1264012e-01
  3.2291996e-01
 -1.2003326e-01
  1.8893453e-01
  8.6401510e-01
  1.2512268e+00
 -6.8518358e-01
 -7.9795681e-03
  4.3647867e-01
 -8.6763084e-01
 -1.3099599e+00
 -4.5874920e+00
 -2.9578947e-02
 -2.1531031e-02
  1.7162379e+00
  1.3113429e-01
 -1.2909649e-01
  8.2581282e-01
 -4.9781334e-01
  2.2337899e-02
 -3.0373400e-01
 -3.4002513e-01
  2.3922026e-01
  1.0089915e+00
 -1.1777474e+00
 -7.1239136e-02
  9.4926399e-01
  2.0858285e+00
  3.2886395e-01
 -9.6370852e-01
  1.0575066e-01
  3.6806762e-02
 -1.2033073e-01
 -9.3271643e-02
  7.0487368e-01
 -5.3111637e-01
  9.2847556e-01
  1.1588091e+00
 -2.7233204e-01
  2.5607651e-01
 -2.4722760e+00
 -4.4344485e-01
 -4.6191442e-01
 -4.0494552e-01
  5.2159184e-01
  1.1391044e-01
  1.2758653e-01
 -6.4923334e-01
  8.3011523e-02
  6.6032380e-02
 -1.9959843e-01
 -7.4606881e-02
  2.5648373e-01
  4.3160939e-01
 -7.5076991e-01
  8.6310041e-01
 -2.1563493e-01
 -4.5336160e-01
 -2.6101226e-01
 -5.5767977e-01
  5.0980020e-01
  2.2852726e-01
 -5.9459287e-01
  8.6752748e-01
 -1.0387173e+00
  3.2356247e-02
 -6.1467165e-01
  2.2190133e-01
  4.6992809e-01
  1.0627345e+00
  2.5730047e+00
 -2.5429049e-01
  6.0130453e-01
  1.9555411e-01
  1.3769102e-01
 -1.3867527e+00
 -6.7481446e-01
  7.9326108e-03
  3.2341075e-01
  5.3894436e-01
  1.3962688e+00
 -4.0176004e-01
 -6.3512909e-01
  3.2286870e-01
  5.9068793e-01
  1.1568527e+00
  2.4980221e-02
  1.1766182e+00
 -4.1333117e-02
 -2.4023953e-01
 -2.2598165e-01
  1.9799668e-01
  1.0685917e-01
  5.6023579e-02
  3.5273710e-01
  2.0460593e-02
  5.0824416e-01
  1.2432908e-01
  8.3738691e-01
 -6.2273331e-02
  4.9196047e-01
  7.6141665e-03
 -4.5057207e-01
  5.9508622e-01
  3.0396304e-01
 -8.6496294e-01
  4.3832025e-01
  8.1139252e-02
  7.7690758e-02
 -7.4627918e-01
  8.7516183e-01
  8.4830266e-01
 -5.1038873e-01
 -5.3645396e-01
 -1.4462379e-01
 -2.1500375e+00
 -2.4145421e-01
  3.6918986e-01
 -1.1781805e+00
 -4.3266532e-01
 -9.8652875e-01
 -6.7659087e-02
 -1.7005372e-01
  6.6678631e-01
  4.8933510e-02
  2.9976909e+00
 -1.5450927e+00
  8.4088469e-01
 -4.6107516e-02
  1.7521836e-01
  6.5894254e-02
 -1.5465519e-01
 -6.0197097e-01
 -4.3245900e-01
  3.1933219e+00
  4.3363246e-01
  2.2151990e+00
 -2.9920840e-01
  1.4719331e-01
 -7.9302812e-01
 -9.8701924e-01
 -1.6407082e+00
  1.5885645e+00
 -1.6878226e+00
  5.2752322e-01
  2.5865033e-01
  2.0376068e-01
 -1.2820639e-01
  1.6241722e-01
  3.4334627e-01
 -1.6143807e+00
  3.1593859e-01
  5.7388902e-01
  1.6535746e+00
 -1.6613527e-01
  8.3201039e-01
 -5.0850767e-01
  2.5449809e-01
 -2.2971213e+00
  1.8808600e+00
 -2.6032731e-02
  3.1716794e-01
  6.3599229e-01
 -1.1623655e-01
  1.8074560e-01
  1.6802056e+00
 -1.0313299e+00
  7.8815198e-01
  1.6639136e+00
 -9.1077852e-01
  1.0977030e+00
  5.3202653e-01
 -3.6925960e-01
 -1.6167462e+00
  4.5304096e-01
  4.2737731e-01
  9.5122421e-01
  6.1570555e-01
  1.1757790e-02
  4.1425228e-03
 -4.5105550e-01
  2.5774965e+00
 -3.3113238e-01
  2.6232648e-01
  6.7398447e-01
  2.8751478e-01
  4.5727497e-01
 -1.1105763e+00
 -2.4712763e+00
  1.2930979e-01
 -3.9996713e-01
 -6.5532500e-01
  4.0000182e-01
 -1.5526657e+00
  2.0267789e-01
  4.9105734e-01
  1.2915281e+00
 -1.3282104e-01
  3.0945401e+00
  1.5865251e+00
  2.9691538e-01
 -2.9097211e-01
  2.0196207e-01
 -7.7287726e-02
  6.6229665e-01
 -5.2926409e-01
  9.1266060e-01
 -1.3207984e-01
 -5.7182091e-01
  1.9969741e-01
  5.3928208e-01
  3.9615369e-01
 -1.0150280e+00
  5.7634825e-01
 -9.7374246e-03
 -6.5713882e-01
  1.1178105e+00
  2.3205858e-01
  2.1463709e+00
  4.1641466e-02
 -2.5996697e-01
  3.0563107e-01
 -2.6734167e-01
 -1.0095365e+00
  6.6325867e-01
 -1.0968785e-01
 -5.0743508e-01
 -6.7077684e-01
  9.5843923e-01
 -6.2114850e-02
 -7.0597686e-02
 -1.6713600e-01
  1.2124915e+00
  2.1149845e-01
  1.6720603e-01
 -1.2483195e+00
 -8.3248174e-01
 -1.1714786e-01
 -7.4003674e-02
  1.2742141e+00
 -1.8196034e-01
 -5.4476403e-02
 -3.0793694e-01
 -4.3991202e-01
 -1.3631690e-01
  1.6755332e-01
  6.1302923e-02
 -3.9361924e-01
  1.8124175e+00
  3.0970967e-01
 -2.1769328e-01
 -1.3607156e-01
  8.1737381e-01
 -2.6580521e-01
 -1.4487096e+00
 -1.4475725e+00
 -1.9393504e-02
 -8.5535026e-01
 -1.6847621e-01
  8.8325542e-01
 -1.0506600e+00
 -8.8362902e-01
 -4.2996836e-01
  2.6294574e-01
  5.0169587e-01
 -1.6667545e-02
  4.7639698e-01
 -8.2345910e-02
  7.2907609e-01
  2.7028662e-01
 -3.6298209e-01
  1.1966372e-01
  2.1214101e-01
 -6.6572174e-02
 -1.3398258e-01
 -3.2813650e-01
 -2.1418981e-01
 -1.7848115e+00
  6.3040513e-01
  2.3607495e-01
  6.9478989e-01
  1.5321147e+00
 -4.1562867e-01
 -6.0078830e-01
  5.0948124e-02
 -6.5038151e-01
  1.2160050e+00
  2.4734432e-01
  5.8964364e-02
 -3.4669876e-01
 -9.2385679e-01
  3.7969607e-01
 -9.7938322e-02
  6.1322385e-01
  1.3974066e-01
  8.3043998e-01
 -1.1834706e+00
 -6.4025477e-02
 -3.4002197e-01
  1.2716964e-01
  1.9471748e-01
  1.8930651e-02
 -7.3509067e-01
 -4.7738373e-01
  3.6120098e+00
  2.8540051e+00
  9.1356373e-01
 -8.9921981e-01
  7.8608865e-01
  7.4032444e-01
 -2.2807908e+00
  2.9929581e-01
  1.7980030e-01
 -3.9840323e-01
 -5.2164567e-01
 -1.7771294e+00
  1.9838691e-01
  2.8907457e-01
  6.6587842e-01
 -1.7509939e-01
  8.9099979e-01
 -1.4290855e+00
  3.2444370e-01
  1.6185509e-01
  6.3971198e-01
  4.2071956e-01
 -2.0378369e-01
 -1.7635961e+00
  5.9984136e-01
  3.3732688e-01
  6.4242798e-01
  1.9311050e-01
 -1.6820755e+00
 -1.0490006e+00
 -8.2353371e-01
  8.8510209e-01
 -4.5462000e-01
 -4.2675686e-01
  6.9746584e-01
  4.7348163e-01
  1.9022760e-01
 -1.1891880e+00
 -1.9977090e+00
 -5.1345152e-01
 -8.7497061e-01
  1.8557090e+00
  1.3370347e+00
  4.7792304e-01
  1.6739756e-01
 -1.1398049e-01
  8.2116324e-01
  5.9451956e-01
 -8.8266753e-02
 -7.9792154e-01
  1.2984510e-01
  2.5371647e-01
 -1.5214479e+00
 -6.0086834e-01
  3.4518817e-01
 -3.5984045e-01
 -1.5642957e-01
 -2.0483534e-01
  1.1651543e-01
 -6.2914699e-01
  1.0122439e+00
 -8.2381588e-01
  2.1706662e-01
  3.3103788e-01
  2.7730963e-03
  8.2349949e-02
  1.2628988e+00
  3.0139998e-01
  3.0984339e-01
 -1.9998267e+00
 -8.3363637e-02
  1.9420511e-01
  1.0953265e-01
 -3.4627834e-01
  3.6099583e-01
 -5.0242746e-01
 -2.1871349e-01
 -6.8715143e-01
 -1.6586006e+00
 -8.4017336e-02
 -3.8078061e-01
  3.7321050e-02
 -3.6733121e-01
 -9.6157289e-01
 -5.9221452e-01
  2.1625549e-01
 -6.4033613e-02
  1.2278275e+00
 -4.3510896e-01
  5.2948129e-01
  1.1481411e+00
  8.4407657e-02
  8.0490166e-01
  7.5516477e-02
  1.8148464e-01
 -1.8285052e-01
  2.3485892e+00
 -9.0797341e-01
  3.0212414e-01
  9.8623157e-01
  2.6072297e-01
 -1.1491835e-01
  6.7123806e-01
 -6.0025942e-01
  1.8422335e-01
 -1.1412578e+00
  9.4117627e-02
  3.2546797e-01
  5.3080362e-01
 -1.3961560e-01
  2.9775408e-01
  1.0433706e+00
 -7.4647385e-01
  2.2168557e-01
  1.0203309e+00
  8.7319717e-02
  9.6555448e-01
  5.1007658e-01
  1.3545786e-01
  8.7579030e-01
 -1.1496937e+00
  4.8494187e-01
  8.9541489e-01
 -1.2595139e-01
 -2.2311583e+00
  2.9579091e+00
 -2.3208203e+00
 -1.8874652e+00
 -2.0263712e+00
 -1.1101346e+00
  4.4345215e-02
 -2.3038465e-01
  7.6321876e-01
 -4.8024827e-01
  9.4491553e-01
 -1.1517937e+00
 -1.4142559e+00
  4.3132767e-01
  8.4132016e-01
  1.8459137e-01
 -1.4590163e+00
  1.1538126e+00
 -4.7423309e-01
 -3.3357751e-01
 -4.1013101e-01
 -1.2854757e+00
  3.7893766e-01
  7.2149783e-01
  1.1999632e-01
 -2.5974637e-01
  1.1672142e+00
  4.8981124e-01
  8.7987626e-01
 -3.3741128e+00
 -3.0405746e+00
  4.6740435e-03
 -2.7139884e-01
  8.1887835e-01
  1.3745558e-01
  1.4403454e+00
  5.6792206e-01
  2.7946031e-01
 -2.1566048e+00
 -1.4220090e+00
  1.3253354e+00
  5.2157320e-02
 -1.1366198e+00
 -5.6993908e-01
  1.3116643e-01
 -8.3049685e-03
  1.9693673e-02
  7.9316962e-01
  1.0790030e+00
 -6.2813468e-02
  8.3451980e-01
 -8.8949561e-01
 -2.2280635e-01
 -8.4260881e-01
 -2.5252089e-01
 -5.1156133e-03
  9.4924480e-01
 -1.0420277e+00
 -3.9852667e-01
  1.2686821e+00
  8.8773507e-01
  7.0610605e-02
  7.5542539e-02
  5.9406614e-01
 -1.6298443e-01
  1.2584307e+00
 -1.0485239e+00
 -5.5340551e-02
 -4.2262778e-01
  5.5340791e-01
  1.8898815e-01
  1.7574434e+00
 -2.2827062e-01
  6.6328579e-01
 -1.5789030e+00
 -8.6318660e-01
 -2.4916106e-01
  1.1437555e-01
  1.5041198e+00
  1.5039060e-01
  6.6834378e-01
  4.6993741e-01
  6.8072509e-03
  3.7904155e-01
 -1.0529149e-01
  8.4200335e-01
  2.1788727e-01
  8.0827552e-01
  2.5059828e-01
  1.4207811e+00
  6.6903704e-01
  7.5256705e-01
 -1.4260642e-02
  2.6332939e-01
 -3.3002788e-01
  5.9016263e-01
 -3.8183155e-04
 -8.9840037e-01
  2.0247595e-01
  4.6881430e-02
 -8.0463731e-01
  5.1833707e-01
 -6.5643072e-02
 -1.3011394e+00
  9.8397538e-02
  5.9150774e-02
  2.1001892e-01
  3.8876718e-01
  7.5178102e-02
 -5.9138536e-02
  8.8233733e-01
  2.5642216e+00
 -3.9690975e-02
  1.6886616e+00
 -1.1439462e+00
 -4.6177773e+00
  1.1756971e-02
  4.0741378e-01
  7.4417686e-01
  5.3009230e-01
  1.5755597e-01
  4.0100750e-01
  1.2576233e-01
  1.4935066e+00
  5.2459407e-01
  7.4105847e-01
  8.0542371e-02
  3.6991602e-01
  7.7850711e-01
 -8.7406945e-01
 -3.1245135e-02
 -1.0614206e+00
  2.1113498e+00
 -8.2637846e-01
  4.9092746e-01
 -8.1760085e-01
 -7.6803213e-01
  6.6579568e-01
  2.8582838e-01
  6.3895953e-01
 -1.4075282e-01
 -3.9968640e-01
  1.4172916e+00
 -5.1121693e-02
  4.4137500e-02
  7.2330970e-01
 -2.7499919e+00
 -8.8491172e-01
 -5.8472913e-02
 -7.9172099e-01
 -5.3930080e-01
  4.1086784e-01
 -1.8345108e+00
  2.3797014e-01
  4.4594917e-01
 -7.6940620e-01
  6.8017215e-01
 -1.3626289e+00
  6.9836307e-01
 -5.7398033e-01
 -4.7246984e-01
 -1.1154808e+00
  2.1337838e-01
  2.1343939e-02
  1.6889548e+00
  1.0508540e-01
  1.3126490e-01
  8.8387769e-01
  6.4894164e-01
  1.8405782e-01
  2.7541959e-01
 -8.7007910e-02
  9.3289927e-02
  1.2426240e+00
 -1.9461359e-01
 -3.9091945e-01
  1.2858648e+00
 -3.4372148e-01
 -1.2611632e+00
  1.4077754e-01
 -3.1909949e-01
  1.4597481e+00
 -2.3140040e-01
 -1.2284513e+00
  6.6395539e-01
  1.0383872e-01
  3.9110938e-01
  2.1983922e-01
  2.2085726e-02
 -5.4907691e-01
  6.5493035e-01
  6.5965426e-01
  3.0770394e-01
 -3.9927784e-01
 -1.2012975e-01
 -1.6654606e-01
 -2.0638882e-01
 -1.1364762e+00
  2.2135696e-01
  1.0119285e-02
  2.4349093e-03
  2.1980757e-01
 -6.7261651e-02
  5.0097781e-01
  1.2904936e-01
  1.0930216e+00
  9.1877609e-01
  1.1586936e+00
  2.1853639e-01
 -2.4395636e-01
  6.0576779e-01
 -7.9391837e-01
  1.8603364e-01
  6.1567479e-01
  2.1816790e+00
  2.4480424e+00
 -5.8448032e-02
 -3.6376929e-01
 -4.0237382e-02
  1.2904069e-01
 -1.4223590e-01
 -2.0237023e-01
 -2.6169071e-01
 -2.3511615e-01
  7.8823006e-01
  2.1421449e+00
 -3.6572871e-01
  1.8568188e-02
  5.3496695e-01
  8.3765604e-02
 -3.2014635e-01
 -5.6897336e-01
 -6.2376732e-01
  4.4796959e-01
  9.5229316e-01
  1.2466855e+00
 -3.5132382e-02
  8.1333929e-01
  4.2931467e-01
  4.0520024e-02
  1.8259685e+00
 -4.3335557e-01
  1.2077187e-01
 -6.6529995e-01
  5.2483934e-01
  9.2128658e-01
  4.2957058e-03
 -4.6013713e-01
 -1.5038009e-01
  2.2982763e-01
 -5.3549695e-01
  3.2969204e-01
  2.2056437e+00
  4.4698596e-02
  8.6082160e-01
  1.5664573e+00
  7.0949233e-01
 -7.7393341e-01
  4.1763929e-01
 -7.8989708e-01
  1.9997168e-01
  6.4041132e-01
 -1.2439792e+00
 -1.2083906e-01
 -7.1733832e-02
  6.1509937e-02
 -7.8557312e-01
  2.0774163e-01
  7.1226585e-01
  9.7591802e-02
  2.1228155e-01
  2.0916699e-01
  2.0749676e-01
  2.7349204e-02
 -5.3901893e-01
  1.6864419e-02
 -2.4614229e+00
  5.4244608e-01
  1.5984410e-01
 -1.2879540e+00
 -1.0943482e+00
 -1.4834226e+00
  2.0629375e+00
  1.4554453e-01
  1.9881305e-01
  6.4197814e-01
  9.9857879e-01
  8.2040656e-01
 -1.1129058e-01
  6.9170401e-02
  2.3520626e-01
 -1.0692420e+00
 -4.7823772e-01
  1.7656690e-01
 -9.2333162e-01
 -1.0540711e+00
 -1.0751755e+00
  1.1495841e+00
 -2.2049937e+00
 -2.4821908e+00
 -2.2749603e-01
  3.5936004e-01
  1.2270075e+00
 -8.2689738e-01
 -8.5609943e-01
 -6.0709633e-02
  5.4579067e-01
 -1.0581149e+00
 -1.1963648e+00
 -8.3384532e-01
 -2.9577205e-01
 -6.4600646e-02
 -8.2014495e-01
 -6.4084642e-03
 -2.5418055e-01
 -4.0920563e-02
 -4.1976658e-01
 -5.1112592e-02
  9.4378388e-01
 -1.8809500e-01
 -6.9513716e-02
  1.9967678e+00
  1.3616726e+00
 -1.5940656e-01
 -3.7888840e-01
  7.8004491e-01
  1.2584704e+00
 -2.1375604e+00
 -4.9199206e-01
  2.7235502e-01
 -1.3476777e+00
 -3.4183302e+00
 -8.2372457e-02
 -1.0206665e-01
  2.3622066e-01
 -7.7197111e-01
  2.2379951e-01
  6.5600775e-02
  2.7025115e-01
 -2.9507470e-01
 -1.7650463e-01
 -2.3584616e+00
  2.0237687e-01
 -1.5925219e-02
 -1.7747967e+00
 -1.5976563e-01
  4.7992876e-01
  7.9419804e-01
 -4.5017508e-01
 -4.4364592e-01
 -6.5563512e-01
 -4.0683734e-01
 -4.3487117e-02
 -1.2974062e+00
  4.4243410e-01
 -4.7020867e-02
  5.0325698e-01
 -4.6786684e-01
 -4.2668205e-01
 -1.3441418e-01
 -2.4623194e-01
  3.8439953e-01
 -7.3058116e-01
 -9.9210262e-02
 -4.9478576e-02
 -7.4530739e-01
  1.0302082e-01
 -4.1622487e-01
 -2.8012931e-01
 -6.4425361e-01
  6.5128088e-01
  9.0555507e-01
 -9.1948462e-01
  1.0348146e-01
 -9.1693193e-02
 -9.7980118e-01
  5.3291106e-01
  7.3808312e-01
  1.1008511e+00
 -4.7061461e-01
 -1.5267861e+00
  5.4003768e-02
 -2.4647489e-01
 -4.1869187e-01
 -5.4505575e-01
 -8.5666174e-01
  8.8529980e-01
 -7.3685938e-01
  6.0571128e-01
  3.1176874e-01
  1.4136107e+00
 -9.0952173e-02
  7.9897279e-01
 -1.3210523e+00
 -1.6655700e+00
 -1.5806224e-02
  6.2668502e-01
 -3.2350419e+00
  5.2375424e-01
 -3.3671364e-01
  1.1608776e+00
  5.1401860e-01
 -3.3793169e-01
  1.5317570e+00
 -2.3586226e-01
 -1.6376293e-01
 -7.2448230e-01
  5.4252404e-01
  2.0770010e-01
  6.5065336e-01
  1.3749167e-01
 -2.2185683e-01
 -1.2792295e+00
  6.8361813e-01
 -4.3477404e-01
 -3.1542760e-01
 -5.0632179e-01
 -6.3078946e-01
  2.7586246e-01
 -1.0064778e+00
  5.3897387e-01
 -7.4182868e-01
 -1.5786874e-01
  1.2193690e-01
  2.1724496e-02
  1.9640989e+00
 -1.4144416e+00
 -9.3877189e-02
  2.0614587e-01
 -2.7732959e+00
 -1.0943007e+00
 -1.1073763e+00
 -3.1364173e-01
 -2.2674018e-01
  1.0744338e+00
 -1.6555340e+00
 -3.0770582e-01
  9.1543889e-01
  2.3324247e-02
  1.9776690e+00
  3.9401314e-01
 -1.2060363e+00
 -4.4085330e-01
  4.1654065e-01
  9.1337973e-01
  1.0078627e+00
  3.5707423e-01
  2.0896322e-01
  5.9700578e-01
  4.8016861e-02
 -8.3475733e-01
 -6.0623407e-01
  9.5966828e-01
  6.8507540e-01
  1.1030710e-01
 -1.5727820e+00
  3.8278198e-01
  2.5106672e-02
  1.1267782e+00
  1.5790124e+00
 -1.3122086e-01
  7.2289789e-01
 -5.0049639e-01
 -8.3511956e-03
  5.6213379e-01
  5.7445699e-01
  2.7318388e-02
 -4.9132568e-01
  1.9222842e+00
 -9.2152990e-02
  9.0961325e-01
 -4.7000632e-01
  1.4452353e+00
 -6.9807053e-01
  1.1106610e+00
  2.7964047e-01
 -2.1562204e+00
 -3.9289799e-01
  1.4424637e-01
 -1.2536399e-01
 -2.1178088e+00
 -1.3781959e+00
 -3.3204877e-01
  8.0499142e-02
 -1.6187313e+00
  5.5808562e-01
 -2.0467088e-01
 -6.4458120e-01
  1.6756433e-01
  9.1631420e-02
 -1.7157629e-01
  2.3010626e+00
 -3.9015004e-01
  1.0221225e+00
  5.0507197e-03
  1.6795984e-01
  3.7582216e+00
 -1.2354201e+00
 -9.7274154e-01
 -1.0089390e-03
  1.5683893e-02
  2.0558412e-01
 -8.7838727e-01
 -1.4818789e-01
  7.2171676e-01
  3.4263575e+00
  2.5753656e-01
 -2.0366086e-02
 -2.6121283e-01
  7.0601553e-01
  9.3029237e-01
  2.1184516e+00
 -1.7600398e-01
  5.3816855e-01
 -1.2162002e+00
  7.2246391e-01
 -1.1056478e+00
 -4.9423000e-01
  4.8165143e-01
  1.9903624e-01
  1.2236580e-02
 -2.0285931e-01
 -3.9923844e-01
  6.3894653e-01
 -8.6848825e-02
  3.1027049e-01
 -7.7302837e-01
 -1.0977530e-01
  4.2222410e-01
  2.3670405e-01
  1.8202522e-01
 -3.0934739e-01
  6.3681984e-01
 -4.4128513e-01
  8.6254114e-01
 -6.8558179e-02
  6.1154115e-01
 -1.7941371e-01
 -3.7331948e-01
 -3.1668416e-01
 -1.4540983e+00
 -9.3000209e-01
 -2.1926895e-01
 -2.0722384e+00
 -4.5257375e-02
  5.2915219e-02
 -1.2715599e-01
  8.4383741e-02
  7.1523297e-01
  4.8568052e-01
 -7.2923559e-01
 -7.5134379e-03
  1.0103858e-01
 -3.0506259e-01
  1.6352266e+00
 -1.2056424e-01
  9.6719557e-01
 -5.4341173e-01
  3.8917029e-01
  3.4890172e-01
  1.8526334e-03
 -3.3030581e+00
  2.3879318e-01
  3.1926051e-01
 -8.4148049e-01
  1.0310408e+00
  2.7271816e-01
 -2.6190776e-01
 -2.0019522e-01
 -2.4623045e-01
 -8.2259214e-01
 -3.4401126e-02
  1.2985954e+00
  1.5886902e+00
 -1.3077940e+00
  3.9212674e-01
 -4.1868168e-01
  1.1843234e+00
 -7.3403096e-01
 -4.1686589e-01
 -7.8696287e-01
  6.5777254e-01
 -3.8589659e-01
  7.5091794e-02
 -2.8507522e-01
 -1.3120651e-02
 -6.7050219e-01
  4.2005098e-01
  1.8244828e-01
 -1.3461661e+00
  8.1914836e-01
 -4.5257259e-02
  1.9958371e+00
 -1.0452100e+00
 -3.2783204e-01
 -5.9618896e-01
  1.2385498e-01
 -7.8445852e-01
  2.3923749e-01
  8.6958563e-01
  7.4870801e-01
  1.5226413e-01
  4.1319756e-03
 -2.6859629e-01
  6.3548434e-01
 -1.4657346e+00
  3.0416763e-01
  2.4686514e-01
  4.5652997e-01
  1.9377649e-02
 -1.1446608e+00
 -1.7586855e+00
 -3.3925858e-01
 -1.2072772e-01
 -6.7923423e-03
 -1.5375409e-01
 -1.6503495e+00
 -2.5834540e-01
 -1.5131648e-01
  7.4493146e-01
 -1.9153032e-01
 -3.3993343e-01
 -8.2617569e-01
  1.8016589e-01
  1.0250882e-01
 -2.9605472e-01
  3.1325120e-01
  1.1294307e-01
 -7.3193383e-01
  4.5916367e-01
 -6.1543977e-01
  3.5020483e-01
 -1.2916608e+00
 -1.7309144e-01
  6.7901534e-01
 -5.6721473e-01
 -8.5478061e-01
 -6.7708716e-02
  4.5907903e-01
  1.2362365e-01
  2.6847100e-01
  8.9870715e-01
 -5.6714278e-01
  1.4038028e-01
  8.3037406e-01
  7.9931915e-01
 -5.7245153e-01
  7.1269864e-01
 -1.3877420e-01
 -1.0244885e-01
 -4.8750326e-01
  7.8509593e-01
  1.2875430e-01
  2.3374195e-01
  1.0759199e+00
  3.4884915e-01
 -1.5126783e+00
 -4.2928255e-01
 -8.9592612e-01
  2.4107963e-01
 -1.1451087e+00
 -5.9144534e-02
  3.6994961e-01
 -6.5801996e-01
  3.7783188e-01
  7.1023059e-01
 -9.9809086e-01
  1.4366344e+00
 -1.6845436e+00
 -1.7293965e+00
  6.2732673e-01
 -9.4048655e-01
 -1.5672337e+00
 -9.1134578e-02
  9.2523910e-02
 -2.3377968e-01
  1.5896502e-01
  2.4632975e-01
 -4.8736423e-02
 -1.2431941e+00
  1.2340362e+00
  1.7639761e+00
 -3.5390019e-01
  2.7721450e-01
  5.4149620e-02
 -5.1980764e-02
 -2.9323876e-01
 -2.8559092e-01
  2.3997080e-01
 -2.7496517e-01
 -4.2222214e+00
  2.4803941e+00
  2.4064465e-01
  2.7413327e-01
 -1.3722018e+00
 -8.3174998e-01
  1.2045243e+00
  1.5868664e+00
  8.5881132e-01
  4.8028934e-01
 -5.2546048e-01
 -6.2722993e-01
  1.4482489e+00
 -2.4019549e+00
 -6.9301879e-01
 -1.3360814e+00
 -3.4245729e-01
  3.8484514e-01
 -1.2589430e+00
 -4.3098292e-01
 -9.3937099e-01
  3.5984552e-01
 -3.3031049e-01
  2.0474038e+00
 -7.8434992e-01
  1.6783296e+00
  1.3805163e+00
 -9.8684683e-02
 -1.2214848e-01
 -1.3415257e+00
  5.7326239e-02
  1.1286501e+00
 -5.6625116e-01
 -6.4123410e-01
  5.3351569e-01
  2.1510285e-01
 -1.3388002e-01
  4.4461784e-01
  6.5152675e-01
 -5.0095552e-01
 -2.3576178e-02
 -7.4149591e-01
 -2.7743950e-01
  3.8365692e-01
 -5.0566357e-01
 -4.1712604e-02
 -5.4488522e-01
 -3.7475538e-01
  3.0893955e-01
  2.6868844e+00
 -9.8055822e-01
 -2.2804701e-01
 -1.6140005e-01
  6.0018730e-01
 -3.0258536e-01
 -3.6913231e-01
  7.9261816e-01
  6.8258810e-01
 -1.0092511e+00
 -4.9455112e-01
  1.0896633e+00
  7.1678948e-01
 -1.0885316e+00
 -8.1281304e-01
 -1.0716980e+00
 -2.0535738e+00
  2.0310931e-02
  1.7761101e+00
 -3.7150964e-01
  7.7061737e-01
 -1.0370438e+00
 -3.8664320e-01
 -3.8080998e-02
 -3.5593176e+00
  3.2725298e-01
  2.9956862e-01
  2.9711363e-01
 -1.7089857e+00
 -6.9538486e-01
 -3.2561383e-01
  3.9617532e-01
 -8.1080779e-02
 -1.5923432e+00
 -6.1933398e-02
  7.3471045e-01
  8.2219183e-01
 -1.4266127e-01
  7.9689240e-01
 -3.7694418e-01
 -2.1044530e-02
  5.0977123e-01
  4.5649809e-01
 -8.9069372e-01
 -2.6147647e+00
 -3.5721654e-01
 -2.1163790e+00
 -9.1152406e-01
  1.6027389e+00
  3.7723842e-01
  4.2009968e-01
 -6.9843674e-01
 -1.5506221e-01
  2.9053304e+00
 -1.3307400e+00
  2.3438704e-01
  1.6131949e-01
  4.7634091e-02
 -1.0473962e+00
 -9.3998259e-01
 -1.2676470e+00
 -2.5151873e-01
 -9.7344661e-01
 -1.6202836e-01
  2.6182267e-01
 -2.6835179e-01
 -1.3390541e-01
  2.2802472e-02
 -4.4075912e-01
  8.2573473e-01
 -5.3697843e-02
  2.3960978e-01
  7.7092648e-02
  4.9460557e-01
 -3.4461698e-01
  5.1434267e-01
 -7.6237947e-01
  2.1978557e-01
 -1.5020679e-01
  5.2252209e-01
  6.0419303e-01
 -4.8088646e-01
  7.1754193e-01
  1.9244865e-01
 -3.0046189e-01
 -1.1257333e-01
 -2.6171575e+00
  8.7090321e-02
 -5.9589756e-01
  3.8617998e-01
  1.2482371e+00
  9.8024768e-01
  6.8407381e-01
  5.0110435e-01
  5.2391148e-01
  4.7790429e-01
 -3.4536695e-01
 -2.0155876e+00
 -2.5000978e-01
  2.1613536e+00
  2.9459628e-01
 -3.6700362e-01
  2.5973320e-03
  4.1233510e-01
 -3.7551129e-01
 -6.1986023e-01
 -2.8299853e-01
 -6.6997498e-01
  6.1624151e-01
 -4.4299188e-01
 -2.6997991e-02
  6.0330920e-02
  1.5235131e+00
 -2.7216971e-01
 -5.3991568e-01
 -2.3719802e+00
 -2.5603678e-02
  3.4069293e+00
 -4.0013963e-01
 -4.7111183e-01
 -1.3650528e-01
  5.7649857e-01
 -9.8346092e-02
  1.0084670e+00
 -2.3293941e+00
 -2.2585554e+00
 -7.7871569e-02
 -5.8564359e-01
  2.3157680e+00
 -1.3147842e+00
 -2.7560472e+00
  3.1820217e-01
  9.6520640e-02
 -7.9726279e-01
  1.7426262e+00
 -1.8367511e+00
  5.3012431e-01
  5.9923619e-01
  2.0178668e-02
  2.1452673e-01
  1.5554113e+00
 -8.1795311e-01
  4.8306206e-01
  1.4659005e+00
 -1.6800323e+00
  2.0346847e+00
  3.7808532e-01
  1.2101325e+00
 -2.3023126e-01
  4.2800884e+00
 -3.3046147e-01
 -2.0638299e+00
  2.2264488e+00
 -1.7172649e+00
 -2.1247115e+00
 -2.6436646e+00
 -1.7784796e+00
  8.4840524e-01
 -9.1353506e-01
 -1.8044443e+00
 -2.1511815e+00
 -2.0452092e+00
 -2.7088175e+00
 -2.1535701e-01
 -6.1936188e-01
  1.1186503e+00
 -1.0364016e+00
 -2.3884344e+00
 -2.6249354e+00
 -1.0431660e+00
  2.3401923e+00
  1.2309572e+00
 -3.8015243e-01
  2.0525217e+00
  3.4442837e+00
  3.1050885e-01
  4.0382966e-01
  2.0682187e+00
 -4.2250795e+00
 -8.7301314e-02
  2.6284180e+00
 -1.3876681e+00
 -2.7303407e-01
  7.6631254e-01
 -1.9133719e+00
  2.1024642e+00
 -1.0321996e-01
  4.1994861e-01
 -3.2629415e-01
 -2.3992842e-01
 -6.7903800e+00
  7.4715549e-01
 -3.5600013e-01
 -5.4669040e-01
  4.6151633e+00
 -1.6986946e+00
 -3.3711529e+00
 -2.9308846e+00
  3.2943988e-01
 -5.9213531e-01
 -6.0184635e-02
  2.3022788e+00
 -9.4439602e-01
 -2.8489900e-01
  6.9554820e+00
  1.9366100e+00
  1.8374792e+00
 -2.5749323e-03
  7.3766637e-01
  4.3749542e+00
  2.9940441e-01
  1.0993451e+00
  1.3714616e+00
 -2.6673990e-01
 -1.3276087e-01
 -1.3082100e+00
  7.1638756e+00
  6.2487178e+00
  4.0385299e+00
 -2.2193087e-02
 -1.0025841e+00
 -6.4829729e-02
  1.4240696e+00
 -3.0847144e+00
 -2.7981074e+00
  7.2673613e-01
 -1.5277703e-01
  2.3539627e+00
 -7.3720264e-01
 -1.5017422e+00
 -3.1513947e-01
 -8.9014053e-01
 -1.3334824e+00
 -1.6110492e-01
 -5.9181082e-01
 -3.0795461e-01
 -4.6084970e-02
  3.2464203e-01
  4.6474177e-01
  3.1584969e-01
  1.3908365e+00
 -2.8050268e-01
 -2.4965324e+00
  1.7924966e+00
  2.0036481e-01
  2.0405461e-01
  1.2525476e+00
  1.5153880e+00
  1.3394983e+00
 -1.2350723e+00
  8.2778186e-01
  3.3005327e-01
 -3.4966061e-01
 -4.4006038e-01
 -4.4450313e-01
 -2.6727870e-01
 -3.5282964e-01
 -1.7616299e+00
 -1.8487655e-02
  4.2945758e-01
  1.1106241e+00
 -1.9424853e-01
  3.6975127e-01
  4.6014076e-01
 -4.9109644e-01
 -1.3509686e+00
  8.9324877e-02
 -4.1504480e-02
  5.3567654e-01
 -2.8286164e+00
  1.4335364e-01
 -3.5291407e-01
  8.5037166e-01
 -2.5861198e-01
  1.1413660e+00
 -1.3430980e+00
  5.6906265e-01
 -2.2161099e-01
  1.7195392e-01
 -1.1797307e-02
  1.4309121e+00
 -4.1106813e-02
 -2.9679957e-01
  2.5896115e+00
 -2.8339689e+00
  2.8760855e+00
  2.4430940e-01
  3.3949995e-01
  3.3577338e-02
 -1.9849807e+00
 -6.2695795e-01
  1.0423334e+00
 -4.9113730e-01
  1.5921578e+00
  6.9371676e-01
 -9.3690354e-01
 -2.0777288e-01
  5.2499247e-01
  4.6201846e-01
  1.9635904e-01
 -6.8028486e-01
  3.2015449e-01
 -4.4998142e-01
  1.5064302e-01
 -7.1749872e-01
 -1.4617554e+00
  6.8880665e-01
 -1.5260164e+00
 -2.5684148e-02
 -1.2463656e-01
  4.7550446e-01
  1.4185480e+00
 -6.3797899e-02
 -9.5177248e-02
  1.3022270e+00
 -1.4392549e-01
  3.1862834e-01
 -3.3918959e-01
 -5.2044433e-01
 -2.5260347e-01
 -2.8573781e-01
  8.8317946e-02
  2.4253024e-01
 -1.4767096e+00
  1.0075892e+00
 -6.9840235e-01
  1.3779201e-01
 -3.1609662e-02
 -7.7303275e-02
  1.1901159e+00
  1.2354085e+00
  6.5811843e-01
 -1.5677610e-01
 -2.1097229e-01
 -5.9509724e-01
 -6.1914027e-01
 -2.1871240e-01
 -7.7640581e-01
  4.0308226e-02
  2.9114890e-01
  7.2455370e-01
  1.2003688e+00
 -7.5045902e-01
  5.1116002e-01
  2.5576633e-01
 -6.5495110e-01
 -7.1798146e-01
 -3.5534647e-01
  4.3320771e-02
  1.4372402e-01
  6.3679111e-01
  8.5187453e-01
 -4.7110593e-01
 -2.1570969e-01
 -1.1983782e+00
  2.7004119e-02
 -5.6005955e-01
 -3.9153302e-01
 -7.2658074e-01
 -7.8755134e-01
 -3.2262688e+00
  3.2962829e-02
 -3.2344243e-01
  3.1581685e-01
 -2.3497415e-01
 -7.8809416e-01
 -2.1781158e+00
  4.1638114e-02
  5.8618963e-01
 -1.6098965e+00
  5.5175680e-01
  1.8393427e-01
 -1.7923286e+00
 -8.8144940e-01
  7.6973939e-01
 -7.7294715e-02
  1.6347638e-01
 -8.9601535e-01
  2.9083782e-01
 -6.5473966e-02
  6.7184657e-01
 -1.6995130e+00
  1.3113812e-01
 -4.3895596e-01
 -4.8564196e-01
  4.0102145e-01
  4.3931171e-02
 -1.9172952e-01
 -1.7219272e-01
  2.5302680e+00
  3.5138202e-01
  1.7409402e+00
  6.8115145e-01
 -1.4075204e+00
  9.6549027e-02
  7.6955587e-01
 -1.0436378e+00
  4.8346125e-02
 -5.4588741e-01
 -7.5907606e-01
  5.1811818e-02
 -7.4182981e-01
  3.5446614e-01
  5.0723428e-01
  2.6032415e-01
 -4.5774102e-01
  6.7400329e-02
 -1.2511270e-01
  3.4894536e+00
  1.3321333e+00
  3.0706355e-01
 -8.1883472e-01
 -4.2188734e-01
  5.4796952e-01
 -4.0652376e-01
  1.9981009e-01
 -3.3096153e-01
  1.4076243e-01
  6.4057374e-01
  7.3669004e-01
  2.3040465e-01
  2.8909284e-01
 -2.5108981e+00
 -2.1406256e-02
  1.2828910e+00
  4.4384971e-02
  3.1400311e+00
  2.0183530e-03
  1.2480066e+00
 -4.1123393e-01
  9.2484422e-02
 -3.7158325e+00
 -1.2902554e+00
  1.8457247e+00
 -4.9239695e-01
  1.0924795e-01
 -7.0045404e-02
  4.1009042e-01
  9.8416761e-02
  1.3205209e+00
 -2.5899772e-02
  2.4166498e-01
 -3.0699840e-01
  4.5853877e+00
 -7.9841626e-01
 -7.2268987e-01
  3.9606005e-01
 -7.2733384e-01
  2.0022933e+00
  5.0914049e-01
 -1.1654032e+00
  1.7316992e+00
 -2.4584012e+00
  1.6751704e-01
 -1.3140565e-01
 -1.0885339e+00
  1.1571053e+00
 -9.7147024e-01
  2.6681823e-01
  6.3911921e-01
 -1.6517230e+00
 -5.8885074e-01
  8.8953161e-01
 -1.2615907e+00
 -8.4292218e-02
  1.6628158e-01
  3.3580008e-01
 -3.1199515e-01
  1.2867695e-01
 -6.0391258e-02
 -7.2039557e-01
  9.8985749e-01
  4.6753958e-01
  3.3634564e-01
  5.0377399e-01
  1.1955141e+00
 -2.7604046e-01
  9.5030046e-01
 -4.8801914e-01
  3.6985701e-01
  7.5364113e-03
  1.1955182e-01
  1.7856367e-02
  9.7462976e-01
  1.5883706e+00
 -2.9644150e-01
  9.8503095e-01
  2.0035057e-01
  3.5861068e+00
  1.1787118e+00
 -7.0484900e-01
 -9.9763983e-01
  1.6554754e+00
 -8.1189913e-01
  8.0104820e-02
 -9.3722576e-01
  7.9848987e-01
  5.4176979e-02
  1.1084923e+00
 -1.2308832e-01
 -1.0137758e+00
  8.0124360e-01
 -7.0609450e-01
  1.0049042e+00
  2.2004725e-01
  8.3894020e-01
  4.9074903e+00
 -1.1806302e+00
 -2.5574567e+00
 -4.5603648e-01
 -5.4976350e-01
 -3.9836195e+00
  2.0911083e+00
  8.3877593e-02
  7.2991890e-01
 -1.3838829e+00
 -4.5144024e-01
 -8.2688533e-02
 -3.7360221e-02
 -2.1098703e-01
 -1.2606800e-01
  4.0643927e-01
 -2.6830569e-01
  1.0087579e+00
 -8.1910387e-02
 -2.1784718e-01
 -6.4400971e-01
 -8.5199438e-02
 -4.7208706e-01
  6.9966096e-01
  1.8968350e-01
 -7.6310349e-01
  1.0207042e+00
  1.2127295e-01
  1.2160943e+00
 -6.3742369e-02
 -1.7299652e-02
 -1.7828488e+00
  1.1500540e+00
 -2.2721314e+00
 -7.7922022e-01
  1.3003995e+00
  2.2052406e-01
  2.7119023e-01
  4.4917458e-01
  2.3466685e+00
  4.5136817e-02
 -1.1571473e+00
  2.9144204e+00
 -1.6929533e+00
 -7.2328812e-01
 -9.4718771e+00
  2.3485222e+00
 -7.4025345e-01
 -5.1197491e+00
 -7.9934424e-01
  2.3542323e+00
 -1.1945049e+00
 -1.4702399e+00
 -4.2717338e-01
  5.1733583e-01
  8.1439964e-02
 -4.4192109e-01
 -8.9539498e-01
  2.9163435e-01
  2.6273102e-01
 -9.5920116e-01
  3.3691674e-01
 -3.0247602e-01
  3.2769102e-01
  1.1142981e+00
 -1.5740553e+00
 -6.3464159e-01
  2.9417418e-02
  2.7559243e-02
 -1.0908883e+00
  1.2420257e+00
 -1.9453312e-01
 -9.8788136e-01
  3.8939524e-01
 -1.5684426e+00
 -2.8221694e-01
  4.4528908e-01
  6.4282078e-01
 -1.5981057e+00
  2.3854908e-01
 -2.2791591e-01
  7.2653145e-01
 -8.7329972e-01
 -1.9649081e+00
 -2.0194941e+00
  5.0659436e-01
  2.1855175e-01
 -3.7263593e-01
 -8.9759755e-01
  5.5823702e-01
 -1.2802944e-01
 -1.3525082e-01
 -1.3192694e+00
 -2.0805631e+00
  7.9813635e-01
 -1.2370204e+00
  2.5246990e+00
 -1.9931419e+00
  3.4366506e-01
  8.5093421e-01
  6.3469231e-01
 -2.2505090e+00
 -1.2758131e+00
 -9.6135330e-01
  1.0952079e+00
 -1.9242448e-01
 -5.4761159e-01
  1.3820704e+00
  1.0729793e+00
 -5.8802086e-01
  1.3580558e+00
  2.6084828e+00
 -1.4147050e+00
  3.8285890e-01
  7.1875185e-01
 -5.4759270e-01
  5.3090328e-01
  1.8734802e+00
 -4.8787144e-01
  8.5892665e-01
  2.1496201e+00
  9.9234736e-01
  7.3592138e-01
  3.2983699e-01
  2.5254050e-01
  3.2096440e-01
 -1.0858414e-01
 -1.8665203e+00
 -1.1216329e+00
 -1.2874402e+00
  8.1304616e-01
  1.5027100e-02
  7.1471190e-01
  3.7451634e-01
  5.4604805e-01
  8.0114782e-01
 -5.9545435e-02
 -2.4915622e-01
 -1.2113400e+00
  8.7061393e-01
  9.0526491e-01
  3.3724749e-01
 -1.0914124e+00
 -5.8700734e-01
  5.4212626e-02
  3.9395994e-01
  9.8014452e-02
 -1.1761038e+00
 -6.6043139e-01
 -7.6815486e-03
  2.4270115e+00
 -4.8593488e-01
  9.0995163e-02
  3.7938046e-01
  3.2888633e-01
  2.3399387e-01
 -2.7164140e-01
  1.1997254e+00
  1.1760410e+00
 -1.3456713e+00
  1.3313743e+00
 -2.4906995e+00
 -5.6147330e-02
  3.0790713e-01
 -6.2669098e-02
 -3.2395509e-01
 -4.5553333e-01
  6.1819192e-02
 -1.1379302e-01
 -5.8668655e-01
  1.2784394e+00
  2.5739529e+00
  1.8812638e-02
 -4.6158329e-01
 -5.2973443e-01
  4.3658727e-01
  2.3017099e-01
 -7.0670837e-01
 -7.0656258e-01
 -3.2189712e-01
 -1.1805507e+00
  4.7557446e-01
 -3.6919034e-01
  1.1394247e-01
 -9.9709857e-01
 -7.8631498e-02
  1.9976091e-01
 -4.8257732e-01
 -1.7832302e+00
 -9.7022963e-01
 -5.4814833e-01
  1.4229727e-01
  8.1247978e-02
  5.9795044e-02
 -5.3791869e-01
  8.3412457e-01
 -2.2899503e-01
 -4.6632254e-01
 -1.9470784e-01
  2.1619627e-01
 -1.7094275e-01
  1.9771613e+00
  2.6586964e+00
  3.2390875e-01
  1.2284237e+00
  1.1991180e+00
  1.1054472e+00
  1.6433235e-01
 -2.3591607e+00
 -1.1477723e-02
  4.4672859e-01
  1.3943062e+00
 -1.7446691e-01
  1.7949526e+00
 -3.2702631e-01
 -1.3530347e-01
 -7.9537427e-01
 -5.9825170e-01
 -7.1713775e-01
  1.5909341e-01
 -1.9115897e-01
  2.6617509e-01
  9.4382554e-01
  9.6992619e-02
  6.8106019e-01
 -3.0045971e-01
  1.9299775e-01
  8.6160958e-02
  1.6984444e-02
 -9.5882469e-01
 -7.6779842e-02
 -7.5228709e-01
  1.4227271e+00
  6.4045286e-01
 -2.3038262e-01
  9.9572712e-01
  1.4729629e+00
  2.5128227e-01
  1.3130940e-01
 -1.2392349e-01
 -5.7345295e-01
  1.2563795e-01
  2.2387736e-02
 -2.7921316e-01
 -4.3334168e-01
  1.3903975e+00
  6.4812416e-01
 -2.3709308e-01
 -9.1547215e-01
 -1.5558724e+00
 -5.1299447e-01
  3.5008523e-01
 -6.7518908e-01
 -8.2398772e-02
  3.6955518e-01
 -7.3061812e-01
 -3.4899580e-01
  1.2011342e+00
 -3.6886677e-01
  2.6251230e-01
  1.4001149e-01
 -5.5739301e-01
 -1.8576515e-01
 -2.4853426e-01
 -6.3091272e-01
  5.2838379e-01
  1.9670997e+00
 -1.2394901e-01
 -2.7542424e-01
 -9.3903601e-02
  4.9644941e-01
  2.5949332e-01
  1.5137245e-01
  2.1209364e-01
 -1.0433830e-02
  1.8987939e-01
  1.8726332e+00
 -1.3506749e+00
 -1.7654136e+00
 -9.5511472e-01
 -1.0133502e+00
 -1.3347246e-01
 -1.5984243e-01
 -7.2957093e-01
  7.4349529e-01
  1.8561552e-01
 -5.7796907e-01
 -1.9864598e-01
 -5.9650552e-01
  3.3087024e-01
  9.9292070e-01
  3.9973587e-01
 -5.0850850e-01
  9.2282319e-01
 -2.9293695e-01
 -1.3931428e-01
 -2.1333186e-01
 -9.1874892e-01
  1.8474336e+00
  1.3968056e-01
  1.0955925e+00
 -3.4432268e-01
 -1.0934303e+00
  1.5159513e+00
 -2.4533885e+00
  7.8801548e-01
  1.0936660e+00
 -6.5632534e-01
  5.8978032e-02
 -2.4651811e-01
  3.4224961e-02
  7.9267007e-01
 -1.0232650e+00
 -1.9194489e+00
  1.0864671e+00
 -9.5278269e-01
 -1.5248153e+00
  5.5558723e-01
  3.4774971e-01
 -2.5517169e-01
 -6.3021368e-01
  1.6322637e-01
  5.7998139e-01
  1.4262614e-01
  9.7880894e-01
 -1.9767895e-01
 -3.8210299e+00
 -2.5369424e-01
 -4.5745361e-01
  9.1583890e-01
  9.6858257e-01
 -1.2374503e-01
 -1.0243328e-01
  1.8703975e-01
  1.2903449e-01
  1.6728802e-01
  7.6799452e-02
  1.6430166e+00
 -2.3698499e+00
  6.5926135e-02
  5.1322870e-02
  7.9739459e-02
  1.8751481e-01
  6.2838686e-01
 -4.6171013e-01
 -4.0882096e-01
  5.8333141e-01
 -4.4947353e-01
 -2.3300903e+00
 -5.0765669e-01
 -6.2969673e-01
 -1.0801158e+00
  1.3741819e+00
 -3.9892024e-01
 -4.5627685e+00
  6.6055727e-01
 -4.9217090e-01
  8.7127370e-01
  1.1331756e+00
 -3.6587727e-01
 -2.1599600e-01
  2.3784769e-01
