nep4 3 O Si Au 
cutoff 7.5 7.5 127 127
n_max 8 8
basis_size 12 12
l_max 4 2 0
ANN 50 0
 -3.7382107e+00
  5.3672407e-02
  1.0619088e+00
 -3.4567541e-01
  1.6077149e+00
  9.0210247e-01
 -1.1896169e+00
 -3.6397831e+00
  9.7662282e-01
  2.8575928e+00
 -2.7502782e+00
  2.4300454e+00
  1.3848555e+00
  9.5609367e-02
 -1.9017065e-01
  3.4302752e+00
  3.2192032e+00
 -1.9968624e+00
  4.0807429e-01
 -7.2760839e+00
 -3.8121786e+00
  3.7749031e-01
  9.8934615e-01
  3.0867519e+00
  7.4438983e-01
 -2.6122949e+00
 -2.0270023e+00
  2.5810118e+00
 -4.6685896e+00
 -6.3789517e-01
  5.3047090e+00
 -2.2541220e+00
 -4.6361450e-02
 -2.7338120e-01
 -1.4875685e+00
 -2.5532374e+00
  7.7396852e-01
 -4.6461544e+00
 -2.3284791e+00
  2.1443911e+00
 -8.4575891e-01
 -3.4538853e-01
  1.9603506e-01
  3.9334044e+00
 -7.4384469e-01
 -1.1738002e-01
 -2.0410357e+00
 -5.7775635e-01
  2.0131798e+00
  4.3868798e-01
  2.2414140e-01
 -1.3498495e+00
 -8.9364791e-01
  8.9858383e-01
 -3.0176747e+00
  3.1103055e+00
 -3.0529711e-01
 -2.0121014e+00
 -5.0272341e+00
  2.3315777e-01
  5.2042027e+00
 -2.7607703e-01
  3.4950433e+00
  4.3831906e-01
 -2.1333284e+00
 -1.8664490e+00
 -1.6441293e-01
  3.5698931e+00
 -4.4229531e-01
 -2.3057981e-01
 -5.9409750e-01
 -3.1545393e+00
 -8.7153178e-01
  3.3306782e+00
 -2.3270998e+00
  1.7563465e+00
 -7.1684855e-01
 -2.7353950e+00
  1.7964990e+00
 -2.0878823e+00
 -4.0555439e+00
 -4.5543618e+00
 -1.4908482e-01
 -2.6591590e-01
  1.2229049e+00
 -1.8008510e+00
 -2.0679817e+00
  3.3565507e+00
  1.2143883e+00
 -3.1497147e+00
 -1.1867175e+00
  5.8077949e-01
 -9.3572229e-01
  4.7308654e-01
 -9.0016824e-01
  5.8263826e-01
  2.8357689e+00
 -3.6984766e+00
  9.1465712e-01
  8.0056943e-02
 -1.7615354e+00
  1.2358807e+00
  1.8444461e+00
 -4.6696696e-01
  2.3799247e-01
  2.0499980e+00
 -3.9588659e+00
  5.4152622e+00
 -2.1249986e+00
 -1.7702179e+00
 -1.0653355e+00
 -6.1199218e-01
  1.1567891e+00
 -1.8721787e+00
 -4.7366485e-01
  5.9491359e-03
  2.8062727e+00
 -4.3511372e+00
  5.0344620e+00
  4.7677612e+00
 -9.4430320e-02
 -1.9584264e+00
  4.3235505e-01
  3.1362441e+00
  2.6428590e+00
  2.1038713e+00
  7.2752690e-01
  9.7864157e-01
  5.9747148e+00
 -3.5052425e-01
 -4.0106273e+00
 -2.2738101e+00
  1.3914391e+00
 -1.3880025e+00
  4.5235004e+00
 -5.4207408e-01
  9.2014468e-01
  5.9338087e-01
 -2.5957360e+00
 -1.2931534e+00
  1.1459935e+00
  1.8934767e+00
 -2.9897239e+00
  8.2346535e+00
 -5.5818291e+00
 -6.3938653e-01
 -2.2802093e+00
  2.8657567e-02
 -1.4236490e+00
  2.2772760e+00
 -1.8819952e-01
  1.2438686e+00
  5.6374569e+00
 -1.1330248e+00
 -1.8160782e+00
 -1.5689313e-01
  3.0113285e+00
 -2.7151484e+00
  1.8505712e-01
  2.1271962e-01
  1.1130936e+00
 -1.4495847e+00
  3.7322383e+00
  3.8094109e-01
 -2.0107453e+00
 -2.8624201e-01
  2.4075773e+00
  3.6361706e+00
  2.6102002e+00
 -2.4685788e+00
 -1.9788759e+00
 -7.4073726e-01
 -4.9294668e-01
  3.4239004e+00
 -1.7109826e+00
 -2.7505910e-01
  1.6927346e+00
  8.6610776e-01
  1.5819643e-01
 -8.3950520e-01
  1.0505930e-01
  7.3571980e-01
 -1.8075275e+00
  2.2639651e+00
 -1.8000886e+00
  1.1853664e+00
  6.8190160e+00
  1.6412821e+00
  3.0577508e-01
  9.9775124e-01
  2.7224569e+00
  1.1895367e+00
 -4.8948136e-01
 -1.0607853e+00
  1.1805180e-01
  3.4163025e-01
  1.7643983e+00
 -6.4981139e-01
  3.0243764e+00
  7.4298483e-01
 -2.4425447e+00
  1.8192334e+00
  1.5347310e+00
  1.5661295e-01
  2.9332871e-02
 -5.9476000e-01
 -6.6484487e-01
 -9.9477780e-01
 -1.9294572e+00
  4.6012592e-01
  2.6613894e+00
  5.6615102e-01
  1.3975617e-01
  1.0516672e+00
  3.9828750e-01
 -1.1145588e+00
  2.8515937e+00
  7.7271944e-01
 -3.0092678e+00
 -6.3261729e-01
  7.9302800e-01
 -2.3569436e+00
 -1.6068161e+00
  2.9130232e-01
  5.0534114e-02
 -2.4008295e-01
  4.5793872e+00
  3.3957925e+00
  2.0944691e+00
  3.2625559e-01
  3.9975591e+00
  2.9945619e+00
 -1.6238248e-01
 -2.9800391e+00
  3.5167277e+00
 -5.2314371e-01
 -2.9123611e+00
 -2.1845822e+00
  4.7276866e-01
  1.0783217e+00
 -1.5843580e+00
  3.4947890e-01
  2.7905626e+00
 -1.2853851e+00
  5.2426171e+00
  3.5967023e+00
 -1.0040601e+00
 -2.2142142e-02
  1.1967207e+00
  1.4084338e+00
  5.6688595e-01
 -4.3536263e+00
  2.1463661e+00
 -6.1179376e-01
 -6.2658858e-01
 -1.8714273e+00
 -1.3793731e+00
 -1.4493023e+00
 -7.5306010e-01
  9.7342573e-02
  1.5324677e+00
  2.6956499e-01
 -7.7583528e-01
 -9.1079392e-02
 -3.9101350e-01
  1.2272834e-01
  2.4469790e+00
  8.9562982e-01
  7.8641140e-01
 -5.8097229e+00
 -2.5293827e+00
 -1.7525065e+00
 -5.2506614e-01
 -6.8675923e-01
 -1.9070943e-01
  2.8089743e+00
  8.4717369e-01
  2.2191987e+00
 -5.2993375e-01
  6.5634239e-01
  5.7607400e-01
  9.4792128e-02
  3.3451579e+00
 -2.3956053e+00
 -1.8821807e-01
  9.7878158e-01
 -9.9861819e-01
  3.2901468e+00
 -3.1602700e+00
  7.6944709e-01
 -2.7372396e-01
  3.3151760e+00
  5.8403713e-01
 -9.5518339e-01
 -2.5790458e+00
  2.1142828e+00
 -2.8097510e+00
  1.4781069e+00
 -4.1068637e-01
  4.6645269e-01
  3.2377727e+00
  6.6566926e-01
 -9.6458644e-01
  1.9883671e-01
 -1.6546099e+00
 -2.0026058e-01
  1.3149327e+00
 -1.5271505e+00
 -5.2109867e-01
 -3.6041528e-01
 -8.6719650e-01
  2.7259965e+00
 -5.9171712e-01
 -2.4148028e+00
  2.6391017e+00
 -1.9178768e+00
  5.6357241e-01
 -3.1690013e+00
 -2.8452914e+00
  1.4689732e+00
 -2.9054952e+00
 -2.0411077e+00
 -1.0450094e+00
 -7.0726842e-01
  1.0879389e+00
 -2.5556293e+00
 -1.0853240e-01
 -2.5777006e+00
 -5.8125377e+00
 -8.6966711e-01
 -2.2785320e+00
  7.3171034e-02
 -1.4547870e+00
 -3.7397805e-01
  1.1391243e+00
  4.8400846e+00
 -2.0661922e+00
  4.5737281e+00
 -5.1511250e+00
  4.0580970e-01
  1.2140752e+00
 -4.5788136e+00
 -3.8894457e-01
  1.2691861e+00
 -9.0226102e-01
 -1.4926996e+00
 -1.0932549e+00
  4.0160346e+00
 -5.5027550e-01
 -4.0476489e+00
 -1.5368816e+00
  2.1260352e+00
 -1.1421324e+00
  5.8835804e-01
 -9.5519072e-01
  2.0257025e+00
 -3.7782031e-01
  2.1799679e+00
 -2.8406923e+00
 -1.1559517e+00
 -2.6271496e+00
 -4.0143153e-01
 -1.0863012e+00
  1.6424994e+00
  1.0707695e+00
  1.0448104e+00
 -3.3814077e+00
  1.8254151e+00
 -6.6270822e-01
 -6.3558501e-01
 -4.2491615e-01
 -5.4574335e-01
  1.0009333e-01
 -4.8470497e-03
 -1.6777015e+00
 -2.5451183e-02
 -8.4214377e-01
  2.9014971e+00
  1.0580710e+00
 -4.7900815e+00
 -6.4911646e-01
 -3.4337854e-01
 -1.2734912e-01
  3.9354169e-01
  6.2234372e-01
  8.6787415e-01
 -1.8447994e+00
 -7.3454380e-02
  7.2663814e-02
 -1.1756197e+00
 -5.4750532e-01
  1.3986009e+00
  1.3802043e+00
 -1.0841647e+00
  2.4388711e+00
 -1.2116046e-01
 -3.7751739e+00
  2.7172313e+00
 -3.2304792e+00
  1.5861887e+00
  5.1408148e+00
 -2.6045976e+00
 -6.7565936e-01
 -4.5315164e-01
  4.5820956e+00
 -1.1278069e+00
  2.2773194e+00
  1.4160022e+00
 -1.1685234e+00
 -2.0407592e-01
  7.7746791e-01
 -3.8976461e-02
  8.7128288e-01
  2.2208229e-02
  9.1333586e-01
  1.6215377e-01
  1.7611531e+00
  7.5324434e-01
 -3.0978332e+00
  1.5045731e-01
 -3.3271354e-01
  1.3371441e+00
 -2.1527162e+00
  3.0355313e+00
  1.7898751e+00
 -2.6077628e+00
  1.0073427e+00
  1.5425158e+00
 -2.7040488e-01
  2.1450326e+00
 -7.6198079e-02
  5.7892025e-01
  2.1778185e+00
  5.3004971e+00
  2.0346875e+00
 -1.2959905e+00
  9.0297586e-01
  6.3551855e+00
 -1.2729645e+00
  3.0104131e-02
 -8.2495827e-03
  1.0145395e-01
 -3.5801682e+00
  1.3304677e+00
  4.7439542e+00
  3.1836221e+00
  1.3776188e+00
  1.3792630e+00
 -1.1899884e+00
 -1.9919546e+00
 -1.3305049e+00
 -3.4305673e+00
 -4.8849092e+00
 -2.3887351e-01
  9.0806210e-01
 -1.6399063e+00
 -1.3587786e+00
 -1.0098304e+00
  2.2131104e+00
 -1.3479691e+00
 -7.7960575e-01
  3.7530832e+00
  1.9354439e-01
 -1.1359788e-02
  8.4890056e-01
 -2.0290387e+00
 -1.2356635e+00
 -4.4970450e+00
  1.8742764e+00
  1.2818254e+00
  1.9269587e+00
  1.5971628e+00
  4.5910972e-01
  3.8288057e+00
 -9.5761895e-01
 -1.4061430e+00
 -3.4944918e+00
 -2.9333988e-01
  9.4936240e-01
  1.0741220e-01
 -1.0673819e+00
  7.0792353e-01
 -1.6672495e-01
  2.0123014e+00
  1.7462271e+00
 -4.9839950e+00
 -4.7108501e-01
 -1.7788144e+00
 -1.6568002e+00
 -1.5479848e+00
  5.9676111e-01
 -1.9354031e+00
 -2.6459334e+00
  2.4264440e-01
 -8.3745718e-01
  4.4240937e-01
  1.7540740e+00
 -4.6299729e+00
 -3.5242686e+00
 -1.2344288e+00
  1.2596003e+00
  1.5529327e+00
 -6.6140356e+00
  1.2074785e-01
  4.0953560e+00
  1.5016387e+00
 -3.1513700e+00
  8.3201826e-01
  1.0467688e+00
 -7.7517772e-01
 -6.8934066e-03
 -1.7702403e+00
  1.1854477e+00
 -1.1875349e+00
  2.1679597e+00
 -5.1932949e-01
 -6.3743019e+00
  8.9736509e-01
 -2.2646511e+00
  3.8638824e-01
  6.8448150e-01
  2.2823465e+00
  1.4126366e-01
  2.6198883e+00
 -1.5976410e+00
 -1.2398594e-01
 -2.1736984e+00
  2.4680295e+00
  8.2628012e-01
  2.3496242e+00
 -9.0969795e-01
  9.9685854e-01
  1.8778205e+00
  5.4342031e+00
 -1.4101514e-01
  4.6788681e-01
 -1.0047870e+00
  9.4293125e-02
  3.7955162e-01
 -1.0189344e-01
  7.3902512e-01
  2.6353853e+00
  6.8413788e-01
  2.7295288e-01
 -1.5361625e+00
 -2.4265528e+00
 -6.3939393e-02
 -2.7609711e+00
  9.2509288e-01
  1.2775114e+00
 -5.0738478e-01
 -1.2538189e+00
 -1.9234400e+00
 -2.0852807e+00
  4.9996406e-01
 -1.9406103e+00
  1.5859898e+00
 -2.3726475e+00
 -1.5571429e+00
  1.5373034e+00
  9.2817295e-01
 -6.9558030e-01
 -3.6733282e+00
 -3.9128989e-02
 -3.4882906e-01
 -9.3672615e-01
  1.5609418e+00
 -2.9122785e-01
  2.8544445e+00
  6.1151999e-01
  1.4997817e+00
 -8.8708788e-01
  1.5633191e+00
  4.1107359e+00
 -3.0546063e-01
  9.2576957e-01
  2.5124676e+00
 -7.9511374e-01
 -2.7485842e-01
 -1.4500360e+00
 -8.0920774e-01
 -1.2357750e+00
 -4.6338398e-02
 -3.5198087e-01
  9.2571296e-02
  7.1578819e-01
  1.9384187e+00
  8.3248367e+00
  1.5201683e+00
 -3.1617475e+00
  2.6733799e+00
  4.6136168e-01
 -5.4463619e-01
 -6.7553379e-02
 -9.5053589e-01
  1.6374966e+00
 -1.7642995e+00
  1.9080681e+00
 -1.7448221e+00
 -4.8452309e-01
  3.7442616e-01
  2.9980943e+00
  2.5157933e+00
  1.2760615e-01
 -1.8508786e+00
  4.2183977e-01
 -2.0196013e+00
  2.0889007e-01
  1.1889541e+00
  1.9635768e+00
  4.3622777e-02
  1.1615287e+00
 -1.0105878e+00
  1.8811464e-01
 -1.5309403e+00
 -1.0599455e-01
  3.6163110e-01
 -9.6749192e-01
  4.5637971e-01
 -4.2576250e-01
 -1.8982154e+00
 -2.2288632e-01
  7.3201430e-01
 -2.8110659e+00
  1.4119439e+00
 -1.8700937e+00
  8.5234505e-01
 -2.7341826e+00
 -1.7099384e+00
  4.2677629e-01
  6.7939430e-01
 -3.8252646e-01
 -6.3993275e-02
  2.8690186e+00
 -4.5058545e-01
 -8.0091745e-01
 -8.6134803e-01
 -1.9025272e-01
 -8.3736283e-01
 -3.5559955e-01
 -2.9874223e-01
  3.5540605e+00
 -2.1551654e+00
  4.3970246e+00
 -8.4637052e-01
  1.2066821e-01
  2.4385817e+00
  1.1052380e+00
 -1.1308377e+00
 -5.9329104e-01
  7.8145355e-01
  8.6001629e-01
 -2.5779893e+00
  9.8783290e-01
  9.0685052e-01
 -5.4362946e+00
  3.2449672e+00
 -1.0947869e+00
 -1.5009181e+00
 -2.0959151e+00
  1.8694499e+00
  8.2405448e-01
  9.2319834e-01
 -8.8375092e-01
  1.6422155e+00
 -1.8119308e+00
  1.0438785e-01
  8.7707663e-01
  1.9092649e+00
  1.7766041e-01
  4.7653577e-01
  1.0841600e+00
 -3.9485782e-02
  4.5685787e+00
 -5.8671913e+00
  1.3543049e+00
 -2.1447620e+00
  1.0403782e-01
 -1.4194573e+00
  3.2884532e-01
  4.8341426e-01
 -6.1339486e-01
  3.3093107e+00
  2.0162845e-01
  1.3059773e+00
 -1.3840767e+00
  1.1119088e+00
 -2.1186664e+00
  1.3832140e+00
  5.3560680e-01
  1.7220101e+00
 -5.9156960e-01
 -1.5313631e+00
  1.0305026e+00
  1.8546489e-01
 -1.4924073e-01
 -5.2771050e-01
  1.0145652e+00
  2.4521339e+00
  9.4854498e-01
  1.3763597e+00
  1.1864796e+00
 -3.1488385e+00
  2.8461707e+00
  3.0063426e-01
 -1.9226807e+00
  1.3953995e+00
 -6.1100894e-01
  2.2694690e+00
  2.7320170e+00
 -2.0430377e+00
  4.8163336e-02
  1.0779083e-01
 -1.6867517e+00
 -2.5497105e+00
  4.8748463e-01
 -5.2256353e-02
  1.6122425e+00
 -2.2109716e+00
  6.1770177e-01
 -2.2097048e-01
  4.4851959e-02
  3.1984873e+00
  1.1416616e+00
 -3.6517782e+00
 -2.6013228e-01
  6.3873684e-01
 -5.7170633e-02
 -3.1166446e-01
 -1.1214204e+00
 -1.4654063e-01
  1.0296104e+00
 -1.2855731e+00
 -1.3671227e+00
  2.8052802e+00
  2.8081888e-01
 -1.7076535e+00
  2.0671942e+00
 -2.6931872e+00
  1.4374927e+00
  6.7306149e-01
  5.4497647e-01
  3.0343411e+00
 -5.4159462e-01
 -1.0373697e+00
  2.0753148e+00
 -1.1122658e+00
  3.2080185e-01
  4.2001379e-01
  2.2612975e+00
  3.0567980e-01
 -2.0386775e+00
  2.0248456e-02
  1.3025678e+00
  3.1411648e-01
 -1.4753934e+00
  2.4420545e+00
  6.9095358e-02
  1.9176702e+00
  1.3504499e+00
  8.0925316e-01
  5.1786094e+00
 -6.3767564e-01
  1.0141380e+00
 -1.0186462e+00
  1.8986675e-01
  1.5777568e+00
 -2.7788100e+00
 -3.2403553e+00
 -8.4875500e-01
  8.6706412e-01
 -2.7856367e+00
 -7.2480714e-01
  2.3495991e+00
  6.9446123e-01
  9.2336911e-01
 -6.1173949e+00
  5.3213084e-01
 -2.8802145e+00
 -3.4006482e-01
 -4.7439188e-02
 -5.8318323e-01
  7.1539682e-01
  2.8591795e+00
  2.8828293e-02
  8.4010798e-01
  1.9264930e+00
 -2.8238010e+00
  3.5916414e+00
  2.2047257e+00
 -2.2422717e+00
 -1.9480665e-01
  1.3890633e-01
 -2.9686496e+00
 -1.0114696e+00
 -1.3431578e+00
 -2.2155848e+00
  1.2003024e+00
 -1.1031824e-01
  2.8086755e+00
 -2.4696369e+00
  2.0476248e+00
 -5.9932280e-01
  5.5371243e-01
 -1.1951899e-01
 -2.8242123e+00
  5.7974672e-01
  3.0859706e+00
 -1.5360842e+00
 -4.7977990e-01
 -1.5598254e+00
 -1.2743025e+00
  3.1780367e+00
 -2.7051690e+00
 -8.1310596e+00
  1.4648688e+00
  6.8349105e-01
  2.1554031e+00
 -1.5243729e+00
 -2.6633236e-01
 -1.7542768e+00
 -1.0204468e+00
  2.7637594e+00
  3.0127623e+00
 -2.8500813e-01
 -1.2477643e+00
 -4.3628690e-01
 -3.2398123e-01
 -1.4942185e+00
 -2.2553799e+00
 -1.5999311e+00
  4.5879745e+00
 -1.0789778e+00
  8.2151812e-01
  2.2226720e+00
  1.4211417e+00
 -4.9874492e+00
  1.7078563e+00
 -1.6523798e+00
 -5.5283898e-01
  1.8129265e+00
  1.4700668e+00
 -1.9263973e+00
  2.0945828e+00
  1.9959666e+00
 -3.5843406e+00
 -4.6849844e-01
 -2.7826772e+00
 -1.8619103e+00
  3.8876405e+00
  2.0545189e+00
 -7.5471270e-01
 -3.6808637e-01
  2.5685084e+00
  6.5275979e-01
  2.0696535e+00
 -2.4964166e+00
 -2.6417062e+00
 -1.1844050e+00
  1.9061962e-01
 -1.2923690e+00
  1.5787635e+00
 -1.6977569e-01
 -8.4791034e-02
  2.4176044e+00
 -1.4062777e-01
 -1.8881066e+00
 -3.8527644e-01
  2.5131115e-01
  5.1460284e-01
 -7.5315702e-01
 -1.4158512e+00
  2.7577956e+00
  1.4575753e-01
 -1.2053642e+00
 -2.1826585e-01
  7.6391912e-01
  8.0615562e-01
 -2.1257459e-01
 -3.3927941e+00
 -1.1844534e+00
 -2.1046929e-01
 -1.3418481e+00
  3.8825369e+00
  2.3381684e+00
 -1.4822414e+00
 -2.6867559e+00
  9.0314531e-01
 -1.3550344e+00
 -4.1057444e-01
 -1.1659861e+00
 -4.5862224e-02
 -7.5843632e-01
  1.9552384e-01
  6.5064240e-01
  1.0178165e+00
  2.4166271e-01
  4.5077503e-01
  1.1988567e+00
 -1.9709530e+00
  2.6889412e+00
  2.2487009e-01
 -5.7596695e-01
 -3.6259145e-01
 -1.1151624e+00
  1.1543622e+00
  3.7169650e-01
  4.5462103e+00
  3.4661155e+00
 -3.7087206e-02
 -1.9556746e+00
 -1.5361121e+00
  9.0259677e-01
  7.4864036e-01
  7.4304289e-01
 -1.8260553e-01
 -1.0778948e+00
 -9.0305179e-01
 -1.5959339e+00
  8.4151268e-01
  1.9557810e+00
 -2.8936870e+00
  3.6201727e+00
  1.9029469e+00
  2.1057820e+00
 -1.4147604e+00
  3.5682759e+00
  2.7095062e-01
 -8.8308525e-01
  4.3101768e+00
  5.7631922e-01
 -5.8512998e-01
  1.0548238e+00
  4.2029002e-01
  8.6263496e-01
  6.6035175e-01
 -7.1822876e-01
 -2.6221350e-02
  3.4381375e+00
  1.8395315e+00
  2.0200915e+00
 -2.3570697e+00
 -3.6396229e-01
  1.9032305e+00
 -1.2936781e-01
 -1.3581824e-01
 -3.4523065e+00
 -4.0160084e-01
 -3.4228861e+00
 -8.3382392e-01
 -1.1384630e+00
 -6.0192943e-01
 -3.7170810e-01
  1.1771217e-01
 -5.4604471e-01
 -1.8720362e-01
 -4.8841780e-01
  2.2176423e+00
 -1.6955277e+00
 -4.7016297e-02
 -1.6713971e-01
 -1.1942865e-01
  3.1044966e-01
  1.2200083e+00
  2.9372253e+00
  2.1160791e+00
  2.0990671e-01
 -3.2670265e-01
 -1.0966101e+00
 -2.0254691e+00
 -4.1405134e+00
 -8.1734639e-01
  1.4367026e+00
  2.6413679e+00
 -2.0451610e+00
  4.3439925e-01
  3.2526152e+00
 -2.1905574e-01
  1.3605468e+00
  3.2168455e+00
  1.4126891e+00
 -1.2033219e+00
  2.5135252e+00
  1.0970393e+00
 -1.2161975e+00
  4.0981299e-01
  2.7420330e+00
  1.1755075e+00
  1.0760174e+00
  6.0462284e-01
  3.5330567e+00
  2.6994317e+00
  2.4751582e+00
 -3.7148902e-01
 -1.6680527e+00
  2.3910739e+00
 -1.1049907e+00
 -2.9741687e-01
  4.4524384e-01
 -1.6151735e+00
  1.2060108e+00
 -1.4521208e+00
 -1.6517491e+00
  3.8109177e-01
  1.3750682e+00
 -1.4992448e+00
 -2.6146957e-01
 -1.4251429e-01
 -2.3352475e+00
 -2.2260127e+00
 -3.8737774e-01
 -8.3919221e-01
 -3.8578395e-02
 -3.3205703e-01
 -3.2368677e+00
  7.4958909e-01
  1.9655191e+00
  4.7038898e+00
 -4.7222404e+00
 -2.4146980e-01
 -1.3093066e+00
  5.2259326e-01
  2.4406500e+00
 -1.3032737e+00
 -8.1368881e-01
  4.7647125e-01
  2.0118871e+00
  1.1067549e+00
 -3.8510447e+00
 -2.4196439e+00
 -2.5086780e+00
  3.5471700e-02
 -5.2485001e-01
  3.7892461e-01
  2.9155414e+00
 -5.5140886e-02
 -3.7222302e-01
 -6.0605061e-01
 -4.4048399e-01
 -4.1908461e-01
 -6.0647702e-01
 -4.7433347e-02
 -2.1295886e+00
 -1.1608335e+00
 -3.8545376e-01
 -2.5239112e+00
  2.2298679e+00
  4.9644971e+00
  1.8907315e+00
 -9.0689188e-01
  2.6846383e+00
  2.2717416e+00
  5.9309107e-01
 -6.6271037e-01
  1.4028581e+00
  2.4128973e+00
  1.4638630e-01
  3.0902526e-01
 -2.8822434e+00
  9.7738928e-01
 -6.8203449e-01
 -1.6026837e+00
  2.6282012e-02
  3.4305489e+00
  3.4326005e-01
 -6.8305123e-01
  9.5522964e-01
 -1.6822824e+00
 -9.2762834e-01
  7.4837875e-01
  5.7986850e-01
 -6.6218221e-01
 -3.4585854e-01
 -1.5476263e+00
 -1.1761669e+00
 -1.5236092e+00
 -2.7275851e-01
  4.2574275e-01
  2.6914474e-01
 -9.0522647e-01
 -4.2963779e-01
 -1.2682844e+00
 -1.0596142e+00
 -2.2028393e-01
  2.7944195e-01
 -2.7717012e-01
 -1.6173575e+00
  1.6926024e+00
  1.3187675e+00
 -7.5035787e-01
 -3.4256797e+00
  2.3850985e+00
 -4.2687839e-01
  3.9856570e+00
 -2.0623884e+00
  2.4093006e+00
  1.3714195e+00
  2.3652016e-01
 -2.3289552e+00
  2.2083898e-01
  3.1680710e+00
  2.3236487e+00
  1.0019099e+00
 -2.9264784e-01
 -5.9870321e-01
 -1.4861196e+00
  1.6256112e+00
  7.4313033e-01
 -5.0558619e-02
 -2.3861632e-02
  2.9673913e+00
 -1.8186638e-01
  4.5327583e-01
 -1.4132135e+00
 -3.0184379e+00
 -1.5415100e+00
 -1.1359160e+00
 -6.5826491e-02
  1.3325000e+00
 -2.9970610e+00
 -2.2938459e+00
  3.5687190e-01
 -9.7731757e-01
 -7.5226104e-01
 -1.9334237e-01
  4.6377182e-01
 -1.0029264e-02
 -1.3975745e+00
  4.4651109e-01
 -4.0713400e-01
  2.6583085e+00
 -1.6769824e+00
 -7.8433537e-01
  3.7634203e-01
  4.2961226e+00
  1.8385756e+00
 -8.8677931e-01
  1.1488464e+00
 -1.1628788e+00
  2.7277088e+00
 -1.0035809e+00
  3.2617762e+00
 -1.1865516e+00
 -2.0555770e+00
  1.7139554e+00
  3.3345127e-01
 -1.6576273e+00
 -4.8048902e-02
  4.7279339e+00
  1.9927053e+00
  4.4298053e-01
 -4.1327066e+00
 -9.2680079e-01
 -5.9307933e-01
  1.4558384e+00
  2.4209301e+00
  8.8491416e-01
  2.6384530e+00
  1.5917506e+00
  5.2365675e+00
 -1.5576308e+00
 -1.5709757e+00
  1.7772845e+00
  3.0606191e+00
 -5.9554237e-01
  7.2340471e-01
  1.4485335e+00
 -1.4452497e+00
 -3.2996335e+00
  2.7733850e-01
 -8.9963126e-01
  2.0754883e+00
 -1.3764472e-01
  2.7378693e-02
 -1.4127697e+00
  3.5004287e+00
  3.4257895e-01
  5.9598273e-01
 -8.3924901e-01
 -5.6782550e-01
  2.7424085e+00
  4.8217648e-01
 -2.9069346e-01
 -1.1135465e+00
 -9.0031081e-01
  4.2837620e-01
 -2.4349308e+00
 -1.8342663e+00
 -1.3414614e+00
  8.0405289e-01
  1.7338414e+00
 -2.8498681e+00
 -3.9504893e+00
  8.2116860e-01
  2.0765178e+00
  2.8164783e-01
 -1.0478017e+00
  1.2782334e+00
 -4.9396157e+00
 -2.8397880e+00
  6.7307389e-01
  9.5536806e-02
  1.8905462e+00
 -1.8142911e+00
 -2.0426238e+00
  1.9836946e+00
 -1.8910362e+00
 -4.5255911e-01
  2.2733765e+00
 -7.1878061e-02
  1.9766062e+00
  6.9621795e-01
  1.8556695e+00
  1.2209505e+00
 -6.4977217e+00
  8.9169824e-01
 -4.6016941e+00
  1.3279303e+00
  1.2522236e-02
  5.4401475e-01
  5.1421058e-01
  9.2359975e-02
 -4.3716512e+00
 -9.2266965e-01
 -2.3880920e-01
  3.5739833e-01
  2.2403417e+00
  4.3133035e-01
  5.8193332e-01
 -2.9867167e+00
  5.2498698e-01
  1.7640800e+00
 -1.2000325e+00
  1.1262801e+00
  8.8027561e-01
  1.3504751e+00
  1.1242929e+00
  5.3754586e-01
  3.1849589e+00
  9.1151011e-01
  5.3491688e-01
  9.2897993e-01
 -2.0916607e+00
  3.6645746e+00
  3.3376729e-01
  6.8508464e-01
 -1.6717882e+00
  5.0362670e-01
  4.0870768e-01
  1.9071014e-01
 -1.7798523e+00
 -2.6684537e+00
  2.0184679e+00
 -3.6123312e+00
 -1.9687449e+00
 -1.9142691e+00
 -6.6672951e-01
 -8.8614810e-01
 -2.3891282e+00
 -3.0083110e+00
  1.2347783e+00
 -1.0070797e+00
  1.2999548e+00
 -1.5397796e-01
 -4.5517135e-01
 -1.1730519e-01
 -1.1453025e+00
  8.6704081e-01
 -2.0937388e+00
  1.3708656e+00
 -1.3656542e-03
  3.1756277e+00
  1.2336082e+00
 -2.0849910e+00
 -2.7507803e-01
 -8.0757993e-01
 -1.0200337e+00
 -2.1401455e+00
  7.4312735e-01
 -1.2034017e+00
 -2.3695517e+00
 -1.1745844e+00
 -1.0056930e-01
 -1.6922615e+00
 -2.2166145e+00
 -1.0171237e+00
  1.3901857e+00
 -2.6321939e-01
  2.0232894e+00
 -1.5398598e+00
 -2.7008424e+00
  1.1274774e+00
  1.4382825e+00
  4.0593080e-02
 -1.2123926e+00
  5.8857155e-01
  2.0068774e+00
 -1.2268608e+00
 -2.1855466e+00
 -1.5601625e+00
  4.4091191e+00
  3.2285600e+00
 -3.5465467e-01
 -1.8276002e+00
 -1.7400632e+00
  7.8006244e-01
 -3.4758872e-01
 -2.0544314e-01
 -4.9611598e-01
 -8.8885538e-02
  1.1499470e+00
 -1.6404913e-01
  5.3255689e-01
 -9.4209656e-02
 -2.8758030e+00
 -2.3010426e+00
  5.2477279e+00
  2.1064951e+00
 -4.1686404e-01
  1.2816560e+00
  9.9935657e-01
  1.3341866e+00
 -3.9934542e+00
 -2.0565956e+00
 -1.8720810e-01
 -3.0749878e-01
 -7.2408521e-01
 -1.6874676e+00
 -1.7932571e+00
 -2.8095014e-02
 -1.3641689e+00
 -1.2157459e+00
  1.3391048e+00
  8.9601737e-01
  2.2233091e-01
 -1.6680348e+00
  6.7396462e-01
  4.1335207e-01
  2.4945812e+00
 -8.1030482e-01
 -4.8936126e-01
  1.6609968e-01
 -1.2147202e+00
  2.9735310e+00
 -1.3830535e+00
 -7.5162947e-01
 -2.1869681e+00
 -3.1096375e-01
 -8.3311158e-01
 -2.6230824e+00
 -1.0638511e+00
  2.8453388e+00
  1.0360039e+00
 -1.4296407e+00
 -1.6045421e+00
  7.3394865e-01
  5.9258550e-01
 -3.1809026e-01
  2.7679765e+00
 -1.3688412e+00
  3.9771783e+00
 -2.6581104e+00
 -1.8524641e+00
 -8.0320120e-01
 -1.8285589e+00
 -4.4825916e+00
 -1.9951230e-01
 -6.4213973e-01
  9.9195376e-02
 -1.1256521e+00
  5.2427506e-01
 -3.2577616e-01
  7.4872118e-01
  1.3835247e+00
  2.3695092e+00
  2.3408861e+00
  6.5001786e-02
 -3.4863229e+00
 -2.7426165e-01
 -7.4758589e-01
  2.2908513e-01
  1.8226722e-01
 -9.9049181e-02
 -2.0195453e+00
 -1.6953620e+00
 -3.8963765e-01
  1.2691790e+00
  2.6336923e+00
 -9.5730114e-01
 -1.5507853e+00
 -4.6224087e-01
  1.3166748e+00
 -7.6586860e-01
 -8.5194260e-03
 -5.6091058e-01
 -1.8559855e+00
 -1.4607844e+00
  6.3966465e-01
  3.0946462e+00
 -4.3094522e-01
 -7.5441903e-01
  8.2158744e-02
 -9.5256627e-01
 -3.3511355e+00
  1.5653881e+00
  1.2131929e+00
 -5.7166991e+00
 -3.1498432e+00
 -4.7324228e+00
  4.9217784e-01
 -2.0060563e+00
 -3.7292278e-01
 -4.6080878e-01
 -4.0352578e+00
 -1.3663396e-01
 -3.9084005e-01
 -1.8200125e-01
  2.3034854e+00
  5.9354222e-01
  5.8659178e-01
  1.8370242e+00
  8.0799922e-02
 -7.1749799e-02
  2.3376288e+00
  2.5465147e+00
 -3.1426105e+00
  5.8036339e-01
 -2.5953627e+00
 -1.3087869e+00
  9.2205721e-01
  1.2892929e+00
  2.6399777e+00
 -8.9988095e-01
 -1.6077981e+00
 -2.6652069e+00
  1.5068882e+00
  1.2983707e+00
  1.4968078e-01
  3.7981856e-01
  3.4710765e-01
  1.2846485e+00
 -6.8842657e-02
 -4.9876615e-01
  3.2181721e+00
  7.4625617e-01
 -1.2187339e-02
 -1.2938493e+00
 -4.9289813e+00
  1.2157481e+00
  8.1253064e-01
 -1.7723516e+00
  5.0083607e-01
 -1.8211075e+00
 -2.1822617e+00
 -7.4848300e-01
 -1.4810022e+00
 -3.8329709e-01
  1.2808151e+00
  9.5860362e-01
  8.3603215e-01
 -9.0516454e-01
  3.6479609e+00
 -1.9563986e+00
 -1.9375175e+00
 -3.7004665e-01
 -1.3359452e+00
  3.7721214e+00
 -1.8791008e+00
  5.7580888e-01
 -3.1704643e+00
  2.7662184e+00
  1.2923524e+00
 -2.3755391e+00
  4.4854867e-01
 -9.8711056e-01
  8.5313487e-01
  9.9750757e-01
  4.3107107e-01
 -1.6568801e+00
  2.2125120e-01
 -2.5343635e+00
  4.8942809e+00
 -4.6292443e+00
 -2.6648334e-01
  5.2891058e-01
  3.6774123e-01
  4.4364715e-01
  3.9047110e-01
  1.2238991e+00
 -4.1629934e-01
 -3.4522244e-01
 -3.3211032e-01
  1.6211140e+00
  3.3727023e-01
  1.5263194e+00
  2.4846177e+00
 -1.3441477e+00
 -1.0263343e+00
 -2.7078647e-02
 -1.9691226e+00
  5.4484081e-01
 -1.5167633e-01
  1.4413651e+00
  7.4975950e-01
 -3.2555439e+00
 -2.5903699e+00
 -3.6117141e+00
 -1.7991835e-01
  3.7930697e-02
 -3.3007807e-01
 -1.3627177e-01
 -1.3618565e-01
 -2.3874917e+00
 -2.6559010e+00
 -2.4038470e+00
 -4.2042109e-01
 -7.4769526e+00
 -5.6481534e-01
 -1.0913570e-01
 -3.3008482e+00
  3.7159291e-01
  2.1380694e+00
  7.9780519e-01
  4.4902110e+00
 -4.4124806e-01
  7.8093123e-01
 -3.0744390e+00
 -8.8979107e-01
 -1.5117905e+00
 -3.8115325e+00
  2.0639582e+00
  5.8566868e-01
 -3.6183972e+00
 -1.6337708e-01
  1.5241426e+00
  5.4366174e+00
 -9.3727028e-01
 -1.2299588e+00
  1.3090718e+00
  1.1127440e+00
 -3.6904352e+00
 -1.1457566e+00
 -8.8429010e-01
  4.2555652e+00
  7.0930564e-01
 -1.1719540e+00
 -4.0719146e-01
 -8.1037992e-01
  1.0186632e+00
  1.5593188e+00
  6.2563074e-01
  3.8943657e-01
 -5.5401266e-01
  7.3781168e-01
 -2.1758659e-01
 -3.1143221e-01
 -2.3873702e-01
  2.6030104e+00
 -2.7609048e+00
  2.8007407e+00
  1.2581648e+00
 -3.3846092e-01
 -3.5516522e+00
  1.4598956e+00
 -2.1778822e+00
  2.5382020e+00
  2.2117767e+00
 -1.2694778e+00
  3.2719326e+00
 -2.4664199e+00
 -4.5062506e-01
  3.7933476e+00
 -2.6508532e+00
 -1.2789280e+00
  2.4316390e+00
 -2.5028274e+00
 -2.4666050e-01
  7.5081319e-01
  1.6623944e+00
 -7.1784389e-01
 -1.0336095e+00
 -1.2802894e+00
  1.8615103e+00
  7.8314257e-01
  1.9305469e+00
  1.0374150e-01
  2.0371851e-01
 -5.6424361e-01
 -2.8843501e-01
 -8.7700200e-01
 -4.1502199e+00
 -2.9622686e-01
  2.8463683e-01
  2.9945600e+00
  3.2087963e+00
 -1.7687842e+00
  1.5734419e-01
 -4.7691014e-01
 -5.6575634e-02
 -1.1546584e+00
  2.1222076e+00
  1.1599891e+00
  2.0326433e+00
 -1.8935419e+00
 -2.2447710e+00
  1.0826727e+00
  5.2670544e-01
  2.2622671e+00
  7.5554448e-01
  1.2681339e-02
 -2.3549400e-02
 -4.4069597e-01
  2.6486151e+00
  3.8032579e+00
  3.4433645e-01
 -8.0971372e-01
 -2.4255028e-01
 -2.5583227e+00
  3.9387089e-01
 -2.3409648e-01
  5.2336818e-01
  4.1080594e-01
  6.4842999e-03
  4.4839454e+00
  2.1450081e+00
  1.4754015e+00
  3.0739608e-01
 -5.6813793e+00
  9.9181730e-01
 -4.4878057e-01
 -4.9334329e-02
  1.5566984e-01
  1.4054182e-01
  3.9751983e-01
  2.1812766e+00
  1.2688519e+00
  3.3163211e+00
  2.1006207e+00
  2.7437656e+00
  4.5737359e-01
  1.9664261e-02
  2.7244492e+00
 -2.1615889e+00
 -9.2016923e-01
  4.7171372e-01
  9.1429251e-01
 -1.3242127e-01
 -9.4081390e-01
  1.2890425e+00
  6.4805365e-01
 -1.8439391e+00
  9.2871577e-01
 -4.1019949e-01
  6.8179196e-01
 -4.7704023e-01
 -1.2400898e+00
  1.6144814e+00
  9.3940839e-02
  6.7176741e-01
  7.8300595e-01
  7.4505764e-01
 -1.3918798e-01
  4.0574798e-01
  2.0493753e+00
  9.2093062e-01
 -1.5818710e+00
 -9.9578536e-01
 -6.3994944e-02
  1.0368752e+00
 -5.1513839e-01
  6.3084632e-01
 -1.0387701e-01
 -1.1089357e+00
  5.3105110e-01
 -1.8945122e+00
  2.0407770e+00
 -2.8516948e+00
 -1.5644234e+00
  1.1327070e+00
 -3.7326725e+00
  3.1791797e+00
 -4.4372621e-01
 -1.8864113e+00
 -2.5780990e+00
  2.1541858e+00
  5.4663550e-02
 -1.6344659e+00
  5.5881453e-01
  6.2929684e-01
  2.9182646e+00
  8.4087604e-01
  4.8088932e+00
 -1.2451124e+00
 -3.8374956e+00
 -1.4278896e+00
 -1.4850801e+00
  7.3151654e-01
 -1.1527283e+00
 -3.3537726e+00
 -2.5560942e+00
  2.2254860e+00
 -1.2775872e+00
 -1.7808650e+00
 -4.2185551e-01
 -9.2068422e-01
 -5.3468287e-01
  2.0057626e+00
  2.5421627e+00
  1.8188878e+00
  1.1525793e+00
  1.9265215e+00
  1.1588844e+00
 -3.6707222e+00
  1.7596987e-01
 -4.2454171e+00
 -4.3158695e-02
 -1.4899399e+00
  3.2717279e-01
 -6.4443576e-01
 -9.7852357e-02
  2.2615700e+00
 -1.6896962e+00
  4.9744976e-01
  2.5339016e-01
  5.3329474e-01
 -1.2662165e+00
  1.6819550e+00
  1.0622644e+00
 -2.5241747e+00
  4.9418259e-01
  3.8397676e-01
 -6.8736506e-01
  6.1576676e-01
 -2.5706937e+00
 -1.3679465e+00
  9.0103859e-01
 -6.7314380e-01
  1.5532117e+00
  1.1865541e+00
  5.9168386e-01
 -1.6644895e+00
  9.5549947e-01
 -1.0777552e+00
 -1.9473649e+00
  2.0614746e+00
  8.8234365e-02
 -1.8063511e-01
  1.6096184e-01
  8.0630869e-01
  2.2149785e+00
  1.4732852e+00
  6.6431046e-01
 -4.6596599e-01
  1.5355712e+00
 -5.6271744e-01
  2.5840054e+00
 -2.1534975e+00
 -1.3134112e+00
 -2.0320120e+00
  9.0134525e-01
 -7.3399615e-01
 -5.6244040e-01
 -3.1868243e-01
 -1.9993374e+00
 -1.8186673e+00
  1.2947932e-01
 -2.7009611e+00
  7.9184067e-01
  3.3034010e+00
  4.2204109e-01
 -1.4741354e+00
 -5.5660069e-01
  1.7058254e+00
 -1.1686841e+00
 -1.9624630e+00
  8.7811846e-01
  9.7564638e-01
  4.0978453e-01
 -2.0805562e-01
  2.4312418e+00
  1.1801271e+00
 -2.9848325e-01
 -2.4564621e+00
 -7.2021484e-01
 -1.2100179e+00
 -5.3147535e+00
  5.6195706e-01
  5.6950063e-01
 -2.5920625e+00
 -1.4285494e+00
  4.2272672e-01
 -1.2537507e+00
 -1.7856390e+00
 -1.7286922e+00
 -5.8667517e-01
 -1.2915411e+00
 -1.5049677e+00
 -3.4901965e-01
  2.1682729e-01
 -3.7921910e+00
  4.5146704e-01
  1.5618603e+00
  9.2722327e-03
  6.3368416e-01
  1.8405970e+00
  3.5515589e-01
  3.1170206e+00
 -3.3436382e+00
 -1.1562493e+00
 -1.7371414e+00
 -7.0802206e-01
  1.2278714e-02
 -3.8488305e-01
  2.7893825e+00
  1.5532045e+00
 -6.4192879e-01
 -1.5171338e+00
 -7.8674078e-01
  1.5930809e+00
  1.1402324e+00
 -1.5271828e-01
  2.3115196e+00
  6.4166731e-01
 -7.1093875e-01
  3.3121068e+00
  3.2658079e+00
  1.3630807e+00
 -2.2553537e+00
 -2.6591131e-01
  9.6123064e-01
 -8.8133705e-01
  8.2118833e-01
  1.4406608e+00
 -8.9752328e-01
 -1.6653727e+00
  4.1457552e-01
  4.0310425e-01
 -1.8008239e+00
 -1.4601193e-01
  2.2497702e+00
 -7.4823356e-01
  1.0547272e-01
 -1.3153964e+00
 -4.7821150e+00
  6.4925504e-01
  5.0283766e-01
 -2.2398965e+00
  1.3667479e+00
 -1.2824259e+00
  2.2073728e-01
  6.9096172e-01
  8.4827930e-02
  1.3745102e-01
  1.6556981e+00
 -1.7962737e+00
 -6.4471608e-01
 -3.1761148e+00
 -8.4221393e-01
  6.6109085e-01
  6.0586721e-02
 -1.6272193e+00
  1.7518973e+00
  2.0429799e-01
 -9.8658413e-02
 -1.5416678e+00
  2.0022948e+00
 -2.1177826e+00
 -1.3535376e+00
  1.1713508e+00
  2.4830692e+00
 -1.3257672e-01
 -2.6911604e-01
 -2.2758956e+00
 -2.4484797e+00
 -2.7894742e+00
  4.2236023e+00
 -1.8217288e+00
  5.3278714e-01
 -1.0207405e+00
  2.0202136e+00
  5.0279707e-01
 -2.0389383e+00
  1.0494712e-01
 -7.3836964e-01
  8.0789226e-01
 -2.6535795e+00
  3.7433805e+00
  1.2199878e+00
  8.9575297e-01
  1.8665922e+00
  1.4900114e-01
 -3.3041152e-01
 -4.9007215e+00
  7.2051847e-01
  3.7160218e-02
 -9.3291235e-01
 -1.3672154e-01
  9.4215125e-02
  1.5624660e+00
 -3.2938931e+00
 -7.6410562e-01
 -1.1625190e+00
  4.2806765e-01
  1.0085458e-01
 -8.7557888e-01
 -3.1816595e+00
  2.2177577e+00
  1.5438186e+00
 -9.3150550e-01
 -5.3470802e+00
  1.8443389e+00
  5.0975460e-01
 -2.0359092e+00
  2.8694232e+00
 -1.6826172e+00
  2.4345054e-01
 -1.4775548e+00
  1.3105736e+00
  8.0329514e-01
 -4.0281243e+00
 -1.0851239e+00
  1.2835561e+00
  6.6234434e-01
  1.3106445e+00
 -3.9353848e-01
  5.6256855e-01
  1.0176362e+00
  3.3763721e+00
 -1.8031884e+00
  6.2990618e-01
  1.4477220e+00
 -3.8332210e+00
 -1.3401595e-01
 -2.5082047e+00
 -1.5211070e+00
 -1.5969861e+00
 -3.0972686e-01
  3.2435384e-01
 -2.7370467e+00
  2.8196713e-01
 -4.3419948e+00
  2.2462265e-01
  3.6217916e+00
  1.5718159e-01
  1.0353309e+00
  2.6148173e-01
 -1.4706718e+00
 -5.1736635e-01
 -3.5672395e+00
 -1.4800644e-01
  1.2672166e+00
  3.0033543e+00
 -2.2662885e+00
  2.5687554e-01
  2.8672919e+00
  1.2875842e-01
 -1.8371937e-01
 -1.4711746e+00
 -1.8025012e+00
  1.4499515e-01
 -4.5283067e-01
  3.0830309e+00
 -1.8273556e+00
  2.5664096e+00
 -4.9221098e-02
 -8.1547296e-01
  2.8215551e+00
 -1.2613719e+00
  4.5754349e-01
  3.2142448e-01
  1.1072922e+00
  1.9659055e+00
  1.0670948e+00
  2.8966326e-01
 -7.8535670e-01
 -1.6229509e+00
 -3.9786532e+00
  2.2296696e+00
  1.4076360e+00
 -7.3675299e-01
 -3.0916429e-01
 -1.5258402e+00
 -1.4414260e-01
 -7.5926137e-01
 -2.3381236e+00
  2.6982279e+00
  1.5068936e+00
  3.0001547e+00
 -1.1577754e+00
  3.4887073e+00
 -2.0752037e+00
  5.9017420e-01
  1.1917067e+00
 -1.1162283e-01
  1.1535635e+00
 -1.3141460e+00
  2.1970601e+00
 -1.8641926e+00
  1.1208608e+00
  3.6221966e-01
  4.5740217e-01
  5.7133138e-01
 -3.1233356e+00
 -2.4966931e+00
  8.2771605e-01
  3.1064541e+00
  8.8102937e-01
  8.2345879e-01
  3.4401092e-01
 -2.3412220e+00
 -9.6384370e-01
 -3.3846228e+00
 -8.6897624e-01
 -5.1494086e-01
  5.4167670e-01
  4.3538398e-01
  1.0887463e+00
 -6.0976058e-01
  1.0230461e+00
 -5.8825934e-01
  2.4436319e+00
 -6.4327908e-01
 -9.4404614e-01
 -1.2334900e+00
  1.6165481e+00
 -5.2656174e-01
 -1.4157343e+00
  1.6369882e+00
  1.0168176e+00
 -9.6255457e-01
  4.0455061e-01
  1.4917659e+00
  2.7738607e+00
  1.6738821e+00
 -1.3690822e+00
 -1.1150372e+00
  5.3031123e-01
 -3.2502785e+00
 -1.0511854e-01
  1.7556424e+00
  1.8282174e+00
  9.4732726e-01
 -6.7675865e-01
  1.0913621e+00
 -7.7116770e-01
  2.2528594e+00
  4.9921685e-01
 -1.2025177e+00
  2.3262817e-01
 -1.1470822e+00
 -1.2655743e+00
  6.7713869e-01
  8.1750333e-01
  1.1162369e+00
 -2.7520814e+00
 -2.5752263e+00
  1.5866284e+00
 -2.6914747e+00
  3.9289801e+00
 -3.8576517e-01
 -2.1777225e+00
  1.3335239e+00
  2.5278017e-01
 -2.6111369e+00
  6.6561055e-01
  1.1262808e+00
  1.7348656e-01
  6.8289480e+00
  3.8774486e+00
 -6.7231071e-01
  6.1061710e-02
 -6.4451569e-01
  1.2987065e+00
 -5.3787994e-01
  6.1527705e-01
 -3.3457795e-01
  1.8379399e+00
  1.3090878e+00
 -1.1671484e+00
 -2.9859924e-01
  1.7663762e-01
  2.3391562e+00
  1.8355427e+00
 -2.5096107e+00
 -1.6925659e+00
  2.5044018e-01
 -1.0558789e+00
  1.5403032e-01
  1.8797083e+00
 -5.5470711e-01
 -1.0289360e-01
 -1.7304808e-01
  2.5067790e+00
  1.3591040e+00
  1.9018090e+00
  1.1734349e+00
  4.6815503e-01
  1.4528732e+00
 -2.1712790e+00
 -3.5818951e+00
 -5.1838416e-01
  8.6909676e-01
 -1.8026586e-01
 -8.7582755e-01
  1.4944068e+00
 -7.0729375e-02
 -1.7328517e+00
 -3.8464803e-02
  2.2540555e+00
  5.6242180e-01
  7.4471653e-01
 -8.5587138e-01
 -1.4438639e+00
 -2.6383568e-02
 -5.6418300e-01
 -4.8927620e-01
 -2.6559136e+00
 -1.1106300e+00
  4.2147514e-01
  2.3569763e+00
  5.4399192e-01
 -2.0821018e+00
 -7.5496405e-01
 -3.2454326e+00
 -8.3619994e-01
 -5.8361650e-01
  3.6033707e+00
  8.3102500e-01
 -1.8348961e+00
 -6.5317786e-01
 -1.4328833e+00
  1.8075240e-01
 -7.0752156e-01
  9.8629445e-01
 -6.0121546e+00
 -2.0407481e-01
 -1.4020649e+00
 -5.5640066e-01
  5.7328725e-01
  4.5137194e-01
  1.0355145e-01
 -9.1761953e-01
  3.9629653e-02
 -8.5952085e-01
 -1.8347287e+00
 -2.5124357e+00
 -2.4027267e+00
  5.4715508e-01
  3.9209981e+00
 -1.4231762e-01
  3.3691096e+00
  2.9065900e+00
 -1.7033615e+00
  2.9591873e+00
  1.0945349e+00
  1.8849404e+00
 -9.4559777e-01
 -3.3397666e-01
 -2.9129469e-01
  7.4612319e-02
  1.4403826e+00
  1.3131293e+00
  7.4933851e-01
  7.8565091e-02
  2.7432773e+00
 -8.9606188e-02
 -2.5916126e+00
 -1.3954381e+00
 -2.2599466e-02
  2.4014709e+00
 -1.6487778e+00
 -1.0023725e+01
  3.5860262e+00
 -1.2025512e+00
  1.6051371e+00
  1.8610168e+00
 -4.7907454e-01
 -8.0916166e-01
  1.8164258e+00
  9.7670132e-01
  9.5258111e-01
 -2.6156104e-01
 -1.5075099e+00
  4.4796391e+00
  6.0634845e-01
  3.3054049e+00
  1.6822932e-02
 -8.1616676e-01
 -7.4796751e-02
  9.1936010e-01
 -2.6376921e-01
  2.7255279e-01
 -1.3579493e+00
 -2.1342905e+00
  4.1216731e-01
 -1.9171269e+00
  3.6347296e+00
 -2.0569036e+00
  1.6100377e+00
 -1.6905156e+00
  6.3506079e-01
 -1.5464157e+00
  1.1813759e+00
  7.0574570e-01
 -1.1110190e-01
 -8.3440989e-01
 -1.9890262e-01
 -7.0448434e-01
  1.4859368e+00
 -1.1916331e+00
  1.1311622e+00
  1.3982171e+00
 -2.5463207e+00
 -9.2464477e-01
 -2.7457919e+00
  8.4386671e-01
 -2.2475734e+00
  9.6502423e-01
 -4.7505826e-01
 -1.7054487e+00
  2.4982996e+00
 -1.6207448e+00
  1.5432298e+00
  2.2015369e-01
  6.6862291e-01
 -1.7173536e+00
 -2.7774146e+00
  1.5080951e+00
 -1.8200032e+00
  2.0487835e+00
  1.8436731e+00
 -2.8865337e+00
 -1.5738508e+00
 -1.4960738e+00
  1.3299876e+00
 -1.0638237e+00
 -1.9380257e+00
 -5.4255164e-01
 -2.2827175e+00
  6.4236039e-01
 -3.3151364e-01
 -1.4256792e+00
 -4.7764021e-01
  3.4705887e+00
 -1.2044065e+00
  1.5254005e+00
  3.1618860e-01
  3.5069516e+00
  6.4412802e-01
 -4.3528905e+00
  5.1719218e-01
  8.5851091e-01
  2.6658361e+00
 -7.6924819e-01
  1.9662949e+00
 -3.1247349e+00
 -2.1059058e+00
  6.4280909e-01
  5.5986978e-02
  1.9091097e+00
 -2.1892836e+00
 -2.6087010e+00
 -2.4788680e+00
 -1.1001492e+00
  2.4011433e-01
 -1.2615250e+00
  2.2489302e+00
 -4.3491355e-01
  7.6071501e-01
 -2.4632201e+00
 -1.2291813e+00
 -1.7102082e+00
 -3.2059119e+00
 -1.2706901e+00
 -1.1750078e+00
 -6.7779338e-01
 -2.1590037e+00
  1.8068901e-01
 -2.5982988e+00
 -1.8590661e+00
  3.4926496e+00
 -3.9651327e+00
 -8.2604939e-01
  1.7822381e+00
 -8.9693266e-01
 -2.1031771e+00
 -1.7221230e-01
 -9.8197095e-02
 -1.5644473e+00
 -8.2749522e-01
  7.0183611e-01
 -4.5800394e-01
  4.8954317e-01
  6.2954527e-01
  2.5419476e+00
  3.2841146e+00
  3.0342064e+00
  1.3050681e+00
  7.8432941e-01
 -1.6100949e-01
 -2.5669603e+00
  3.2308415e-01
 -7.1162498e-01
 -1.4044527e+00
 -8.0418003e-01
  3.6968882e+00
 -1.0988014e+00
 -2.9835069e-01
  1.4209945e+00
  3.5908499e-01
  7.9696190e-01
 -3.8442972e-01
  6.4996624e-01
  3.3448017e-01
  2.4105684e-01
  1.7420245e+00
  5.2453141e+00
 -2.2927158e+00
 -4.9624056e-01
 -5.2902181e-02
  2.3243055e+00
  4.2890370e-01
 -3.5510126e-01
  8.9408171e-01
  3.7042400e-01
  2.7273841e+00
 -3.2248304e+00
  1.5455463e+00
 -2.0884218e+00
 -1.5656062e+00
  2.0410099e+00
  5.8926576e-01
 -3.0573866e-01
  2.6023874e+00
 -1.1175091e+00
 -1.7118204e-01
 -5.9175378e-01
  4.8334408e+00
 -1.1543647e+00
  1.2373065e+00
  5.4050857e-01
  1.1998119e+00
  4.9266726e-02
  5.7659578e-01
  1.3940971e+00
  4.3270612e+00
 -6.9641180e-02
 -4.6935833e-01
  2.3873973e+00
  1.5019954e+00
  9.7001594e-01
  2.6851683e+00
 -5.1738391e+00
 -1.5287657e+00
  1.6209871e+00
  2.0874527e+00
  6.7294103e-01
 -5.4084897e-01
 -1.3401829e+00
  4.8525124e+00
  2.8740389e+00
 -4.3490175e-03
 -6.2378418e-01
 -3.2840333e+00
 -2.2327163e+00
  3.9902639e-01
  6.3832426e-01
  2.8783423e-01
  1.5093105e+00
 -1.2717574e+00
  3.6263306e+00
  1.7861083e-01
  2.2852264e-01
 -5.6709747e+00
 -3.2363009e+00
  2.7457443e-01
  2.5145388e-01
 -1.5447757e+00
 -7.3655927e-01
  9.5568258e-01
 -2.4713302e+00
  4.8833635e-02
  9.5934153e-01
 -4.3603210e+00
 -2.4023184e-01
 -1.2696106e+00
  2.6009047e-01
  1.3747296e-01
  4.1938394e-02
 -8.7606722e-01
  2.8486794e-01
  1.8357711e+00
  1.7874011e-01
 -2.1502154e-01
 -1.0055777e+00
  2.5146041e+00
 -5.1554120e-01
  4.4316062e-01
 -7.1568024e-01
  5.1428550e-01
  1.7748907e+00
 -6.3861674e-01
 -2.1100173e+00
  3.7044520e+00
 -1.4101095e+00
 -1.2289373e+00
 -4.5191273e-01
 -4.5250973e-01
 -9.6128063e+00
  1.0401416e+00
 -6.9367719e+00
 -2.4757605e+00
 -4.1405740e+00
  1.8661810e+00
 -4.7097850e-01
 -1.3837935e+00
 -2.7682343e+00
 -1.0872741e+00
 -5.5593461e-01
  6.9426250e-01
 -3.3292596e+00
  1.8985597e+00
 -2.3002081e-01
  4.6957284e-01
  9.5138378e-02
 -2.6429701e+00
 -1.5474674e-01
 -9.7625099e-02
  5.6732732e-01
 -1.4151490e+00
 -1.2172138e-01
  1.9712640e-01
  1.4477658e+00
  7.6077916e-02
 -1.0708903e+00
  5.3384960e-01
 -3.0039225e+00
 -1.0911273e+00
 -1.1954992e+00
  1.1321357e+00
  1.7860798e+00
 -5.9320921e-01
 -2.8785458e+00
  3.9869506e+00
 -2.4194790e-01
  3.0797737e+00
  3.3861554e-01
  2.1787266e-01
  6.3329083e-01
 -4.1844239e+00
 -1.5996312e+00
  2.7583661e+00
  2.5105533e-01
  1.7758069e+00
  3.0564809e+00
  2.6912637e+00
 -4.7835070e-01
 -6.4245224e-01
 -1.5849996e+00
  1.2369189e+00
 -1.9632375e-01
 -1.2217921e+00
 -6.7475939e-01
  2.7850232e+00
 -2.1503021e-01
 -5.6048125e-01
 -1.5911010e-01
 -5.5501401e-01
  2.5423786e-01
 -1.1025772e+00
  6.6449612e-01
 -3.2269815e-01
  1.4400892e+00
 -6.4519155e-01
 -2.8842123e+00
 -1.3815901e+00
 -3.3102891e+00
 -2.4677038e-01
  6.2020462e-02
  2.4324557e-01
 -1.2189319e+00
  1.8458618e-01
  1.4747900e+00
  1.9226184e+00
  2.4470763e+00
 -3.6225361e-01
  2.0759793e-01
  3.9541032e+00
  1.1843735e+00
  2.1350498e+00
 -2.4246635e+00
 -5.6552428e-01
  1.4100969e+00
  1.0031296e+00
 -2.1888292e+00
 -1.6580459e+00
  3.7543688e+00
 -1.9444326e-01
 -9.2141920e-01
 -1.9608729e+00
 -2.1983955e+00
 -1.2590390e+00
  8.0889344e-02
  1.1474550e+00
  8.6641538e-01
 -8.9191782e-01
 -1.0229390e+00
 -1.5851358e+00
 -1.2213180e+00
  6.3441968e+00
 -3.9751024e+00
  6.2159139e-01
 -1.4608107e+00
  2.6571858e+00
  1.1534669e+00
 -7.0843154e-01
  3.9676306e-01
 -1.7201309e-01
 -3.5267884e-01
  1.0940690e-01
 -2.7055075e+00
 -2.0217530e-01
  2.9321759e+00
 -1.8390536e+00
 -5.9834576e-01
 -9.9851865e-01
 -6.5322995e-01
  2.6582778e-02
  2.2947249e+00
  1.0237992e+00
  5.5838549e-01
 -9.9162048e-01
  4.1710013e-01
 -3.1914324e-01
 -4.2145798e-01
 -2.0612164e+00
 -1.2078024e+00
  4.7312233e-01
  2.5211260e+00
  1.4524068e+00
  5.0821030e-01
  4.0608130e+00
 -3.8632410e+00
 -1.8065506e+00
  1.5232047e+00
  1.9797782e+00
 -1.3179893e+00
 -2.5507040e+00
  1.7761867e+00
 -3.0393371e-01
  8.4742951e-01
 -8.1139860e+00
  4.5789452e+00
 -2.9909134e-01
  1.4648247e-01
 -1.5985630e+00
  2.5231016e+00
  5.6667728e+00
  1.1038368e+00
  8.9004260e-01
  3.9452422e+00
  2.5348473e-01
 -1.3661931e-01
  8.5145915e-01
  1.0662386e+00
 -1.6148254e-01
 -5.1595617e-02
  4.6721673e+00
  3.1137383e+00
  1.4936612e+00
 -1.8241033e-03
 -4.9127600e-01
  2.6534715e+00
  4.5762199e-01
 -2.6622283e-01
 -3.4036165e-01
 -3.3247539e-01
  3.3559723e+00
  1.2650061e-01
 -4.8572350e-01
 -1.0228071e+00
 -5.4813176e-01
 -1.2526395e+00
  1.8547766e-01
  9.2532121e-02
 -3.2553735e-01
 -3.5041254e+00
  1.7450787e-01
  6.7085749e-01
 -6.4625430e-01
  7.8259784e-01
 -9.6818942e-01
  8.9607513e-01
  2.0351151e-01
 -4.8945397e-01
  1.2683729e+00
  4.7948077e-02
  3.4730351e+00
 -4.1419487e+00
 -4.3439648e-01
  6.2006097e+00
  1.3181220e+00
  2.3602130e+00
  3.4367323e+00
 -3.5869408e-01
  2.0621378e+00
  2.7651834e+00
 -2.8837004e+00
  1.5445951e-01
  9.5365815e-02
 -1.0349717e-02
  4.0544844e+00
  1.0402944e+00
  2.3755651e+00
  3.2677543e+00
 -3.5464895e+00
 -7.3569763e-01
 -3.2273984e-01
  2.2766699e-01
 -1.2672447e+00
  1.9664742e+00
  8.7184834e-01
  2.0379610e+00
 -2.1155288e+00
 -8.0436587e-01
 -3.8748238e+00
 -3.1869051e-01
 -1.7992499e-01
  5.6782389e-01
 -1.0146564e+00
  6.6993368e-01
 -3.5386705e-01
  4.1865519e-01
 -8.3873022e-01
  6.0689676e-01
 -5.5404522e-02
  8.4736824e-01
 -4.2559353e-01
  1.5616987e+00
  2.1143498e+00
 -8.9652944e-01
  5.1166501e+00
  2.7455506e+00
  4.8549518e-01
 -1.6995129e-01
  3.3698294e-01
 -2.8609078e+00
  2.5134832e-01
 -6.8848860e-01
  1.6432297e+00
  1.2949275e+00
 -7.1853690e-02
  4.9698329e+00
 -2.1654284e+00
  3.1624511e-03
 -2.6320148e+00
  2.2375419e+00
  1.5519824e+00
  2.6955950e+00
  4.2137906e-01
  1.5629945e+00
 -6.1611563e-01
  5.1518172e-01
 -2.3651400e+00
 -1.8028061e+00
 -1.3549697e+00
  1.8952817e+00
  1.5565977e+00
  1.5945059e+00
  1.7622250e-01
  1.4465621e-01
  9.1390866e-01
 -1.1728764e-01
 -1.5211755e+00
  2.5715575e+00
 -9.9193102e-01
  1.9928929e+00
  2.3055851e-01
 -7.2412181e-01
  5.2049226e-01
 -1.4471924e-01
  3.9167480e+00
 -5.6276929e-01
  1.0134813e+00
  1.5074846e-02
 -7.0994848e-01
 -3.9657426e-01
 -1.6508967e-01
  7.6971979e+00
  1.5242536e+00
 -3.1246111e+00
  1.4108478e-01
 -3.7869462e-01
 -5.8225948e-01
 -1.0640564e+00
 -3.5693970e-01
 -3.5198171e+00
  7.3964059e-01
  3.5887961e+00
 -2.4056964e-01
  3.0495648e+00
 -4.6071544e-01
 -8.6511272e-01
 -3.2448633e+00
  4.7207460e-01
 -9.0417349e-01
  3.8671541e-01
 -2.0563679e+00
 -2.0953952e-01
  1.6560824e+00
 -2.5176592e+00
  2.5630250e+00
  1.5380392e+00
 -4.7816405e+00
  2.0369909e+00
  1.2010729e+00
 -4.2375331e+00
 -5.5258150e+00
  1.3205965e-01
 -4.7162838e+00
  4.1755109e+00
 -7.8905326e-01
  1.2714148e+00
 -3.6323160e-01
 -3.5433221e+00
  1.9582868e+00
 -3.3857584e+00
  2.7951298e+00
 -2.4033666e+00
  2.7962389e+00
  1.2304262e+00
 -2.1288247e+00
 -5.2273469e+00
 -6.7600447e-01
  2.0978747e-02
 -4.3827319e+00
  2.4179631e-01
  1.8582078e+00
 -7.2779447e-01
 -4.0224261e+00
  4.1493268e+00
 -5.4805431e+00
 -4.2653565e+00
  9.5595205e-01
 -3.3373265e+00
 -7.7133336e+00
  5.3221530e-01
 -2.7243268e+00
 -1.6811293e-01
 -1.8796409e+00
 -2.1613629e+00
  9.6504562e-02
 -4.2966947e-01
 -8.5242796e-01
 -2.2485975e-02
  7.6572136e-03
 -1.0674349e-01
  5.0185823e-01
  5.6176257e-01
 -2.8426832e-01
  6.5080798e-01
  8.5962754e-01
 -3.3484957e-01
 -3.5647067e-01
 -2.7015226e+00
  6.9257820e-01
  1.2075244e+00
  4.2181873e+00
  2.8869829e-01
  2.3247259e+00
 -3.3866811e+00
  6.1638600e-01
  1.5971880e-01
  3.1192588e-02
  2.1932225e+00
 -1.6476964e+00
  2.5451310e+00
 -3.9597356e-01
  2.4173141e-01
 -1.2888223e-02
 -5.1941562e-01
  3.1874409e+00
  7.1245747e+00
  2.7106318e-01
 -1.3613155e-01
  4.2072206e+00
 -5.6715753e-02
  3.0598286e-01
 -1.4725919e+00
  7.5431150e-01
  1.4627813e-01
 -1.0151453e+00
  5.6098952e+00
 -5.8636630e-01
 -3.4618467e-01
  4.2459536e-01
 -9.8846805e-01
  1.0485443e-01
 -1.8710680e+00
  1.3578448e-01
  3.5624628e+00
  2.5494940e+00
  1.2107939e-02
  1.8489036e-01
 -2.8886540e+00
 -2.1415300e+00
  5.0290747e+00
  8.7287780e-03
 -4.6169743e-01
 -1.2190651e+00
 -3.2278576e+00
 -1.0563809e-01
  3.9904866e+00
  1.7520419e+00
  1.7745342e+00
 -2.8915118e-02
 -6.5303385e-02
 -9.1924006e-01
 -1.4916730e+00
 -3.7785294e+00
  7.3237830e-01
  2.4548669e+00
  8.3682090e-01
 -7.1813136e-02
  2.2481386e-01
  2.0311987e+00
 -4.5120138e-01
  6.7191124e-01
  2.9660232e+00
  1.1957237e-01
 -2.9703081e-01
  6.3500941e-01
 -2.2019446e+00
  2.8968494e+00
  3.6977470e+00
 -3.8615298e-01
 -4.2920905e-01
  6.3112271e-01
 -2.1221144e+00
 -1.9715522e-01
 -1.0779123e+00
  1.8246202e+00
  2.0497583e-01
  1.3866614e+00
 -1.6629986e+00
  9.7713906e-01
 -9.0890115e-01
  1.2398620e+00
  1.4612614e+00
  7.7044517e-01
  1.4822341e+00
 -8.2082260e-01
 -1.8322244e+00
 -2.2769363e+00
 -3.2149789e-01
 -1.0101295e+00
  2.6732674e+00
  1.1980116e+00
  1.6559625e+00
  3.6953115e-01
  1.1961775e+00
  2.5693839e+00
  1.6042368e+00
 -5.8349505e-02
  1.9228697e+00
 -6.0411143e-01
 -1.2394840e+00
  8.9778453e-01
 -2.7069235e-01
  9.1439080e-01
  4.9889719e-01
 -1.1507208e+00
  2.1398571e+00
  4.1605353e+00
 -9.6447301e-01
  4.0498665e-01
  3.2335922e-01
 -1.0971951e+00
 -5.3407902e-01
 -1.9798670e+00
 -4.4472733e+00
 -1.2800407e+00
 -9.2002943e-02
 -1.5159301e+00
 -8.0562955e-01
  9.2841160e-01
 -9.1968507e-01
  2.8908944e+00
 -1.4541900e+00
 -4.3226008e+00
  2.2830558e-01
 -4.2670506e-01
 -1.5526301e-01
 -2.5080752e+00
  2.0920591e+00
  3.9322630e-01
  4.1158594e-02
 -5.3963208e+00
  1.4902656e+00
  3.7020211e+00
  9.8115051e-01
 -6.7139286e-01
 -1.8914864e+00
  1.0417713e-01
 -1.0608875e+00
 -4.6227261e-01
 -2.2757394e+00
 -1.4038237e+00
 -1.7696941e-01
 -2.5314465e-04
 -7.9948670e-01
  8.8561755e-01
  1.0788046e+00
  2.6648097e+00
 -2.1916068e+00
  3.7597029e+00
 -6.8359107e-01
  3.4221079e+00
 -2.8279486e+00
  1.0584215e+00
  5.2072531e-01
  1.3646306e+00
 -1.5630841e+00
  4.1886756e-01
 -2.4478867e+00
 -1.6852579e+00
  7.5405198e-01
 -1.0773293e+00
  6.9356549e-01
  4.5570483e+00
 -2.4797648e-01
 -2.9123130e+00
 -2.6909029e-01
 -7.0369034e+00
  3.8646555e-01
  1.7286550e-02
  2.0586998e+00
 -8.2148228e+00
 -5.4929432e-02
 -7.4607348e-01
 -5.5834383e-01
  2.0752969e+00
 -2.4156800e-01
  1.5109885e-01
 -1.7388581e+00
 -1.6245916e-01
  1.8134518e+00
  2.5608426e-01
  1.4085705e+00
  7.4218512e-01
  9.8263621e-03
 -9.8167795e-01
 -2.9868126e+00
 -4.7256130e-01
  1.3429716e+00
 -1.6835606e-01
 -1.4611109e+00
  2.4010668e+00
 -1.0801107e-01
 -2.5236347e+00
  3.3918154e+00
  9.8429888e-01
  1.1479784e+00
 -6.1567527e-01
  1.2302972e+00
  1.9147538e+00
  1.3446370e+00
 -2.8352096e+00
 -1.1408081e+00
  5.3493136e-01
  1.0405834e+00
  1.9789451e+00
 -1.7903223e+00
 -2.2980809e+00
 -1.7305997e-01
  1.0159640e-01
  1.9777911e+00
 -1.9585806e+00
  1.3373265e+00
  1.9375182e+00
 -1.2562928e+00
  7.3583751e+00
 -5.7101708e-02
 -2.2208393e+00
  4.6811372e-01
 -1.3281624e+00
  2.6485927e+00
  5.9835863e-01
  1.7017653e+00
 -1.5861318e+00
  4.7372663e-03
 -1.5627559e+00
  1.4386197e+00
 -3.0120327e+00
 -2.8807504e+00
 -7.2335511e-01
  3.6402115e-01
 -1.1338534e+00
 -2.3386804e-02
  1.9379029e+00
 -1.0906465e+00
 -3.2185802e+00
  5.3114480e-01
 -1.7676204e-01
  3.1024003e+00
  1.9118690e-01
 -2.5807710e+00
  1.8101394e+00
  8.6402941e-01
  6.7335957e-01
 -1.0231469e+00
 -2.8637004e-01
  1.3720162e+00
  7.8202713e-01
 -3.3325567e+00
  4.8455834e-01
  1.7555100e+00
 -8.4356457e-02
  3.1721120e+00
 -2.7888107e+00
  1.2779833e-01
  5.8907253e-01
  2.1779710e-01
  1.4661874e+00
  2.2854052e-01
 -2.4960380e+00
 -7.8190112e-01
 -1.1947336e+00
 -1.1250929e-01
  1.2397618e+00
 -6.0202403e+00
 -1.8725246e+00
  6.8303096e-01
 -1.1143094e+00
  1.5530313e+00
 -1.5589952e+00
 -1.9741098e+00
  5.2117053e-02
 -2.5175828e-01
 -2.4749379e-01
 -4.9741167e-01
 -5.6436175e-01
  4.7281342e+00
 -5.7492161e-01
  3.9380330e-01
 -8.6766072e-02
 -9.9978244e-01
 -2.1649899e+00
  1.8050241e+00
 -3.3671849e+00
  3.1098766e+00
 -1.3168795e+00
  5.4724729e-01
 -5.7736337e-01
  1.0800201e+00
  2.6398900e-01
  1.5054759e+00
 -2.5538633e+00
 -4.2797403e+00
  5.9702742e-01
  1.3048440e+00
 -2.8924401e+00
  3.6018872e-01
 -2.7342424e-01
  1.1959310e+00
 -1.9415207e+00
 -1.4767604e+00
 -4.3518203e-01
  4.0278447e-01
 -1.7336906e+00
  6.0107636e+00
  4.3057108e-01
  8.4466153e-01
 -1.0524460e+00
 -1.3150904e+00
 -5.7558417e+00
  1.4151801e-01
 -6.9585717e-01
 -5.3341389e+00
  8.6495644e-01
  8.5532796e-01
 -3.1717628e-01
  2.6150556e+00
  4.2403145e+00
 -9.8202050e-01
 -2.3669634e+00
  1.2765960e+00
 -5.3643930e-01
 -1.7899730e+00
 -9.2708029e-02
  1.4234492e+00
  6.1264670e-01
  4.4883785e+00
 -2.9391217e-01
  5.8443701e-01
  5.8790013e-02
  3.9385779e+00
  2.0009139e+00
  1.1582034e+00
  1.5820050e+00
 -1.7812291e+00
 -1.6318376e-01
 -3.6713181e+00
  7.7401829e-01
 -6.4050263e-01
  5.7253844e-01
  7.3030442e-01
 -2.0422597e+00
  2.1588800e+00
 -1.2646741e+00
  3.4305348e+00
  1.9179351e+00
 -2.9486959e+00
 -1.4987442e+00
 -3.9477148e+00
 -2.9456122e+00
  1.8571030e+00
 -4.4061985e+00
  9.2184085e-01
 -3.7455755e-01
 -1.1214840e+00
  2.3318064e-01
 -2.3550527e+00
 -8.7355882e-01
  7.8857076e-01
 -6.5628159e-01
 -1.7035861e+00
  1.2254392e-01
  1.7832084e+00
 -7.1064830e-01
 -1.6501383e+00
 -1.1249900e+00
 -1.7666816e+00
  2.3205715e-01
  2.4397538e+00
  1.9790204e-01
 -1.0995886e+00
  2.1771854e-01
 -1.5308541e+00
 -2.1442397e+00
 -3.2683861e-01
 -6.6320384e-01
  1.0796186e+00
  3.9325559e-01
  2.7242382e+00
 -1.4739046e+00
 -2.1894601e-01
  2.1051230e+00
  2.0054545e+00
 -2.6671079e-01
  2.8351083e-01
 -4.3588695e-01
  8.9090335e-01
 -1.0437219e+00
 -2.2529454e+00
 -1.4776625e-01
 -1.8402477e-01
  3.9425951e-01
 -2.4977541e+00
  2.6903415e+00
 -2.2082491e+00
  5.1905042e-01
 -3.0550253e+00
  4.6842468e-01
 -5.8857149e-01
  1.0025499e+00
 -1.5637644e-01
 -5.1521778e-02
  3.8513410e-01
 -2.6201761e+00
  4.5104518e+00
 -1.3030961e-01
 -9.6807021e-01
 -3.9069393e-01
  2.7500179e+00
  6.9200033e-01
 -2.9547126e+00
  1.0283012e+00
  2.0382140e+00
 -2.2535779e+00
 -3.4500947e+00
  6.3190174e-01
  6.8199241e-01
  9.9165636e-01
  1.4907375e-01
 -1.5161357e+00
 -1.0190663e+00
  1.1530729e-01
 -1.5707035e+00
 -8.8620418e-01
 -4.3258032e-01
  4.9116328e-01
  3.2130307e-01
 -5.4235315e-01
 -1.9638848e-01
 -1.0826175e+00
  8.1939220e-01
  2.7149687e+00
  1.3651181e+00
 -2.2775254e+00
 -5.1639122e-01
 -4.7675464e-01
  4.2184892e+00
 -1.5765305e+00
 -2.8644083e+00
 -1.0054951e-01
  1.6235359e-01
  1.5535128e+00
 -1.0534631e-01
 -2.0002642e+00
 -1.5638558e+00
  1.6235710e+00
  2.3328171e+00
  2.4384193e+00
 -1.2454282e+00
  2.1848226e+00
 -4.2726988e-01
  3.5500355e+00
  7.8083479e-01
 -7.7229172e-01
  1.9043790e+00
 -5.2137089e-01
 -5.9420383e-01
  1.4260269e+00
 -1.7702128e+00
 -6.7130017e-01
 -1.7546183e+00
  2.4794872e+00
 -2.5912342e+00
 -1.7352636e-01
  3.4056621e+00
  1.2269362e+00
  1.2749811e+00
 -1.0074607e+00
  1.9360912e+00
 -2.9024339e+00
 -3.0096512e+00
  7.5926620e-01
 -2.7859989e-01
  1.5530438e+00
 -7.2432196e-01
  1.9147964e+00
 -7.1575050e+00
 -4.7421876e-01
 -4.6137676e+00
  1.6947047e+00
 -2.2481139e+00
 -7.1765685e-01
 -1.5200052e+00
 -8.7131590e-01
  2.3711326e+00
 -1.6072884e+00
  7.4689734e-01
 -1.0241078e+00
  1.8668289e+00
 -4.5917511e+00
 -8.6670828e-01
 -1.4263285e+00
  6.1639156e+00
  1.3993123e+00
  2.8986673e+00
  1.5147606e+00
 -3.9563560e+00
  1.7422900e+00
  1.0542543e+00
  6.8727074e+00
 -2.8541608e+00
  2.3520179e+00
 -5.5663133e-01
 -4.0260650e-02
  2.2741017e+00
  8.3429867e-01
  6.9546652e-01
  9.6918362e-01
 -8.5510200e-01
 -2.4589521e-01
  8.0925629e-02
  2.1756601e+00
 -4.1561195e-01
  8.3050452e-02
  1.6610807e+00
  2.5035672e+00
  2.9214785e-01
 -1.9218128e+00
  1.0196170e+00
  5.1194024e-01
  6.1782598e-01
  2.5606687e+00
  4.5174271e-01
 -3.4222081e+00
 -1.8879869e+00
 -5.8990937e-01
 -4.1178578e-01
  2.8570411e+00
 -6.3675916e-01
 -1.5377126e+00
 -5.6117725e-01
 -7.2375494e-01
  1.0520333e-01
  1.1896185e+00
 -5.9693128e-01
 -8.5468853e-01
  9.1557711e-01
 -4.5891957e+00
 -9.6277547e-01
 -1.1694757e+00
  4.8105555e+00
 -5.7187736e-01
 -2.0001864e+00
 -1.1796030e-01
  3.1497111e+00
  4.4919300e-01
  5.5545216e+00
 -2.8774717e+00
 -3.8555815e+00
 -1.4604890e-01
 -5.8131438e-01
  4.8592269e-01
 -1.7082870e+00
  1.4937017e+00
 -2.5417516e+00
 -2.5800600e+00
  6.0447079e-01
 -2.0166543e-01
 -2.5502333e-01
 -7.2628349e-01
  5.3652519e-01
 -7.4016893e-01
  2.6045475e+00
  2.5978601e-01
  4.6745390e-01
  4.6880615e-01
 -2.5120435e+00
  1.6131052e+00
 -6.3015062e-01
 -1.1987202e+00
  2.0956810e+00
 -7.7407300e-01
  3.7352631e+00
  3.0903563e+00
 -2.4228897e+00
 -1.8227971e+00
 -2.0295970e+00
 -2.1607270e+00
 -4.7524831e-01
 -1.7660830e+00
  7.3179549e-01
  3.7812763e-01
 -1.0596992e+00
 -1.6091895e+00
  2.1332300e+00
 -5.4646361e-01
  1.3855186e+00
  3.2713297e-01
 -3.7196666e-01
 -1.1367214e-01
  2.0329056e+00
 -1.0481057e+00
 -9.1420874e-02
 -4.5258622e+00
 -2.6339221e+00
  3.6151044e+00
  8.2725656e-01
 -9.8322046e-01
  1.7608265e+00
  7.1984172e-01
  6.3758950e+00
  1.4758878e+00
 -1.1714898e+00
  4.9021977e-01
  8.9618719e-01
 -2.1136599e+00
 -2.9401593e+00
  7.8305924e-01
  4.5988604e-02
  5.4540747e-01
 -3.4132617e+00
  1.0306060e+00
 -7.4831104e-01
  2.0118783e+00
 -5.2772880e-01
 -9.3269730e-01
  2.5071864e+00
  1.2283931e+00
  7.7585489e-01
 -2.0960298e-01
  4.0536218e+00
  2.5609260e+00
  3.3983254e-01
  5.2256030e-01
 -5.3940315e-02
  9.4526666e-01
 -1.8615943e-01
  5.7665813e-01
 -3.3938780e-01
  8.0650300e-01
 -8.0417371e-01
  1.6465783e+00
  1.3668755e+00
  3.8115636e-01
 -1.1822795e+00
 -1.1899255e-01
  2.4144218e+00
  2.2821841e+00
 -3.8451881e+00
  7.7407467e-01
 -2.0051544e+00
  1.1280502e+00
 -3.7346342e-01
 -1.6138573e-01
 -2.2259476e+00
  3.0341929e-01
 -2.0715830e+00
 -2.5364928e+00
 -9.8698363e-02
  2.8574843e+00
  2.1746095e-01
  2.3677056e-01
 -1.4603876e+00
 -4.0498590e-01
 -1.3521302e-01
 -1.4322268e+00
 -5.1659602e-01
  5.9966635e-02
  2.4855301e-01
  1.7043904e+00
  9.9747354e-01
 -2.1268051e+00
  2.0385325e+00
  2.6716993e+00
  3.3320218e-01
 -1.0814871e+00
 -7.0176411e-01
 -3.2287748e+00
 -2.0393152e+00
  1.7994137e+00
 -1.4666216e+00
  7.3351699e-01
  4.1190845e-01
  5.1537192e-01
 -4.6556592e-01
  1.3590151e+00
  1.2550436e+00
  5.8455122e-01
  8.6612308e-01
 -3.8361827e-01
  2.7134734e-01
 -5.4452807e-02
  3.3914905e+00
  3.1272161e-01
  1.7368519e+00
 -3.1358945e-01
  6.7229974e-01
 -7.7483499e-01
 -2.1252248e+00
  1.5016663e+00
 -1.7818475e+00
  1.4943767e+00
  1.1567479e+00
  4.9203643e-01
  3.4768367e+00
 -2.2229846e+00
  3.0232495e-01
  8.8010520e-02
  4.1608901e+00
 -2.4059501e-01
  2.4939623e+00
 -5.4852498e-01
  2.9213792e-01
 -1.4205672e+00
 -1.9439771e+00
  6.1063892e-01
  1.1688386e+00
  1.5888318e-01
  1.5464801e-01
 -7.6716523e+00
  3.1680547e-02
  1.2507459e+00
  8.2103527e-01
  7.3654085e-02
  3.3348470e+00
 -1.7175125e+00
 -9.5598191e-01
 -1.3172795e+00
 -3.6678520e-01
  2.1408334e+00
 -2.6355267e+00
  2.6213880e+00
 -2.5586228e+00
  3.9702004e-01
  4.8691358e-02
 -3.2787299e+00
 -3.5260808e+00
 -1.2901232e+00
  1.0059929e+00
  1.4753261e+00
  2.8616482e-01
  9.4554618e-02
 -1.4871897e+00
 -3.3474463e-01
 -1.3418276e+00
  2.5213220e+00
 -1.0154357e+00
 -1.5692782e+00
  1.2806168e+00
  5.4178822e-01
 -9.3323249e-01
 -1.6716173e+00
 -2.6611000e-01
 -6.9333154e-01
 -1.5533401e+00
 -5.6837308e-01
 -5.2487969e-01
 -5.9066713e-01
 -1.0646787e+00
 -4.7602916e-01
 -1.6671233e+00
 -3.3108118e+00
  2.5508371e-01
 -1.1939133e+00
  3.1100886e+00
  1.3634059e+00
 -5.4498035e-01
  1.0134408e-01
  4.9786139e+00
 -3.0174050e-01
 -1.9195968e+00
  1.5786138e-01
  7.7683765e-01
 -1.0001280e+00
  1.5468203e+00
 -1.4543756e+00
  1.3727846e+00
 -3.7018046e-01
 -1.6589047e+00
  1.6560192e+00
  1.2349716e+00
  2.8061430e+00
 -1.7499906e+00
 -1.0652166e-01
  2.0628312e+00
  3.0673649e+00
  1.5081356e+00
  3.7085932e-01
  1.4173336e+00
 -6.0093962e-02
  1.1538397e+00
 -2.4925392e+00
 -1.6904860e+00
 -2.3087258e+00
  1.6539798e+00
 -2.0188981e-01
  3.0169085e-02
 -2.9253953e+00
  1.0252082e+00
 -3.8231030e+00
  4.4988108e+00
 -7.9151624e-01
 -2.6152794e+00
 -4.1622901e+00
 -2.4735413e+00
 -1.5038329e+00
  2.9999254e+00
 -1.1930737e+00
  1.7618376e+00
 -9.2918169e-01
 -1.0084715e+00
 -1.7398169e+00
 -2.6444456e-01
  7.7150828e-01
 -7.3597223e-01
 -9.2891616e-01
  6.4244330e-01
 -4.4735699e+00
 -2.0277333e+00
 -2.0967183e+00
 -2.5569749e+00
  9.1104054e-01
 -2.9755292e+00
  6.0041115e-02
  2.5101739e-01
  2.4634891e+00
  2.7248400e-01
  2.3362786e-02
  3.7733030e-01
 -3.0268567e+00
 -2.8017986e+00
 -5.8960164e-01
  1.7505642e+00
 -1.7430621e+00
 -6.7895375e-02
 -3.3298209e-01
 -1.1366526e+00
 -3.7776544e+00
  1.8964792e+00
 -2.8854876e+00
 -9.8759317e-01
 -4.6635475e+00
 -6.1200404e-01
  3.1801519e-01
  7.6049215e-01
  2.4503284e+00
 -3.2186610e-01
  1.2401643e+00
  4.1308699e+00
  3.3066254e+00
 -9.5619893e-01
 -8.9021736e-01
 -1.2678082e+00
 -1.0101069e+00
 -5.4574239e-01
 -1.8848679e+00
  6.6117373e+00
  9.2658412e-01
 -4.9021683e+00
  1.0507193e+00
 -6.7812675e-01
  2.3234577e+00
  2.2208710e+00
  4.2389759e-01
 -6.7098255e+00
 -9.7865260e-01
 -6.3749984e-02
  1.2774761e+00
 -8.9350331e-01
 -2.5236423e+00
  4.9111042e+00
  3.3295631e+00
 -9.7362292e-01
 -1.7821909e+00
 -4.7611990e+00
 -1.8340076e+00
 -6.5160346e-01
 -7.6708061e-01
 -1.5288953e+00
 -1.5693194e+00
  3.5855587e+00
 -1.9531313e+00
  2.9883950e+00
  2.5997930e+00
  1.0844107e+00
  1.8975571e+00
  8.7072706e-01
 -2.9984260e+00
  1.3188877e+00
  6.6691432e+00
 -1.4051174e+00
  4.9754887e+00
  7.8347027e-01
  8.7613481e-01
  3.4570456e+00
  1.9066188e-01
 -3.1173515e-01
 -3.3867118e+00
  2.5540123e+00
  5.0672507e-01
 -4.5908278e-01
  9.7983450e-01
  1.2269785e+00
 -1.1108069e-01
  5.4206961e-01
 -1.6109279e+00
 -2.2921846e+00
  2.8913448e+00
  3.0750086e+00
  6.0813552e-01
  1.4557718e+00
  2.9029665e+00
 -6.3491687e-02
  2.0795000e-01
 -1.1335292e+00
 -1.5761721e+00
  4.3804541e+00
  1.0636487e+00
  1.3594306e+00
 -3.3133645e+00
 -4.3695593e+00
  1.0592892e+00
 -7.6702685e+00
  8.3894521e-01
  7.9865150e-02
 -1.1558504e+00
 -7.9644865e-01
  2.8615468e+00
  7.5706643e-01
 -6.0858697e-01
 -1.1196423e+00
  2.3383124e+00
 -2.2948060e+00
  1.7575809e+00
 -2.9457142e+00
 -5.6427646e-01
 -3.7225261e+00
 -1.4059758e-01
 -1.2118829e+00
 -4.4623491e-01
  5.7377684e-01
  4.6380525e+00
  1.7610863e+00
  3.4362097e+00
 -7.4042654e-01
 -1.9987050e+00
  1.6227226e+00
  1.8800538e+00
  1.1647650e+00
 -5.6588884e-02
 -5.6345755e-01
 -1.5356667e+00
  1.6235163e+00
  2.3888752e+00
 -1.2026159e+00
  4.4515583e-01
  2.7609313e+00
 -2.7510660e+00
 -1.6942515e+00
  4.6649117e+00
  5.6857473e-01
 -2.0769894e-01
  3.3403423e+00
  5.2509344e-01
 -4.5339200e-01
  5.4756802e-01
  1.9041702e-01
 -1.0202746e+00
  9.3982629e-02
 -1.5851223e-01
 -2.5850506e+00
  3.5750443e-01
  4.9399619e+00
 -7.2960156e-01
 -4.5976272e-01
  2.2159532e-01
 -4.4852000e-01
 -2.6263945e+00
  1.9659208e+00
 -1.3831985e+00
 -1.5379910e+00
 -2.4453628e+00
 -1.9003574e+00
 -1.7058372e+00
  5.7456875e-01
 -9.2841381e-01
 -1.1735158e-01
  2.8290238e+00
 -3.1265142e+00
  3.6385987e+00
 -4.6452303e+00
 -1.8514246e+00
  2.8509059e+00
  1.1522214e+00
 -9.7233392e-03
  4.4292103e-02
  2.0880153e+00
  1.0538843e-01
  4.6850739e+00
 -1.9631826e+00
 -2.5548544e+00
  8.1092536e-01
  4.2983073e-01
 -1.0438389e+00
 -2.6042111e+00
 -1.5584799e+00
 -3.6304848e+00
  5.6842440e-01
  3.1844366e-01
  3.4758022e-01
 -3.9898276e-01
  1.6529462e+00
 -4.3697499e-02
 -7.2848654e-01
 -5.2802014e-01
  3.8656433e+00
 -1.3613374e+00
 -1.7028533e+00
 -4.2451110e+00
  2.6728745e+00
 -5.3954118e-01
 -3.6398864e+00
 -1.2111876e+00
  3.4963691e+00
  7.4850541e-01
 -9.7978455e-01
 -2.5669889e+00
 -8.5715431e-01
 -1.4277575e+00
  4.3070278e+00
 -1.7187198e+00
  1.8007221e+00
  6.6281497e-02
 -1.1202737e+00
  1.4487580e+00
 -8.1332362e-01
 -7.6693040e-01
 -7.1307003e-01
  8.8819695e-01
  1.0802890e+00
 -2.2624426e+00
 -4.4985967e+00
 -7.6903164e-02
  6.7634165e-01
 -1.6372772e+00
 -1.2378236e+00
 -9.4794881e-01
  1.0602423e+00
  1.9980428e+00
 -2.8064001e+00
 -1.6624681e+00
 -1.6947285e+00
  2.9802793e-01
  3.4046454e+00
  2.0845068e+00
 -8.0552065e-01
  1.5560580e+00
 -1.7062765e+00
  1.3330972e+00
 -6.0570914e-01
  6.0955328e-01
 -3.1863379e+00
 -2.3967195e+00
 -9.7511417e-01
 -2.3782997e+00
 -2.7647114e+00
 -1.1094730e+00
 -1.6301453e+00
  6.5381452e-03
 -2.6921886e-01
  1.3000779e+00
 -7.9129070e-01
 -1.3292360e+00
 -1.5240694e+00
  1.3223034e+00
  7.5846589e-01
  3.4678283e+00
  6.8958139e-01
  1.9806275e+00
  1.0068357e+00
  1.4352250e+00
  1.6853385e+00
  7.2129995e-01
  7.0498270e-01
  4.4780418e-01
 -6.1032331e-01
  8.0826432e-01
  5.9428364e-01
 -1.1661355e-01
 -2.8076032e-01
  1.5678230e-01
  1.2531193e+00
 -4.5580324e-02
 -3.5920545e-02
 -1.9684552e-01
 -2.5166121e+00
 -3.4668586e+00
  2.2103097e+00
  4.3441339e+00
  1.5461968e+00
  7.8288502e-01
  1.4842203e+00
  5.6020570e-01
 -4.3300986e+00
 -3.1725080e+00
  1.1409066e+00
  8.7070400e-01
 -9.4211733e-01
 -2.1536937e+00
 -1.0164267e+00
  1.3675213e+00
  3.9481299e+00
 -5.2849978e-01
  6.2532848e-01
 -3.8325989e+00
  3.9082378e-01
 -2.7155612e+00
 -2.4520457e+00
 -1.2257134e+00
 -2.5794997e+00
 -3.3991468e-01
 -9.7076607e-01
  6.9165903e-01
 -2.4109969e+00
 -4.4678454e+00
 -4.3930016e+00
 -8.5900676e-01
 -4.9427143e-01
 -3.2752401e-01
  3.4907386e-01
  4.9480486e+00
  9.8414505e-01
 -1.6058993e+00
  2.7312443e+00
  2.9101381e+00
 -1.2130563e+00
  1.7548666e+00
 -2.0440838e+00
  4.8592744e+00
 -4.9352283e+00
  2.0189981e+00
  1.8440894e+00
  1.5676625e+00
 -1.9047664e+00
  2.2308749e-01
  2.5440376e+00
  9.0936327e-01
 -2.4145405e+00
 -1.8365893e-01
  1.6929862e+00
 -1.1774714e+00
  1.2036756e+00
 -3.4746338e-02
 -1.6366678e+00
 -8.6106503e-01
 -4.5732844e-01
 -3.5524154e-01
  1.1177895e+00
  7.4140012e-02
  6.0922760e-01
 -8.9129915e+00
  1.6266313e+00
 -7.2834247e-01
 -1.7377820e+00
 -1.1698261e+00
  4.3012086e-02
 -2.3230368e-01
 -9.3488616e-01
  1.7749527e+00
  2.1387088e-01
 -2.1019924e+00
  1.7978567e-01
 -1.3254901e+00
  4.8421178e+00
 -9.7503197e-01
 -3.7123725e+00
 -1.0887196e+00
  8.4193301e-01
 -1.1219889e+00
 -1.8546393e+00
 -1.2126107e+00
 -4.1064847e-01
  5.4626584e-01
  8.3989012e-01
  1.3820657e+00
  3.5539331e+00
  2.8681082e-01
  1.1909875e+00
 -2.0899510e+00
 -7.6492351e-01
 -6.5143764e-01
 -3.2590871e+00
 -2.7831323e+00
  1.0709339e+00
 -6.2074370e+00
 -1.7404139e+00
  1.2245679e-01
 -8.9555681e-01
  2.3169613e+00
 -7.0068878e-01
  3.6571553e-01
  2.0939662e+00
  7.3270983e-01
 -2.7186046e+00
 -1.3704970e+00
 -1.2064042e+00
 -2.5002248e+00
  1.0662348e+00
 -1.0950762e+00
 -8.1398022e-01
 -1.6703920e+00
 -3.2778625e+00
  6.9038577e+00
 -4.3295126e+00
  3.9548221e-01
 -2.5500174e+00
 -7.7183390e-01
 -1.7625747e+00
 -1.9134315e+00
 -1.5653754e+00
 -4.6440953e-01
  3.3060339e-01
  9.7218311e-01
  3.1101644e+00
  5.0518336e+00
  9.6090060e-01
 -3.7336030e+00
 -6.7796880e-01
 -7.6680326e-01
 -2.0948782e+00
 -6.4267850e-01
 -1.4755554e+00
 -2.7501261e-01
 -2.5367162e+00
  1.6565958e+00
 -5.7203692e-01
  1.8373111e-01
 -2.4954540e-01
 -1.1999590e+00
 -2.9402103e+00
  8.3502010e-03
  4.1626316e-01
 -5.6310600e-01
 -7.0384961e-01
 -3.7158668e-01
  2.0166114e-01
 -8.3838415e-01
  1.8550022e+00
 -1.3806436e+00
 -8.8487071e-01
  6.6119272e-01
 -1.1846000e+00
  1.9919392e+00
  2.1804612e+00
  6.6846406e-01
 -1.2339904e+00
 -8.7791097e-01
  3.2623937e+00
  1.0328074e+00
  2.8688006e+00
  1.5016989e-01
 -1.7341405e+00
  2.5888748e+00
  2.1738489e+00
  1.3010927e+00
 -7.7639389e-01
 -9.9123836e-01
  1.1726165e+00
  9.5650101e-01
 -5.1960224e-01
  2.5467334e+00
  4.3886905e+00
 -2.2951860e+00
  1.1213908e+00
  2.3192395e-02
 -3.0425453e+00
  1.5077757e+00
 -2.8243786e-01
  8.8119161e-01
 -7.8433573e-02
  1.2031975e+00
  2.5455601e+00
  1.4448615e+00
 -1.6690063e-01
 -1.9464843e+00
  5.1093632e-01
 -1.9705966e+00
 -4.6218321e-01
  1.4552567e-02
 -1.3034602e+00
  2.0055034e+00
  1.7054049e+00
  2.8155202e-01
 -1.3013046e+00
  3.6478344e-01
 -8.7711710e-01
 -1.0821170e+00
  2.8502324e+00
 -1.6054752e+00
 -2.4833426e+00
  1.4386853e+00
  2.4498203e+00
  8.2598031e-01
 -2.0606847e+00
 -8.5769147e-01
 -2.7337046e+00
 -2.1473114e-01
  9.0014607e-01
  1.6602671e+00
  3.5095450e-01
  2.6814282e-01
  2.3381197e+00
  2.5562012e-01
  8.9764133e-02
  2.3366110e+00
 -2.9212070e+00
 -5.0916326e-01
  4.5515355e-01
  7.4721831e-01
  1.7530936e-01
 -3.8897473e-01
 -1.7902994e-01
  8.3071578e-01
 -2.1947575e-01
  9.0088397e-01
 -2.5530186e+00
  2.7081509e+00
  1.0042030e+00
 -3.6022389e+00
 -2.1101642e+00
 -6.2507921e-01
 -7.3891258e-01
 -2.5690591e-01
  4.8097324e-02
  2.5460546e+00
  1.4669945e+00
  5.0998158e+00
  6.7442435e-01
  2.4878070e+00
  1.8088591e+00
  6.5284550e-01
  3.3738787e+00
 -1.2637060e+00
  7.1382099e-01
  4.1279158e-01
 -2.6416137e+00
 -1.1476023e+00
  1.8855475e-01
 -1.4138465e+00
 -1.0685233e+00
 -1.0020719e+00
 -5.4879117e-01
 -1.2999032e+00
  4.4997931e+00
  1.5093703e+00
  1.0491997e+00
 -8.0700749e-01
 -1.6432569e+00
 -1.1826326e+00
  5.2245879e-01
 -2.6370976e+00
 -1.3832071e+00
 -2.6893723e-01
  5.4302663e-01
  5.5158347e-01
 -2.6539795e+00
 -2.4737079e-01
 -1.6620485e-01
 -8.8657573e-02
 -2.7526300e+00
 -6.3809508e-01
 -1.8747662e-01
 -1.5282847e+00
 -8.1480628e-01
 -1.0403291e+00
  8.7997842e-01
  2.1439147e+00
  2.0495689e+00
  9.3726271e-01
  1.4620539e+00
  2.3082035e+00
 -7.3443210e-01
  4.7550473e-01
  8.4716821e-01
 -2.6577555e-02
  5.9081972e-01
 -4.3125815e+00
  7.1027923e-01
  2.1751130e+00
 -1.0740108e+00
 -1.4693098e+00
  5.3683275e-01
 -4.2283770e-01
 -9.4937098e-01
 -4.1097224e-01
  2.5660329e+00
 -2.1534576e+00
  2.7490604e+00
  6.1352581e-01
  2.7212501e-02
  5.7676040e-02
  2.4694927e+00
  2.7386111e-01
  9.6814346e-01
  2.1118665e+00
  1.1294293e+00
  1.1959717e+00
 -1.5759391e-01
 -4.1527219e+00
 -9.5408690e-01
 -2.6975532e+00
  2.2064254e+00
 -6.0894841e-01
 -9.9853247e-01
 -5.2840078e-01
  4.5021951e-01
  9.5765817e-01
  4.0666613e-01
 -2.2489192e-01
  1.7276967e+00
 -3.2354510e-01
 -4.2608592e-01
  1.4110963e-01
  2.7029045e+00
  6.0409325e-01
 -5.2472377e-01
  4.2151034e-01
 -1.5322772e+00
 -5.4578567e-01
 -5.0153904e+00
  1.3928391e+00
 -4.6465058e+00
 -3.7327132e+00
 -2.9011383e+00
  2.5063422e+00
 -2.6640553e+00
  1.2776103e+00
  1.8763616e+00
 -8.8792419e-01
  1.6788783e+00
  2.2794635e+00
 -6.3980174e-01
  3.7806497e+00
  3.0372937e+00
 -1.6200874e+00
  4.6602952e-01
 -3.6068696e-01
  3.0076823e+00
 -1.4839561e+00
 -1.6272385e+00
  7.0097750e-01
 -2.5545692e+00
  2.0748520e+00
  1.7721664e-02
 -3.7177655e-01
  2.2603340e+00
 -1.7810117e+00
 -5.0601697e+00
 -6.7837924e-01
  8.2955915e-01
  9.7029114e-01
 -2.5633845e-01
  1.6301852e+00
  3.2600564e-01
 -1.5041255e+00
 -1.1596189e+00
  9.4309127e-01
 -7.1455485e-01
  2.0902412e+00
  9.9440646e-01
  2.1388834e+00
 -3.8645899e-01
  4.5801816e+00
 -2.3125696e+00
  1.5199981e+00
 -7.9834253e-01
 -3.4595356e+00
 -1.1294938e+00
 -1.0784968e+00
 -5.6488633e-01
  2.9105592e+00
  1.6414859e+00
  1.3654339e+00
 -4.9506772e-01
  4.0023011e-01
 -1.2125317e+00
  5.6393963e-01
 -2.4450884e+00
  1.1946216e+00
 -8.4161919e-01
 -3.8558382e-01
  2.4164540e-01
  1.7334788e+00
  3.2705767e+00
 -9.4249922e-01
 -9.2279546e-02
  1.5365309e+00
  4.5574421e-01
  1.8845259e+00
  4.2122877e-01
 -3.2238099e-01
  1.6359444e+00
 -4.5785576e-01
 -3.3380866e-01
 -8.9820012e-02
 -1.7493644e+00
  2.3556714e+00
  4.8569161e-01
  8.6353660e-01
 -2.2781630e+00
 -1.5906059e+00
  9.6052957e-01
 -5.3904682e-01
 -2.1128545e+00
  2.3204627e+00
  1.7885273e+00
 -1.9996181e-01
 -5.2514768e-01
 -1.4058999e+00
  5.4768810e+00
 -7.0867705e-01
  9.0966427e-01
 -1.3943704e+00
  4.3842120e+00
 -5.2577513e-01
  1.9480834e+00
  6.0525715e-01
  2.5447595e+00
  1.1017072e+00
 -7.7158205e-02
 -4.5720050e-01
 -1.5607896e+00
  9.4478464e-01
  2.6681387e+00
  1.3647891e+00
  7.5951511e-01
  2.4902089e+00
 -8.7785238e-01
 -8.0396783e-01
  1.3711281e+00
 -1.5819368e+00
 -3.7518454e+00
  7.5631487e-01
 -3.1982550e-01
  2.4332111e-01
  6.1580524e+00
 -2.6796813e+00
  9.1788852e-01
  4.9795160e+00
  1.5384641e+00
 -8.6339372e-01
 -1.6672530e+00
 -1.3094838e+00
  5.3374249e-01
  1.0493568e+00
 -9.6595979e-01
  1.5096043e+00
 -3.5243812e+00
  1.6942657e+00
 -2.2070756e+00
 -3.7883325e+00
  1.1463996e+00
 -6.6584396e-01
  5.9656686e-01
  1.4189215e+00
 -1.9047631e+00
  2.8426507e-01
  1.2070899e+00
 -3.4326148e+00
 -9.5387846e-01
 -7.9689944e-01
  1.0395565e+00
  1.8652520e+00
  7.2743648e-01
 -1.0052412e+00
  1.4047951e-02
 -9.3835628e-01
 -4.4099545e+00
  9.7236764e-01
 -8.3852422e-01
  4.3249196e-01
 -1.1322427e+00
  3.2287306e-01
 -5.8509275e-02
 -6.9452427e-02
  8.6669511e-01
 -2.2798519e+00
 -2.1319140e-01
 -1.1927887e+00
 -2.3040698e+00
 -1.0539422e+00
 -3.7784622e+00
  4.6591645e-01
  2.2933471e+00
 -8.7151647e-01
  1.1015007e+00
  5.5382934e+00
  7.0588869e-01
  1.0844166e-01
 -4.3542800e+00
 -1.5651381e+00
 -6.7323548e-01
  4.9851823e-01
  1.3005947e+00
 -1.4071182e+00
 -2.3490420e-01
  1.9520221e+00
  3.6536145e+00
  2.5937753e+00
 -2.3262084e+00
  1.8699311e+00
  4.4143295e-01
  1.3485630e+00
 -1.7904320e+00
 -5.4696268e-01
 -9.0696461e-02
  1.7900419e+00
  3.4413688e-02
  2.6410460e-01
  3.7099913e-01
  1.3302741e+00
  6.1607921e-01
  2.6150209e-01
  4.2025113e-01
 -5.0119162e-01
 -3.8823789e-01
 -2.6787345e+00
 -4.3457255e-01
  2.1573539e+00
  1.8956641e+00
  3.3796450e-01
  6.1391586e-01
 -1.0894943e+00
 -1.2556085e-01
 -1.8142389e+00
 -1.8460884e+00
  2.8447800e+00
  3.7860417e-01
 -4.3630555e-01
 -7.7658787e-02
  6.6620901e-02
  1.0732127e+00
  7.1572953e-01
 -1.2528650e+00
 -1.8615547e+00
  3.4593606e+00
 -2.0710251e+00
 -1.3377456e-01
 -3.1093175e+00
 -1.4877013e+00
  3.0357590e+00
  7.3487025e-01
  6.8499172e-01
 -5.5888379e-01
  6.3226914e-01
  9.3472886e-01
  6.1986491e-02
  9.0222681e-01
  3.5233331e-01
 -1.9815259e+00
 -9.1165197e-01
 -6.9283324e-01
  6.3270533e-01
 -1.6882867e+00
 -8.4191823e-01
 -5.0930685e-01
 -1.8686650e+00
  1.4647555e-01
 -3.6036875e+00
  1.7863035e+00
 -2.6686120e+00
  2.4779668e-01
 -5.1042366e+00
 -2.2857459e+00
  4.4500008e-03
  9.1566229e-01
  3.0108628e+00
  1.2316756e+00
  2.2863388e-02
 -1.4064168e+00
  1.7834048e+00
  1.0767696e+00
 -1.3934162e+00
 -6.4036727e-01
 -1.0710769e+00
  2.6368937e+00
 -3.1469095e-01
 -3.7768745e+00
  6.3184977e-02
 -2.8866904e+00
  6.4507887e-02
  1.3530748e+00
 -5.1464993e-01
  1.7114474e+00
 -1.9317572e+00
  9.5805329e-01
  1.8513298e+00
  9.0695423e-01
  6.1638725e-01
 -2.9796259e+00
 -2.1713712e+00
  1.7063414e+00
  6.6238642e-01
 -1.6525365e+00
 -1.5089749e+00
 -8.1511325e-01
  3.5943394e+00
 -1.4842722e+00
  3.8106412e-02
  9.7759998e-01
 -2.8870041e+00
  4.4031698e-01
 -2.6717842e+00
 -1.1173968e+00
  5.3122363e+00
  3.9060686e+00
 -5.3398174e-01
 -1.2175418e+00
  7.4255389e-01
 -1.2759131e+00
  1.8968233e+00
  1.5345544e+00
  5.9416687e-01
  8.2618392e-01
 -2.3669691e+00
 -2.2051813e-01
 -4.5794284e-01
 -6.3192731e-01
  2.8875234e-02
 -2.6104891e-01
 -1.6876891e+00
  8.0057454e-01
 -4.7328308e-01
 -4.2699975e-01
 -2.6237121e+00
 -1.4198384e-01
  2.0256813e+00
  4.1825506e-01
  4.4009292e-01
  1.7218659e+00
 -1.3253455e+00
 -1.0189230e+00
 -4.1762492e-01
  2.7373621e-01
 -6.1105263e-01
 -5.1335227e-01
  1.5653695e+00
  4.5923930e-01
 -2.2295159e-01
 -3.6464760e+00
  1.0204986e+00
 -3.6966252e-01
  2.2669754e+00
  2.0540144e-01
 -1.7476219e-01
 -2.1101005e+00
  5.8416444e-01
 -2.0644407e+00
  2.0679965e+00
  2.4884095e+00
 -4.4330134e+00
 -6.4524406e-01
  1.3983732e+00
  1.1282761e+00
 -1.2355577e+00
 -3.1844389e-01
  2.0354904e-02
 -2.7672131e+00
  3.3603046e+00
  9.2996198e-01
 -4.0507811e-01
 -2.9549024e+00
  8.3725309e-01
  9.3774372e-01
  2.1443248e+00
  2.1485283e+00
  4.7501254e+00
 -1.1101182e+00
  1.2787220e+00
 -3.3652852e+00
  4.4588718e-01
 -5.7302839e-01
 -3.6323519e+00
 -2.9230452e+00
 -7.0638889e-01
  2.6980467e+00
  2.2256184e+00
  5.8145696e-01
  1.8238568e+00
  5.4850942e-01
 -2.5338168e+00
 -2.8984678e-01
  7.4245310e-01
  8.3883114e-02
  1.8524425e-01
 -7.5705156e-02
  1.0680137e+00
 -5.1575720e-01
 -2.0700536e+00
  4.2434397e+00
  1.1383151e+00
  7.4430543e-01
 -6.9815469e-01
 -4.3300799e-01
  5.9651375e-02
 -2.3240946e-01
 -8.7646258e-01
 -1.4391416e+00
  1.2655785e+00
  8.3255666e-01
 -4.4571247e+00
 -6.0381341e-01
  3.4106573e-01
 -1.1850699e+00
 -1.2113780e+00
  1.4432137e+00
  1.3348980e+00
  1.7876323e+00
  1.0898143e-01
  1.2343067e+00
  2.4948342e+00
  6.8242437e-01
  7.2327280e-01
  2.2256179e+00
 -1.4410924e+00
 -3.1045253e+00
 -2.7800937e+00
 -2.2507949e+00
 -1.0076904e+00
  6.7467284e-01
 -5.4121625e-01
 -1.8024845e+00
 -6.6454417e-01
 -9.4936275e-01
 -2.8300691e+00
 -1.1231387e+00
 -1.8355144e+00
 -1.9837228e+00
 -2.0896788e+00
 -2.3008699e+00
  2.6732419e+00
 -3.2270885e-01
 -8.6278200e-01
  2.7747530e-01
 -4.9417892e-01
 -1.5924996e+00
 -2.6425104e+00
 -9.6742564e-01
  2.3156404e-01
  1.7878051e+00
 -6.7316687e-01
  3.4865682e+00
  1.6774252e-01
  5.1063089e+00
  7.4852616e-01
 -7.1427922e+00
  1.5431125e+00
 -4.9105268e-03
  1.0889918e+00
 -9.8451209e-01
 -1.3748500e-01
 -6.2284186e-02
  9.2168671e-01
  5.8021975e-01
  1.3654215e+00
  6.8844163e-01
  2.6010473e+00
 -3.7736729e-01
  1.5302907e+00
 -4.5654973e-01
  1.9701220e-02
  1.4892422e+00
  5.3866124e+00
  6.9702190e-01
  9.0396315e-02
  1.9114304e+00
 -2.5749729e+00
 -5.6294031e+00
  2.0388255e+00
 -1.6568063e+00
  9.1539675e-01
 -6.0003990e-01
 -2.6738271e-02
  1.1450955e-01
  1.9443586e+00
  9.8857832e-01
 -2.4880612e+00
  1.1220872e-01
  2.5064588e+00
  5.0618386e-01
  8.3552611e-01
 -6.4122677e-01
  7.2423345e-01
  2.3706193e+00
  8.4803224e-01
 -8.0106091e-01
 -4.3819232e+00
 -6.9402862e-01
  6.1332411e-01
  7.4385291e-01
 -2.5016592e+00
  6.5496308e-01
 -1.6233344e+00
  8.0105019e-01
 -2.6479959e-01
 -1.0032603e+00
  1.4155227e+00
 -6.8922478e-01
 -1.6701026e+00
 -8.2827812e-01
 -8.5320705e-01
  9.9548781e-01
  8.9232308e-01
 -2.5770664e-01
  1.7224178e+00
  3.9090747e-01
  5.0391903e+00
 -1.9985595e-01
 -1.3383634e+00
  1.3592148e+00
  5.4788697e-01
 -1.3985990e+00
 -1.6945904e-01
  5.5910575e-01
 -1.0758463e+00
  8.2205117e-01
 -1.6511867e+00
  3.0340760e+00
 -5.8194623e+00
  1.6665571e+00
  1.2509502e+00
  1.5146410e+00
  6.6618152e+00
 -2.2987213e+00
  5.9828091e-01
 -4.2574474e-01
 -6.0754991e-01
  5.9907669e-01
 -5.6706882e-01
 -1.1179972e-01
 -4.2920961e+00
 -5.8580971e-01
 -1.2016215e+00
 -1.9542691e+00
  1.2826695e-01
  2.5294763e-01
  7.6853013e-01
  2.2584496e+00
  1.8595318e+00
 -4.2522568e-01
 -1.5800822e+00
 -1.0524845e-01
 -3.8002598e+00
 -6.7189157e-01
 -3.3090467e+00
 -8.4666771e-01
 -1.2309431e+00
  2.3849311e-01
  1.9815872e+00
 -2.1210003e+00
 -1.7282685e+00
 -5.1179379e-01
 -2.7500102e-01
 -1.3201228e+00
 -1.7017321e-01
  3.3308282e-01
  1.7884170e+00
  5.4843318e-01
 -1.6140424e+00
 -4.2462306e+00
  4.8108320e+00
 -2.9304295e+00
  7.7346802e-02
  8.7929595e-01
  8.7365001e-01
  3.5962059e+00
 -8.6703241e-01
  9.9212825e-02
 -9.7987063e-02
 -6.9401288e-01
 -1.0963286e+00
 -3.7905240e+00
  8.8300371e-01
  1.0761109e-01
  1.9977623e-01
  1.5032740e+00
  2.0905793e+00
 -3.6663404e+00
  2.7136624e+00
 -1.7404751e-01
  3.7648094e-01
  1.0007302e+00
  6.0688639e+00
  3.3511770e+00
 -6.5820026e-01
 -3.0176938e+00
 -3.4219968e-01
  7.9791629e-01
  2.6976246e-01
 -9.3607545e-01
 -2.8584266e+00
  2.2746847e+00
  8.3418626e-01
 -1.3313913e+00
  1.2831063e+00
 -2.0587764e+00
  1.1185838e+00
  3.4295003e+00
  8.3546048e-01
  5.7310867e-01
 -6.5830469e+00
 -5.7260376e-01
  1.7229809e+00
  7.9846174e-02
  7.4029481e-01
  1.8224554e+00
  6.2384129e-01
 -3.7074918e-01
 -5.6289089e-01
 -3.4562200e-03
 -1.6826298e+00
  1.9718608e+00
  1.9754804e+00
  1.4857426e+00
  8.9416069e-01
  4.1975749e-01
 -3.4938822e+00
  4.5485411e+00
 -7.2861874e-01
  9.4190925e-02
 -6.6836834e-01
  2.1577106e-01
  2.1931908e+00
  4.5043206e+00
  1.2700972e-01
 -1.3517129e+00
  2.5086591e+00
  4.2500469e-01
  1.3729358e+00
 -3.9441655e+00
 -9.1932100e-01
  3.5369459e-01
 -1.0122817e+00
  2.1017730e+00
 -4.7802382e+00
  2.9222562e+00
  6.3052818e-02
  1.3614596e+00
 -2.5896370e+00
  2.4832079e-01
 -1.0172979e+00
  2.0868130e-01
  9.3606365e-01
 -4.9465030e-01
 -1.4479222e+00
 -1.0994953e+00
  2.7594473e+00
  3.4421885e-01
  2.3371029e+00
 -1.0723630e-01
  2.0694774e-01
 -1.5345547e+00
  2.1165986e+00
 -3.8894398e+00
 -5.5648214e-01
  2.9899788e+00
 -1.4709952e+00
 -9.6539646e-01
 -4.7389930e-01
 -8.0023116e-01
 -1.4693990e+00
 -1.6406206e+00
 -5.8278203e-01
 -1.6441351e-01
  1.3610902e+00
 -1.7246948e+00
  8.5756654e-01
  1.2888393e+00
  1.2413671e+00
 -3.9859016e+00
  3.5288086e+00
 -3.3282430e+00
  1.9038805e+00
  1.4144220e+00
 -1.1004238e+00
 -4.4463095e-01
 -1.9361285e+00
 -2.6989932e+00
  7.2002441e-01
 -1.2886284e-01
  1.9339877e+00
  4.9991077e-01
  4.6627035e+00
 -9.4135308e-01
 -8.8992202e-01
  2.5108426e+00
 -2.5063715e+00
 -4.1482649e+00
  2.3354714e+00
  1.6601913e-01
  6.8282223e-01
  3.0405519e+00
 -1.2260849e+00
  9.0775438e-02
 -3.6081822e+00
  1.0798218e+00
 -2.3615329e+00
  7.1918826e+00
 -6.2617862e-01
  3.2226017e+00
  3.5789351e+00
  5.7407212e-01
 -2.7085497e+00
 -6.7245591e-01
  5.3239536e-01
 -3.0124707e+00
  9.6509451e-01
  5.8984971e-01
  4.7027946e-01
 -2.9693372e+00
  1.2009979e-01
 -6.6831465e+00
  2.7052870e+00
  1.8644300e+00
  5.2345350e-02
  3.9735004e-01
 -1.4509599e+00
  2.3668410e-01
  3.4082788e-01
 -2.7278209e-01
 -1.0301280e+00
  3.9398235e-01
 -1.1327991e+00
 -1.7094186e-01
  1.6475024e+00
  6.5118754e-01
  2.5340444e-01
 -2.6068826e+00
 -2.8779740e+00
 -9.6659374e-01
  1.7544467e+00
  1.1907039e+00
  5.7540095e-01
 -2.3321536e+00
 -8.6432612e-01
 -4.5869747e-01
 -6.2490928e-01
  1.4993942e+00
  3.5688630e-01
  3.5537505e-01
  1.4497329e+00
 -4.1782517e+00
  1.9081275e+00
  2.8554389e+00
  3.1009632e-01
  1.0855317e-02
  4.6028224e-01
 -3.7942772e+00
  1.2733442e+00
 -9.0517265e-01
  9.8712552e-01
 -2.5278616e+00
  1.2102197e+00
  5.9363079e-01
 -2.7793977e+00
 -3.0754414e-01
 -3.8923762e+00
  2.6508377e+00
  2.0211225e+00
 -1.2712551e+00
 -1.6975294e+00
  3.3351750e+00
  1.7708015e+00
 -1.2785780e+00
 -1.3922217e+00
  2.6117462e-01
 -2.7068315e+00
  3.8160932e-01
 -1.6529070e+00
 -2.8659470e+00
  1.6107250e+00
 -3.5712183e-02
 -2.0058963e+00
  1.6101376e+00
  9.6379858e-01
 -5.1312470e-01
  2.8951836e-01
  3.0258174e+00
  3.1795552e-01
 -1.1383489e+00
  1.4606896e-01
 -2.8594968e+00
  4.2314253e+00
  1.9077794e-01
 -4.9478766e-01
 -3.8315628e+00
 -3.0583072e-02
  2.7700703e+00
  1.0352623e+00
 -1.7062004e+00
  1.1030517e+00
 -5.5672216e-01
  1.9854540e-01
 -5.7175260e+00
 -5.2099138e-01
  1.3637182e-01
  2.0479825e+00
  5.4253556e-02
  1.0422180e+00
  3.9964539e-01
  3.5072550e-02
  1.1015713e+00
  2.6960688e+00
 -1.2474639e+00
  1.3887492e+00
 -6.2386465e-01
  5.4024763e-02
 -2.6725453e-01
  8.2736462e-01
  7.1760796e-02
  1.6092603e+00
  2.0201669e+00
 -1.8649410e+00
 -3.5248375e+00
 -2.7807584e+00
 -4.7649684e+00
  5.9013665e-01
  1.0340573e+00
  3.9335585e+00
  7.7233160e-01
  1.8215035e+00
  4.2459193e-01
  1.5707788e-01
  6.5951449e-01
  3.1147400e-01
 -1.4394379e+00
  1.6185148e+00
  8.3169930e-02
  2.3100615e+00
 -1.4314475e+00
  3.4765828e+00
  4.1716628e-02
  1.3541313e+00
 -9.8934662e-01
  2.3666625e+00
 -1.4723971e+00
  8.3747590e-01
 -3.7114117e+00
  2.5859613e+00
 -9.1355860e-01
  2.1246884e+00
  1.6847328e+00
  3.1324842e+00
  2.5674948e-01
  1.1062844e+00
 -3.9698729e-01
 -1.1339847e+00
  5.5705947e-01
 -8.3201569e-01
 -1.5653552e+00
  4.3440628e+00
  2.4777594e+00
 -3.9718819e-01
 -3.4551013e+00
  4.7072169e-01
 -1.2778351e-01
 -9.2241406e-01
 -7.3501840e-02
  3.7108213e-01
  1.9496253e+00
 -1.2329984e+00
 -2.4298468e-01
 -3.8385779e-01
 -3.6319883e+00
 -2.2376774e-01
 -2.0225410e+00
 -1.6747490e+00
  1.8958812e+00
 -8.1826288e-01
  9.2724967e-01
  2.2962275e-01
  1.9365958e+00
 -6.7712855e-01
  5.2326351e-02
  9.4636679e-01
  3.2745472e-01
 -4.8467103e-01
  3.6666721e-01
  2.1769996e-01
 -4.7194564e-01
  2.2733848e+00
  1.7075418e+00
 -8.2124203e-01
  2.3519373e+00
  1.0460734e+00
 -1.3424847e+00
  1.1226659e+00
  8.0628920e-01
 -1.1366277e+00
  2.4179595e+00
 -4.3914375e-01
 -3.1754804e-01
  1.6916829e+00
  9.6892953e-01
  8.8654166e-01
  4.1753438e-01
 -1.1503700e+00
 -3.0047882e-01
  1.2749701e+00
  6.5227437e-01
 -4.1143632e-01
 -1.6112554e+00
 -1.0984119e+00
 -8.1956226e-01
 -2.3316684e+00
 -3.9870846e-01
  1.1432110e+00
 -1.4418316e+00
  1.1442096e+00
 -9.1243982e-01
  2.0651941e+00
 -7.3955655e-01
 -2.7777500e+00
 -8.6828512e-01
 -2.0372088e+00
 -2.8134552e-01
 -7.7771654e+00
 -1.1861953e+00
  3.6460145e+00
  1.2402174e+00
 -7.1970069e-01
  4.7191626e-01
  1.0522497e+00
  1.0763489e+00
  3.4219768e+00
 -1.4459131e+00
 -2.4995902e-01
 -1.8632070e+00
 -5.2140212e-01
  3.1394343e+00
  1.7466233e+00
 -2.8820710e+00
  8.5889006e-01
  8.6557168e-01
  1.4766906e-01
  8.4810042e-01
  2.0805032e+00
 -7.4693042e-01
  2.9306169e+00
  8.5708833e-01
 -8.3191532e-01
 -4.0419044e+00
  2.9381628e+00
 -1.8938111e+00
 -2.7135479e+00
  1.5848742e+00
  6.6406387e-01
  3.8005550e+00
  5.7262979e+00
  6.1744797e-01
  2.6843131e-01
  1.9991511e+00
  2.4870210e+00
 -1.5380456e+00
  1.7909926e-01
  2.0941846e+00
  7.8807332e-02
  8.2382834e-01
 -1.2193063e-01
  2.3626354e+00
 -5.3529358e-01
  8.4086758e-01
 -1.9716707e-01
 -1.5608194e+00
  1.0068630e+00
 -8.4414154e-01
 -2.2870433e+00
  3.6501503e+00
 -2.5594981e+00
  8.2982945e-01
 -2.0156522e+00
 -8.2641476e-01
  4.4831457e+00
 -2.6947377e+00
  4.5846310e-02
 -1.1494159e+00
  3.3710149e-01
  6.2786525e-01
 -2.1593363e+00
  2.5985227e+00
 -4.6090177e-01
  2.7726567e+00
 -2.3537874e-03
 -2.0102707e-01
 -8.2824697e+00
 -2.6598213e+00
  9.0628326e-01
  7.5330719e-02
 -9.7569686e-01
  3.9506314e+00
  3.1638411e-01
  3.1178775e-01
  9.1366976e-01
 -3.1282849e+00
 -6.6266909e-02
  2.1534109e+00
 -4.7171254e+00
 -2.6451030e-01
 -1.7362190e+00
 -7.7029973e-02
  4.5241874e-01
  3.1656015e-01
 -7.1871096e-01
  1.6064106e+00
 -2.6817088e+00
 -2.3186171e+00
 -3.5484538e+00
  3.1582289e+00
 -4.6125021e+00
 -3.6617584e+00
 -8.2081801e-01
  1.0662972e+00
 -8.4083283e-01
 -2.6945269e-01
  1.5807894e+00
 -1.0588531e+00
  1.0670800e+00
 -5.4237518e+00
 -1.7277225e+00
  1.3542348e+00
  4.6214752e+00
 -8.5574073e-01
  1.1222607e+00
 -1.1324782e+00
 -1.4428004e+00
 -9.8617244e-01
 -6.7647214e+00
 -1.2740042e+00
 -1.1493436e+00
 -2.3447224e-01
 -7.2150841e-02
 -1.6475366e+00
 -2.0902698e+00
 -4.3847817e-01
  4.7179335e-01
 -1.1727914e+00
  5.0360149e-01
  4.3753231e-01
  1.3933649e+00
  3.3451748e-01
  2.1848085e+00
 -7.4593860e-01
 -1.6510906e+00
  3.5862548e+00
  3.2508445e-01
 -1.4273734e+00
  2.4752100e+00
 -9.4014019e-01
 -2.5236380e-01
 -2.7590650e-01
 -4.6795526e-01
 -1.8494481e+00
  2.6896710e+00
  2.9114840e+00
 -7.0326692e-01
  4.5812339e-01
 -1.9640507e+00
 -8.9982677e-01
  1.8675261e+00
  2.9051354e+00
 -9.2151695e-01
 -8.4627932e-01
  2.2389970e+00
  1.3722733e-01
 -4.5766592e+00
 -6.5357700e-02
  2.8849584e-01
  1.3123453e-01
 -1.1590748e+00
 -5.9367388e-01
 -2.1894178e+00
  6.5199795e+00
  1.1693484e+00
 -2.0531235e+00
  4.3595595e+00
 -5.7819474e-01
 -3.8209593e+00
  1.1495813e+00
  3.6577783e+00
  1.3294464e+00
 -2.0836134e+00
  4.8599085e-01
 -1.3104554e+00
 -1.0562727e+00
 -1.6429279e+00
 -1.5153691e+00
  1.1735458e+00
  3.0181296e+00
  1.0156566e+00
  2.7225146e+00
  1.0371348e+00
 -9.3486202e-01
 -6.8814522e-01
  6.2313788e-03
 -5.7997808e-02
  9.6846156e-02
  4.4070282e+00
 -3.4070084e+00
  1.1705235e+00
 -2.3449280e+00
 -8.8560593e-01
 -1.1753994e+00
  2.0009179e+00
  3.6136645e-01
  3.9671662e+00
  1.6908321e+00
 -2.8250608e+00
 -1.6013588e+00
 -2.0843661e+00
  6.9181329e-01
  2.9001355e+00
  2.8545854e+00
 -8.4767610e-01
  2.8635252e+00
 -6.0640827e-02
  3.4851136e+00
  1.2053385e+00
 -7.9475380e-02
 -3.4914565e-01
 -5.3193629e-01
 -6.5633178e-01
  4.2779350e-01
  1.7698735e-01
 -1.7429663e+00
 -1.3281809e+00
  5.0079470e+00
  1.2297945e+00
  1.0320703e+00
  6.0914760e+00
 -6.5847260e-01
  2.6534686e+00
  9.8428017e-01
 -2.1892376e+00
 -4.1595316e+00
 -1.7342262e+00
  1.1397146e-01
 -4.3257565e+00
 -1.4969769e+00
 -4.5716047e-01
 -1.5450999e+00
 -1.4262439e+00
  2.1016588e+00
 -9.8461318e-01
  3.4729555e+00
  2.4157870e+00
 -1.4073887e+00
 -2.1297560e+00
 -5.7014441e-01
  5.1857173e-01
 -1.5712230e-01
 -4.4481812e+00
 -1.8515897e+00
 -6.4371562e-01
 -3.6688704e+00
  5.3801656e-01
 -1.6230130e+00
 -1.2391236e-01
 -1.4397824e+00
 -2.6757412e+00
  6.2266266e-01
 -7.6705509e-01
  3.3205968e-01
 -5.7682323e-01
 -2.4219949e+00
 -2.2207703e-01
  2.7361875e+00
  7.5416768e-01
 -9.8013282e-03
  1.2891949e+00
  1.0765768e+00
 -4.0836126e-01
  1.1139809e+00
  6.8738568e-01
  4.5901367e-01
  1.2992389e+00
  3.1597335e+00
  1.3461260e-01
 -1.3882618e+00
 -3.0270059e+00
  3.5683283e-01
  9.2694944e-01
 -9.5896614e-01
  2.9523659e-01
 -8.2177031e-01
  5.6866527e+00
  3.8752470e+00
  2.2601748e+00
 -6.8082619e-01
  3.0967772e-01
  1.3935795e-01
 -5.5948901e-01
 -2.5737698e+00
 -3.4163010e-01
  8.6502367e-01
 -1.4894211e+00
 -4.0035903e-01
  8.0697095e-01
 -3.5310209e-02
 -2.9205170e+00
 -3.8803115e-02
 -2.5972340e-01
 -3.2175870e+00
  3.5234541e-01
  1.9624174e-01
 -7.8868288e-01
  1.2374121e+00
  8.4206760e-01
 -7.9036015e-01
 -1.1686153e+00
 -1.9390263e-01
  1.0240078e+00
  7.1242321e-01
 -8.9466220e-01
 -3.4048116e-01
 -1.6115125e+00
  4.1827175e-01
 -2.4205043e+00
  3.0700016e+00
  4.8276135e-01
  5.8690727e-01
  2.8330595e+00
  2.8700013e+00
  5.8243424e-01
 -4.9119592e+00
  2.3973575e+00
 -2.9741235e+00
 -3.9981380e+00
  1.0989661e+00
 -8.8345659e-01
  8.1379920e-02
  1.9315784e+00
  2.0895855e+00
  2.8664105e-02
  2.5007350e+00
  1.9959635e+00
 -3.3652589e-01
  2.0240107e+00
  4.3721709e-01
  1.7181021e+00
  1.4460353e+00
 -8.0388123e-01
  1.2293566e+00
 -2.0620992e+00
  3.9587116e-01
 -2.4619224e+00
  6.6923344e-01
 -1.6109726e+00
 -6.8761611e-01
  9.4598138e-01
 -1.0109935e+00
  1.2890130e-01
  4.4305267e+00
 -8.8200325e-01
 -6.0771024e-01
 -1.9184749e+00
  5.5515361e-01
 -1.7926384e+00
 -3.3113465e+00
 -6.8354833e-01
 -8.7893373e-01
 -2.5920719e-02
 -2.3378718e+00
 -2.3468585e+00
 -2.3011556e+00
  1.9886206e+00
 -1.4829421e-01
 -1.3864383e+00
  3.4716654e-01
  1.5250467e+00
 -9.1109866e-01
  1.6799654e+00
 -2.7324134e-01
 -1.7877889e+00
 -1.4244950e+00
  4.4976296e+00
 -2.3735497e+00
 -5.4387736e-01
  3.6975017e+00
 -1.9432275e+00
  3.8186869e-01
 -8.9530176e-01
  9.0661496e-01
  6.9704545e-01
 -3.7788600e-01
  2.9118136e-03
  6.2731934e-01
 -1.8014519e+00
 -2.5778878e+00
 -4.8315887e+00
  7.6756859e-01
  5.6563425e-01
  8.0561596e-01
 -1.9540553e+00
 -4.5473585e-01
 -1.0722026e+00
 -3.6783063e+00
  1.0219980e+00
 -9.1778058e-01
  1.5506672e+00
 -4.6916533e-01
  1.2735579e+00
 -1.5872966e+00
  1.3671998e+00
  1.0247164e+00
  4.3359601e-01
 -1.0221711e+00
  7.6380473e-01
  1.2173408e+00
  2.8601518e+00
 -8.1290603e-01
  6.9453463e-02
 -1.2842761e+00
  8.2075578e-01
  1.8761681e+00
  6.1688554e-01
  1.0506939e+00
 -1.8621440e+00
  3.8790318e-01
 -1.8831829e+00
  2.5357254e+00
  1.0219105e-01
  3.1585970e+00
  4.7579148e-01
 -7.3562491e-01
  3.6323967e+00
 -1.8832731e-01
 -2.8286472e-01
 -2.5938776e+00
 -5.1208127e-01
 -2.9644251e+00
  4.0432280e-01
  2.9627860e-01
  2.2482200e-01
 -7.4564058e-01
  3.3641291e+00
  3.1775055e+00
  1.9120402e+00
 -3.9595357e-01
  1.4526547e+00
 -2.6840873e+00
 -3.8804688e+00
 -1.1103219e+00
  2.7855396e+00
  1.0752536e+00
 -2.6960015e-01
  1.8603823e+00
  4.4610839e+00
  2.2493014e-02
 -1.8870811e+00
  9.2990297e-01
  5.5017877e+00
  1.7617291e+00
  1.5069464e+00
  6.8164515e+00
  1.0144315e+00
 -3.2534275e+00
 -3.7468331e+00
 -2.3978724e+00
 -4.2667174e-01
  2.3936262e+00
 -1.8957295e-01
  4.5467110e+00
  2.3405154e-01
 -3.3095974e-01
 -3.2060840e+00
  4.6234646e+00
  2.0562773e+00
  5.3309541e+00
  2.4470601e+00
 -4.9736748e+00
 -2.4169159e+00
 -2.9268014e-01
 -6.8507439e-01
 -2.9532254e+00
  7.8055301e+00
  2.8420597e-01
 -4.5448389e+00
  5.6228995e+00
  8.9326274e-01
 -3.0858147e+00
  3.0434799e+00
  3.7295792e+00
  1.1805632e+00
 -3.8561394e+00
  7.1368247e-01
  2.4123671e+00
 -3.7438118e+00
 -2.2234771e-01
 -3.3697720e+00
  9.8311454e-01
  7.1213522e+00
  2.1406111e-01
 -4.7417909e-01
 -1.7845973e-01
 -9.9154633e-01
 -3.5707488e+00
  1.3393778e+00
 -1.8144928e+00
  5.9392828e-01
 -2.7878249e-01
 -4.5853081e+00
 -1.1401994e+00
  3.3067951e-01
  2.6447389e+00
 -1.8344148e-01
  5.4662442e-01
  3.0692377e+00
  1.3333913e+00
  1.6518658e-01
 -3.2966986e-01
 -1.3681962e-01
 -8.1092519e-01
 -1.8180367e-01
 -1.6735177e-02
 -4.2730327e+00
 -1.7712390e+00
  1.2685812e+00
  9.9959844e-01
 -1.7958063e+00
  4.0123072e+00
 -1.9365339e-01
  1.5377575e+00
  3.8176551e+00
  2.3210227e+00
 -1.6931822e+00
 -4.8361239e-01
 -2.6829317e-01
  7.0391542e-01
 -5.0838959e-01
  5.6643838e-01
 -2.8752980e+00
 -1.1993501e+00
 -3.5641441e-01
  4.9704380e+00
 -3.7661561e-01
 -2.8417337e+00
  1.7419145e-01
  7.1673274e-01
  4.5200080e-01
  2.7107197e-01
  1.3276323e+00
  1.2397332e+00
  1.3128405e+00
  2.1807485e+00
 -1.7778254e+00
 -4.0385990e+00
  6.6039853e+00
 -9.8143280e-01
 -5.3067011e-01
  9.9138224e-01
 -7.8823727e-01
 -1.7523125e+00
 -5.8295369e-01
 -9.7399199e-01
 -4.4968257e+00
  3.6844745e+00
 -4.0927190e-01
 -1.5980287e+00
  2.5350482e+00
 -1.2276330e+00
  8.7275404e-01
 -1.1037034e+00
 -8.6938912e-01
 -4.1862583e+00
  1.1951427e+00
  3.3218231e+00
  2.1995325e+00
  1.8007214e+00
 -6.8912822e-01
  2.0204735e-01
 -5.6534159e-01
  2.8092608e+00
 -8.7793660e-01
 -2.4500995e+00
  5.5829912e-01
 -1.3608190e-01
 -1.1369084e+00
 -7.3718756e-01
 -6.1055440e-01
 -7.1619344e+00
  1.6722040e+00
 -7.1828347e-01
 -3.6409691e-01
  2.3293121e+00
  4.4659957e-01
  1.6884522e+00
 -3.1332812e-01
  4.4972224e+00
 -6.3922369e-01
 -8.9269233e-01
  1.9119440e+00
 -3.3601542e+00
 -3.6871045e+00
 -8.7173656e-02
 -1.4986503e-01
 -1.2396979e-01
  3.3815136e+00
  1.4821357e-01
  1.7921363e+00
 -4.8919061e-01
  8.8722803e-02
  4.8748173e-02
  8.3156252e-01
 -2.2539067e+00
 -2.3809464e+00
 -1.5462859e+00
  3.1016684e+00
  4.2090831e+00
 -5.2826953e-01
  3.7974076e+00
 -2.9219911e-02
 -5.8834615e+00
 -1.5050603e+00
 -1.5092968e+00
 -1.3146869e+00
  5.9643966e-01
  5.4552567e-01
 -3.5457289e-01
 -1.1136038e+00
 -2.0134737e+00
 -5.6791639e-01
 -1.3048370e+00
  9.2077136e-01
 -4.2448897e+00
  1.9853845e+00
  6.2806225e-01
  6.1120432e-02
 -1.4466574e+00
 -3.0899510e+00
 -1.5582620e+00
  3.4174125e+00
 -5.4128724e-01
 -2.9056451e+00
 -4.7852218e-02
 -2.4390481e+00
  2.2683599e+00
 -5.0112028e+00
 -7.8993356e-01
  2.6710248e+00
  1.1677236e-01
  1.9983516e+00
 -1.8268475e-01
 -2.0965123e+00
  5.4766610e-03
  3.2463722e+00
 -9.4798857e-01
 -1.2682229e+00
 -1.2120853e-01
  2.0028670e+00
  3.1207690e+00
  1.8343041e+00
 -1.8083324e+00
  5.4125290e-02
  1.4451232e+00
 -1.2243788e+00
  2.6132886e+00
 -9.6305802e-02
 -6.6432433e+00
  2.1220050e+00
  8.9945900e-01
  5.1136169e+00
  1.6869501e+00
  1.6209472e+00
 -7.5886834e-01
 -2.7141364e+00
  1.1124112e-01
 -1.2463946e+00
 -4.4678148e-02
 -5.4872531e-01
  7.3142295e+00
 -2.2829797e+00
  2.8934982e-01
  1.0439532e+00
  2.6775703e+00
  3.1783774e-01
 -1.0007063e+00
 -2.0455742e+00
 -5.4613376e-01
  3.8020813e+00
 -5.1491719e-01
  5.8908427e-01
  1.6778836e+00
  3.3934991e+00
 -1.4901557e+00
  3.0819283e+00
  1.6576573e+00
  9.9270797e-01
  1.7375770e-01
  3.4292450e+00
  2.6998428e-01
  2.9038373e-01
 -3.9880557e+00
  6.7548007e-01
  2.3990986e-01
 -8.5254726e+00
  2.0619421e+00
  1.4825401e+00
  2.1816552e+00
 -1.7501093e+00
 -1.4525478e+00
  3.5811224e+00
  1.6201462e+00
  1.3601964e+00
  2.0329909e+00
 -2.2724527e-01
 -1.1494950e+00
  4.6229145e-01
 -2.5490087e-01
 -1.8292003e+00
 -5.0673842e-01
 -3.5817828e+00
  2.2135036e+00
 -1.0020998e+00
  1.2205193e+00
  5.9730928e-02
  4.5673904e+00
  7.3397183e-01
  1.8337563e+00
  2.6613846e+00
 -3.5025053e+00
  1.5848356e-01
 -1.4237744e+00
  3.8664332e-01
  7.7000076e-01
 -6.2032018e+00
 -2.2060924e+00
 -3.6365771e-01
  3.2888770e-01
 -7.2399996e-02
  7.2243059e-01
 -1.6126155e+00
 -1.3641028e+00
  5.6728568e+00
  3.1090746e+00
  8.2430631e-02
 -3.3622909e+00
  1.5151521e+00
  5.3232517e+00
 -1.7460265e+00
  1.9504105e+00
 -2.4544492e+00
 -2.0784209e+00
 -5.0071836e-01
  3.6540398e-01
  3.3735197e+00
  2.6839409e+00
 -1.9341011e+00
 -4.8917314e-01
 -5.7345396e-01
 -3.7692676e+00
  2.1328666e+00
  1.7011999e+00
  2.7571273e-01
 -1.5637763e+00
 -1.5034871e+00
 -8.8968724e-01
  2.0742326e+00
 -7.2046441e-01
 -2.0397086e+00
 -7.1376288e-01
 -1.1895332e+00
 -8.9956981e-01
  2.4532554e-01
  1.7941103e+00
  5.5505031e-01
 -3.4759579e+00
 -1.6439065e+00
  6.3391290e+00
 -2.4219561e+00
  1.2074407e+00
  3.1388938e+00
  4.4032226e+00
 -8.9941308e-02
  1.4139429e+00
  6.3307338e+00
 -1.8910003e-01
  1.9960862e+00
  2.3217084e-01
  1.7250642e-01
 -2.7193434e+00
  6.2991142e-01
  2.7367055e+00
 -9.9681455e-01
 -5.4157764e-01
 -3.5450268e+00
  1.1250509e+00
  6.8228345e+00
 -2.8581583e-01
  1.0635531e+00
  6.3867742e-01
  9.1388948e-02
  3.6097889e+00
 -2.4903413e-02
 -1.7726080e+00
  2.9699905e+00
 -8.7408823e-01
  2.8714688e+00
  1.2049257e+00
  3.8976488e+00
  1.6769355e-02
  3.8788491e-01
 -6.3052714e-01
 -7.0362134e+00
 -9.3599445e-01
  1.1424313e+00
 -4.0347308e-01
 -1.2823083e+00
  4.4832687e+00
 -3.8189359e+00
  4.4897151e+00
  9.3645102e-01
  4.3261423e+00
  5.1233619e-01
 -2.6950572e+00
  8.1984144e-01
 -3.2700388e+00
 -4.3875349e-01
  6.5350980e-02
 -5.9655848e+00
 -5.1551360e-01
 -1.0904930e+00
  2.5655425e-01
  2.1951985e+00
 -3.2431512e+00
 -2.3273673e+00
  2.4073162e+00
 -1.3646514e+00
  2.9829497e+00
  7.9202724e-01
 -1.5248565e-01
  8.3883733e-01
  3.3609399e-01
  8.2379597e-01
 -4.2279115e-01
 -7.5035226e-01
  2.5309455e-01
  2.1111274e+00
  2.0883679e-02
  2.6495168e+00
 -8.8806677e+00
  7.6591182e-01
  4.4949799e+00
 -2.7902944e+00
 -1.6414220e+00
  4.8110482e-01
 -6.1143166e-01
 -1.5142761e-01
  4.7983992e-01
 -1.0032452e+00
  2.0767996e+00
  5.8111674e-01
 -2.6575024e+00
  2.3673124e+00
  7.5128400e-01
 -1.0774893e+00
 -9.2295904e+00
  2.7086015e+00
 -1.3762107e+00
  2.7454979e+00
  1.5803596e-01
 -1.7020868e-01
  8.4689176e-01
 -4.7430010e+00
 -1.2856016e-01
  9.5560390e-01
  4.9544158e+00
 -9.9871534e-01
  3.5608635e+00
 -3.1230583e+00
  4.9457824e-01
 -1.9782420e+00
  7.4696928e-02
 -6.1199250e+00
 -2.6447837e+00
  2.7578020e+00
 -2.2088350e-01
  2.3739852e-01
 -4.7919184e-01
 -7.2495395e-01
  3.4187748e+00
  1.5627893e+00
 -1.9382950e+00
  2.4930296e+00
 -3.0415111e+00
  5.1595988e+00
 -2.1917729e+00
 -3.0463558e-01
  3.4293956e-01
  6.4644670e-01
  7.3234677e-01
 -7.2158241e-01
 -4.9691954e+00
  2.8920524e-02
  5.4089987e-01
  1.1146435e+00
 -7.1970212e-01
 -2.7158120e+00
  1.8597288e+00
 -1.3995832e+00
 -2.8654411e+00
  1.0806534e+00
 -2.3160784e+00
  2.6065805e+00
 -2.1739991e-01
 -3.5320455e-01
  3.4055537e-01
 -2.3565619e+00
 -6.4026648e-01
 -3.4104845e-01
 -2.1029394e+00
 -6.1644750e+00
  1.0014063e+00
 -3.9765880e-01
  4.4024301e+00
 -9.1997808e-01
  1.3075804e+00
  1.5420116e+00
 -1.1851654e+00
  3.9093906e-01
  3.7755988e+00
 -5.1373453e+00
  3.6282504e+00
 -1.0960593e+00
  3.9686331e-01
  4.8916844e-01
 -2.4081397e+00
 -4.3803353e+00
  2.4260969e+00
  2.7741663e+00
  4.4084649e+00
 -7.6104742e-01
  2.3706546e+00
  1.6557559e-01
  1.0761849e+00
 -3.2783306e+00
  9.1294599e-01
  2.6268685e+00
  1.5836637e+00
  9.5875794e-01
 -4.8936434e+00
 -4.9093413e+00
  3.1915929e+00
 -7.8612053e-01
  1.3425657e-01
 -1.0217941e+00
  1.1222559e+00
 -3.5871580e+00
 -1.9619484e+00
 -1.5348649e+00
  3.3309157e+00
 -3.4225528e+00
 -3.2543188e-01
 -4.9800267e+00
 -1.5257598e+00
 -1.7789705e+00
  8.4486049e-01
 -1.6407241e+00
 -1.7788361e-01
 -4.5715570e-01
 -1.6322408e+00
 -3.5827678e-01
  5.8059144e-01
  5.9949273e-01
 -3.7671545e-01
 -4.9717873e-01
  4.2397494e+00
 -1.9162644e+00
 -5.6786585e-01
  2.1199322e+00
 -2.7179191e-01
  1.2337217e+00
 -3.4200408e+00
 -5.2127331e-01
 -5.1615610e+00
  4.5610027e+00
  1.4741758e-01
  4.2318006e+00
  1.3782547e+00
  1.9567246e+00
 -5.7751060e-01
  8.1455082e-02
  1.9337876e-01
 -1.2556335e+00
 -5.6669869e+00
 -1.9423305e+00
 -3.1478193e-01
  4.6373856e-01
  2.4891856e+00
 -2.5057417e-01
 -4.9830480e+00
 -2.1805055e+00
 -2.9888587e+00
 -4.9468117e+00
 -7.5888515e-01
 -3.3353200e+00
  2.3503704e+00
  2.8835580e-01
  1.2414798e-01
 -1.0166650e+00
  2.7286241e+00
 -6.4337999e-02
  8.9742440e-01
 -1.7106913e+00
 -1.8728384e+00
  4.6680655e+00
 -2.4580457e+00
 -1.3543566e+00
  1.1203437e+00
  2.9659677e+00
  1.1474168e+00
 -1.2143319e-01
 -4.0379214e+00
 -1.1897820e+00
 -1.8335687e+00
 -1.4361523e+00
  3.2491410e+00
  1.1410798e+00
  3.5223277e+00
 -2.6814661e+00
 -2.9878082e+00
  3.8192430e+00
 -8.3319277e-02
 -3.6173861e+00
  1.2689395e+00
  5.5776483e-01
  1.1586695e+00
 -4.1327155e-01
 -6.8791246e+00
 -4.1764965e+00
  1.2851553e+00
 -6.0934722e-01
  5.0831556e-01
 -1.2866524e+00
 -3.9231417e+00
 -6.4040146e+00
 -3.2203689e+00
 -2.6031873e+00
 -2.4934475e+00
  2.3559790e+00
 -7.6431763e-01
 -7.2266793e-01
  6.0507884e+00
  1.1922182e+00
 -8.1502950e-01
 -1.3976617e+00
  8.2031912e-01
  1.7384766e+00
 -4.2073874e+00
  1.1070489e+00
  2.9139212e-01
 -6.7467016e-01
  1.1258035e+00
 -2.7654257e+00
 -5.6721550e-01
 -3.0109918e+00
  1.4335382e+00
 -6.7464751e-01
  6.9283289e-01
  1.3282419e+00
  1.0658228e-01
 -6.9863248e-01
  6.7941773e-01
 -1.5430384e+00
  2.2129306e-01
 -4.6022335e-01
  8.7064087e-01
  2.0942053e-01
 -2.5881928e-01
 -1.8419513e-01
 -2.3895341e-01
  2.4965534e+00
  3.7255986e+00
  1.0654375e-01
 -8.6741533e+00
 -5.7479286e-01
  2.2195825e-01
  2.0331764e+00
  3.1816754e+00
 -3.4738626e+00
  3.1448865e+00
  2.0218935e+00
 -3.3625064e+00
  7.0744944e-01
 -1.9864274e+00
  9.4142330e-01
 -9.9659598e-01
  7.1194978e+00
  1.2400384e+00
 -2.9266112e+00
  2.9239397e+00
 -1.9382017e+00
  1.5674404e+00
  9.0521550e-01
 -2.1430314e+00
  2.5731456e+00
  1.6116847e+00
 -2.8570907e+00
  9.2259824e-01
 -2.2954235e+00
 -2.5395498e+00
 -2.8215222e+00
 -2.8906507e+00
 -9.2197233e-01
 -1.1582283e+00
  2.7474301e+00
 -5.7334769e-01
 -9.9996740e-01
 -1.0308064e+00
  2.3685098e-03
  7.8768170e-01
 -1.9118503e+00
 -2.9874628e+00
 -1.5289201e+00
  1.7265705e+00
 -4.4823596e-01
  7.2930515e-01
 -2.5306261e+00
  2.4993343e-02
  1.1709312e-01
  1.0270092e+00
 -3.9113843e+00
  2.4832084e+00
  7.7163231e-01
 -1.5720055e+00
 -3.0339229e+00
  6.3487983e-01
  4.9914604e-01
  3.9787668e-01
  1.9049227e+00
 -2.8832984e+00
  1.4047316e+00
  5.3167634e+00
  4.5339923e+00
  1.3012102e+00
  5.5802259e+00
  2.3588879e+00
 -2.5292068e+00
  4.8982400e-01
 -7.9339415e-01
  2.0741005e+00
  3.9091110e+00
 -1.3041472e+00
  2.1334801e+00
 -2.5681715e+00
 -1.9588818e-01
  1.5136147e+00
 -2.0722196e+00
 -4.3980142e-01
 -9.6790200e-01
 -1.0593485e+00
  3.7056291e-01
  2.3168316e+00
  4.2870402e+00
  1.7494694e+00
 -2.1282842e+00
  4.8099627e+00
  8.1096673e-01
 -1.6843720e-01
 -8.8504605e-02
  5.4528694e+00
  2.7173762e+00
 -9.9899948e-01
 -1.3005787e+00
 -2.6080682e+00
  3.0380702e-01
 -1.5284228e+00
  1.2684849e-01
 -4.7153346e-02
 -9.4417828e-01
  1.6396827e+00
  2.9331515e+00
 -2.1968699e+00
  6.0150146e-01
 -1.1040227e+00
 -2.6726315e+00
 -8.6212099e-01
  5.6132093e-02
  2.1872990e+00
