nep4 3 O Si Au 
cutoff 7.5 7.5 124 124
n_max 8 8
basis_size 12 12
l_max 4 2 0
ANN 50 0
 -8.7434196e-01
 -1.2578216e-01
 -4.4988841e-04
  1.7991023e+00
  4.0912142e-01
  1.1383578e-01
 -3.3402801e-01
 -3.1400777e-02
  1.2193301e+00
 -2.1100064e-01
 -3.4176812e-01
  5.6810673e-02
  1.0617735e+00
  1.8277338e+00
  2.1795453e-01
 -3.6106455e-01
 -5.8699310e-01
  2.1845110e-02
  9.9496710e-01
  2.5988799e-01
  8.5793471e-01
  8.5747683e-01
 -5.0478941e-01
 -7.5887394e-01
  5.3656608e-01
 -5.3034496e-01
  4.5429757e-01
  7.0190561e-01
 -7.1643442e-02
  3.0146518e-01
 -1.9419035e+00
 -1.0610870e+00
 -7.0537873e-02
 -5.5365503e-01
 -2.4761665e-01
 -4.2193618e-01
 -2.8168294e-01
 -8.2169211e-01
 -2.9246494e-02
 -1.2483960e-01
  8.1342697e-02
 -2.7478653e-01
 -2.2657871e-01
  1.4972134e-01
  3.8173026e-01
 -6.6648161e-01
  3.9495275e+00
  2.1255301e-01
  5.6596613e-01
 -3.3305642e-01
 -1.6986859e+00
  8.4989035e-01
 -3.4257996e-01
  1.1080117e+00
 -3.7475973e-03
 -9.9965408e-02
 -5.4583192e-01
 -1.8226475e-01
  2.1227345e-01
 -2.3766525e+00
  2.6803959e-02
 -3.4758261e-01
  1.0660486e-01
 -1.3199912e+00
 -3.3320296e-01
  3.7158370e-01
  1.4299193e-02
 -1.1098261e-01
 -2.6065674e-01
 -3.2675427e-01
  1.6711819e-01
  4.2511702e-01
  3.6016959e-01
 -5.0487339e-01
 -1.2485887e+00
 -2.0966236e-01
  1.2664747e+00
 -7.0345044e-01
 -1.1846349e+00
 -5.8459125e-02
 -4.9608082e-02
  1.6029838e-01
  1.8678111e+00
 -1.1699113e-01
 -3.8905561e-01
 -2.3881321e+00
  6.9362122e-01
  1.1042936e-01
  7.8507364e-01
 -2.4986330e-01
  7.9342747e-01
 -6.6576886e-01
 -5.8202690e-01
  1.0700127e+00
 -3.0094120e-01
 -1.2116792e+00
  6.6174150e-01
 -1.3068215e+00
  7.9557419e-01
 -1.5564718e+00
  1.1018018e+00
 -1.2865876e+00
  1.1434311e-01
  4.7693393e-01
  8.0421555e-01
 -8.7464325e-02
  7.1006739e-01
  4.1059595e-01
  6.3627708e-01
 -2.5331016e+00
 -2.0282792e-02
  1.6221476e+00
  5.9471840e-01
  6.3100740e-02
  5.6146073e-01
  7.1799761e-01
  8.1877601e-01
  1.8515109e+00
  7.4744350e-01
 -2.4928512e-01
  4.5702040e-01
  8.3172941e-01
 -4.0374142e-01
  2.0891750e+00
 -1.4108602e+00
  1.4892973e+00
  2.8339592e-01
  8.7237638e-01
 -4.9829370e-01
  6.4949799e-01
 -8.5412872e-01
  3.9989036e-01
  5.3659365e-02
  6.4024534e-03
 -2.6969692e-01
  5.1882189e-02
  1.5525980e+00
 -3.7121823e-01
 -1.3006401e-01
 -8.1508122e-02
  2.9286516e-01
 -2.3259215e-01
  3.7775356e-01
  3.7671640e+00
  3.4514737e-01
  4.6018776e-01
 -6.5649021e-01
 -3.9983070e-01
 -2.8812808e-01
 -4.6809852e-01
 -2.7460089e+00
  7.4626014e-02
  2.6086828e-01
 -6.8638630e-02
  9.9039376e-01
  1.0045636e-01
  1.4700693e-01
 -8.8304520e-01
 -1.3074467e-01
  2.0543089e+00
 -1.6795187e-01
 -8.5959512e-01
 -8.2498538e-01
 -1.1525640e-01
  5.5415130e-01
 -2.9940403e-01
 -5.4864228e-01
 -3.0217558e-01
 -1.8982604e-01
  1.2356136e+00
  7.9169892e-02
 -2.3318005e-01
  1.9259109e-01
  3.4951094e-01
 -8.4807694e-02
  4.0773559e-01
  6.9122910e-02
 -2.6100042e-01
 -6.4568257e-01
 -7.2070551e-01
  2.9404485e-01
  1.0295241e+00
  1.1428716e+00
 -3.8242435e-01
  1.7392821e+00
 -2.6897186e-01
 -1.2467489e+00
  2.2832394e-01
  2.5009033e-01
 -1.8363457e-02
  7.2897220e-01
  6.8260050e-01
 -4.2558083e-01
 -1.1549728e-01
 -1.1754397e-01
 -6.1755508e-01
  4.5800000e-01
 -8.6722538e-02
  2.3721590e+00
  3.9246917e-01
 -3.6525270e-01
  5.2645391e-01
  1.3301374e-01
 -1.3363674e-01
 -9.5823860e-01
  3.0170962e-01
  2.9604662e-02
 -7.5609189e-01
 -4.0794361e-01
 -6.2466443e-01
 -2.4537231e-01
 -7.6270789e-02
  1.3810112e-01
  2.1882262e+00
  1.0882980e+00
 -9.0493143e-01
  9.1191012e-01
 -2.6936015e-01
  1.8253515e+00
  9.5390660e-01
 -1.3679290e+00
  1.0077600e+00
 -7.9291600e-01
  5.7816207e-02
  1.3196460e+00
  1.6641030e-01
 -6.5632296e-01
 -1.1705161e-01
  1.7052193e+00
 -5.9034848e-01
  5.6727862e-01
 -2.6041064e-01
  4.1678834e-01
 -3.2672051e-01
 -9.5373887e-01
  1.9313337e-01
 -7.3227614e-02
 -1.2091672e+00
 -1.2437047e+00
 -3.7357938e-01
  3.6915860e-01
  3.4977162e-01
  1.3643738e+00
  1.1641831e-01
  1.4037862e-01
 -5.7064635e-01
  4.5317093e-01
  1.2721634e-01
 -2.8827280e-01
 -2.5370395e-01
 -3.9472154e-01
 -6.7418732e-02
  1.4553995e+00
 -1.4454905e-02
  8.0533308e-01
 -4.0657079e-01
  1.5423851e-01
 -1.5510460e+00
  4.2136383e-01
  5.3472024e-01
  1.4923517e+00
 -8.3176935e-01
 -1.3211212e-01
  1.4017168e-01
 -5.0018144e-01
  7.4550666e-02
  8.6354798e-01
  3.0881873e-01
  2.8362077e-01
 -4.8362926e-02
  1.0451319e+00
 -2.9126066e-01
 -1.9454327e+00
 -1.2763313e+00
  1.9260916e+00
 -1.5277784e+00
  4.4502681e-01
 -1.3146813e+00
  2.9896567e+00
  1.6861417e+00
 -4.3842137e-02
 -2.4786005e+00
 -2.7392170e+00
  2.5891986e-01
 -6.0152378e-02
 -9.3886608e-01
  2.5803629e-01
 -1.8357662e+00
  5.8532304e-01
  1.4353262e+00
 -4.2718406e+00
 -1.6689497e-01
  7.3676616e-01
  1.8341392e+00
 -1.1925983e+00
  7.3361051e-01
 -4.1547805e-01
  3.7358874e-01
  1.6470969e-01
 -1.4602258e+00
 -6.2764630e-02
  3.0470490e-01
 -1.0902265e+00
 -9.8780310e-01
  1.5886905e+00
 -1.2359626e+00
 -5.7102972e-01
  3.3103630e-01
  2.2001900e-01
 -2.0770651e-01
 -7.8326747e-02
  9.5591182e-01
  2.6954663e-01
  8.6708164e-01
 -1.9452640e+00
 -1.6285802e-01
  4.9561411e-01
  1.1429467e+00
  2.3660452e+00
  9.2649984e-01
 -6.5746224e-01
  1.7488989e+00
  2.0493956e+00
 -8.7619662e-01
  3.0029640e-01
  1.2618582e-01
 -1.0657986e+00
  1.1181600e+00
 -4.1104716e-01
 -4.6154985e-01
 -3.4449530e-01
  1.0902286e+00
 -1.4474952e-01
  1.9509505e-02
 -4.3486796e-02
  5.4836726e-01
 -1.2707011e+00
 -2.4175979e-01
 -4.0390694e-01
  2.8264270e+00
  2.8017855e+00
  1.2024639e-01
 -1.9047579e-01
 -4.2473590e-01
 -1.0967027e-01
 -3.0637816e-01
 -1.8981823e-01
  9.3647516e-01
  2.5502841e+00
 -4.3775949e-01
  9.2962503e-01
 -1.1733240e-01
  7.8265738e-01
  1.2218120e+00
 -1.0791733e+00
 -1.8356367e+00
 -3.8313502e-01
  5.6768942e-01
  5.4595047e-01
 -1.1447041e+00
 -1.4722566e-01
 -3.8123003e-01
  2.8396660e-01
 -8.8697904e-01
 -8.4584314e-01
 -4.6142024e-01
 -2.1973276e+00
 -2.1192269e-01
  7.7187896e-02
  1.1470873e+00
  1.3959128e+00
 -2.1948032e+00
 -3.1982667e+00
 -7.3513800e-01
  1.6427397e+00
  8.8933557e-02
 -2.9987216e-01
 -7.4041617e-01
  8.2822841e-01
 -1.1984872e+00
  3.6704656e-01
  5.6135935e-01
 -3.3238789e-01
  9.9594104e-01
  1.0449031e-01
 -1.3524644e+00
 -7.7098942e-01
 -2.6931231e+00
 -5.8263409e-01
  6.0684031e-01
  6.9816428e-01
 -5.2832353e-01
  6.3257968e-01
  2.1912656e+00
  2.3307700e-01
  1.8313381e-01
  1.6328183e+00
  1.1731288e+00
 -2.4590871e+00
 -1.9042443e-01
 -2.6381397e-01
  7.8885639e-01
 -1.7984224e-02
  1.0029826e-01
 -8.3782813e-03
 -7.4721289e-01
  2.7537149e-01
 -2.2154593e+00
  7.0271575e-01
 -2.6168928e-02
 -1.1279628e+00
  2.8004823e+00
 -1.2060924e+00
 -1.7037041e-02
 -2.8127335e-02
 -1.7797516e-01
  1.6879276e+00
  1.1898378e+00
 -3.4149656e-01
 -2.4190497e-01
 -4.6524712e-01
 -1.1191705e+00
 -4.3129936e-01
  7.2822529e-01
  6.3280988e-01
  3.4642458e-01
  2.0879412e-01
 -8.6721611e-01
  2.7337697e-01
 -1.9699246e-01
  1.4301329e+00
  2.7009997e-01
 -7.0716882e-01
 -2.1498992e+00
  4.0821834e+00
 -8.2121029e-02
 -2.8207335e-01
  2.5864467e-01
 -1.3308671e+00
 -1.9090495e-01
 -2.7524583e+00
 -1.2633759e-01
  3.0337223e-01
  4.4083866e-01
  1.5470813e-01
  2.1963627e+00
 -3.1775720e-03
  8.2171470e-01
 -8.1458366e-01
 -2.3064223e-01
 -2.1056600e-01
 -1.6899929e+00
  3.9841086e-01
  1.1617973e-01
  8.4603906e-01
  8.9303035e-01
 -3.0945280e-01
 -8.9131302e-01
 -1.7853589e+00
  7.0634693e-01
  9.5230961e-01
 -9.6871692e-01
  2.1200397e+00
 -1.9766483e+00
  1.3384386e+00
  1.1439155e+00
 -6.2006488e-02
 -8.0674207e-01
 -2.6127291e-01
 -5.4081130e-01
  4.5358300e-02
  3.0698714e-01
 -9.4257331e-01
 -4.3412668e-01
  5.2220523e-01
  2.5577927e+00
  4.2881429e-01
 -1.0313880e-01
 -7.6167345e-01
  1.1230454e+00
 -1.1347861e-01
  5.5487537e-01
 -3.8771853e-01
  2.8485659e-01
 -6.9144309e-01
  3.1808493e-01
 -1.0049418e+00
  6.8533808e-01
 -3.7862489e-01
 -1.0291544e+00
  1.0587871e-01
  2.5635436e-01
  1.7582768e+00
 -3.1345096e-01
  8.9080954e-01
  1.7456805e+00
 -6.5250808e-01
 -8.5433710e-01
  3.7895063e-01
 -8.8673425e-01
  6.2491578e-01
  1.6220649e+00
  5.6728923e-01
  9.2129514e-02
  7.3226440e-01
 -7.6779139e-01
 -7.4343681e-01
  2.6903030e-01
 -8.0362117e-01
 -4.1763109e-01
  4.2388403e-01
 -1.9767162e-01
 -7.4133372e-01
  6.7423284e-01
  4.6104285e-01
  2.9069015e-01
  8.2177073e-01
 -1.6265967e-01
  1.0411751e-01
  2.9907525e-02
 -3.1177157e-01
 -2.7919635e-01
  6.8530723e-02
  7.9452980e-01
 -3.1033278e-01
 -1.2830305e+00
  1.0734818e+00
  5.8202451e-01
 -2.1389904e+00
  9.4191545e-01
  5.9901237e-01
 -7.4640095e-02
 -1.6743563e+00
  6.8561956e-02
  1.4851902e+00
 -4.1612434e-01
  3.9382356e-01
  4.6783438e-01
 -3.1814668e-01
 -1.2626481e-01
  6.6194296e-02
  1.6755706e-01
 -1.9350271e-01
 -2.9842138e-01
  2.3467267e+00
 -4.3301758e-01
  2.5005817e-01
 -4.0143737e-01
 -3.3674073e-01
 -1.4287359e-01
 -1.0229432e-01
  6.6092968e-01
  2.0087960e+00
  1.3701740e-01
 -2.7880454e-01
  1.8011677e+00
  1.0608623e+00
 -2.5355428e-01
 -3.5143507e-01
  1.0091267e+00
  3.4853089e-01
 -5.6942487e-01
 -4.8040748e-03
  1.3441199e-01
  8.0919391e-01
  1.7539533e+00
 -7.3386148e-02
  1.4289910e+00
 -3.3715174e-01
 -3.2324642e-01
 -5.7151586e-01
 -6.9285744e-01
 -8.0988055e-01
  4.0895060e-01
 -9.3787766e-01
 -1.4389879e-01
  3.0730277e-01
  3.6916366e-01
 -1.0960550e+00
 -5.8882284e-01
  3.4491262e-01
 -3.3543721e-01
  1.7803806e-01
  2.6402399e-02
 -2.4010786e-01
 -4.6457398e-01
 -7.5251275e-01
  1.6247538e+00
 -5.6433815e-01
  4.4602501e-01
 -1.0138930e+00
  1.0385216e+00
 -4.4812542e-01
 -1.5742987e+00
 -6.1625940e-01
  1.7389653e+00
 -6.6454029e-01
  1.4949659e+00
  1.1441556e+00
  1.7964188e+00
  3.8030481e-01
 -1.0606983e+00
  1.7142601e+00
  1.0584773e+00
  3.0295756e-02
 -7.2020605e-02
 -1.6536123e+00
  8.8551444e-01
  1.8453314e+00
 -2.6061194e+00
 -1.0936902e+00
  2.9818535e+00
 -1.2371932e-02
  5.1988876e-01
 -4.3097362e-01
 -5.3500491e-01
  3.8861197e-01
 -8.1000799e-01
 -1.3312000e-01
 -1.6996692e-01
  4.5801094e-01
  3.9733848e-01
  8.4317729e-02
 -7.8072064e-02
  5.4924822e-01
 -5.3975564e-01
 -6.2079102e-01
  4.3889232e-02
  1.3351897e+00
  1.6583986e+00
  1.2052407e+00
 -1.7527702e-01
  2.2484435e-01
 -1.5535762e+00
  5.0950384e-01
 -8.9628077e-01
 -3.1311461e-01
  2.2666757e-01
  1.1974760e+00
  6.7955151e-02
  1.7995996e+00
 -3.1778764e-02
  5.5932164e-01
 -5.8413374e-01
  1.8791300e-01
 -2.0189863e-02
  6.0142380e-01
 -3.0298963e-02
  2.4523358e+00
  3.2124658e+00
  1.4536203e+00
  1.3177350e-01
 -1.5584900e+00
 -7.0629466e-01
  5.6496990e-01
 -3.9438623e-01
 -4.7558272e-01
 -2.1958249e+00
  1.8143415e+00
  1.6338445e-01
  6.6568315e-01
  2.2375197e+00
 -1.3018345e+00
  3.1965309e-01
  6.2067704e-03
  2.6358831e-01
  6.3480347e-01
  2.5280802e+00
  1.6496181e-02
  1.5042453e-01
 -1.0472760e-03
 -6.5614015e-01
  1.1125597e+00
  3.0527547e-02
 -4.4141489e-01
  3.9202809e-02
  5.7884073e-01
  3.6875629e-01
  6.6627997e-01
  2.9172409e-01
  4.8720342e-01
 -3.4248835e-01
  1.1652198e+00
 -1.2946953e-01
  8.8358229e-01
 -1.8354942e-01
  7.3064691e-01
 -2.9658312e-01
 -5.7568274e-02
  1.2649047e-01
 -2.0743616e-01
 -1.5351692e-01
 -8.3529547e-02
  6.3932014e-01
 -7.5474519e-01
  1.2672593e-01
 -6.8332475e-01
  7.8204829e-01
  4.9761635e-01
 -1.4607844e+00
  1.3366625e-01
 -6.6765970e-01
 -9.3592936e-01
  6.4946511e-03
  8.3819032e-01
  5.8779216e-01
  5.2186426e-02
  2.0158057e+00
 -1.3136483e+00
  1.8812217e-01
  8.2893533e-01
 -7.2562784e-01
 -2.4941117e-01
 -1.1170347e-01
 -4.6984237e-01
 -3.4270260e-02
  4.0830162e-01
  1.7563911e-01
  1.4117232e-01
  5.8395308e-01
 -7.6282752e-01
  4.3544948e-01
  1.1430076e+00
 -3.3988303e-01
 -2.7724519e-01
  2.2499373e+00
  4.1489369e-01
 -1.9860768e-01
 -4.3254256e-01
  5.8539695e-01
 -1.3995609e+00
  3.1831989e-01
 -1.0876596e+00
  1.9819720e-01
 -2.7747710e+00
  6.4797103e-01
 -1.6734888e-01
 -1.5606105e-01
  7.4996501e-02
 -9.9332273e-02
  1.1199976e+00
  4.1440229e+00
 -1.4092064e-02
 -4.3766744e-02
 -2.5461984e-01
 -1.0771017e-01
  5.9357309e-01
 -1.0731965e+00
  6.5816164e-01
  1.6754162e-01
  2.8015700e-01
  1.0973480e-01
  1.1148273e+00
 -9.4080400e-01
 -5.5450231e-01
 -2.7366221e-02
  5.5199295e-01
 -8.2650417e-01
  8.9665991e-01
 -7.3714536e-01
  6.3556260e-01
 -1.2014833e-01
  8.8188267e-01
 -5.5610371e-01
 -2.2555882e-01
  2.5744197e+00
  9.7674668e-02
 -1.9752790e+00
 -3.6476868e-01
 -3.0449283e-01
  4.0128562e-01
  5.3660947e-01
 -3.9361274e-01
 -3.2740945e-01
  8.5012877e-01
 -7.7203475e-02
 -3.4363246e-01
 -3.8162374e-01
  5.3164337e-02
 -1.5891372e+00
 -1.5564069e+00
 -1.8693700e+00
  2.1124646e-01
 -9.4954383e-01
 -3.0272202e+00
  5.0510907e-01
  3.8166887e-01
  2.1568753e-01
 -9.1477506e-02
 -1.1376213e+00
 -2.7351046e-01
  2.1574829e+00
 -6.1705716e-02
 -4.8391023e-01
 -4.8550913e-01
  1.3483140e-01
  9.0454811e-01
  6.4392276e-02
 -3.8489214e-01
  1.7966779e-01
 -2.0826069e-01
 -9.0917885e-01
  1.0269116e-01
 -6.5600979e-01
 -2.8723028e-01
  9.1836512e-02
  6.4768356e-01
 -1.5038940e-01
 -4.9789894e-02
 -1.2314647e-01
 -9.5763338e-01
  4.7296619e-01
 -2.5825933e-01
  1.1960826e+00
 -1.3521701e+00
 -2.4670343e+00
  1.4545455e+00
  2.7236682e-01
  6.3154566e-01
 -5.2300966e-01
  1.9768047e+00
 -9.4942969e-01
 -2.2748491e-01
  7.4073488e-01
 -3.5865536e-01
  3.9832217e-01
 -2.8273726e-01
 -4.4224161e-01
  4.5180967e-01
 -1.2054493e-01
  7.0633954e-01
  2.0225992e+00
  3.1099787e-01
 -1.2548542e-01
 -1.5060067e-01
 -2.9870886e-01
 -1.4557920e+00
 -3.1926957e-01
 -1.0602073e-01
  3.7053785e-01
 -8.2519519e-01
 -2.4828684e-01
  1.9846567e+00
  2.8551877e-01
  9.8380202e-01
  8.2045048e-01
 -7.4571975e-02
 -3.7189797e-02
 -5.2074349e-01
  1.1374968e-01
  4.1765067e-01
  2.4894308e-01
 -2.0154889e+00
 -2.8864798e-01
 -1.3420335e+00
 -6.3350981e-01
  3.5590225e-01
 -2.5358635e-01
  1.2907867e-01
  3.5609573e-01
 -6.8440586e-01
  2.0329113e-01
  7.6895022e-01
 -6.8642259e-01
 -8.5843420e-01
  7.1401560e-01
  5.6275792e-02
  4.0357903e-01
  2.5459412e-01
  1.1164754e-01
 -1.4891819e+00
 -9.5204884e-01
  1.3141787e-01
  3.1595014e-02
 -5.4312110e-01
  6.7448896e-01
  1.6060510e+00
  6.2594026e-01
 -1.1860409e+00
 -1.2994357e+00
 -1.3074465e+00
  1.8876225e+00
  3.1102479e-01
  4.5011854e-01
 -3.1886774e-01
  4.9908766e-01
 -7.2821778e-01
  2.3481876e-01
  6.1001438e-01
 -2.3004082e-01
  5.2552186e-02
  6.1342025e-01
  2.8162974e-01
 -1.3172119e+00
  2.4157764e-01
  1.3587905e-01
 -1.7162074e+00
 -3.7081558e-01
  3.1717336e-01
  5.0252396e-01
  2.0075248e-01
  1.4964811e+00
  2.5865571e+00
 -9.4826955e-01
  2.6389664e-01
 -1.5466945e-01
  1.1968535e+00
 -3.5188073e-01
 -2.0450865e-01
 -2.6046926e-01
  2.9056078e-01
 -7.4100298e-01
 -4.0526339e-01
 -9.4021583e-01
 -5.4303465e+00
 -1.5967436e-01
 -1.0809299e+00
 -1.0575114e+00
  4.3863955e-01
 -2.2342176e+00
  3.7557238e-01
 -5.7056248e-01
  7.3895699e-01
  1.2297909e+00
 -1.0157666e-01
  1.1842024e+00
  3.6956468e-01
  3.3848795e-01
  5.3935897e-01
  1.0059741e-01
  5.0059456e-01
 -5.6569386e-01
 -6.9168979e-01
  5.3480387e-01
 -1.1640600e+00
  5.9522346e-02
  6.8396771e-01
  5.2061981e-01
  3.4379572e-01
 -5.2178657e-01
 -8.9495905e-02
 -1.9131844e-01
 -1.8580630e-01
  1.8421823e-01
 -3.2917035e-01
 -1.4967333e+00
 -7.5082618e-01
  1.4800941e+00
  9.8285371e-01
 -1.3451340e+00
  2.7841586e-01
 -6.2516552e-01
  3.0471545e-01
 -1.0325983e-01
 -1.3570277e-01
 -1.2074696e+00
 -6.4422756e-01
  1.4738609e+00
 -2.4751440e-01
  5.7481802e-01
  5.2624166e-01
  7.6438510e-01
  4.4416943e-01
  5.3730863e-01
  4.2040783e-01
  9.6170324e-01
 -1.7623192e+00
 -1.6026744e-01
  1.5424576e-01
 -1.1720124e-01
  1.1731249e+00
 -1.2649207e+00
 -3.0720475e-01
  4.6402118e-01
 -5.8995360e-01
 -7.4660793e-02
  2.9892439e-01
  3.3689556e-01
 -4.4679773e-01
 -1.2982162e+00
 -2.2035116e-01
  3.3886388e-01
 -1.5980161e+00
  1.2707249e+00
 -6.0215063e-02
 -4.4887012e-01
 -1.1454500e-02
  3.3088359e-01
 -4.8467491e-02
  1.6224694e-01
  6.9528997e-01
  1.2854014e-01
 -7.1318042e-01
 -6.4491940e-01
 -4.4107035e-01
 -1.2137960e-01
 -2.9772091e-01
 -2.6936224e-01
 -6.2360257e-02
 -2.4372393e-01
 -6.7031449e-01
  4.7994688e-01
 -9.2578635e-02
 -1.6710566e-01
 -2.0635523e-01
  1.7117343e+00
 -1.6369438e-01
  1.5779945e+00
  5.1947072e-02
  7.3991889e-01
  3.4250113e-01
  9.5557898e-02
  6.2722158e-01
 -3.8204855e-01
 -7.1839333e-01
 -6.3898253e-01
 -4.2235118e-01
 -7.4434566e-01
  1.3621827e+00
 -8.0099452e-01
 -4.8846522e-01
  5.1696401e-02
  7.4145705e-02
  6.6504049e-01
 -1.1410578e-01
  9.6452951e-01
 -1.6271812e-01
 -9.2158490e-01
  2.7361825e-01
  1.1203945e+00
 -1.3063625e+00
  2.8984517e-01
 -6.7467731e-01
  3.2961336e-01
 -1.5878791e+00
  4.9234039e-01
 -2.5164268e+00
 -4.2267761e-01
  9.1701865e-02
  1.0300289e+00
 -1.1123740e-01
  3.2759723e-01
  1.4000872e-01
 -6.3914135e-03
  8.0010605e-01
 -2.9965162e-01
 -6.6751885e-01
  9.1194803e-01
 -1.5546864e-01
  4.1082448e-01
 -6.8352982e-02
  6.0125303e-01
 -4.5411950e-01
  8.3245659e-01
 -1.8082319e+00
 -1.3016377e-01
 -2.5488168e-02
  4.4718653e-02
  1.0028650e+00
  1.2909877e+00
  2.5348046e-01
 -1.4124310e-01
 -8.3255768e-02
  3.4841803e-01
  6.0106158e-01
  2.9113621e-01
  2.4213222e-01
  3.8449544e-02
 -1.7359500e+00
 -2.1487521e-01
 -1.2747061e-01
 -9.7761250e-01
  4.5258418e-01
  1.7158242e-01
 -5.8859551e-01
  5.6769729e-01
 -4.8500285e-01
 -2.9911140e-01
 -2.2682047e-01
  8.3875334e-01
  4.7167367e-01
 -1.3968056e+00
 -8.6446410e-01
 -9.9537224e-02
  1.8787562e+00
  2.9784877e+00
 -2.6288438e-01
  7.1119124e-01
  1.0787936e+00
  3.7331238e-01
  1.6369736e-02
 -6.5673369e-01
 -1.3892618e+00
 -1.2135895e+00
 -4.9662691e-01
 -1.7299621e+00
  3.5756126e-02
  1.0235456e+00
 -6.9429862e-01
  9.7829932e-01
 -1.6028589e+00
  1.7348967e-01
  6.4170039e-01
 -1.2860632e+00
 -2.1756663e+00
  6.5655738e-01
  4.7609255e-01
 -7.0390779e-01
  2.4915241e-01
 -1.9137771e+00
 -3.5147116e-01
  3.5171992e-01
 -4.1766778e-01
  2.2369683e-01
  6.8836564e-01
 -1.2642242e+00
 -1.8149722e-01
 -6.3109821e-01
 -4.8638794e-01
 -4.0430984e-01
  4.6802515e-01
 -5.9411108e-01
  8.3295956e-02
 -3.8770613e-01
  4.8530370e-01
  2.5389725e-01
  7.1880412e-01
  2.3088041e-01
 -1.1980251e+00
 -1.1257480e-01
  6.1479008e-01
  1.0006361e+00
  2.2072980e+00
  4.5141473e-01
  7.7622849e-01
  1.2365937e+00
 -1.7951267e+00
  8.1362993e-01
  1.4731500e+00
 -1.7324583e-01
 -4.7477826e-01
  1.1025964e-01
  2.5375393e-01
 -1.2368172e-01
  6.0096979e-01
 -4.6834645e-01
 -2.9891959e-01
 -1.0682586e+00
  7.8837854e-01
 -8.8064030e-02
 -6.4692795e-02
 -4.7293842e-01
 -7.5394863e-01
 -5.6345755e-01
 -6.2134415e-03
 -4.4808999e-02
  9.0621316e-01
  1.1743240e+00
  2.1974649e+00
  8.1082225e-01
 -5.7095551e-01
  8.6240089e-01
  4.2607717e-02
 -1.6033155e-01
 -3.8885534e-01
  1.0216838e-01
  9.4228077e-01
 -4.1122168e-01
  7.4596256e-02
  1.9742508e+00
 -9.8276687e-01
 -1.1342868e+00
 -2.3888232e-01
 -1.1340631e-01
  1.8256813e-01
  1.6808316e-01
  5.9074038e-01
  7.6980889e-02
 -8.1539094e-01
  1.6715777e-01
  2.0249808e+00
 -2.1457791e+00
 -2.6363316e-01
 -1.1017108e+00
  9.0743698e-02
  1.5599760e-01
 -7.4497741e-01
  1.3623570e+00
 -5.1807857e+00
  4.5388622e+00
 -1.5504136e+00
  5.1305580e+00
 -4.2633753e-02
  1.9219592e+00
 -1.6258597e+00
  2.9813027e+00
  1.9770272e-03
 -3.7581859e+00
 -4.8365496e-02
  2.3915901e+00
 -8.6973274e-01
 -1.3805386e+00
 -2.8207181e+00
 -1.0102051e+00
 -2.9595813e-01
  3.0712783e+00
 -5.3414087e+00
  4.8006049e-01
 -1.2358166e+00
 -6.0489273e-01
 -4.1690598e+00
 -2.2636428e+00
 -3.8050216e-02
  5.1874709e-01
  3.8130200e+00
 -1.0506423e+00
 -2.2811703e-01
  1.2193352e+00
  5.3646410e-01
 -3.8010502e+00
 -1.1813048e+00
 -6.4981592e-01
  1.6412525e+00
 -1.6946518e-01
  3.3542609e-01
 -9.4283962e-01
 -1.2772115e-01
  1.1390131e-01
 -1.7468472e+00
 -8.2505822e-01
 -3.0631390e-01
  6.3183713e-01
  6.1039948e-01
  6.2265021e-01
  3.8700640e-01
  1.4195757e-02
 -1.1928636e+00
  9.8212665e-01
 -1.4223146e+00
  8.2548749e-01
  6.1483139e-01
 -4.8475567e-01
 -9.9266410e-01
 -1.4237040e+00
 -1.5139077e+00
 -1.5118101e+00
  5.3752899e-01
 -1.2909207e-02
 -1.7884718e+00
  1.0902338e-02
 -6.6449857e-01
  2.7880800e-01
  1.3693964e-01
 -2.3668867e-01
  2.3548795e-01
 -4.4867378e-01
  1.3794557e+00
 -4.6621588e-01
  4.1527024e-01
 -7.8167707e-02
 -9.3212169e-01
  5.7168299e-01
  1.5696166e-01
 -4.1531387e-01
  1.4191310e+00
 -1.5830637e+00
  8.5491002e-01
 -3.9800161e-01
 -3.5627279e-03
 -1.0967863e+00
  1.0477610e-02
 -1.0583179e-01
 -7.8568465e-01
  8.4990993e-02
 -1.3719089e+00
  9.2292869e-01
 -1.3309817e+00
  3.9679134e-01
  5.2998096e-01
  1.0492299e-01
 -5.5370297e-02
  3.1433991e-01
  2.5371406e-02
 -8.7222144e-02
 -5.2173525e-01
  4.0301919e-01
  9.1140904e-03
  7.8407669e-01
 -4.1430775e-02
 -1.0368172e+00
 -6.8472379e-01
 -1.8722663e+00
  9.2257875e-01
  1.2988201e-01
  1.2963350e+00
 -9.4864887e-01
  8.9614111e-01
  7.6400334e-01
 -1.6569810e-01
  6.2635666e-01
 -1.1134099e+00
 -2.6692954e-01
  3.2816295e-02
  4.8036551e-01
 -6.0663156e-02
 -5.9448355e-01
  7.9118453e-02
 -1.0102175e+00
  1.7954755e+00
  4.3595830e-01
 -2.1914601e-02
 -7.5594169e-01
  8.1926477e-01
 -1.1834224e-01
  1.6963590e+00
 -4.6857548e-01
 -2.0273745e+00
  5.2700788e-01
 -2.3261602e-01
 -2.3249309e+00
 -4.7992980e-01
 -1.4543915e-01
 -2.3851822e-01
 -9.0987623e-01
  2.1154684e-01
 -5.9365588e-01
  2.4983734e-01
  8.3295244e-01
  5.6408787e-01
  8.5674012e-01
  2.5698739e-01
 -1.3884385e+00
 -4.0588784e-01
 -3.9196786e-01
  4.8105794e-01
  1.0148228e+00
  2.4737673e-01
 -2.9521263e-01
  1.1602781e+00
  3.4934422e-01
 -1.0196450e-01
  2.7848542e+00
  2.6764354e-01
 -3.1737408e-01
 -1.0012746e-02
  3.5713506e-01
  2.6839352e-01
 -7.1344227e-01
  7.8475642e-01
 -1.4682919e-01
  1.1124779e-01
  5.8805120e-01
 -1.5713757e+00
 -4.1493434e-01
 -1.7838191e+00
 -9.7943414e-03
 -3.2878989e-01
 -1.7846156e+00
 -2.1478365e-01
 -5.2003813e-01
  1.0825330e-01
 -2.4743447e-01
 -1.2820081e+00
 -9.0366673e-01
  9.3333066e-01
  1.1076273e+00
 -1.1092241e+00
 -1.0172821e-02
 -5.9922767e-01
  9.4188416e-01
 -6.9849855e-01
  1.0658858e-02
 -1.0517133e+00
  2.6071055e+00
  1.5733488e+00
 -9.3518898e-02
 -1.3935140e-01
 -3.4779549e-01
  1.6025903e+00
  2.0563922e+00
 -7.5297618e-01
  8.8570201e-01
  1.7388541e-01
 -2.4565294e+00
  1.0905543e-01
 -4.2537689e-02
  6.9725913e-01
 -4.1836599e-01
  1.2447688e-01
 -9.2777121e-01
  3.9917243e-01
 -4.7435921e-01
  1.0396621e+00
 -4.5010272e-02
 -9.2741378e-02
  7.7242121e-02
  2.8092480e+00
 -5.1390636e-01
  2.4859165e-01
  1.6350754e-01
  2.2348872e-01
 -3.7598076e-01
  7.9589218e-01
  5.0284630e-01
 -8.6218280e-01
  9.3658501e-01
 -7.0651099e-02
  2.8595158e-01
 -8.6088753e-01
 -2.7611619e-01
 -2.1250011e-02
  3.2766616e-01
  6.5517676e-01
 -4.1059740e-02
  1.8252587e-01
  1.1179309e+00
 -5.1991597e-02
 -8.9931417e-01
  1.1142537e-01
  1.8322883e+00
  1.6982280e-02
  7.2847396e-01
  4.8489511e-01
 -5.9208995e-01
 -2.0046383e-02
  3.2185131e-01
 -2.3684491e-01
  5.4516810e-01
 -1.2119197e+00
 -1.0848759e+00
 -6.6233051e-01
 -3.1498048e-01
 -1.1165462e-02
 -1.6018096e-01
  7.3740655e-01
  4.0977063e+00
 -4.1863126e-01
  7.4898976e-01
 -2.4542751e+00
  5.3112459e-01
  3.2974991e-01
 -7.4725188e-02
  1.6471344e-01
  3.4442028e-01
  8.3309370e-01
 -1.4500290e-01
 -1.4555900e-01
 -2.3724940e+00
 -2.0854515e-01
  1.8237716e-01
  1.0268257e+00
 -7.2495908e-01
 -6.8046361e-01
 -1.6879922e-01
 -2.9443023e-01
  6.1355346e-01
  6.4757727e-02
  6.4571035e-01
 -1.1449117e-01
  1.5229094e+00
 -1.3493061e+00
 -8.4316915e-01
 -1.1349646e+00
  9.6834260e-01
 -8.0488580e-01
  1.2046762e+00
  4.4139266e-02
 -1.1204994e-01
  1.7958995e+00
 -2.7742776e-01
  1.0449948e+00
  6.4095312e-01
  7.3793954e-01
  5.1747090e-01
 -1.5627868e+00
 -1.7805585e-01
  2.3261496e-01
  8.5177988e-01
  1.8761155e-01
 -3.4227735e-01
  5.4171413e-01
 -3.0670428e-01
  9.4974083e-01
 -3.8954455e-01
 -3.3417679e-02
 -1.3933465e+00
 -1.3537887e-01
 -1.4141965e-01
  3.6004347e-01
  1.8079424e-01
 -2.0068060e-01
 -8.3488172e-01
  5.5361170e-01
  5.0727892e-01
  1.2851195e+00
  1.2168164e+00
 -1.4363106e+00
 -1.1363629e+00
 -5.7974696e-01
 -9.2871100e-01
  1.9683920e-01
 -4.8476031e-01
 -1.2906348e+00
 -3.4619495e-02
 -2.5460148e-01
  1.0365684e+00
  4.0659338e-01
 -1.8645798e+00
  4.0669474e-01
 -2.9674879e-01
 -3.4492642e-01
 -1.6531286e-01
  1.1388322e+00
 -4.2712176e-01
  1.6002142e+00
 -7.9418123e-02
  5.2787256e-01
 -2.2401944e-02
  1.4985281e-01
 -1.4680648e-01
  6.8027365e-01
  1.7179328e-01
 -2.8183192e-01
  1.9803216e-01
  1.4697735e+00
  2.1811514e-01
  5.0982103e-02
 -1.8442911e-01
  6.2843376e-01
  3.6604077e-01
 -1.4268844e-01
  2.5926906e-01
  7.6145077e-01
 -1.6358806e-01
  2.3936217e-01
  4.3025365e-01
  5.3205609e-02
  8.8542086e-01
  1.2437837e-01
 -3.5341904e-01
  3.4929034e-01
 -6.4685351e-01
 -4.1475538e-02
  9.9480343e-01
  2.2097768e-01
  1.6639689e-01
 -2.9001486e-01
 -2.4040961e-01
 -2.4695060e-01
  1.0931485e+00
  1.4762678e+00
  1.6772284e-01
  6.3005501e-01
  2.9482758e-01
 -2.0569658e+00
  9.1460043e-01
  6.8579006e-01
 -4.7042161e-01
 -1.5039873e-01
  3.1877771e-01
 -6.1399961e-01
 -2.9168782e-01
  1.6436252e-01
 -8.9006609e-01
 -9.3168601e-02
 -2.9166566e-02
  1.6672848e+00
  1.9430462e-01
  2.0735469e-01
 -1.3252656e+00
  2.4783030e-01
  2.4548826e-01
  1.0160335e+00
 -2.2011049e-02
  7.9563642e-01
 -1.3317697e-01
  5.1377043e-02
 -1.8260665e+00
 -3.1521535e-01
  1.4802132e+00
 -6.9932455e-01
  4.5305589e-01
 -1.2882655e+00
 -2.1639761e-01
 -7.2003496e-01
 -6.0412878e-01
 -3.4746701e-01
 -4.8041967e-01
  1.1454359e+00
 -8.0244943e-02
  1.6946837e+00
 -2.9074991e-01
  4.4711608e-01
 -8.9857334e-01
 -6.3838959e-01
 -3.8796949e-01
 -3.2221892e-01
  1.1845235e+00
 -6.9514823e-01
  1.7200321e-02
  3.1778333e-01
  8.0924202e-03
  8.5105574e-01
 -5.1139820e-01
 -1.2008163e+00
  2.0972078e-01
 -4.5814550e-01
 -5.7956403e-01
 -3.7145516e-01
  2.3268609e-01
  4.3530950e-01
 -7.8699395e-02
 -3.1854978e-01
 -1.4305362e+00
  2.3255731e-01
 -7.5640194e-02
  1.0585689e-01
 -1.5279731e-01
  1.4253832e-02
 -9.0670979e-01
  1.0805584e+00
 -7.8005296e-01
  1.0342366e+00
 -1.0631214e+00
  4.3672472e-01
  1.7946153e+00
  1.1325426e+00
  8.2954264e-01
  9.2660898e-01
 -1.0522791e+00
 -1.2190428e-01
 -8.6286463e-02
 -6.5903956e-01
 -1.1234701e-01
  9.4267905e-01
 -1.1628983e+00
  9.6695352e-01
 -3.1212643e-01
  3.1691191e-01
  6.3123465e-01
  9.4601892e-02
 -6.2994343e-01
 -1.0235058e-01
 -7.5364634e-03
  8.6099809e-01
 -8.3024555e-01
 -8.8957846e-03
 -5.0864238e-01
 -4.6148691e-01
  6.7556894e-01
  1.4494126e+00
 -5.4127884e-01
 -2.6289344e+00
 -7.2694379e-01
 -1.8620174e+00
  3.0665725e-01
 -1.4572099e+00
  7.3342395e-01
  9.6583858e-02
 -1.5483775e+00
 -1.8739452e+00
 -3.6318871e-01
 -2.8350958e-01
  5.4215378e-01
 -4.5415747e-01
  1.4710889e+00
  5.4145837e-01
  2.4203700e-01
 -6.1882403e-02
  9.4053692e-01
  2.4165554e+00
 -1.7660660e-01
 -9.3402696e-01
  3.1918144e-01
 -8.8773209e-01
 -2.1467986e+00
  2.4858899e-01
  4.2043198e-03
 -4.4845515e-01
  1.4146400e-02
 -3.3872029e-01
 -2.2798486e-01
  5.1239550e-01
  2.3038141e-01
 -1.2897094e+00
  6.8646491e-01
  1.4906127e+00
  1.0875336e+00
 -8.5681999e-01
 -7.7794898e-01
  3.0882344e+00
 -5.8240950e-01
 -2.2168075e-01
 -1.8134149e+00
  2.6848432e-01
 -1.0206794e+00
  6.9657552e-01
 -1.2951956e+00
  2.0709200e+00
 -8.7602478e-01
 -2.9940352e+00
  8.3021849e-02
  8.6731546e-02
 -9.1380429e-01
 -3.3673763e-01
  3.5790217e-01
  1.6006297e-01
 -4.0887959e-02
 -1.0029221e+00
  1.3332536e-02
 -3.2930046e-02
 -6.3269281e-01
 -4.2791140e-01
  6.6047519e-02
  9.7703800e-02
  3.0381897e-01
 -6.3614649e-01
  1.3981810e+00
 -7.2367585e-01
  4.6884397e-01
 -1.0807034e+00
  8.0151385e-01
 -1.4403506e-01
 -7.7678353e-02
  5.2692604e-01
 -7.8756821e-01
 -1.4990625e+00
  6.1905861e-01
  3.7330049e-01
 -5.6059659e-03
  2.1865058e-01
  1.3597360e+00
 -2.8892459e-02
  2.9145008e-01
  1.2491141e-01
 -1.1071125e-02
 -1.5966892e-01
  1.7709213e-01
  2.2441588e-01
 -7.7098960e-01
  7.3418754e-01
  7.6281410e-01
  6.8476719e-01
  8.9465693e-02
 -1.0974840e-01
 -8.7819415e-01
  4.8935115e-01
 -1.3081579e+00
 -1.0179996e+00
  5.1908267e-01
  1.3551012e-02
  9.9642307e-02
  8.1622213e-01
 -1.0828497e+00
 -1.1167130e+00
 -6.2111330e-01
 -3.2247964e-01
 -6.3708919e-01
  3.1638709e-01
 -1.2109566e+00
 -7.0302904e-01
 -3.7389836e-01
  2.5311577e-01
  2.7918649e-01
  1.5664111e-01
 -2.1461850e-01
 -1.0639752e-01
 -1.7561318e+00
 -2.9646927e-01
  3.8813806e-01
  5.0131845e-01
 -3.8559473e-01
 -2.8392799e-02
 -4.0052217e-01
  5.3939134e-01
  1.0373424e-01
  1.5396753e-01
  4.5917273e-01
  5.7448459e-01
  1.4785260e-01
  1.8827636e+00
  8.9658976e-01
 -2.0415230e+00
  6.5080404e-01
  7.5594640e-01
 -5.9865451e-01
  3.9820683e-01
 -2.8223327e-01
  1.6195583e-01
 -2.4996911e-01
  9.2736173e-01
  1.2555240e+00
  4.2682377e-01
  1.1016595e+00
 -3.2078719e+00
 -1.7390643e+00
 -9.8485649e-01
  3.4121308e-01
 -3.8123956e-01
  2.6552507e-01
 -1.1424067e+00
  1.8334390e-01
  8.2672042e-01
  3.2213926e-01
 -8.0349249e-01
  3.8237411e-01
  2.9309592e-01
 -5.8594376e-02
  1.2909050e+00
  4.8376629e-01
 -5.7443523e-01
  1.4943073e+00
  3.4833100e-01
 -1.0549768e+00
 -2.4961022e-01
  6.8259627e-01
  1.3615905e+00
  1.2491070e+00
 -2.6295111e-01
  3.2714361e-01
  5.6301504e-01
  1.2029354e-01
  4.0799642e-01
  2.7026615e-01
  3.2956380e-01
 -2.4310002e-01
  2.3408098e+00
  2.2718900e-01
  3.2565099e-01
  2.2141362e-02
 -1.3744888e-01
  8.6385506e-01
  7.3073947e-01
 -1.3685427e+00
 -2.0865232e-01
 -1.4006423e+00
  3.5332179e-01
  3.2189348e-01
 -2.8856111e-01
  1.4000122e-01
  4.5468169e-01
  1.0633630e+00
 -2.7937493e+00
 -5.5433655e-01
  1.5747002e-01
 -8.5182644e-02
 -6.7014351e-02
 -6.5726236e-02
 -4.4201186e-01
 -6.6952491e-01
  1.5752378e-01
 -1.0302536e+00
 -9.8516273e-01
  5.0560790e-01
  1.0803876e+00
  5.6723410e-01
 -1.9335797e-01
  6.7776918e-02
  1.2762599e-01
  1.9620517e+00
 -4.6753362e-01
 -2.6475556e+00
  3.4303239e-01
  7.4763197e-01
  2.0065865e-01
  1.7869018e-01
  1.3597819e+00
 -1.3212345e+00
 -3.3469954e-01
 -7.6352262e-01
 -1.6119003e-02
  3.0039001e-02
  1.4290819e-01
 -4.8807204e-01
 -1.6697088e-01
  1.1533816e+00
  5.4134625e-01
 -8.6484146e-01
 -5.1784553e-02
  3.2988361e-01
  6.9394755e-01
 -3.3965483e-03
 -6.1427945e-01
 -3.5584825e-01
 -8.3687596e-02
  3.3121175e-01
  6.3057405e-01
  1.1231868e-01
 -4.8598307e-01
  2.5900030e-01
  1.3878544e-01
 -6.2603122e-01
  1.5755206e-01
  1.4649270e+00
  3.5813034e-01
  4.7849271e-01
  2.0410495e-01
  2.3518457e+00
  1.5442362e-01
  2.5249200e+00
 -5.8176821e-01
  1.4858057e-01
  2.0439091e+00
  3.3533967e-01
 -4.4243667e-01
  3.0640894e-01
 -1.7542168e-01
  1.9287390e+00
  5.9532338e-01
 -4.2790934e-02
 -3.2988930e-01
 -6.5896422e-01
  9.3137521e-01
 -8.6443830e-01
  4.2011976e-01
 -2.5412625e-01
 -4.3698916e-01
  5.7444578e-01
  2.5017500e-02
 -1.7851499e-01
 -1.2585185e+00
  1.0355309e+00
  5.4516101e-01
 -3.6650008e-01
 -1.6102859e+00
 -3.0504414e-01
 -1.1830622e+00
  2.2569872e-01
  5.4961711e-01
  1.6973023e-01
  8.0869257e-01
 -7.6384091e-01
  1.1206353e+00
 -6.0430992e-01
 -6.3107669e-01
  6.5830857e-01
  8.4465456e-01
  1.1220473e+00
  4.0479380e-01
  2.9083853e+00
 -6.5975469e-01
  1.8482511e+00
 -5.9314795e-02
  6.1479282e-01
  4.6816173e+00
  8.2386738e-01
 -1.2383973e-01
 -2.1377764e+00
 -1.8173176e+00
 -1.3211206e+00
  2.2356346e+00
 -2.5394311e+00
  2.9716620e+00
  1.7194123e+00
  3.2010293e-01
 -2.6897914e+00
 -8.5273361e-01
  4.4634256e+00
  2.3187973e+00
  5.6677502e-01
 -5.6364042e-01
 -1.6618650e+00
  8.4315389e-01
 -8.5079372e-01
 -5.6575460e+00
  6.3206458e-01
  4.4329638e+00
  2.5860298e+00
  4.6199009e-01
  6.8422019e-01
 -4.7581005e+00
 -1.2570065e+00
  8.9194661e-01
  5.5281854e-01
 -3.8407362e-01
  1.4016858e+00
  1.5860420e+00
 -1.0919466e-01
  1.3121285e-01
 -3.2444499e+00
 -7.4670833e-01
  1.5127617e-01
  2.5700110e-01
  4.2387366e-01
  7.0640880e-01
  6.2933058e-01
  2.4911854e-01
  4.0471349e-03
 -7.1531010e-01
  1.6963506e+00
 -8.8891387e-02
  2.5693147e+00
  3.7416797e-02
 -7.9552025e-01
 -4.7112489e-01
  3.0208635e+00
 -6.7772293e-01
 -1.4030734e+00
 -9.1462946e-01
  4.3528312e-01
 -1.7391311e-01
  2.4448897e-01
 -2.2606903e-01
 -1.8392205e-01
  2.9371831e-01
 -7.3701131e-01
  2.1508917e-01
 -2.8480986e-01
  1.4724154e+00
 -6.0633761e-01
 -1.4100879e+00
 -2.3091832e-01
 -5.3529531e-02
  8.7491822e-01
 -3.1081051e-01
  1.2194782e-01
  2.5216336e+00
 -4.0555859e-01
  1.6650707e-03
 -1.4887846e+00
  6.7716008e-01
 -3.9810303e-01
  1.8261583e-01
 -3.1283483e-01
 -1.7157657e+00
 -7.4642706e-01
 -4.7538391e-01
  7.3175615e-01
 -5.3752130e-01
 -4.1580111e-02
  5.2773827e-01
  1.2268934e-01
  9.5078814e-01
 -5.8016086e-01
  1.4515314e-01
 -6.9493634e-01
  5.8920330e-01
  4.4846132e-02
 -1.6698577e-02
  9.1765326e-01
  6.3607079e-01
 -1.6803690e+00
 -4.5544291e-01
  2.2900708e-02
 -6.7698017e-02
 -1.9871715e-01
  1.6106066e-01
  1.0593477e+00
  2.5830898e-01
 -1.3843626e-03
 -1.1185795e+00
  9.8425919e-01
  2.2027934e+00
  2.3336478e-02
  1.9519919e-01
 -7.1486539e-01
  1.2014462e+00
 -3.7660072e+00
 -8.2257080e-01
  7.2164381e-01
  4.7770176e+00
  7.2054648e-01
 -7.0081860e-01
  1.7439839e+00
 -5.0477833e-03
  4.8892936e-01
  2.5939995e-01
  1.5906898e+00
 -2.0079327e+00
 -3.7381985e+00
 -9.8970968e-01
 -2.9999650e+00
  2.7196569e+00
  2.0814256e-01
  6.8743622e-01
  4.5219058e-01
  2.2957814e+00
 -1.9583552e+00
 -2.7395608e+00
  8.2316715e-01
 -3.0267276e-03
  3.1375306e+00
 -1.5167913e-01
 -5.6486946e-01
  1.4594816e+00
 -3.3303663e-02
 -1.2326818e+00
 -2.7988589e+00
  1.5309687e+00
  1.0771959e-01
  6.7557234e-01
  1.6803697e+00
  4.9017623e-01
 -2.3459324e-01
 -7.4191636e-01
 -3.6843899e-01
 -1.9238360e-01
 -8.2433081e-01
  3.3186990e-01
 -8.2579482e-01
  1.8033023e-01
 -9.7985476e-01
 -1.6596636e+00
 -3.9687562e+00
  1.6574693e+00
 -5.1081553e-02
  1.3471193e+00
 -1.5415664e-01
  8.7191418e-02
  1.1680984e+00
 -9.3709445e-01
 -5.9235060e-01
 -3.1215668e-01
  8.4667033e-01
  2.5250325e-01
 -6.6450214e-01
 -2.1999300e+00
  9.5143110e-01
  1.9196390e-01
  1.4354869e+00
  2.7134368e+00
  2.2225192e-01
  4.2265135e-01
  7.6269603e-01
  3.9051014e-01
 -1.0413481e+00
  2.1118143e+00
  6.3827729e-01
  1.2359352e+00
  1.1076820e+00
 -8.9122765e-02
 -5.0168164e-02
  9.8901704e-02
 -3.1331348e-01
 -5.6371653e-01
 -3.6946866e-01
  2.9391178e-01
 -1.4655884e-01
 -9.3602276e-01
  3.1265604e-01
  4.4459832e-01
 -9.2021054e-01
 -3.1577691e-02
  1.8124472e-01
  1.7951474e-01
  2.8506321e-01
  2.5904855e-01
  3.9838800e-01
 -1.0239139e+00
 -3.0384597e-01
 -1.4451584e+00
 -6.0635287e-01
 -1.5606463e+00
  2.8445876e-01
  1.7333642e-01
 -8.8437235e-01
 -3.9335918e-01
 -1.0470586e+00
 -1.1103032e+00
 -2.8878152e-01
 -8.0513477e-01
 -7.9763407e-01
  9.6498019e-01
  6.2884289e-01
  2.2922578e+00
 -1.1667510e+00
 -1.1600754e-01
 -2.3282762e+00
 -6.7041987e-01
 -2.4852271e-01
  2.1237855e+00
  1.2304761e+00
  3.2690626e-01
  1.9739504e-01
 -3.4378946e-01
 -8.3666623e-02
 -2.4441184e-01
 -5.2370960e-01
 -1.0703155e+00
 -3.2780647e-01
  3.1248173e-01
  3.5901526e-01
  1.7433989e-01
  5.0273961e-01
 -1.7224209e+00
 -5.1347309e-01
 -4.0058830e-01
  1.8111792e+00
 -1.4541419e-01
  5.9739754e-02
 -4.6302119e-01
  8.4777445e-01
  1.3733184e+00
  2.5528157e+00
  3.6377099e-01
 -7.3497272e-01
  3.1047955e-01
 -2.2307163e-01
 -7.2063133e-02
 -1.0302653e-01
  1.9601265e+00
 -3.0573538e-01
 -6.3236034e-01
 -4.6042833e-01
  2.4128278e-01
 -4.3347040e-01
  4.4641760e-01
 -1.0669978e+00
 -1.0072637e+00
 -4.4096422e-01
  5.4783148e-01
 -2.3040608e-02
  4.5419831e-02
 -6.2725204e-01
 -1.8040240e-03
  5.6820460e-02
 -2.3840258e-01
  2.8660241e-01
 -8.6277092e-01
 -1.0315291e+00
 -1.2487823e+00
  3.7499115e-01
 -2.2201402e-02
 -1.8841246e-01
 -1.0445466e+00
  7.4062741e-01
  3.5485271e-01
 -1.3508148e-01
 -8.8822907e-01
 -4.5183516e-01
  6.6246051e-01
  1.0888164e+00
  6.3132024e-01
  3.5747655e-02
 -3.4255511e-01
 -5.5302083e-01
  1.1875756e+00
 -4.0537879e-01
  6.1117303e-01
 -9.7818571e-01
  1.0856014e-01
 -5.3956468e-02
 -7.6544559e-01
 -4.1749343e-01
 -7.2487062e-01
  7.0247120e-01
  2.5526917e-01
 -1.6434046e+00
  1.2547964e-01
 -5.4974818e-01
 -1.0772136e+00
  4.3384409e-01
  7.8929767e-02
 -1.9673219e-01
  5.8678567e-01
  1.0046508e+00
 -9.9065471e-01
  2.4593494e+00
  3.1894830e-01
  3.0399007e-01
 -7.1823472e-01
  2.2092950e-01
  1.8136481e+00
 -1.2182378e+00
 -1.3104486e+00
  1.5226660e+00
 -1.0034975e-01
 -4.4185385e-01
 -9.6323586e-01
 -4.5798832e-01
 -2.5623786e-01
  1.4610468e+00
 -1.7397571e-02
 -1.7829385e+00
 -8.2501167e-01
 -5.7598066e-01
 -2.3245912e+00
 -7.8048438e-02
 -7.2710365e-01
  8.9210981e-01
 -1.9461219e+00
 -1.7588615e-02
 -4.0500149e-01
 -3.2229292e-01
  7.4642152e-02
  1.1758075e+00
 -3.0798461e-02
 -3.7075189e-01
 -2.6736271e-02
 -1.1262994e+00
 -1.3370186e+00
 -5.8543319e-01
 -8.7549901e-01
 -1.6829506e-01
  4.9346378e-01
 -5.7686019e-01
 -1.5101453e+00
  1.8137569e+00
 -1.7457862e-01
  7.3113394e-01
 -5.9830070e-01
  1.2013416e-01
 -3.3081234e-01
  4.4829351e-01
  1.2527440e+00
  8.9404416e-01
  1.0351228e+00
 -2.8476673e-01
 -1.0184364e+00
 -2.1917507e-02
 -4.8203546e-01
 -1.0165143e-01
 -1.1010573e+00
 -7.6237518e-01
 -4.3522328e-01
  1.0297637e+00
 -2.2034279e-01
  8.0518320e-02
 -1.0992792e+00
 -3.3740768e-01
 -1.5417306e-01
 -1.2479860e-01
  1.1022762e+00
  8.1739032e-01
 -1.5763466e+00
  3.3214197e+00
 -3.5311487e-01
  1.8146733e-02
  9.9206388e-02
  2.2302434e-01
  7.9431617e-01
  6.9153017e-01
 -1.1251262e+00
 -1.3443300e+00
  4.2966774e-01
 -5.3556895e-01
 -1.8467550e+00
 -1.4647870e+00
  8.4154272e-01
  4.9503791e-01
  8.2993889e-01
  1.4045748e+00
 -2.7131757e-01
  9.6334100e-01
  2.1018925e-01
  3.0838066e-01
 -2.3596415e-01
 -3.8830447e-01
  3.8497770e-01
  3.2445970e-01
 -2.2118156e-01
  4.7545061e-02
 -7.9594570e-01
 -6.7068833e-01
  3.0915880e-01
 -8.5187745e-01
 -4.3516439e-01
  3.0012342e-01
  7.7611893e-01
  1.8853617e-01
 -7.4316138e-01
  1.1649159e+00
  4.5858702e-01
  2.2409732e+00
  1.1951799e+00
 -1.5275316e+00
 -1.9209668e-01
  5.6973267e-01
 -1.8472569e-01
 -3.0214337e-01
 -1.3060385e-01
 -1.2519521e+00
 -1.1550535e+00
  3.5904008e-01
 -2.7255079e-01
  2.4631891e-01
 -4.6080101e-01
  4.0258166e-01
 -3.9912766e-01
  1.8463105e-02
 -2.3384585e+00
 -1.4057484e-01
  7.3834896e-02
  2.5673375e-01
  1.8046403e-01
  1.4745648e-01
 -1.3559356e+00
  1.8681810e+00
  4.0934801e-01
  9.0117615e-01
  7.9764676e-01
 -9.1575730e-01
 -1.0330428e+00
 -2.5379521e-01
  4.2407960e-01
  1.4246662e-01
 -1.3774724e-01
 -1.7709671e-01
  9.7633934e-01
 -9.8348022e-01
  1.0844994e+00
 -1.1118116e-01
 -2.0966697e-01
 -5.9047306e-01
 -1.0633515e+00
  2.5481182e-01
  8.5449463e-01
 -5.6670099e-01
 -2.4808471e+00
 -1.0525706e-01
 -6.5627538e-02
  1.5649549e+00
  1.7299025e-01
  2.8682774e-01
 -3.0019754e-01
  2.3708746e-02
  1.3945323e+00
  4.4071251e-01
  2.3240123e+00
  9.4789043e-03
  1.3632374e+00
  1.4589179e-01
 -4.2488408e-01
  1.3302785e+00
 -6.0980606e-01
 -5.9854247e-02
  8.7361807e-01
  8.5806116e-02
 -3.6718157e-01
 -9.8206866e-01
  1.5798192e+00
  1.0168779e-01
  6.5068638e-01
  1.9912492e-01
 -2.8635087e+00
 -1.8141067e+00
 -1.1447820e-01
 -8.1224710e-01
 -4.9910837e-01
 -5.1925445e-01
  1.8883103e-01
 -5.1012331e-01
  3.5395962e-01
  1.8673649e+00
 -8.0241340e-01
 -8.7257698e-03
  1.3758469e+00
  8.7633338e-03
 -3.5640597e-01
 -5.4137093e-01
 -2.7264312e-01
  1.0192542e+00
  1.8987997e+00
 -7.0310187e-01
 -9.8922604e-01
  5.9395367e-01
 -4.6458282e-04
 -8.3568913e-01
 -7.0670635e-01
 -1.6261101e+00
  2.0095041e+00
  9.2628986e-02
  1.8949560e+00
  4.6213502e-01
 -8.0329347e-01
 -1.1484650e+00
 -6.7638956e-02
  7.3887044e-01
  4.5334420e-01
  1.6288520e+00
 -6.4679718e-01
  5.9913695e-03
 -8.2421273e-01
 -8.0973768e-01
  5.1622456e-01
 -1.1111145e-01
  6.7794585e-01
 -1.1105274e-01
 -3.0258045e-01
 -1.8576653e-01
  6.9883281e-01
 -1.6480772e-01
 -1.5235084e-01
 -1.0353490e+00
 -1.1961616e+00
 -9.5560431e-01
  1.5609242e+00
  1.4236821e+00
  1.8175524e-01
  2.1393516e+00
  1.8317388e-01
 -5.3776670e-01
 -5.2060229e-01
 -7.1036297e-01
  5.8013606e-01
  4.2904601e-02
 -4.2949238e-01
 -1.0402626e+00
 -7.3136640e-01
 -1.2381636e+00
  4.7815028e-01
 -1.4844583e+00
  1.0262513e+00
  9.2757332e-01
 -5.9844983e-01
 -8.9013509e-02
  1.2318921e-01
 -7.2742729e-03
  9.9684131e-01
  5.4449552e-01
  2.5159481e-01
  5.4898828e-01
  3.3674878e-01
  1.5789841e+00
 -1.4479465e+00
 -1.2088169e+00
 -2.2726774e-01
 -5.1197350e-01
 -6.7015153e-01
 -1.7428817e+00
 -1.0505630e-01
  3.2717884e-01
  1.0722065e-01
 -5.7898062e-01
 -1.0682013e+00
  1.3587158e+00
  8.8877371e-03
  2.1716626e+00
 -6.0677767e-01
 -1.9068487e+00
  2.2528191e-01
 -2.6457176e+00
 -1.1116203e+00
  4.0859726e-01
 -1.9426495e-03
 -1.3355402e+00
 -2.8630897e-02
  5.9327453e-02
 -6.5877497e-02
 -5.8197272e-01
  8.9876279e-02
 -8.2508206e-01
 -5.5439182e-02
  6.8226099e-01
  3.3584538e-01
 -8.3200413e-01
  1.5207823e-01
  4.6553555e-01
 -4.2842948e-01
  1.5955086e-01
 -6.9656390e-01
 -4.4945848e-01
 -7.0302713e-01
 -1.3669316e+00
 -8.7466562e-01
 -4.2488721e-01
  9.2092216e-01
 -7.3777892e-02
  1.1285659e+00
 -3.9634004e-02
 -3.5248753e-01
 -3.0631464e-02
  1.4889017e-01
  6.8841171e-01
 -1.3958597e+00
  7.0831001e-01
 -5.1082492e-01
  1.1153516e+00
 -8.4126669e-01
 -2.2970936e+00
  1.1356325e-01
  9.6402991e-01
 -1.2878973e+00
  5.2216494e-01
 -3.3097792e-01
 -7.6106563e-02
  1.3878076e+00
  2.0585625e-01
 -5.4091251e-01
  1.8728149e+00
  1.6279436e+00
  1.7609347e-02
 -1.0511075e+00
 -7.6033294e-01
  4.9817634e-01
 -6.9236213e-01
 -1.3726488e-01
 -8.8547301e-01
 -1.9272799e+00
 -5.2874613e-01
  4.3520758e-01
  1.5934280e-01
 -2.4859631e-01
 -3.7179932e-01
  1.3903952e-01
  1.1206280e+00
  1.7896968e+00
 -8.7953210e-01
 -7.2847819e-01
  3.0503166e-01
  9.2905566e-02
 -1.4847589e+00
 -4.3110555e-01
 -1.7516805e-01
  2.8033552e-01
  7.7661723e-01
  1.5124172e-01
  5.6492203e-01
 -1.9312305e+00
  6.6910177e-01
 -1.6310400e-01
 -1.4768063e-01
  1.1429700e+00
  9.1428421e-02
  1.0052973e+00
  3.3065625e-02
  2.3266330e+00
 -1.2801120e+00
  3.4170192e-01
 -4.1026905e-01
  4.3006074e-01
 -3.0034626e-01
 -5.3839761e-01
  3.9472550e-01
  1.5425771e-01
 -8.3580530e-01
 -4.1600776e-01
  4.3611085e-01
 -1.0899850e+00
 -2.4665138e-01
 -7.8233671e-01
  1.4587301e-01
 -1.3730056e+00
  1.6552407e-01
 -1.2096113e-01
  8.9978796e-01
 -1.0788501e-01
 -1.9951598e-01
 -2.9073488e-03
 -3.9995801e-01
 -3.4187786e-02
  1.1584189e+00
  4.1356173e-01
  1.4191433e+00
  4.3457055e-01
 -9.7924131e-01
 -2.7175331e+00
  1.6831498e-01
 -2.0602235e-01
 -3.6360624e-01
 -8.9075506e-01
 -8.7030804e-01
  1.0014316e-01
 -3.0673990e-02
 -7.0046484e-02
 -5.8658086e-02
  8.2831872e-01
 -3.8625842e-01
  2.3386128e-01
 -3.9867714e-02
  7.9720050e-01
  8.0616850e-01
 -4.3128526e-01
  6.4734137e-01
  4.7476432e-01
  7.9396731e-01
  4.1360758e-02
  3.8488582e-01
  1.0178489e-01
 -6.6746378e-01
  2.1570725e+00
 -1.4049123e-01
  1.2573472e+00
 -2.1044679e-01
 -7.0690878e-02
  2.6598379e-01
  1.1944853e+00
 -3.6724651e-01
  2.8299981e-01
 -5.8545125e-01
 -3.4744319e-01
  8.0014491e-01
  2.6066598e-01
  9.7276831e-01
  1.3551714e-01
 -1.6281806e+00
 -5.4242134e-02
 -7.4262094e-01
 -1.0075679e-01
  2.0560980e+00
  4.2735881e-01
 -1.2201037e+00
 -3.6402747e-01
  1.8000835e-01
  7.6520450e-02
 -7.5680673e-01
 -3.3652511e-01
 -1.1586132e+00
 -2.9519696e-02
  6.2919623e-01
 -3.2167430e+00
  1.5142089e+00
  3.1819479e+00
 -2.2323794e+00
 -2.1197424e+00
 -1.1894596e+00
  1.4311483e+00
 -3.9050429e+00
  3.0472574e-01
  1.3336203e-01
 -2.1228192e+00
  1.8664764e-01
 -3.6186671e+00
 -1.4956884e+00
  3.3785770e+00
  5.6499135e-01
 -2.7228816e+00
 -1.3243874e+00
 -1.3661582e-02
  5.3339690e-01
 -2.6715511e-02
  2.2809639e+00
 -9.0127134e-01
  2.7451973e+00
  4.3848133e-01
 -1.1481739e+00
 -2.7009487e+00
 -2.1183534e+00
 -2.7575266e+00
 -1.0788029e+00
 -2.0313129e+00
  1.4515860e+00
 -3.6905844e+00
 -1.0744373e-01
 -2.2892089e+00
 -7.3254794e-01
 -9.0678567e-01
 -1.3836887e-01
 -1.6751926e-01
 -2.5304806e+00
 -1.8661119e-01
  1.1382635e+00
  1.4241720e+00
  1.4668505e+00
 -3.2985547e-01
  3.6182902e+00
 -3.3525085e-01
 -2.4193864e+00
  2.0735071e+00
 -1.7666402e+00
  5.5063095e+00
 -1.7579876e+00
 -2.0322690e+00
  4.0531869e+00
  3.9464226e+00
 -4.3122900e-01
 -1.0067402e-01
  2.3695316e+00
  2.5153753e-01
 -6.6234253e-02
  3.8687341e-02
 -3.1167212e-01
  2.2688768e+00
  3.2556143e+00
 -1.6804292e+00
 -4.6239249e-02
  1.6197672e+00
  9.9928582e-01
  4.7366512e-03
  1.1256313e-01
 -7.5387460e-01
 -3.6375830e+00
 -1.2027801e+00
 -2.7127819e+00
  1.0324625e-01
 -1.0261459e-01
  2.6120627e+00
  1.7935245e+00
  2.6734614e+00
  7.1501653e-03
  3.0205824e+00
 -3.7655616e-01
  3.0099084e+00
 -6.1000049e-02
  1.6711074e+00
  4.6229996e-03
 -9.3459445e-01
 -1.7618416e-02
  4.5028195e-01
  1.2240556e+00
 -1.6143011e-01
 -1.6635732e-01
 -1.4027934e+00
 -2.3949149e+00
 -4.0636212e-02
 -2.3562393e+00
 -3.0572504e-01
  4.3190951e+00
 -4.7158470e+00
 -4.5023063e-01
  3.1085914e-01
  5.3377974e-01
 -1.4445181e+00
  4.7688997e-01
  1.6046980e-01
 -6.3512039e-01
  2.4649386e-01
  1.0182198e+00
  3.6926012e-02
  7.8374535e-02
 -1.3735908e-01
  1.8592355e+00
 -8.9682406e-01
  3.0366680e-01
  2.6110542e-01
  6.9087863e-01
 -3.4797275e-01
  5.2964711e-01
 -5.7116860e-01
  3.1396419e-01
  1.9786550e-01
  1.3168799e+00
 -2.2993436e-01
 -6.0315830e-01
  9.6994865e-01
  2.1265267e-01
 -4.0580088e-01
 -1.4876000e+00
 -5.4647779e-01
  2.5025710e-01
  4.4377182e-02
  1.0235816e+00
 -2.3858948e-01
 -4.4937745e-02
 -3.4108663e-01
  1.2759160e+00
 -1.6244692e-01
  1.2609773e+00
  7.0348811e-01
  5.3624833e-01
 -4.3646461e-01
  6.4925009e-01
  2.3540230e+00
  1.1150236e-01
 -2.8144827e-01
 -1.4126683e+00
 -4.5477596e-01
  1.5534697e-01
 -4.3794617e-01
 -1.0462502e-01
  1.1013446e+00
  2.1083251e-01
 -1.3028728e+00
 -1.4568810e-01
 -1.9054773e-01
 -9.3518806e-01
 -6.7185217e-01
  1.7381728e+00
  4.0329942e-01
  9.8728389e-01
 -3.7544131e+00
 -1.9352098e+00
  6.0158330e-01
 -5.1528114e-01
 -1.4024003e+00
 -1.0495290e+00
  1.1204706e+00
 -9.6193027e-01
 -4.3894351e-01
 -4.6167654e-01
 -1.8694063e+00
 -5.6034327e-01
 -3.6337203e-01
 -1.6842398e-01
 -9.1447097e-01
  6.0648650e-01
  8.1381403e-02
 -1.7191875e+00
 -5.2820295e-02
 -5.2902895e-01
 -2.2342517e+00
 -1.8858123e+00
  8.9127827e-01
 -6.2857652e-01
 -5.5032790e-01
  1.0052964e-01
 -1.8127048e+00
 -5.1981580e-01
 -9.6276140e-01
  1.3799800e-01
  6.5785043e-02
  2.3653980e-01
  2.1959465e+00
 -7.5412148e-01
 -2.7686030e-01
  1.0026344e-01
 -6.0688138e-01
 -2.0221876e-01
 -5.3854471e-01
  3.2431501e-01
 -8.9767277e-01
  2.2032666e-01
 -7.0300615e-01
  1.6661227e-02
  5.1229522e-03
 -1.7082610e+00
 -5.3481811e-01
 -2.0786434e-01
 -1.2572320e+00
  2.1670825e+00
  2.7131848e-02
  9.1841333e-02
 -2.0481959e-01
 -2.4381126e-01
 -2.5286007e-01
  1.2189707e+00
  2.6761886e-01
 -4.7855720e-01
  1.7267537e-01
 -2.3708910e-01
 -1.0287517e-01
  7.6560682e-01
 -1.4397949e+00
 -7.8839310e-02
 -5.8820307e-01
  1.3250160e-01
 -5.9020263e-01
 -1.8633230e-01
 -4.7477144e-01
 -1.7245314e-01
 -1.4984740e+00
 -1.2368313e+00
 -8.4395963e-01
 -6.7390114e-02
  6.3143098e-01
  4.3934655e-01
  6.3349921e-01
 -5.0870275e-01
  1.4470311e+00
 -2.0174489e+00
  1.3104633e+00
 -7.6946355e-02
  6.7491490e-01
 -1.3477297e+00
  7.4710572e-01
  1.5955931e-01
  7.0218772e-01
  4.1230360e-01
 -3.1513971e-01
  3.0466008e-01
 -4.1770786e-01
  1.6374704e+00
  2.2751305e+00
  8.2709306e-01
 -1.1916857e+00
 -6.9554842e-01
 -1.0033000e+00
 -1.0431614e+00
  1.1451836e+00
 -1.0284992e-01
  8.6670637e-01
  3.8252744e-01
 -7.7406548e-02
 -2.5826216e-01
 -4.6593851e-01
  3.6374143e-01
  6.6838694e-01
 -8.0790800e-01
 -2.4592203e-01
 -1.4912982e-01
 -1.2660599e+00
 -3.0246508e-01
  1.0323338e-01
 -6.6700447e-01
  9.3976378e-01
 -1.3554516e+00
  6.9156522e-01
 -3.9485934e+00
 -6.6381979e-01
 -5.5360639e-01
  1.6134386e+00
  3.9688188e-01
  5.4695874e-01
  1.3886926e+00
 -7.6767802e-01
  1.7877440e+00
 -1.0200289e+00
  1.6158942e-02
  1.0326495e+00
 -1.6902909e-02
 -3.3832055e-01
 -3.7970237e-02
  1.1816792e+00
  1.6787592e-02
 -4.7402419e-02
 -1.0702388e-01
 -7.4486367e-02
  1.0018556e+00
  9.4750702e-01
  4.8540917e-01
 -1.5249261e+00
 -1.2863413e+00
 -5.2812077e-02
 -5.7921082e-01
 -4.5694214e-01
  3.0343497e-01
 -2.3769294e-01
  5.5566585e-01
 -2.0360032e-01
 -1.5277472e+00
 -9.0983623e-01
 -5.8860034e-02
 -7.2440886e-01
 -6.7338869e-02
 -1.9408590e-01
  5.3161812e-01
  8.6323583e-01
  2.6669675e-01
  7.1610403e-01
  2.3266854e+00
 -8.5549927e-01
 -1.0415380e+00
 -2.7863913e+00
  1.6643283e-01
  1.1470221e-01
  6.4815813e-01
 -5.6167120e-01
  9.0584040e-01
  2.4540285e-02
  5.6396657e-01
  6.6963017e-01
  2.2641871e+00
  1.2512027e-01
 -4.1809806e-01
 -1.0269619e+00
  2.5154960e-01
 -5.9419554e-01
 -1.8426210e+00
  1.5077449e-01
 -7.3497069e-01
  1.1177901e+00
  9.6498054e-01
 -5.5980742e-01
 -1.0660741e+00
  9.4833843e-02
 -1.9922248e-01
  6.3034093e-01
 -8.7500840e-02
  2.4324565e-01
 -6.2703353e-01
  7.6606713e-02
  5.5291855e-01
  2.7210554e-01
 -8.5991502e-01
 -4.3109927e-01
  4.4258526e-01
 -1.2463919e+00
 -1.2359525e-01
 -6.2079206e-03
 -4.7746402e-01
  5.1086473e-01
 -2.0728222e-01
  5.4744947e-01
  3.6148667e-01
 -1.2640071e+00
 -1.1287750e+00
  6.1647046e-01
 -1.4259160e-01
 -1.6948843e-01
 -2.2382350e-01
 -1.6287501e+00
 -1.0084639e-01
 -5.0450259e-01
  1.1782233e-02
  4.2528501e-01
 -1.8371992e-01
  1.0791607e-01
  2.3815955e-01
  1.9725703e-01
  1.0022874e+00
 -1.0990226e+00
  9.2106313e-02
  2.1899340e-01
  4.3374547e-01
 -4.8078242e-01
  1.3482584e+00
  3.9104065e-01
 -5.1932448e-01
  1.0667671e+00
  7.6993650e-01
 -1.4143226e+00
 -1.2072083e-01
  7.2059393e-01
  3.6254513e-01
 -2.3134570e-01
  1.7872535e-01
 -1.2109423e+00
 -7.7523746e-02
  7.8089857e-01
  3.0368080e+00
  2.4501261e-01
  2.2604298e-03
  2.2964133e-01
  2.6925406e-01
 -1.3217221e+00
 -2.1376510e-01
 -5.8480281e-01
 -1.0360651e-01
 -6.3889277e-01
 -4.0184170e-01
  4.3884188e-01
  1.1146088e+00
 -6.5212756e-01
  1.0010811e+00
 -3.7632778e-01
 -7.5016040e-01
  7.2265744e-01
 -9.1458958e-01
  3.1360477e-01
 -8.3002907e-01
  2.0196274e-01
 -1.7426920e+00
  4.3125668e-01
  8.6818814e-02
  8.6893141e-01
 -3.0447324e-03
  6.2194705e-02
  2.8118300e-01
 -1.6361034e-01
 -2.7198213e-01
 -1.7034922e+00
 -8.7386966e-01
 -1.0956272e+00
 -2.0257998e-01
  1.1353815e+00
  4.8345929e-01
  1.7613175e+00
  8.1603691e-02
  1.6544743e+00
  5.8746493e-01
 -7.0266920e-01
  4.2090899e-01
 -6.7259073e-02
  9.8191148e-01
  2.2964805e-02
 -1.4645319e-01
  1.6873077e-01
  7.0637453e-01
  1.4884809e+00
  5.1614398e-01
  1.0718858e+00
  1.2937448e+00
 -8.8577256e-02
 -7.4859187e-02
 -7.0140469e-01
 -6.0917658e-01
  1.3123374e+00
 -1.4089043e-01
 -1.2121893e+00
  2.9569066e-01
  8.6984895e-03
 -4.2593887e-01
  8.1098306e-01
 -5.5631918e-01
 -1.0162467e+00
  1.0688351e+00
  9.5279449e-01
  5.0910556e-01
 -9.4490051e-01
  6.4159560e-01
 -1.9088904e+00
 -1.0847346e+00
  8.4378862e-01
  1.2740096e+00
  9.8031648e-02
  2.8150740e-01
  1.5519428e+00
 -4.1357633e-01
 -2.5583801e-01
  1.5284302e+00
 -4.1628052e-02
 -1.8679216e+00
 -1.3130960e-01
  2.4106562e-01
  4.0733889e-02
  2.0081291e+00
  2.6657152e+00
 -2.9440634e+00
 -1.4403143e+00
  2.0101715e-02
 -8.7780690e-01
  3.0340269e-01
 -4.2013603e-01
  1.4945078e-01
 -9.4386065e-01
 -8.7187833e-01
  1.4786971e-01
  2.0081627e-01
  9.8391727e-02
 -2.7131662e-01
  5.6634849e-01
  2.3394458e-01
 -3.0832319e+00
 -3.6602139e-01
 -9.9761903e-01
  3.1806004e-01
  9.9335402e-01
 -4.4629604e-01
 -2.1241486e+00
  1.1590019e+00
 -4.0717974e+00
 -6.5239162e+00
 -7.2585768e-01
  2.5642523e-01
  6.1145550e-01
 -1.9827454e-01
  4.7570579e-02
 -2.1162283e+00
  2.3320243e-01
 -1.6603094e-01
 -2.2549784e+00
 -2.9829943e-01
  1.8877358e+00
  3.8323373e-01
 -6.3657552e-01
  1.3842034e+00
  2.9948391e-03
 -7.1956098e-01
 -7.2698498e-01
  3.6675844e-01
  1.6349928e+00
  5.0140852e-01
  3.2664025e-01
 -8.4728706e-01
  2.1618841e+00
 -1.0456777e+00
 -1.3150141e-02
 -2.9372075e-01
 -4.9497503e-01
 -2.1466011e-01
  3.0498213e-01
 -1.7214754e+00
 -9.2924364e-02
  7.2565228e-02
  1.0142273e+00
  5.7504892e-01
 -4.0116844e-01
 -1.0931987e+00
  9.7412668e-02
  6.6022855e-01
 -5.9861675e-02
 -1.2386488e+00
  5.9621322e-01
  9.1940469e-01
 -9.5910317e-01
 -2.3373045e-01
 -1.5439421e-01
  1.3043857e+00
 -4.7386360e-01
 -3.0298936e-01
 -6.3456625e-02
 -4.0354252e-02
 -4.0042911e-02
 -3.1735843e-01
 -9.8680532e-01
  5.3517932e-01
 -6.2172693e-01
 -5.3465730e-01
 -6.0165286e-01
  7.9657280e-01
 -3.0470851e-01
 -1.6268834e-01
  7.7324770e-02
  3.2331932e-01
  3.3433801e-03
  5.5809438e-01
  2.2010496e+00
  3.7738302e-01
  2.7422147e+00
 -5.2465117e-01
 -1.7795876e+00
  1.7391971e+00
  5.8816266e-01
  4.9747147e-02
 -3.3715308e-01
  1.1031204e-01
 -9.9519217e-01
  1.0776434e+00
 -6.4907032e-01
  7.5000995e-01
 -2.8082407e-01
  4.4545457e-02
  1.4426197e+00
  1.0321296e+00
 -1.7357117e+00
  1.1980720e+00
 -1.3744147e+00
  1.7375134e+00
 -3.1972867e-01
  9.2292547e-01
 -1.0471313e-01
 -2.1190999e-01
  4.1477594e-01
  2.4445444e-01
 -7.2991890e-01
  7.6296911e-02
 -4.5714116e-01
 -1.2504987e-01
  2.1274245e-01
 -3.4866980e-01
 -8.0488199e-01
  1.5680377e-01
 -1.0655703e-02
 -3.9584151e-01
  3.9206386e-02
 -7.8539681e-01
  2.6960322e-01
 -4.1193223e-01
 -3.9622506e-01
  2.6179549e-01
 -5.1633120e-01
 -3.0895673e-02
  1.1888908e-01
  8.7694705e-02
  5.1157188e-01
  1.0273882e+00
  2.2807649e-01
 -4.7243601e-01
  2.1021274e-01
  1.1975546e-01
 -1.1881373e+00
 -4.3196002e-01
 -7.1182573e-01
  3.1713799e-01
  2.8240040e-01
 -3.3942050e-01
  1.0877453e+00
 -9.7630039e-02
  1.1110064e-01
 -5.4155618e-01
  8.2986015e-01
 -3.3069223e-01
  1.9452128e-01
  4.0741771e-01
  1.4106572e-01
  5.2032954e-01
  3.5914809e-01
 -4.0898117e-01
 -6.3842267e-01
  4.8621554e+00
 -6.5073436e-01
 -5.4234904e-01
 -2.1404624e+00
  5.0921884e+00
 -9.7578675e-01
  4.7367601e+00
 -8.3873175e-02
  2.2537570e+00
 -2.2963893e+00
 -1.3199809e+00
  1.1126710e+00
  1.4682403e+00
 -1.5047433e+00
 -1.4643608e-01
  5.8991075e+00
  3.8159436e-01
  1.9269027e-01
 -4.7016782e-01
 -2.0685086e-01
  1.2567749e+00
  4.5148945e-01
 -2.5994179e+00
 -1.1162827e+00
  2.8935459e+00
 -1.7066927e-01
 -5.8160067e-01
  1.2657847e+00
 -1.4947766e+00
  1.0400510e+00
 -1.3370663e+00
 -1.8064046e+00
 -5.4393739e-01
 -4.7481400e-01
  1.0837889e+00
  1.4692141e+00
  7.5546569e-01
  9.1679049e-01
 -5.5916196e-01
  2.9643601e-01
  1.0566863e+00
 -1.4416292e+00
  1.0631241e+00
  3.3971739e-01
 -3.6497203e-01
 -2.6986785e+00
  2.1094227e+00
  4.4757905e+00
 -5.2921438e-01
  3.0724177e-02
 -7.2240168e-01
  4.5188203e+00
  2.3451805e+00
 -1.0517011e+00
  4.1812620e-01
 -2.4430834e-01
 -1.0577788e+00
  4.1322422e-01
 -1.9674221e+00
  1.2375754e+00
  1.4335711e-02
  1.9624256e-01
  2.8545684e-01
  4.0729418e-01
 -5.4042977e-01
 -2.9198091e+00
 -2.4999224e-01
 -3.9419603e-01
  9.0586179e-01
 -6.3843650e-01
 -2.9551870e-01
 -2.4177793e-01
  9.0926033e-01
  1.4249043e+00
 -2.7975526e-01
 -1.8863462e+00
 -6.7824566e-01
 -8.0026850e-02
  5.9905475e-01
  5.2680105e-01
  1.4443752e+00
  6.7920017e-01
  2.1427360e+00
 -4.5344725e-01
 -8.2985198e-01
 -3.3187723e-01
 -7.7365184e-01
 -1.5937599e+00
  4.7568470e-01
  3.4859836e-01
 -2.6499677e-01
  8.1051803e-01
  4.3659052e-01
  4.1261974e-01
 -1.3480470e-01
 -1.3157074e+00
 -2.8034523e-01
  7.3239040e-01
 -2.8817111e-01
 -1.5791321e-01
 -1.4346126e-01
 -1.3174834e+00
  7.4427789e-01
 -1.0821460e+00
  7.2629642e-01
  2.3909919e-03
  1.7586482e-01
  2.1023378e-01
 -6.5688169e-01
 -1.1175548e+00
 -9.0652645e-01
  6.9372714e-01
  1.0644619e+00
  1.3434131e+00
 -1.2855919e-01
  2.9052466e-01
  1.2168282e+00
  7.2805113e-01
  1.3445591e+00
  8.1231946e-01
  7.3784447e-01
 -3.3074990e-01
 -1.6562110e+00
 -1.8549493e-01
 -5.9883982e-01
 -1.7512434e+00
  3.8158092e-01
  2.1525799e-01
 -2.8482646e-01
  1.2424048e-02
 -1.0771314e+00
  3.9738044e-02
 -2.6140720e-01
 -1.5511799e-01
 -3.1951576e-01
  1.0426730e+00
 -7.8369766e-01
 -9.7153753e-02
 -7.9351604e-02
  3.3330116e-02
  5.2791350e-02
  7.0080124e-02
  7.9512745e-01
 -4.5159673e-03
 -9.1026753e-01
  4.7876108e-01
 -4.7985899e-01
  2.8850058e-01
 -1.1511066e+00
  2.5037441e-01
 -4.8038939e-01
 -1.2549003e+00
  6.9042671e-01
 -1.6386870e-01
  6.3927948e-01
 -3.0740002e-01
  2.7982309e-01
 -2.4003735e-01
  1.8440907e+00
 -2.1165243e-01
 -1.0998182e-02
 -3.3727452e-01
  8.6821526e-01
 -6.3212866e-01
  5.0592676e-02
  7.2078437e-01
 -4.8634258e-01
 -5.1438820e-01
 -1.5660909e+00
  4.0811852e-01
 -8.3494538e-01
  1.5456918e-01
 -1.4268935e-01
  3.0601099e-01
  1.1785779e+00
  3.5953499e-02
  1.4664615e+00
  5.2343071e-01
 -1.8151787e-01
  1.9187579e-01
 -1.1232706e+00
 -9.1994143e-01
  1.2419519e-01
  1.3119410e+00
  4.8973583e-02
 -4.9403834e-01
 -8.0428922e-01
 -2.2208771e-01
 -9.5809925e-01
 -1.2182218e+00
  8.5414380e-02
 -8.7483251e-01
  1.0632979e-01
 -9.7665471e-01
  3.0854544e-01
 -2.7870536e-01
  1.0888238e+00
  2.1743824e+00
 -1.1666576e-01
  9.7182846e-01
 -6.5303361e-01
 -8.4216624e-01
 -1.4447405e+00
 -2.0263085e+00
  1.2055618e-01
 -1.5413258e+00
  5.1182866e-02
 -6.6081727e-01
 -1.0822830e+00
  1.5698113e+00
  2.9934735e+00
  7.5210911e-01
  5.4778528e-01
  1.3540963e+00
  1.4588295e+00
 -8.2766265e-01
 -1.8708581e-01
 -4.1827160e-01
  1.9219295e+00
  6.4277947e-02
 -7.7050221e-01
  9.2188156e-01
 -2.4343422e-01
  5.7172060e-01
 -3.9206753e+00
  6.4934564e-01
 -2.9805679e+00
 -5.5348301e-01
  6.2347478e-01
 -7.4193138e-01
 -1.8308313e+00
 -7.6846957e-01
 -4.2823261e-01
  6.7556876e-01
  3.1183376e+00
  1.4212415e+00
  1.1369800e-01
  5.7623798e-01
 -1.2103778e+00
 -1.3866577e-01
  9.6894395e-01
  4.6206662e-01
 -7.2585195e-01
  7.8951454e-01
  2.3354189e+00
  5.6408650e-01
 -5.5753255e-01
  3.2592919e+00
  2.4934672e-01
 -1.1721090e+00
 -1.9640480e-01
  6.7971814e-01
 -2.0556113e-01
 -4.4309831e-01
 -1.3053665e+00
  5.3107381e-02
 -1.4944160e-01
  1.0964429e-01
 -3.7051770e-01
  2.5517011e-01
  9.2842102e-02
 -4.9311316e-01
 -3.3428657e-01
  2.6162958e-01
  1.5420688e+00
 -1.3284351e-01
  1.0322028e+00
 -3.8525730e-02
 -7.8021789e-01
 -3.5409358e-01
 -1.1342388e+00
 -2.1250106e-01
 -1.0328453e-02
  2.9549226e-01
 -1.0067170e+00
  1.2637162e+00
  2.1152315e-01
  4.4433236e-01
 -7.5272405e-01
 -5.7504833e-02
  3.9513883e-01
  1.0142796e+00
 -7.9837060e-01
 -4.5800325e-01
 -1.0594565e+00
  1.0820205e+00
  3.2630607e-01
 -1.0089588e+00
 -1.4320316e+00
  9.9367380e-02
 -8.7832057e-01
  8.3333135e-01
  4.2687116e+00
 -4.8441258e-01
  1.0378299e-01
  2.2486973e-01
  1.9186378e-01
  4.2435575e-01
 -8.5621357e-01
  7.5780922e-01
 -1.5841702e-01
 -5.0188154e-01
 -4.6293303e-01
 -2.6356867e-01
  1.7001629e-01
 -8.4302470e-02
  1.3430574e+00
 -3.8211101e-01
 -3.0279431e-01
  3.0190426e-01
 -7.3060429e-01
 -1.1778846e-03
 -5.7765847e-01
 -4.5670775e-01
 -2.6785928e-01
  1.5638471e-01
  1.8311943e+00
  1.5533648e+00
  1.6556004e+00
 -1.0561543e+00
 -9.4968247e-01
  6.6716540e-01
 -1.3350149e+00
 -8.4127265e-01
 -7.3333305e-01
 -5.3258324e-01
  2.1902308e+00
 -1.3675582e+00
  2.4801841e-01
  3.1439030e+00
 -3.6983196e-02
  9.9261123e-01
  8.3631492e-01
  2.6108348e+00
  3.5814953e-01
  1.3246024e+00
 -1.8084681e-01
 -9.0521246e-01
 -3.7967041e-01
  3.3944035e+00
 -4.5015287e-01
  1.6920913e+00
 -2.5896485e+00
  2.0877540e+00
  3.0146092e-01
  9.9263763e-01
  5.8533639e-01
  9.0537727e-01
  3.7063133e-02
 -2.1033503e-01
  7.7771258e-01
  7.3941237e-01
  1.0687611e+00
  3.6985317e-01
 -1.3365362e+00
 -4.3494907e-01
 -6.6225123e-01
  2.2771752e-01
  7.5453413e-01
 -1.9246195e-01
  9.7391832e-01
 -3.8277459e-01
 -5.5073464e-01
 -3.3095878e-01
  1.7946242e-01
 -7.3762238e-01
 -1.9052574e-01
  5.4997915e-01
  3.6018631e-01
 -1.7795077e-01
 -1.5588700e+00
  9.9372101e-01
 -1.6095502e+00
 -1.9727196e-01
  4.7871023e-01
 -4.6212344e+00
  2.5931323e-01
 -8.4506378e-02
  1.7025054e+00
 -4.5954645e-01
 -5.0262161e-02
 -4.0600982e-01
 -1.3026032e+00
 -4.2395547e-02
 -1.0073036e+00
  5.6177920e-01
 -4.4137701e-01
  1.6646457e+00
 -9.4025247e-02
  5.7316667e-01
  8.6662412e-01
  2.5308812e-01
 -1.2605209e+00
 -2.8849607e+00
 -3.9148295e-01
 -1.8690888e+00
 -4.3301541e-01
  1.3764679e-02
  1.7047570e+00
  1.4887820e-01
 -2.6368816e+00
  3.4071842e-01
 -7.2171491e-01
  6.9594014e-01
  9.0165697e-02
 -3.9259472e-01
  4.9691863e-02
 -3.5314196e-01
 -3.5592961e-01
 -4.7964975e-01
  1.2843806e+00
  2.6391789e-02
 -4.5312259e-01
  2.1719804e+00
 -3.3642593e-01
 -8.6999798e-01
 -3.4103444e-01
 -3.9465037e-01
  1.8405151e-01
 -4.5573983e-01
  1.2688293e-01
  7.3666435e-01
  6.7359316e-01
 -8.7513357e-02
  1.9319452e+00
 -9.4170302e-01
  3.6183758e+00
 -1.0872640e-02
 -3.7386981e-01
 -4.8997711e-02
 -3.5797276e-02
  4.7361049e-01
 -4.1115975e-01
  6.4995252e-02
  1.0052348e+00
  1.9911546e-01
 -3.0969656e-01
 -1.3071469e+00
 -1.1367801e+00
  6.5022427e-01
  4.4402799e-01
  3.8178211e-01
 -9.7686368e-01
  2.4001415e-01
  2.2297487e-01
  4.8981616e-01
  2.0565492e-01
  2.3672135e-01
 -5.7440686e-01
  3.8921735e-01
 -8.1293397e-02
  1.6129451e+00
  1.4476109e+00
 -7.3728496e-01
 -7.7769208e-01
  9.9119973e-01
  1.0310761e+00
  5.0134754e-01
 -8.0250233e-02
  1.0498379e+00
 -1.1153796e+00
 -1.3590902e+00
  7.4532902e-01
 -3.0873632e-01
  1.5631843e+00
  1.9198251e-01
 -9.8591316e-01
 -1.8762740e-01
 -8.0557108e-01
 -2.4516104e-01
  8.2806803e-02
  2.1091026e-01
  5.2458465e-01
 -1.6682787e+00
  2.3916179e-01
  3.0074772e-01
 -7.1161717e-01
 -2.9528859e+00
 -2.4117448e+00
  1.9281769e-01
 -1.4929199e-01
  1.0921333e+00
  5.0047570e-01
  7.2367686e-01
  2.1623836e+00
  2.3280330e-01
  1.0307085e-01
 -2.2538729e-01
 -2.4416214e-02
 -9.5317930e-01
  4.0713978e-01
  9.7807443e-01
  7.7346033e-01
  3.2215271e-02
 -1.0352407e+00
  2.3945481e-02
 -4.3947658e-01
  2.4602121e-01
 -1.0581986e+00
 -7.5235449e-02
  1.2290117e+00
  2.5252828e-01
  7.9343222e-02
  9.7976899e-01
 -1.4488257e+00
 -3.3276246e+00
 -6.4338070e-01
  1.0104459e-02
 -1.0654999e-01
 -1.3329996e+00
  2.6499307e-01
 -6.5852630e-01
 -2.6121882e-01
 -7.8057277e-01
  1.7835498e+00
 -1.9556965e+00
 -3.4357870e-01
  6.1014122e-01
 -1.6714764e-01
  5.8382496e-02
 -1.3757211e+00
  1.2983966e+00
 -4.7155088e-01
 -2.3289339e-01
  2.9113352e-01
  2.8354430e-01
 -1.6468749e+00
 -6.4640862e-01
 -2.7059022e-01
 -9.9780530e-01
 -9.0157455e-01
 -5.0237638e-01
  2.2124726e-01
  3.6331367e-01
  3.3366817e-01
  1.3645418e+00
  3.7884128e-01
 -6.3068759e-01
  1.4777342e+00
  9.5044911e-01
  1.3467190e+00
  1.4688106e+00
 -2.6560387e-01
  6.7413706e-01
 -5.7296336e-01
 -3.6094290e-01
 -3.8558435e-01
  1.8661422e-01
 -4.9495283e-01
  1.0883559e-01
 -4.0692556e-01
 -2.8421959e-01
  2.7688637e-01
  2.8559685e+00
 -5.0433671e-01
  6.9224089e-01
  5.4705089e-01
 -3.4580186e-02
 -2.7601972e+00
 -2.5887765e-02
 -3.1510657e-01
  9.9716115e-01
  3.3171916e-01
 -1.9772919e-01
  5.0357170e-02
 -8.8624030e-02
 -9.5954791e-02
 -1.9439379e+00
 -1.6963583e-01
 -6.6259575e-01
 -2.2307100e-02
 -1.6330105e-01
  1.7774506e+00
  1.5744291e-01
  3.4980884e-01
  8.0084062e-01
 -6.8083197e-02
  1.3220334e-02
  1.3778526e+00
 -4.2184377e-01
  9.6101522e-02
 -9.0878767e-01
 -1.4602048e-02
 -7.9252017e-01
 -7.5699586e-01
  9.1168052e-01
 -7.9814428e-01
  2.0163630e-01
 -1.0321175e-01
  2.4506848e-01
 -9.8158860e-01
 -6.9300729e-01
  5.3841251e-01
  3.0414262e-01
  1.6968251e+00
 -1.3708247e+00
  1.5871473e-02
  1.7313350e+00
  9.0330881e-01
  7.0338160e-01
 -7.5484174e-01
  1.5632981e+00
  4.4690516e-02
 -2.7882146e-02
  5.0738696e-02
 -1.5231647e-01
 -5.9906717e-02
 -2.4417545e-01
  5.2058089e-01
 -1.5606941e+00
  2.5174075e-01
 -3.1936389e-01
  1.7791308e-01
 -1.5682216e+00
 -1.5540938e-01
  1.4893547e+00
  2.3878245e+00
  4.8313612e-01
 -2.5137749e-02
  9.0204436e-01
  9.6048221e-02
 -1.2627640e-01
 -2.8142193e-01
  9.7555995e-01
  5.7044828e-01
  1.5977472e+00
  2.7778834e-01
 -3.4825604e+00
  2.7597642e-01
  2.6908061e-01
 -2.9886365e-01
  5.6072730e-01
  4.4948041e-01
  2.3966245e-03
 -1.9070172e-01
  5.6602311e-01
  1.1007184e+00
 -3.4211320e-01
  2.3457329e-01
  5.6613809e-01
  3.8460162e-01
  9.7240907e-01
  7.8786057e-01
  5.1523495e-01
 -3.3780985e-02
  8.5601285e-02
 -4.0236914e-01
  7.7385008e-03
 -1.3438094e+00
  1.2426693e+00
  3.0440640e-01
 -6.9261122e-01
 -3.6426774e-01
  2.1030455e+00
 -2.3821877e-01
 -1.6182941e-01
 -6.8282413e-01
  8.7692088e-01
 -1.8640778e+00
 -2.2780674e+00
 -7.1244889e-01
 -8.7558925e-03
  7.8328568e-01
 -3.1470847e-01
 -1.3671694e+00
 -4.5472685e-01
 -5.0301450e-01
  8.8083673e-01
  1.6401929e-01
  1.1790754e+00
 -2.7390177e+00
 -1.2631385e-01
 -5.0750148e-01
  2.0925908e-01
  8.9132935e-01
 -1.5915673e+00
  3.1105915e-01
 -1.8140937e-01
 -2.6061195e-01
 -1.0120733e+00
 -9.1879660e-01
  9.4050474e-02
 -1.3140222e+00
 -9.3129438e-01
  8.3160102e-01
  2.1120980e-01
 -7.3142707e-02
 -2.8834167e-01
 -1.2001121e+00
  1.2622814e+00
  1.3543478e+00
 -1.4065195e+00
 -2.3496176e-01
 -1.6101404e+00
 -5.2020574e-01
 -1.4311102e-01
 -2.3711644e-01
  4.7361434e-01
 -1.2862624e-01
  7.1822762e-01
  5.1227018e-02
 -1.5467163e+00
  1.0691473e+00
 -2.2961088e-01
 -3.5775104e-01
 -1.0364380e-01
  4.8793760e-01
  2.8650546e-01
 -7.2265762e-01
 -7.0863450e-01
 -1.9329051e+00
  9.6311849e-01
  3.5162014e-01
 -4.0390030e-01
 -1.0017869e-01
  1.9035125e-01
 -4.4233948e-01
  2.3094764e-01
  7.6372576e-01
 -2.6611289e-01
  1.0698003e-01
  3.5776492e-02
 -5.9013730e-01
 -7.7995872e-01
 -1.0865723e+00
 -1.0290923e+00
 -1.0485923e-01
  9.1921854e-01
  7.5387007e-01
  4.3230239e-01
 -6.6338873e-01
 -4.0292507e-01
  2.4168355e+00
 -6.0548288e-01
  3.3475888e-01
  5.3808570e-01
  2.5644317e-01
  4.2202902e-01
 -5.3161502e-01
 -5.1727223e-01
  4.8410124e-01
  5.7364941e-02
 -4.6770135e-01
 -3.2351381e-01
 -1.4002961e+00
 -2.3033261e-01
  2.0363741e+00
 -1.1101002e-01
 -5.8555365e-01
  9.2644203e-01
  4.5232445e-02
 -2.3805528e+00
  2.3917216e-01
  1.7300013e+00
 -9.9727035e-01
  1.2779830e+00
  1.8389240e-02
  4.6618780e-01
 -2.4092593e+00
 -9.7900611e-01
  5.5487376e-01
 -2.2008209e+00
  2.6102388e-01
 -2.5185628e+00
  9.1014251e-02
 -1.1742041e+00
 -1.7678618e+00
  1.0235997e+00
 -8.3547682e-01
  5.1799154e-01
 -1.4123825e+00
  6.5252972e-01
 -7.3153295e-02
  3.7428272e-01
  8.5249102e-01
 -5.5090266e-01
  1.2398180e+00
 -3.6603104e-02
  6.2402141e-01
  2.7332540e+00
  2.2529238e-01
  3.1112066e-01
  1.6698369e-01
  2.9078078e-02
 -1.8352250e+00
  1.2508616e+00
 -7.4005640e-01
  4.2700237e-01
  3.0086195e-01
  2.9915312e-01
  5.0488800e-01
  2.8970525e-01
  1.4235739e+00
 -5.4016817e-01
 -6.2410027e-01
  4.8334569e-02
 -7.5147206e-01
  6.4830524e-01
  4.1854069e-01
  3.7140611e-01
 -2.8788981e-01
 -1.7450662e+00
  7.0334196e-02
  3.1142050e-01
 -5.1320314e-01
 -2.7586436e+00
 -4.4294543e+00
 -2.6073551e+00
 -3.1605321e-01
  1.9984345e+00
  1.5610905e+00
  7.9095006e-01
 -2.9284784e-01
  2.1810712e-02
 -4.2645597e-01
  1.9037443e+00
  2.6574355e-01
 -6.1552936e-01
 -8.1307018e-01
  3.3360273e-01
 -1.0915746e-01
  3.2435882e-01
  9.7787166e-01
 -5.5941656e-02
  1.7182280e+00
 -5.9564048e-01
 -2.6276737e-01
  2.0323427e+00
 -2.1651776e+00
 -5.2696955e-01
 -9.9431044e-01
 -1.2034396e+00
 -3.0040371e+00
 -1.5140664e-02
  3.6085820e-01
 -5.5055666e-01
 -2.2677779e-01
  3.6135077e-01
 -5.0380367e-01
 -1.2525449e+00
 -5.2563113e-01
  1.4648826e+00
  1.8650050e+00
  1.0463187e+00
  1.8215343e-01
  9.9783337e-01
  2.4245992e-01
  1.8659551e+00
  4.0801990e-01
 -4.0631738e-01
  1.3871430e+00
 -4.6657544e-01
 -1.7865334e-01
 -4.1499686e-01
 -5.0874484e-01
 -3.2347041e-01
  7.7283454e-01
  7.1100742e-01
 -1.2379135e-01
  1.5921532e-01
 -1.4787527e+00
 -4.0126264e-01
 -4.3864951e-01
 -1.3306841e+00
  1.4643078e+00
  1.2106863e+00
 -1.5014860e-01
 -1.0940619e+00
  1.4279331e+00
 -1.9361541e-01
  3.4098020e-01
  1.5002347e+00
 -2.4253295e-01
  6.1313152e-01
  2.2686534e+00
  8.0563831e-01
  1.7986570e-01
  8.0212599e-01
 -2.1366221e-01
 -5.3509992e-01
 -4.8606485e-01
  1.1666808e+00
  1.5691119e-01
 -1.0113351e+00
  8.0061907e-01
 -1.0773954e+00
  1.7254323e+00
  1.5990051e+00
 -1.0470343e-01
  1.1861991e-01
 -1.7001230e+00
  7.3038530e-01
  6.1370134e-01
 -3.6810696e-01
  1.5222580e+00
  2.3796690e+00
  2.2795742e+00
 -1.1239507e+00
  5.7233405e-01
  1.4346833e+00
 -3.5804200e-01
  1.5297260e+00
 -1.0977134e+00
  4.2769745e-02
 -8.7716115e-01
 -5.5779405e-03
  1.9334345e-01
 -8.5847571e-02
 -6.2603980e-01
  5.3948081e-01
  8.4778285e-01
  7.0771039e-01
  1.4009957e+00
  1.5276057e+00
 -1.4557290e-01
  1.8270320e-01
  3.0057541e-01
 -3.5290635e-01
 -1.9952357e-01
 -9.7378239e-02
  2.0712328e+00
 -1.6589983e-01
 -1.5504891e-01
  1.8593481e-01
 -6.4559281e-03
  7.4958742e-02
 -3.2450235e-01
 -9.2186525e-02
 -1.7614147e-01
  3.9972037e-02
  5.2897239e-01
 -7.6122707e-01
 -5.9898555e-01
  5.6289572e-01
 -5.5579942e-01
 -4.0764564e-01
 -2.9729214e-01
 -2.4962506e-01
  1.3001886e-01
 -2.3116367e-01
  5.7225198e-01
  2.4106576e+00
  1.5904287e+00
  1.5868908e-01
  2.7919501e-01
 -2.8848457e-01
  8.9382075e-02
 -3.0674866e-01
 -1.9889918e-01
  3.4577650e-01
 -8.6252171e-01
  4.4489786e-01
 -8.6797303e-01
  1.6934887e+00
  4.9283987e-01
  5.3854412e-01
  2.4849815e+00
  3.8336549e-02
 -1.1978232e+00
  1.0994038e-01
  1.1457117e+00
 -2.0008364e+00
  7.6883763e-01
 -7.8520849e-02
  6.4097084e-02
  1.5372598e-01
  1.4008828e+00
 -1.1628371e+00
 -2.4085216e-02
  1.3750134e+00
  9.9794304e-01
 -2.2099805e-01
  2.1039104e-01
 -1.6814378e-01
  8.0668777e-01
  1.3957397e+00
 -1.3865033e-01
  2.5173992e-01
 -3.2923880e-01
  1.4241363e+00
  9.9778324e-01
  6.4957517e-01
 -2.1284708e-01
 -3.0990943e-01
 -1.6556942e-01
 -8.4259397e-01
 -1.9681238e-02
 -5.1440513e-01
  5.0667793e-01
  8.4160566e-01
 -1.8993522e-01
 -5.2738678e-01
 -8.9268886e-02
  9.1608506e-01
 -8.8610917e-01
  7.9658598e-01
  1.4863674e-01
  1.5579584e-01
 -1.2786335e+00
 -2.3440813e-01
  3.8168895e-01
 -2.0639175e-01
 -1.0769700e+00
  6.4063048e-01
 -3.5287112e-01
 -1.3490170e+00
  6.0313421e-01
 -2.9010999e-01
 -4.2116851e-01
  9.0202220e-02
  3.1711555e-01
 -6.5527976e-01
 -2.0072761e+00
  1.0678406e+00
 -1.2028447e+00
  8.1166583e-01
  2.1778653e+00
  8.5626858e-01
  1.0818020e+00
  2.3062313e+00
 -4.2481616e-01
 -1.1407589e+00
  9.6457148e-01
 -5.4596925e-01
 -4.4096336e-01
  6.0150288e-02
 -2.3839455e+00
  3.3388597e-01
 -6.8799490e-01
  1.2671386e+00
  1.4823990e+00
 -5.7142481e-02
  1.7614177e-01
 -9.2251742e-01
  3.5081749e+00
 -6.0993928e-01
  3.5237171e-02
 -4.8775036e-02
 -5.5265075e-01
 -3.7670378e-03
  1.3842568e-01
  1.6164979e-01
 -5.1848388e-01
 -1.3475122e+00
 -1.5416090e+00
  3.1525385e-01
  1.7615107e-01
 -2.4614640e-01
 -4.3291187e-01
 -6.0620356e-01
  9.6675986e-01
  7.5840908e-01
 -1.2518361e-01
 -5.4736370e-01
  1.0130635e+00
 -5.4504788e-01
  1.6116327e-01
 -8.9779830e-01
 -1.1736165e-01
 -1.6892726e+00
  6.4322990e-01
  8.9470631e-01
  1.2959909e+00
  2.1906663e-01
 -1.2444031e+00
 -5.1641685e-01
 -1.5712413e+00
  6.7344850e-01
 -9.0429235e-01
  1.2412474e+00
  1.7335333e-01
 -5.2877814e-01
  2.3167299e-01
  5.0170821e-01
  7.3599860e-02
  1.6465442e-01
  1.0402923e+00
  1.1131058e+00
 -2.9408976e-01
 -1.3391241e+00
  1.5358852e+00
 -1.7619491e+00
 -2.6198241e-01
 -1.6133572e+00
 -2.5715992e+00
  7.1945536e-01
 -2.8381069e+00
  8.2908338e-01
 -1.0337847e+00
  2.6166746e-01
 -4.8641470e-01
 -4.9027008e-01
 -2.0359440e-01
 -4.1128225e+00
  3.8898230e-01
 -1.3539845e+00
  2.2722239e+00
  8.7005949e-01
  1.3686193e+00
  1.3016129e+00
 -2.1056826e+00
 -1.2974468e+00
  1.8001716e+00
  7.9922748e-01
 -1.7552480e+00
 -1.1227446e+00
  9.2337072e-01
  1.3553982e+00
 -9.9678330e-02
  1.6475978e-01
 -2.9001278e-01
  2.1101813e-01
  3.4230210e-02
 -1.0874077e+00
  1.5054561e-01
  1.2684934e+00
  9.2048907e-01
 -9.2195904e-01
  6.3329399e-01
  1.7411275e+00
  5.1773572e-01
 -8.6456716e-01
  6.4098215e-01
 -2.3786680e-01
  1.2401137e+00
  5.0760192e-01
 -1.2278349e+00
  1.1292778e-02
 -1.6893766e+00
 -4.9018177e-01
 -3.6949337e-02
  2.9438764e-01
 -9.6375562e-02
 -8.3390844e-01
  8.4941626e-01
 -4.4930476e-01
 -7.4380124e-01
 -2.8427491e-01
 -1.4040998e-01
 -7.2239935e-01
 -4.3277413e-02
 -2.4810411e-01
 -2.5615329e-01
  2.0495532e-01
  5.6460720e-01
 -9.8335963e-01
  7.2125018e-02
  5.0841469e-01
 -2.2436473e-01
 -1.5168297e+00
 -1.5217893e+00
 -3.3957380e-01
  1.3342034e+00
  9.0691525e-01
  1.1092891e-01
  8.3451517e-02
 -3.4002259e-01
  1.5750523e-01
  9.6748996e-01
 -2.4134481e-01
  1.9524930e+00
 -5.7003462e-01
 -2.9514968e-01
  7.9309481e-01
 -3.0068350e-01
 -3.7474301e-01
 -9.5750839e-02
  5.4864198e-01
  9.0683371e-01
 -3.7018974e+00
 -9.1477591e-01
 -9.5319027e-01
  9.3533695e-01
 -5.1242299e-02
 -1.6765483e-01
 -1.2778758e-01
  1.1065580e+00
  1.3366385e+00
 -1.4593205e-01
 -1.4095774e+00
 -1.3541108e+00
 -2.5633571e-01
  6.2849700e-01
 -2.8520495e-01
  2.8929871e-01
  1.5012535e-01
 -2.6560163e-01
 -1.0002546e+00
 -2.5579733e-01
  1.7194744e+00
  1.2513446e+00
  9.6473598e-01
 -2.2263250e-01
 -4.6724018e-01
 -6.6713440e-01
 -6.9492918e-01
  1.7730523e+00
  4.2726526e-01
 -3.8429856e-01
 -5.4069108e-01
 -1.1099697e+00
 -1.4919537e+00
  3.6582440e-01
 -1.1173017e+00
 -1.0898239e-01
 -8.7335056e-01
 -5.2523863e-01
 -7.3179251e-01
  2.5314376e+00
  3.0015406e-01
  9.6138787e-01
  1.5166910e-02
  8.0075336e-01
 -7.9821271e-01
 -1.4324102e+00
  3.9181659e+00
 -1.8722756e+00
  1.2915450e-01
 -1.5886201e+00
 -1.2537276e+00
  1.2501910e-01
 -9.4099140e-01
 -9.3229634e-01
 -7.2722816e-01
 -1.5353352e+00
 -1.0143123e+00
 -2.0263563e-01
 -2.0963240e-02
 -8.5233271e-01
  1.5883479e-01
  6.8343765e-01
 -7.2774106e-01
 -7.5469035e-01
 -8.8359594e-01
 -2.0517251e+00
 -1.1725136e-01
  2.7744570e-01
  2.6052615e-01
  1.7126532e-01
 -1.0633863e+00
 -8.8807863e-01
 -2.3825130e+00
 -5.4102969e-01
  8.5279256e-02
 -1.9146343e+00
 -1.5393600e+00
  1.5536159e+00
 -8.0851376e-01
 -2.7015540e-01
 -9.9275023e-02
 -2.4264385e-01
 -2.5743064e-01
 -1.3228756e-01
 -3.9818993e-01
  1.6049446e-01
 -4.2292905e-01
  5.4919106e-01
  6.0938823e-01
 -9.5466208e-01
 -4.7486576e-01
 -1.2203293e+00
  1.6489792e-01
 -1.6743764e-01
  7.1258295e-01
 -2.7901658e-01
 -1.8845528e-01
  8.4546208e-01
 -1.2332717e-01
  1.0084197e-02
  7.2807741e-01
 -1.0596111e-01
  4.6331599e-01
  7.9336649e-01
 -6.5832448e-01
  5.9174973e-01
  2.3146991e-01
 -5.8273786e-01
  1.6563270e+00
  4.7250253e-01
 -5.7777941e-02
 -9.3243098e-01
  1.3089682e+00
 -7.5745624e-01
  7.9419684e-01
 -1.2749101e+00
  4.4153434e-01
  4.3080118e-01
  9.7143227e-01
  7.6542479e-01
 -6.3949835e-01
  3.6167216e-01
 -5.0231212e-01
  6.3916534e-01
  4.2915579e-02
  1.2913623e-01
  8.5058808e-01
  3.1390870e-01
  2.6866548e+00
 -1.3932325e-01
  1.2738277e-01
  3.5844794e-01
 -4.5404848e-01
 -1.1565386e+00
 -1.5296812e+00
  4.8217745e-03
  7.7533883e-01
 -2.8496736e-01
 -5.6253485e-02
 -2.5251493e-01
  5.9795249e-01
  2.7961338e+00
  1.9448520e-01
 -4.5554933e-01
  4.3169856e-03
  5.7753342e-01
  6.1792231e-01
 -6.7910165e-01
 -2.8131349e+00
  3.6239979e-01
 -1.2199940e-01
 -1.0520106e-01
  5.0857973e-01
 -5.6296039e-01
  1.5031186e-01
 -3.8099763e-01
 -1.5114686e-01
  2.7706558e-01
  2.3574615e+00
  6.2138486e-01
 -2.0922278e-01
  5.3169829e-01
  1.0863018e+00
  7.4847043e-04
 -1.3726816e+00
 -1.5743360e-02
 -8.9059234e-01
 -8.8497549e-01
  3.3133510e-01
  7.0885473e-01
  2.9045761e-02
 -7.2521800e-01
  7.7695733e-01
 -3.0433062e-01
  3.7162942e-01
  1.1849848e+00
  1.8162518e+00
 -1.0521324e+00
  1.1827078e+00
 -1.1235509e+00
 -1.0630604e+00
  9.7637469e-01
  3.4213924e-01
  4.1561887e-02
 -2.0942998e-01
  1.1317016e+00
  4.7170456e-02
 -1.5070263e+00
  3.4619787e-01
  2.7083173e+00
 -1.9469282e-01
 -6.5202570e-01
 -8.0532241e-01
 -1.2710822e+00
  4.7584215e-01
  1.2606483e+00
 -3.0609909e-01
 -2.3184104e-01
  9.9251503e-01
 -2.4047558e-01
  8.3959991e-01
  8.9841497e-01
  7.0640004e-01
  1.0326148e+00
 -9.6915551e-03
  2.2961794e-01
 -3.8025570e-01
 -9.6066487e-01
  3.4874982e-01
 -1.4734258e-01
  3.7252739e-01
 -5.0738811e-01
  1.9352387e-01
  5.6484890e-01
  2.0190849e+00
  2.3695250e+00
  3.6455303e-01
  2.9452863e-01
  1.0377179e-01
  4.9919561e-01
 -6.1242026e-01
 -5.0972164e-01
 -2.3023799e-01
 -1.2548846e+00
  8.4483480e-01
  1.3871221e-01
 -6.7896420e-01
 -3.3954149e-01
  6.2996459e-01
  1.5773388e+00
  7.3656249e-01
 -3.2488823e-01
 -1.9481752e-02
  5.3813820e+00
  1.8014786e-01
  3.0757803e-01
 -2.0544688e-01
 -2.3422395e-01
 -3.4813935e-01
  1.6930202e+00
  1.8430811e-01
 -1.1603047e+00
 -4.9396366e-01
  6.0579282e-01
  1.7953226e-01
  1.7959832e+00
  7.3246664e-01
 -8.2137600e-02
  9.3205237e-01
  2.0830739e-01
  2.3727104e-01
  8.0804907e-02
  6.7931220e-02
 -3.2296774e-01
 -1.3799155e+00
 -3.2702994e-01
  1.4376362e-01
  2.5232548e-01
  9.0746528e-01
  7.9087079e-01
 -4.9855542e-01
 -1.4574494e+00
 -1.3881677e-01
  5.5897844e-01
 -7.8061116e-01
  2.2868276e-01
  9.5978016e-01
  1.8708676e-01
  2.7674273e-01
 -7.6867729e-02
  1.3505712e+00
 -4.4891137e-01
  1.7816316e+00
  9.0652630e-03
 -3.5789767e-01
 -3.4687269e-01
  1.1352912e-01
 -3.6829093e-01
 -1.8725013e-02
 -7.9571414e-01
 -7.4862057e-01
  2.2506818e-01
  5.7678890e-01
 -7.8899249e-02
 -6.4816821e-01
 -4.9388301e-01
 -1.8237760e+00
  8.8634229e-01
 -1.3218845e-01
  7.9408687e-01
 -1.8574874e+00
 -7.5302958e-01
  4.0832660e-01
  1.1811652e+00
  4.1624975e-01
  3.9762443e-01
 -5.8556408e-01
  1.5561491e+00
  1.8160783e-02
 -1.1466873e+00
  1.3355535e+00
 -5.7940513e-01
  1.2033393e-01
 -2.7681930e+00
 -2.3864132e-01
  7.1007736e-02
  3.2329410e-02
  4.3620533e-01
  6.7869566e-02
  2.9887477e-01
  8.8269007e-01
 -2.0673885e+00
 -1.1840645e+00
  1.7466867e-01
 -2.9418331e-01
 -4.4095114e-01
  9.2688251e-01
 -1.3103886e-01
  1.6971780e+00
  5.4428548e-01
 -1.3584664e+00
 -3.0412140e+00
 -2.7942473e-01
  1.4747953e-01
 -3.5217919e+00
  5.5145824e-01
 -3.6504939e-01
  9.3087351e-01
 -2.0229974e-01
 -6.6812769e-02
 -1.0821959e-01
 -5.9744769e-01
 -1.3338676e-01
  7.3258847e-02
  2.0808494e-01
 -2.6262027e-01
 -6.4882562e-02
 -2.6113772e-01
 -1.2269849e+00
 -6.8821365e-01
  8.3082992e-01
 -1.1911739e+00
 -9.2069423e-01
 -4.0779084e-02
  2.4523096e-01
  8.4012777e-01
 -8.8448524e-03
 -1.7501310e+00
 -2.3926165e-02
  1.7292140e+00
 -6.0035884e-03
 -6.7047441e-01
  2.0056489e+00
  5.6691223e-01
 -1.2021819e-01
 -1.8358775e+00
  8.0021960e-01
 -7.2391808e-01
 -4.8063123e-01
  9.9473751e-01
 -1.1120613e+00
  3.6181003e-01
 -1.2454714e+00
  8.8854778e-01
 -2.1961086e+00
  5.5749632e-02
  2.5353913e+00
 -1.0788825e+00
 -1.4829482e-01
 -3.2117388e-01
  5.5048805e-01
  2.4077761e-01
 -2.9809850e-01
  1.1493528e+00
  1.1047568e+00
 -1.4830336e-01
  4.9028140e-01
  2.3571421e-01
 -7.1346164e-03
  2.7705553e+00
 -2.3411335e-01
 -4.3101516e-01
  1.7229284e+00
  1.2123173e-01
  4.7205903e-02
 -1.5669194e+00
  2.6732970e-02
 -2.1783257e-01
 -4.0051916e-01
  1.4013608e-01
 -6.3403286e-02
 -4.0578091e-01
 -1.5777282e-01
  2.7370107e-01
 -2.4041718e-01
 -6.7025101e-01
  1.9805963e+00
  2.1824424e-01
  9.5688462e-01
  4.4160455e-01
  3.5032701e-02
  9.5016199e-01
  1.8604295e-01
  1.6209105e-01
 -8.2535483e-02
  2.7506179e-01
 -1.4110623e-01
 -2.5035399e-01
  4.6686918e-02
 -4.1448274e-01
 -4.9068594e-01
 -2.8139436e-01
 -3.4911877e-01
 -5.3385830e-01
  2.7310226e+00
 -4.2024302e-01
 -1.0757248e-01
  3.2091856e-01
  3.3877641e-01
  1.3926929e+00
 -8.9226097e-01
 -1.7699263e+00
 -3.0802554e-01
 -3.7701598e-01
 -1.1493442e+00
  9.0274650e-01
 -1.9891622e+00
 -9.1778167e-02
  8.7623650e-01
 -3.7078547e-01
 -3.9417478e-01
 -3.3876270e-01
  1.9009951e+00
 -1.0737272e-01
 -1.1545380e+00
  1.3797832e+00
 -4.8288658e-01
  4.8242065e-01
 -6.3287312e-01
  6.7412727e-02
 -9.2751706e-01
 -6.0305136e-01
 -7.4045014e-01
  2.1482449e-02
 -1.6068444e+00
  4.9535930e-02
  1.5069284e+00
  2.0153062e+00
  7.9983997e-01
 -9.4463801e-01
  6.3759708e-01
 -2.6044216e-02
 -9.4798632e-02
 -7.2950894e-01
 -1.2956904e-01
  1.6452622e-02
  6.3144609e-02
  9.9876255e-02
  1.5316889e-01
 -4.4571462e-01
  1.6754532e+00
  4.3356186e-01
  1.2925389e-02
 -6.0952789e-01
 -1.6037092e+00
  2.6556087e-01
  8.2328910e-01
 -2.9647815e-01
  1.0540730e-01
 -5.2468681e-01
 -8.6234754e-01
  1.0078763e+00
 -6.0814786e-01
 -1.5989131e-01
  4.4777848e-02
  2.8552413e-01
  1.4085698e+00
 -1.0024858e+00
 -1.0336480e+00
 -2.4009578e-01
  7.8435999e-01
 -2.8571540e-01
  5.4615313e-01
 -4.9793452e-01
  6.0719693e-01
 -2.8968578e-02
 -1.9346682e+00
  1.1469321e+00
  6.4752805e-01
 -3.2146797e-01
  7.5053334e-01
 -1.4852966e+00
 -3.6926299e-01
  3.7293360e+00
  4.5280132e-01
  8.4149510e-01
  1.4281473e-01
  5.3330082e-01
 -6.4206159e-01
  2.6360542e-01
 -3.3678672e-01
  1.8724687e-01
  2.1676630e-01
  7.7378139e-02
  2.3133001e-01
 -1.0887609e+00
 -2.2123320e-01
  9.1310871e-01
  2.5696635e-01
  6.1225712e-01
 -4.1513622e-01
  1.5464168e+00
  2.4266249e-01
 -8.3902919e-01
  2.1692677e-01
  9.9360142e-03
  4.8861343e-01
 -2.1561036e-01
 -1.4735982e-01
  1.7249823e+00
 -2.0679066e-01
  6.1605066e-01
 -5.4729402e-01
  3.1944200e-02
  1.3964540e+00
  3.2130003e-02
  7.1843344e-01
 -1.6345412e-01
 -1.3912475e+00
 -8.8618629e-02
  1.1270157e+00
 -3.6272487e-01
  4.7673616e-01
  5.5077600e-01
  7.0377469e-01
 -4.1695511e-01
 -1.2835953e+00
 -2.2122493e-01
 -2.4161166e-01
  5.5247962e-01
 -1.0733143e-01
  1.0332760e+00
  2.5277159e-01
 -2.9693794e-01
  2.5113720e-01
  6.1446261e-01
 -2.7916723e-01
 -4.5662722e-01
  2.8917855e-01
 -1.8551412e-01
  3.9085048e-01
 -5.3694475e-01
  2.1488860e-01
  8.6262888e-01
 -5.0672084e-01
 -2.5507830e-02
 -3.9316282e-02
  6.2674046e-01
 -1.4904629e-01
 -4.5267344e-02
 -1.1254627e+00
  1.6049959e-01
 -8.7817714e-02
 -6.6974396e-01
  1.2148134e+00
 -9.5655394e-01
 -8.0577838e-01
 -7.2413003e-01
  4.4101661e-01
 -4.9616706e-01
 -8.0087477e-01
  2.8195959e-01
 -1.5780426e+00
 -4.6330649e-01
 -4.2781171e-01
  3.8857514e-01
  1.4088315e+00
  1.3741323e-01
  2.1462191e-02
 -1.9791915e+00
 -3.3478224e-01
 -6.9439858e-03
 -8.6459242e-02
  7.4886549e-01
  4.5308620e-03
  1.0095319e-01
 -6.3378382e-01
 -1.0117204e+00
 -7.1506105e-02
 -4.3371984e-01
 -1.2718866e+00
 -1.9427518e+00
 -8.3848432e-02
 -4.6283638e-01
 -7.7712703e-01
  4.7744530e-01
  1.4082166e+00
  1.0551159e+00
  5.0232410e-01
 -8.7731290e-01
 -3.3094352e-01
  1.3131150e+00
  4.7496958e+00
  1.4304652e+00
 -4.0351033e-01
  1.3608825e+00
 -4.9521914e-01
  3.2316187e-01
 -1.9384664e+00
 -1.0312206e-01
  1.6517850e+00
  1.7458446e-01
 -1.2574943e-02
 -1.6747633e+00
  2.2706014e-01
  8.7174916e-01
 -3.3009633e-02
  5.3435814e-01
  9.3854696e-02
 -6.6018391e-01
 -1.4082701e+00
 -8.9268279e-01
 -9.3842983e-01
  4.1088933e-01
 -6.5718997e-01
  1.0891943e-01
  5.3305858e-01
 -1.1170864e-02
  1.0610601e-01
  4.3506786e-01
  4.2861381e-01
 -1.6008055e+00
  2.8268346e-01
 -6.3349682e-01
 -7.7334690e-01
  2.4021232e-01
  3.3936512e-01
 -3.7018698e-01
 -4.1758919e-01
 -1.1888036e-01
 -6.3003761e-01
 -1.6094710e-01
 -9.2853218e-01
 -5.0468940e-01
 -6.4744252e-01
 -7.9678309e-01
  4.8413999e-02
  3.0961823e-01
  2.4380764e-01
 -1.2517788e-01
  4.7405735e-01
 -5.9855926e-01
  6.7994612e-01
  9.1853005e-01
 -2.1499094e-01
  1.2728631e+00
  6.0250014e-02
  1.6917941e-01
 -9.5969200e-01
  1.0896935e-01
 -1.2945132e+00
 -1.7923074e+00
  5.4087609e-01
  7.2804920e-02
  5.0203677e-02
 -6.2815756e-01
 -1.4699169e+00
 -9.1266274e-01
 -2.7734995e-01
  9.2397118e-01
  3.1583935e-01
 -2.6132920e-01
  9.3906842e-02
 -1.2236218e+00
  3.3579528e-02
  4.4555953e-01
 -5.8981490e-01
 -2.6991409e-01
  1.5451455e-01
 -1.0485338e+00
 -6.6965282e-01
 -1.3297276e-01
 -6.1940849e-01
  2.8082439e-01
 -6.5287125e-01
  1.5392432e+00
  2.4704371e-01
 -1.3440464e+00
  4.0597361e-01
 -5.3399277e-01
  3.3690341e-02
 -5.1984477e-01
 -4.1310924e-01
  5.5863583e-01
  1.5512395e+00
  6.9867358e-02
 -2.7550209e+00
  1.3313273e-01
  1.0663915e+00
  1.2014514e+00
 -2.7366662e-01
  2.2207782e-01
  2.7727761e+00
 -5.1769352e-01
 -5.1569864e-03
 -2.9149589e-01
  1.3644837e+00
  1.9029871e-02
  1.1906211e+00
 -3.1103846e-01
  1.6079915e-01
 -2.1108286e+00
 -1.2158716e-01
  4.0328008e-01
 -9.2202240e-01
 -1.6880547e+00
  3.0577224e-01
 -1.0049776e+00
  2.9616517e-01
 -3.9972529e-02
  5.1144928e-01
  3.7336302e+00
 -3.1667423e-01
 -3.9909980e-01
  1.0760243e+00
  2.9713115e-01
  1.6162846e+00
  4.3133223e-01
  3.1231256e-02
  4.5256454e-01
  7.1788520e-01
  8.1105441e-02
 -6.2760592e-02
 -1.6746900e+00
 -5.1158208e-01
  1.6217504e-01
  6.5570587e-01
 -6.7587203e-01
 -1.9862275e+00
  2.0433717e+00
  1.1105796e+00
 -1.9358957e-01
  1.6969912e-02
 -5.2474135e-01
  1.0080012e+00
 -6.1850369e-01
  3.6599502e-01
 -1.1148971e+00
  1.2255521e-01
 -1.6525519e+00
  4.7601461e-03
  1.1948773e-01
  1.2913523e+00
 -3.0527210e-01
  7.8974080e-01
 -5.2576876e-01
 -1.2958084e+00
  5.4274797e-01
  2.2447671e-01
  5.7832026e-01
  1.0509659e-01
  6.6815801e-02
  4.4187322e-01
  4.5532998e-01
 -4.0948075e-01
 -1.1366731e+00
 -6.0245883e-01
  1.0449054e+00
  5.9394574e-01
 -7.3964363e-01
 -3.2287562e-01
 -3.1909788e-01
  4.3254423e+00
 -4.7324401e-01
 -3.7046704e-01
  7.9426438e-02
  8.6173809e-01
  1.7900686e-01
 -3.4670275e-01
 -5.4091662e-01
  3.4556532e-01
 -6.7824703e-01
  4.7794574e-01
  1.8763241e+00
 -2.9552707e-01
 -1.1171479e+00
 -5.7619762e-01
  1.3498853e-01
  1.9357061e-01
  4.6585739e-01
 -9.6550578e-01
  2.9312211e-01
 -5.2724338e-01
  2.7421020e-02
  1.6753397e+00
 -1.9334742e-01
  1.8903114e+00
 -1.8724554e+00
  5.7644671e-01
  1.6211778e-01
 -1.9212636e-01
  1.1016493e+00
 -4.6549267e-01
 -8.6059475e-01
  2.7227214e-01
  1.7481798e-01
  3.7633696e-01
 -1.4452066e+00
  3.2885128e-01
 -6.2407386e-01
 -4.3247157e-01
 -9.4704634e-01
  1.6740657e+00
  3.2643612e-02
  4.9336314e-01
 -3.0122080e-01
 -1.2272137e+00
 -3.4494787e-01
 -8.7050396e-01
 -1.1661557e-01
 -6.4702976e-01
 -1.7260860e+00
  5.3826416e-01
 -4.4614410e-01
  2.1889061e-01
 -8.8072336e-01
  2.7223372e-01
  1.4291501e-01
  3.9492443e-01
 -1.2864539e-01
  1.6261029e-01
  4.6134940e-01
  1.1265103e-02
 -5.3681139e-02
 -1.8364506e+00
 -4.2541093e-01
 -4.0689495e-01
  1.8176097e+00
 -2.3755364e+00
  1.9686520e-01
  1.0556464e+00
  8.6518162e-01
  8.5561097e-01
  4.4958839e-01
  4.3401882e-01
 -1.5761963e+00
 -1.5473874e+00
  1.5605156e+00
 -4.2378101e-01
 -8.7757558e-02
  1.2019040e-01
  3.3094972e-01
  5.2160907e-01
  6.6571075e-01
  9.8141646e-01
  1.5925533e-01
 -1.2342706e-01
 -6.5800704e-02
  8.5631728e-01
 -5.8822644e-01
  9.3951821e-01
  3.3598909e-01
 -2.4175848e-01
  2.0494331e-01
 -2.5002924e-01
 -1.8459555e+00
 -6.7913914e-01
  1.0424177e-01
 -4.4133645e-01
  1.4964875e-02
  2.9870734e-01
  1.5391892e+00
 -1.7232386e+00
  8.2894558e-01
 -1.1624502e-01
 -1.9993544e-01
  9.0990134e-02
 -1.5516504e+00
  2.5159144e+00
  7.9249114e-02
  4.9404693e-01
  8.4655738e-01
 -1.6344926e-01
 -1.5142596e-01
  1.6009617e+00
  3.3320460e-01
 -3.4455714e-01
 -4.0915328e-01
  1.7054831e+00
 -4.4026190e-01
 -1.2680050e+00
 -4.5234263e-01
 -4.2958882e-02
 -7.5292122e-01
  4.5031202e-01
 -3.7737268e-01
  2.1319568e-02
  8.1104827e-01
  7.8675359e-02
 -1.5127525e+00
 -3.7935060e-01
  2.7181989e-01
  3.5453799e-01
  9.3811274e-01
 -1.5287532e+00
 -1.3373858e+00
  3.4983835e-01
  2.5407310e+00
  6.2768042e-01
  5.9155017e-01
 -2.6708186e-01
  1.1253600e-01
  2.0119958e-01
 -2.0504031e+00
  2.1743703e+00
  8.6663103e-01
  6.5657145e-01
 -2.0002284e+00
 -5.2165538e-01
  7.8398764e-01
 -5.7914621e-01
  7.2187340e-01
 -2.3649274e-01
  1.6384755e+00
 -6.1849173e-02
 -8.0799764e-01
 -1.9380315e-01
 -3.9072198e-01
  2.0953757e-01
  1.4156182e+00
 -3.7985927e-01
 -1.5010731e+00
  1.9502518e+00
 -3.5539061e-01
  1.5027351e+00
  1.0235023e+00
 -5.1697409e-01
  1.0758750e-01
 -1.1114832e-01
 -1.3278663e-02
 -3.2991329e-01
  3.3226156e-01
  5.2906579e-01
 -3.2122821e-01
 -3.1460579e-02
 -7.3003030e-01
 -8.8170022e-02
  2.1666317e-01
 -1.4791088e+00
 -1.2404416e+00
 -3.3463889e-01
 -1.5985488e+00
  7.1221310e-01
  4.7544427e+00
  1.1854124e+00
 -9.6331671e-02
  2.5248504e-01
 -2.1119431e-01
  1.3989334e-01
 -1.0173098e+00
 -2.3798486e-03
 -2.5128415e-01
 -1.6058168e+00
  6.6483593e-01
  3.7152541e-01
  6.4721411e-01
 -2.4942344e-01
  1.6945170e+00
 -3.5139993e-01
  8.8554657e-01
  1.1496879e+00
  4.4771108e-01
  1.9253083e-01
 -1.1177557e+00
 -7.5112844e-01
  1.9407268e+00
  1.0393202e+00
  5.8058143e-01
  9.2927444e-01
 -1.0227032e+00
 -1.4312875e+00
  6.3148320e-01
 -2.4180446e+00
  5.0152648e-02
 -2.3989654e+00
  1.0667850e+00
  9.5214009e-01
 -2.2243280e+00
 -5.5252069e-01
  1.1437652e+00
 -3.0574121e+00
  7.3403555e-01
 -1.2076761e+00
  2.4139443e-01
  1.8942323e+00
  1.2226982e+00
  3.1078809e-01
  1.9404534e+00
  7.5653017e-01
  1.5584260e-02
  9.2153001e-01
 -9.8871356e-01
  4.0897217e+00
 -2.8114063e-01
  1.3372796e+00
  1.0269594e+00
  2.8274569e-01
  2.1767590e+00
  2.7971652e-01
  1.7730169e+00
 -4.4201908e-01
  1.9891129e+00
 -7.6574266e-01
 -1.0995848e+00
  1.5969617e+00
  1.1186777e+00
  2.9897566e+00
 -4.5523378e-01
  1.5224618e+00
  4.5801458e-01
 -1.4174577e+00
 -9.8308522e-01
  2.2754114e+00
 -2.5757573e+00
  1.5730144e+00
 -2.0224347e+00
  5.5331443e-02
 -4.5897898e-01
 -5.2407926e-01
 -8.9669204e-01
 -1.3154575e+00
  1.0689082e+00
  3.1855354e+00
 -3.0965800e+00
 -1.9400027e+00
  1.5769257e-01
 -2.9412034e+00
  1.1017992e+00
 -2.7029755e-02
 -5.6523257e-01
  1.8013533e+00
  8.7433510e-02
  1.2709287e+00
 -1.1161466e+00
 -2.4726989e+00
  1.9183090e+00
  2.7460551e-01
 -1.0816001e-01
  6.1525214e-01
 -6.4308310e+00
  3.2986078e-01
 -4.4430410e-03
 -2.6486881e+00
 -2.4008678e-01
 -2.5578582e+00
 -6.1551057e-02
 -6.5655595e-01
 -4.7433180e-01
  1.6307437e-01
 -2.2264776e+00
  9.2861615e-02
 -2.8413081e+00
 -2.7010119e+00
  2.1339193e-01
 -2.1052556e+00
 -1.3853629e+00
  2.7231005e-01
  2.0361895e-02
 -3.1135271e+00
  1.8285525e+00
  2.3296947e+00
 -1.7031187e-01
 -9.6975100e-01
  2.3805606e+00
 -2.2678053e+00
  2.4380689e+00
 -5.6817889e-01
  2.4122932e+00
  6.7629099e-02
  2.5224817e-01
  4.6359235e-01
  8.2357012e-02
 -7.7832937e-03
 -4.1807181e-01
  1.6030453e-01
  2.6447847e-03
 -8.1556791e-01
 -1.1475122e+00
 -3.6342639e-01
 -3.0589426e-01
  1.0348645e+00
 -7.2336346e-02
  1.1681411e-01
  1.3683093e-01
 -5.1664805e-01
  3.9424920e-01
 -3.2817847e-01
 -2.6270912e+00
  8.4708184e-03
 -7.5713539e-01
 -1.1135298e+00
  9.7272652e-01
  1.0256526e+00
 -1.6047128e-01
 -9.3661290e-01
  1.1915171e+00
 -2.0170733e-02
  3.5890913e-01
  4.2096198e-01
 -3.6386144e-01
  1.1358159e+00
  2.2945706e-02
 -7.2704417e-01
  1.1100274e-01
 -5.0878263e-01
  6.8196732e-01
 -4.4746697e-01
 -3.9370573e-01
 -2.8618702e-01
  2.2081706e-01
 -2.0274183e-01
  4.6721739e-01
 -1.1798323e+00
 -1.3441965e-04
  1.2015556e-01
 -4.8306698e-01
  8.5553521e-01
 -3.1368944e-01
  1.3788500e+00
  3.3590659e-01
 -5.5676055e-01
  1.1057143e+00
 -1.2123163e-01
  1.9742968e+00
  2.6566479e-01
  1.0668609e+00
  1.0920130e-01
 -4.4311020e-01
 -1.6737300e+00
 -2.1952678e-01
  6.8897539e-01
 -4.4941638e-02
  5.8408082e-01
 -2.3956258e+00
  5.2826351e-01
 -1.0640497e-01
  3.2014146e-01
  2.4649014e-01
 -1.3705513e+00
 -8.6180484e-01
  6.0464883e-01
  2.3298888e+00
  3.1091996e-02
 -1.5342467e+00
 -1.9151032e+00
 -1.4581740e-02
  5.3608164e-02
  1.0021507e+00
 -1.6958995e+00
  7.3736531e-01
  1.5676352e+00
  3.1074975e+00
  5.5020261e+00
 -1.3335757e+00
 -3.2054213e-01
  5.1012498e-01
  2.3006549e-01
  2.1313910e-01
  1.7718788e+00
  3.4429708e-01
  1.5998278e+00
 -6.2752932e-01
  1.6894474e+00
 -2.7974389e+00
 -1.4807649e+00
 -2.4261370e+00
  4.6142077e-01
  1.0490201e+00
  6.9257575e-01
  5.6368649e-01
  7.6498765e-01
 -7.3255539e-02
 -1.9153621e+00
  1.8896018e-01
 -9.3009788e-01
 -4.0288028e-01
  4.4285050e-01
  2.3163174e-01
  4.4759506e-01
  1.4225307e+00
 -1.1289109e+00
 -4.8456517e-01
  2.6054471e+00
 -1.6536965e+00
 -1.4435422e+00
  2.3560472e+00
  1.0457623e+00
 -4.1885760e-01
  1.5884739e-01
 -8.0614811e-01
  1.7914330e+00
 -1.6326277e+00
 -1.8951859e+00
  5.0884062e-01
  2.2666621e-01
  2.3691523e-01
  4.8944721e-01
 -1.3047423e+00
 -8.1337780e-01
 -5.2451003e-01
 -6.3252044e-01
  3.2050651e-01
 -4.5408618e-01
 -1.7075105e+00
 -1.3246779e-01
  4.0692806e-01
  2.3940217e+00
  6.3981242e-02
  4.0121400e-01
 -1.1957799e-01
  2.4557705e+00
 -8.3789194e-01
  1.3185378e+00
 -5.8518492e-02
 -1.9415134e+00
  1.3251474e+00
  1.6026870e+00
  4.4375545e-01
  3.8366234e-01
 -1.4191674e-01
  1.3596078e+00
  1.6547133e+00
 -4.6368167e-01
 -7.4785754e-02
  8.0687594e-01
  7.5291425e-01
 -9.1498357e-01
  2.3302672e+00
 -3.7021655e-01
 -6.5646559e-01
  6.6549510e-02
  2.5668728e-01
 -3.6206356e-01
  1.2391286e+00
  2.7070978e+00
 -1.9782106e+00
  1.0640644e+00
 -1.7245269e-01
  3.2507825e+00
 -1.8196987e-01
 -3.0677721e-01
  4.0588740e-01
  1.7472078e+00
  4.2442259e-01
  1.2301185e+00
 -1.2673237e+00
  8.2206756e-01
  1.4893091e+00
  4.0314600e-02
  1.8165532e-01
  1.4022512e+00
  1.6690741e+00
 -4.3900090e-01
  7.8085923e-01
 -6.8931484e-01
 -7.3835246e-02
 -1.2670711e+00
  9.7563916e-01
 -1.3124614e+00
 -1.6303627e+00
  9.1423243e-01
 -8.1389797e-01
  3.4732801e-01
  1.6467755e+00
 -6.8684959e-01
 -1.4597458e+00
  4.4898716e-01
  1.0934518e-01
  8.1892669e-01
 -1.6218936e-02
 -1.4888659e-01
  6.4891255e-01
 -1.9531152e-01
  1.6411610e-02
 -1.4956691e+00
 -2.5324413e-01
  4.9315114e-02
 -1.7033271e-01
  1.3811212e+00
  6.5129936e-01
 -2.4922103e-01
  3.6499113e-01
 -7.0222521e-01
 -1.3412611e+00
  1.1278946e-02
  2.9972512e-01
 -3.4530735e-01
 -1.4396380e-01
  4.3748581e-01
 -2.0540246e-01
 -1.5212153e-01
  3.9844769e-01
 -2.6297851e+00
 -1.1291114e+00
 -5.8435500e-01
  8.3794594e-02
 -4.3212690e+00
  1.6396626e+00
 -9.8399198e-01
 -4.5588702e-01
 -6.9677424e-01
  7.6117015e-01
  1.0214434e+00
  4.6288353e-01
 -2.8309256e-01
 -1.5396024e+00
 -7.7645701e-01
  3.0497795e-01
 -1.0992335e-01
 -3.5052976e-01
  1.1318150e+00
 -3.5442502e+00
  2.2084628e-01
 -8.7091222e-02
 -4.6279855e+00
 -1.9895501e-01
  1.7663339e-01
  3.2088956e-01
 -5.3303391e-01
 -2.3132744e-01
  2.0885797e+00
  1.4113874e+00
 -7.7467054e-01
  3.3592236e-01
 -5.2614713e-01
  4.0415975e-01
  6.5997565e-01
  3.4111682e-01
  7.5930303e-01
 -3.1694260e-01
 -1.2918695e+00
 -2.5916975e+00
 -1.0109490e+00
 -9.1211528e-02
 -5.0983387e-01
  1.5145596e+00
 -2.5147992e-01
  1.3213721e-01
 -8.8908970e-03
 -4.1227582e-01
  1.8309941e+00
 -1.0466485e-01
 -1.9732727e-01
 -8.7182218e-01
  2.0082402e-01
  2.6732555e-01
  1.8117240e-01
 -3.4346119e-01
  6.0204434e-01
  7.8502816e-01
 -2.8834239e-01
  2.9695326e-01
  9.1263339e-02
 -2.4805734e+00
  3.4388874e+00
 -4.9208242e-01
 -6.5236181e-01
 -5.9736454e-01
  1.1466461e-01
 -7.5791776e-01
 -4.0494135e-01
 -3.8997832e-01
 -8.6030751e-01
 -4.9585406e-02
  2.8879458e-01
  4.4340823e-02
  1.1499140e+00
 -5.4262001e-02
  7.8968209e-01
  2.6294142e-02
  1.8427569e+00
  6.5521330e-01
  5.3878385e-01
 -7.8983456e-01
 -1.1266429e+00
 -6.7149997e-01
  4.3639002e+00
  1.2858786e-02
  1.0764024e-01
  3.5696375e-01
  7.5308871e-01
  3.1044497e+00
  5.0318903e-01
  3.7924975e-01
  1.6562804e-04
 -5.5461228e-01
 -7.4990891e-02
  1.0854535e+00
 -5.5759615e-01
 -2.1937814e-01
  3.5875529e-01
  6.8219972e-01
  2.1766144e-01
  1.9364631e-01
  1.1790452e+00
  5.3685063e-01
  2.7305454e-01
  3.3127048e+00
  1.9722110e-01
 -1.2330236e+00
 -1.3334965e+00
 -2.8838935e+00
  4.8642620e-01
  4.8859826e-01
  1.0877975e-01
  8.6941063e-01
 -2.0155413e-01
  1.1668257e+00
 -6.8498832e-01
 -4.7909606e-01
  5.4920208e-01
  2.9534274e-01
 -1.7835871e+00
 -1.6261556e+00
 -1.4057074e+00
  8.8517380e-01
 -1.1511235e+00
  3.2243907e-01
 -1.5178992e+00
 -8.6603826e-01
  1.4470845e-01
 -1.4677376e+00
  1.9525257e-01
  7.0532852e-01
  7.2946534e-02
  5.8728081e-01
  2.4698360e-01
  6.7175174e-01
  1.7750739e+00
  3.4539831e-01
  1.7819146e+00
  4.5239702e-02
  2.2482846e+00
  1.1713407e+00
  1.0328741e+00
  6.3390750e-01
 -5.6832351e-02
  1.6089460e-01
 -1.5244783e-01
 -3.7940252e-01
 -1.1245135e-01
  1.1082621e+00
  1.1459942e+00
 -3.0108552e+00
  1.4434612e-01
 -1.1517321e-01
 -2.8408924e-01
  4.8882031e-01
  9.3133086e-01
  9.0549576e-01
 -5.4712039e-01
 -4.9113184e-01
  1.2943773e+00
 -7.7429587e-01
  2.6459169e-01
  2.1264527e+00
  3.2274559e-01
 -7.2169971e-01
 -6.4877170e-01
 -7.3930532e-01
 -1.0210612e+00
  5.6310910e-01
  7.6420224e-01
 -2.4397345e+00
 -6.3873506e-01
 -1.2002729e-02
 -1.1125327e+00
  3.7724000e-01
 -1.4536772e+00
  2.2951627e-01
 -3.8827989e-01
 -1.9202918e-01
 -2.8842497e+00
 -1.8957486e+00
  9.3653297e-01
 -5.2836603e-01
 -7.1617812e-01
 -1.9294107e-01
 -3.3020489e-02
 -2.8219067e-02
 -3.0782038e-01
  8.4613889e-01
  1.6119884e+00
 -3.0888733e-01
 -3.1489766e-01
  1.3756673e+00
  3.0657759e-01
  6.0017914e-01
  2.0110808e-01
  5.7942712e-01
 -1.5418141e+00
  5.3145751e-02
  7.0521012e-02
 -7.6550728e-01
  7.4117196e-01
  5.7533181e-01
 -1.8051294e+00
  1.6180609e+00
  1.3832165e+00
 -1.2489533e+00
 -6.3825101e-02
  1.4709333e+00
 -8.3492982e-01
 -1.4617297e-01
 -5.3596312e-01
  4.6996444e-01
  3.7069060e-02
 -3.1595182e-01
  3.6897692e-01
 -9.9622369e-01
  2.7337536e-02
 -8.4097219e-01
 -3.3876526e-01
  4.0368637e-01
 -3.8831908e-01
  5.6646365e-01
 -1.6802131e+00
 -1.3415046e+00
  9.7840053e-01
 -2.0461383e+00
  3.0995363e-01
 -2.7606761e-01
  1.8455173e+00
  1.2671155e-01
 -5.9928909e-02
  1.6425245e-01
 -2.0557146e-01
 -1.1031139e+00
  1.5650909e-01
 -6.0571277e-01
 -6.0361296e-01
 -1.8456036e+00
  6.7085427e-01
 -5.5908352e-01
 -7.8545064e-02
 -6.4708602e-01
  1.7975109e+00
  1.2585353e+00
  1.0452857e+00
  6.6930428e-03
 -2.7851140e-01
 -3.3884498e-01
  3.3412090e-01
 -1.8906568e-01
  7.7779740e-01
 -3.7518060e-01
  3.0358297e-01
 -1.2801919e+00
  1.6416547e-01
  1.0885482e+00
 -5.1725817e-01
 -7.0029438e-01
 -4.6320832e-01
  1.0948157e-01
  7.8597181e-02
 -5.4588193e-01
  6.4454305e-01
  2.0665517e+00
 -2.0835016e+00
  1.2268119e+00
  2.2932754e+00
  3.6202698e+00
 -2.5899038e+00
 -2.6713767e+00
 -1.8260998e+00
 -1.4683732e+00
 -2.5830722e+00
 -7.7110136e-01
  2.8295872e-01
  2.9849386e+00
  2.9971688e+00
 -4.5615178e-01
 -5.1539030e+00
 -3.9907699e+00
  1.2147231e+00
 -9.8344523e-01
  5.7358032e-01
 -3.8712424e-01
 -1.1875167e+00
  1.7986270e+00
 -8.4832869e-02
 -1.0529368e+00
 -3.2575305e+00
  4.2716736e-01
 -1.9949554e+00
  2.0131674e+00
  1.3876307e-01
  9.0162116e-01
 -1.9489812e+00
  1.4866706e+00
  7.6937997e-01
 -1.2533683e+00
  1.9145750e+00
 -1.0862952e+00
 -9.0477151e-01
 -8.8766682e-01
  7.7181739e-01
 -7.8690946e-01
  1.2020502e-01
 -4.7355178e-01
 -7.2819453e-01
  1.5500426e-01
  7.9625368e-01
 -1.1603215e-01
 -9.7225320e-01
 -3.4364253e-01
 -1.9177688e+00
 -2.6672319e-02
  1.6127112e+00
 -8.8872838e-01
  1.7928668e+00
  7.3285252e-02
 -3.7286577e-01
 -2.5467882e-01
  8.6200081e-02
  1.1492798e+00
 -1.4158267e+00
 -1.4708476e-01
 -3.9229515e-01
 -2.0623517e-01
 -5.3615332e-01
  1.5962198e-02
 -1.9348481e-01
  3.0257130e-01
  1.3784209e-01
 -1.6225755e-01
  6.7300379e-01
 -1.2670556e+00
  8.7416440e-01
 -1.2570803e+00
  2.8044343e-01
 -1.0525669e-01
 -3.7050492e-01
 -4.9828556e-01
 -4.3790713e-02
  4.1872770e-01
 -5.6757033e-01
  9.6292645e-01
  1.7684165e+00
  7.5756168e-01
  2.8585291e-01
 -2.0234632e-01
 -9.0392637e-01
  9.0915269e-01
  4.2398068e-01
 -1.1865907e+00
 -4.1069648e-01
  1.3767898e-01
 -4.8856032e-01
 -5.5524516e-01
  3.5889745e-01
  1.1181730e+00
  2.2259082e-01
  2.2763419e+00
  3.4712348e-04
  1.7700895e+00
  4.8538095e-01
 -3.4784001e-01
 -3.3554241e-01
  3.0876417e+00
  2.7762881e-01
 -1.3527011e+00
  4.4127241e-02
  7.6575780e-01
  1.6116998e+00
 -6.5112609e-01
  1.3689390e+00
 -8.5699701e-01
  2.8918454e-01
 -1.0774190e+00
 -3.0471534e-01
  5.3743088e-01
  1.8068224e+00
  3.4664550e-01
  9.5998740e-01
 -8.2459527e-01
 -2.1670154e-01
 -2.0177991e+00
 -1.6250914e-01
 -3.7522504e-01
  1.5337814e+00
 -5.0724018e-01
  1.7734232e+00
  5.1744384e-01
  7.2944826e-01
  1.5745218e+00
  1.3466525e-01
  1.0766320e+00
 -1.1125135e+00
  8.1198400e-01
 -1.2237395e+00
  2.6427636e-01
 -2.9249671e-01
 -5.0688021e-02
 -4.9934286e-01
  7.6635087e-01
  1.9218626e+00
  7.1517861e-01
 -1.0864178e+00
 -3.5183844e-01
 -1.1065723e-01
  2.8753558e-01
 -3.4322664e-02
 -3.4946370e-01
  5.2854091e-01
  1.5681784e-01
 -1.3590350e+00
 -9.1708399e-02
  4.5037761e-01
 -1.8198228e-01
  2.8447479e-02
  8.1698936e-01
  2.5908691e-01
  3.2954144e-01
 -2.9895294e+00
  5.7292428e-02
