nep4 3 O Si Au 
cutoff 7.5 7.5 124 124
n_max 8 8
basis_size 12 12
l_max 4 2 0
ANN 50 0
 -1.1790028e-01
 -7.3564368e-01
  2.8681254e+00
 -5.4225320e-01
  1.2219487e+00
 -1.1318834e+00
  1.9021108e+00
 -4.1015083e-01
 -4.0698302e-01
 -1.8255585e+00
 -6.3756019e-02
  2.8582778e+00
 -1.4271555e+00
  8.2958353e-01
  7.7078497e-01
 -5.6888766e+00
  4.4614604e-01
 -1.6012098e-01
  4.3266825e-03
 -7.6384193e-01
  3.7323182e+00
  2.9972281e+00
 -1.9934255e+00
 -6.7754040e+00
  8.7657154e-01
 -1.6241672e+00
  1.4468544e+00
  4.3121186e-01
 -1.7081220e+00
 -1.1283207e-01
  5.1116741e-01
  6.0295308e-01
  2.6161331e-01
  5.9261417e-01
 -1.6998746e+00
  2.1476036e-01
 -5.8677603e-02
  4.8758721e+00
 -2.3573551e+00
 -2.7821152e+00
  4.9797101e+00
 -2.3167627e-01
 -1.6314666e+00
 -1.7332574e+00
  1.0514343e+00
 -5.0370169e-01
  2.7232635e-01
 -4.0192622e-01
  5.7950753e-01
 -5.7609797e-01
  4.2570500e+00
 -4.7389040e+00
  4.1917348e+00
  1.1848663e+00
  3.0955572e+00
  2.8771915e+00
 -5.5152807e+00
  3.4064250e+00
 -2.1971244e-01
  1.1386218e+00
 -7.6880902e-01
 -2.0412636e+00
  1.6637015e-01
  9.4953245e-01
  1.4353081e+00
  3.0845015e+00
 -1.0729864e+00
  3.1940472e-01
  2.7598126e+00
  2.2227654e+00
 -1.9791743e+00
 -2.2245514e+00
 -1.1158178e+00
 -8.9607608e-01
  3.7837880e+00
  1.2903942e+00
 -1.3307965e-01
  1.5516297e+00
 -8.1819963e-01
  1.5908700e+00
 -9.5392443e-02
  2.2687431e-01
 -5.2086687e-01
 -4.4688673e+00
 -3.5552602e+00
  1.6976900e+00
 -2.0460184e+00
  4.9810047e+00
  1.7176238e+00
 -3.7910018e+00
 -2.7528349e-01
 -1.5082995e+00
  4.1066393e-02
  7.9923570e-01
 -2.2196417e+00
 -6.4424152e+00
 -1.6521411e+00
  5.1412282e+00
 -4.7667732e+00
 -3.9460597e+00
  2.2973974e+00
 -2.8848953e+00
 -5.5103536e+00
  9.1350812e-01
  3.4269984e+00
 -2.4348262e-01
  1.4347483e+00
  2.0259118e+00
  2.3311821e-01
  1.9323922e+00
 -4.4025004e-01
 -1.7169714e+00
 -1.5326533e-01
  4.3910825e-01
  2.7964883e+00
  2.1223693e+00
 -2.6101497e-01
  1.9629902e-01
 -9.4431363e-02
  3.5670304e-01
 -2.7023318e+00
  3.8957338e+00
 -4.3087420e-01
  3.2069468e-01
  2.6622672e+00
 -8.9591902e-01
  2.6748915e+00
 -1.3416578e+00
 -5.6316274e-01
  1.5379803e-01
  1.5245925e-01
  2.6483862e+00
 -1.2537138e-01
  1.1047284e-01
 -2.3901861e+00
  9.1837120e-01
  1.6737847e+00
  1.9908509e+00
  8.4805149e-01
  1.8984512e+00
  2.6847820e+00
  1.1882528e+00
 -1.5667182e+00
  3.1076910e+00
  8.3404070e-01
  7.8776449e-02
  1.1163164e+00
  6.8249679e-01
 -7.2906315e-01
 -3.1652212e+00
 -1.2204222e-01
  3.2020986e+00
  8.8280940e-01
  2.4159107e+00
  2.7265670e+00
  1.9316996e+00
  9.3060756e-01
  5.0575036e-01
 -2.5679290e+00
 -1.3299682e+00
 -3.2513728e+00
  1.9066534e+00
  1.9390585e+00
 -4.8656216e+00
 -2.4043994e-01
 -2.2188663e+00
  1.3602996e+00
 -2.2426763e+00
  1.6518453e+00
  2.7822442e+00
 -2.2039196e+00
 -1.5197794e+00
 -4.3770118e+00
  2.4827600e+00
  9.5748198e-01
  1.0767518e+00
 -7.8124768e-01
 -1.5165250e+00
 -1.2630244e+00
  1.7192132e+00
  6.0109544e-01
  9.1757929e-01
  3.6394462e-02
 -2.0799589e+00
 -1.1112881e+00
 -3.1994396e-01
 -4.5579839e+00
  6.4690286e-01
 -4.1167026e+00
  2.6836648e+00
 -9.2295980e-01
  1.8175031e+00
  1.7402306e+00
  1.0813233e+00
 -1.7450759e-01
 -5.0306827e-01
  1.5860405e+00
 -1.6712976e-01
  1.3581860e+00
  2.3239121e+00
 -1.5330788e+00
  1.7014235e-01
  2.6725771e+00
 -3.4410412e+00
  1.6184717e+00
  9.0835989e-03
 -1.4623711e+00
 -3.3655909e-01
 -5.4613930e-01
  6.8847668e-01
 -1.9709765e+00
  1.0900135e+00
  2.4023492e+00
 -1.0458394e+00
 -3.2710268e+00
 -1.2549134e-01
  4.8532753e+00
 -3.0128489e+00
 -1.2688342e+00
  1.1648360e+00
  2.6874039e-01
  1.3307852e+00
 -6.3631601e+00
  1.3252864e+00
  3.5915327e+00
  4.5376692e+00
  5.8543677e+00
  1.7010565e+00
  1.8509890e+00
  2.7298611e-01
 -3.0982924e+00
  5.8598703e-01
  7.6457244e-01
 -1.4416976e+00
 -4.1431171e-01
 -1.3933409e-02
 -2.4107389e+00
  5.9026527e-01
 -2.3852816e+00
  2.9481616e+00
 -5.5648130e-01
 -6.0282147e-01
  1.0769135e+00
 -7.9183125e-01
 -3.0093906e+00
  1.2708145e+00
 -2.9441266e+00
  3.4223206e+00
  4.6985831e+00
 -3.1834364e+00
  7.0863366e-01
  1.3421023e-01
 -1.1185751e+00
  1.0789419e+00
 -4.2008324e+00
  1.0089550e+00
 -5.4431486e+00
 -3.1691611e+00
  3.0744212e+00
  2.9480770e-01
 -4.8735418e+00
 -4.0294843e+00
  1.8067811e+00
 -3.7344646e+00
  2.3345516e+00
  5.7728672e-01
 -5.7297754e-01
 -2.0769489e+00
 -1.6121721e+00
 -3.2649369e+00
  1.7986202e+00
  2.6318595e-01
  1.1465850e-01
 -1.2597750e+00
  7.6875478e-02
 -6.9816840e-01
 -1.2950795e+00
  1.9310201e+00
  1.5752386e-01
 -1.7860450e+00
  2.9652987e+00
 -3.5647268e+00
 -7.1841869e+00
  2.3134198e+00
 -7.5558700e-02
 -6.7449301e-01
  2.5715792e+00
  5.8218260e+00
 -3.7463892e+00
 -7.2911322e-02
  1.9096699e-02
 -2.3077829e+00
  5.6356102e-01
  1.0568452e+00
 -1.0279582e-01
  9.2303979e-01
  4.5865064e+00
 -2.4168901e+00
 -1.1448274e+00
  1.0320308e+00
  4.3700153e-01
 -2.5601134e+00
 -8.4453225e-01
  1.0706586e+00
  3.2991615e-01
  6.9473034e-01
  1.1440457e+00
 -2.2294741e+00
 -2.2676678e+00
  1.3045287e+00
 -1.6260890e+00
  2.6622229e+00
  8.4672582e-01
  1.4004498e+00
  4.3989487e+00
  1.1479311e+00
  3.7042373e-01
 -1.2883312e-01
  3.8376689e-01
 -9.5440465e-01
  3.2491989e+00
  2.7886174e+00
  1.6719383e+00
  1.1855145e+00
  5.4727035e+00
 -3.8364360e+00
 -2.4254167e+00
 -4.9836761e-01
  3.0542773e-01
 -1.3084575e+00
  1.4178038e+00
  3.2534423e-01
 -8.5154617e-01
  1.7498128e+00
 -1.2524246e+00
  1.1259347e+00
 -2.6493609e+00
 -1.2453289e+00
  2.9813244e+00
  1.4596387e+00
  1.2797796e+00
 -1.0406473e+00
  7.4789081e+00
 -1.0636106e+00
 -2.1383057e+00
 -5.8733529e-01
  1.8700448e+00
  4.1506904e-01
  6.1685473e-01
 -5.0271386e-01
 -4.0594249e+00
  3.3458188e+00
  5.7567990e-01
  5.1646942e-01
 -6.2214416e-01
 -7.2872806e-01
  2.8073797e+00
  2.6933914e-01
 -2.7070668e-01
  1.5541953e+00
  3.6580545e-01
 -1.2831299e+00
  8.8087416e-01
  1.4596610e+00
  1.5577965e+00
 -6.8827510e-01
 -1.2795850e+00
  5.3929806e-01
  5.2101338e-01
 -3.1712103e+00
 -8.5731947e-01
 -1.3880346e+00
  5.8326797e+00
 -1.3716793e+00
 -1.0886184e+00
  2.9212269e-01
 -5.5858463e-02
  5.2070971e+00
  2.2692075e+00
  1.4738755e+00
 -2.3194220e+00
  2.5663596e-01
 -9.0701151e-01
  1.9894241e+00
  2.9469113e+00
 -1.7491703e+00
  1.5763062e-01
  1.8465165e+00
 -1.5400786e+00
 -4.2134981e+00
 -2.4371684e+00
 -1.0126817e+00
  2.4162962e-01
  1.6449857e-01
 -5.3976893e-01
 -7.4835026e-01
 -2.1189648e-01
  1.5076870e+00
 -1.0999014e+00
 -2.9323704e+00
  9.4564229e-01
 -3.1438105e+00
 -6.4748936e+00
 -3.9059055e+00
 -3.4799150e-01
  7.1174628e-01
  3.6133146e+00
 -4.1538844e+00
 -1.7420341e+00
  4.8133105e-02
 -1.1183965e+00
 -3.9182621e-01
 -9.8254490e-01
  3.9649475e+00
 -2.0424235e+00
  5.9177887e-01
 -2.0258892e+00
 -4.0083141e+00
  1.9827118e+00
  4.8441591e+00
  7.5779855e-01
  4.5133982e+00
 -1.1249888e+00
  4.0075937e-01
 -1.4334862e+00
  2.3206980e+00
 -4.3166026e-01
 -2.1073275e+00
 -1.4459689e-01
 -1.9215130e+00
 -1.1050045e+00
  1.3719770e+00
 -1.7455394e+00
 -1.0497651e-01
  1.0258723e+00
  7.7876800e-01
 -6.5124381e-01
 -4.8955355e+00
 -3.0804300e-01
 -1.3216038e-01
 -1.2226461e+00
 -2.2509074e+00
  1.8758873e+00
  3.5696587e-01
  2.1279678e+00
 -9.4915390e-01
  4.3812852e+00
 -1.9458289e+00
  3.2636120e+00
  4.3674982e-01
 -4.5044351e+00
  1.5101948e+00
  1.7751848e+00
 -1.0252019e+00
 -1.6674293e+00
 -3.0086064e+00
 -1.6753867e+00
  9.5070547e-01
 -2.8963478e+00
 -1.1447512e+00
 -8.7753069e-01
  4.4057935e-02
  2.4400423e+00
  7.0785654e-01
  1.6035450e+00
 -8.9905429e-01
 -7.8362954e-01
 -4.4916242e-01
  3.2615256e+00
  9.6165426e-02
  2.5920043e+00
 -1.4774839e+00
 -2.8959465e-01
 -5.0260797e+00
  1.6628052e+00
 -1.4536104e+00
  6.8854493e-01
 -5.2350104e-01
  5.0382519e+00
 -1.3826686e+00
 -5.2533942e-01
 -1.0746524e+00
 -1.1533298e+00
 -1.2196602e+00
 -4.3557322e-01
 -7.8332484e-01
 -1.4493690e+00
  3.0131936e-01
 -9.8385543e-01
  6.7930573e-01
 -1.5590466e+00
 -2.4458559e+00
 -1.4406403e+00
  1.6910712e+00
  1.1399728e+00
 -2.6862612e+00
  2.9359641e+00
  1.0146972e+00
 -4.1015819e-01
  5.6024843e-01
 -1.8149019e+00
 -6.0597696e+00
 -2.7209804e+00
 -2.7123988e+00
 -4.3830853e+00
  9.7296107e-01
 -5.0534120e+00
 -1.5739610e+00
  8.4864384e-01
 -4.2731211e-01
 -2.8582094e+00
  1.7227482e+00
 -8.6950368e-01
 -1.4333920e+00
 -3.5242467e+00
 -4.3779263e-01
  1.0471044e-01
 -7.7818429e-01
  1.7049593e+00
  3.1508367e+00
 -5.6301775e+00
 -1.5223891e+00
  1.9205484e+00
 -6.8159699e-02
  2.2996655e+00
 -2.8091684e-01
  2.5800145e+00
  2.4276388e+00
  1.9535053e-01
 -2.2469516e+00
 -6.3154054e-01
 -6.7075562e-01
  4.1000476e+00
 -9.3771172e-01
 -4.6050748e-01
 -1.0585781e+00
  7.9132605e-01
  1.2604086e+00
 -1.1837099e+00
 -1.4054079e+00
 -3.5388563e+00
 -3.9885218e+00
 -6.6098189e-01
 -1.7815996e+00
 -7.9646245e-02
  1.7224032e-01
  1.1541079e+00
  8.0186665e-01
 -9.3508607e-01
 -2.8235991e+00
  4.2095667e-01
  8.8804835e-01
  1.4047614e+00
 -9.5847958e-01
  7.8185481e-01
 -5.5779952e-01
 -1.9997425e+00
  2.1303239e+00
 -1.6260191e+00
  3.3550411e-02
  3.1240561e+00
  2.9216557e+00
 -1.6233889e+00
 -2.2572989e+00
  3.6343420e+00
 -1.7137113e+00
  3.3176632e+00
  1.0670187e+00
 -9.2634910e-01
  9.1847849e-01
  1.1029139e+00
 -3.2369590e+00
  8.5776997e-01
 -1.9182507e+00
  1.9642490e+00
  2.6394725e-01
  6.3940167e+00
 -3.5732305e-01
 -9.7675675e-01
 -9.0165716e-01
  2.3668492e+00
  1.5767945e-01
 -2.6870611e+00
  3.1304184e-01
 -1.2487724e+00
 -7.5121206e-01
 -4.8577137e+00
  8.6548334e-01
  2.5727959e+00
  2.3068144e+00
 -4.0113516e+00
 -3.0320477e+00
  3.9550102e-01
  3.9849800e-01
 -1.2692461e+00
 -1.3510400e+00
 -6.4386168e+00
  2.1627285e+00
 -1.9031980e+00
  4.8538280e-01
  2.9165115e+00
  2.6117675e+00
  4.8059809e-01
 -1.9906497e+00
  1.3983021e+00
 -1.6171737e+00
  1.2932578e-01
  2.6451525e-01
 -2.9331410e-01
 -2.8129988e+00
  1.1556150e+00
  5.6762946e-01
 -1.5697433e+00
  3.3159714e+00
  2.7187276e+00
  2.7393277e+00
 -2.9913372e-01
  1.4009931e+00
 -5.4526949e+00
 -3.0395348e+00
  8.8312939e-02
  6.5467614e-01
  2.9754303e+00
  3.8664415e-01
  1.2880877e-02
  3.4859836e-01
  6.3294768e+00
 -1.2978786e+00
  2.6379793e+00
 -5.2573752e-01
 -3.1749451e-01
  5.4285817e+00
 -2.6701255e+00
  1.7054087e+00
 -7.3616333e+00
  2.4209636e-01
 -4.8053968e-01
  6.4560442e+00
 -2.0215900e+00
 -1.8710364e+00
  1.1800205e+00
 -5.7133956e+00
 -5.9828007e-01
 -1.5109615e+00
  5.3753787e-01
  3.1823010e+00
 -1.9388707e+00
  1.0513473e+00
 -6.7236274e-01
  1.6774483e+00
  1.1365769e+00
 -8.6316091e-01
 -1.5668841e-01
 -5.8867663e-01
  9.0851569e-01
 -2.5093262e+00
 -1.2868679e+00
 -4.7907585e-01
  1.4043292e+00
 -2.3963432e+00
 -3.7901220e+00
 -3.7519298e+00
  3.5424709e+00
 -2.2798364e+00
 -4.2895526e-01
  4.4689052e-02
  2.3476253e+00
 -4.3902206e-01
  9.7514176e-01
 -2.9390051e+00
 -2.2030205e-01
  4.6775036e+00
  2.5240421e+00
  3.6039239e-01
 -1.1323578e+00
 -1.1831938e-01
  6.4438610e+00
 -2.5227318e+00
 -1.2787679e+00
  1.9968317e+00
  2.0838363e+00
  5.6707845e+00
 -1.0922675e+00
  3.5596657e-01
  8.3056974e-01
 -1.6352917e+00
 -2.7421629e-01
 -1.8008037e-01
  1.0110614e+00
  6.8741448e-02
 -1.4247804e+00
 -2.2829843e+00
  2.2508638e+00
  1.9985716e+00
  2.7052431e+00
  2.2282159e+00
  3.2831168e+00
  4.5424569e-01
 -1.6536206e+00
 -2.7504182e+00
 -1.8460196e+00
 -8.2513463e-01
  9.2990994e-01
 -5.9891707e-01
 -4.0701795e-02
  5.1870000e-01
  3.9807522e-01
  2.7860981e-01
 -6.3422149e-01
 -5.1789504e-01
  1.6990240e+00
 -1.2070837e+00
  2.1065561e-01
 -1.9009675e+00
 -3.2072492e-02
  7.9203629e-01
 -3.1450503e+00
 -3.4109128e+00
  1.0578078e+00
  2.1465123e+00
  3.1973135e+00
 -3.0012648e+00
  8.9142430e-01
 -1.9592290e+00
 -2.8504975e+00
  8.5861379e-01
 -8.4021950e+00
 -6.2579679e-01
  1.9817976e+00
 -9.9468619e-01
 -7.3116452e-01
  6.5676808e-01
 -3.7752342e-01
  2.0749366e+00
  7.2185159e-01
 -4.8813033e+00
 -1.0171027e+00
  7.9248005e-01
 -1.4241424e+00
 -3.7071809e-01
 -9.2950028e-01
  7.5306022e-01
 -9.3848765e-01
 -6.3146955e-01
 -1.0650285e+00
 -1.2736826e+00
 -2.5206551e-01
 -1.0107508e-02
  8.1860346e-01
 -4.5115419e-02
 -4.2020726e+00
 -5.2380910e+00
  5.3709161e-01
  1.6649474e+00
  2.3039038e+00
 -2.6011282e-01
  4.2875566e+00
  4.2934122e+00
 -9.3572927e-01
  2.2914875e+00
 -6.4619559e-01
  1.8569858e+00
 -3.5677344e-01
 -4.9487925e+00
 -1.3960017e+00
 -3.7838807e+00
  1.8755906e+00
  1.1013149e+00
  3.2006941e+00
 -2.6683753e+00
  4.2133689e+00
 -1.2217147e+00
  4.6627188e+00
 -1.9860735e+00
  4.6136189e-01
 -8.4928071e-01
  3.3612704e+00
  1.4317487e+00
  9.7507364e-01
  1.5583500e+00
 -9.5120466e-01
 -4.9594884e+00
  6.1054575e-01
 -2.8281456e-01
 -1.1865704e+00
  1.4068341e+00
 -1.1344776e+00
 -2.2738202e+00
  3.7920961e+00
  4.8515553e+00
 -2.0865078e+00
 -3.1663470e+00
  2.5339625e+00
  3.0454427e-01
 -3.3158174e+00
  5.7546506e+00
 -1.0170381e+00
 -1.4161524e+00
  4.1558332e+00
 -1.5122951e+00
 -1.1903746e+00
 -8.3776748e-01
 -4.9699368e+00
 -1.8427746e+00
  8.2946873e-01
  2.1882143e+00
 -1.8872572e+00
  1.8788103e+00
 -4.3131927e-01
 -4.2017732e+00
  2.1060760e+00
 -1.6919698e+00
 -1.9481421e+00
  2.5239632e+00
  1.6750815e+00
  4.3824816e-01
  3.3704436e+00
 -1.4874257e+00
  1.0788077e-01
 -1.7138983e+00
  5.0245994e-01
  1.1597950e+00
 -9.9542016e-01
  4.2927499e+00
 -6.9833922e-01
  2.4015573e-01
  8.8020790e-01
  1.7209152e+00
 -2.6240036e+00
 -2.8329892e+00
 -3.2942885e-01
  1.7461944e-02
  2.8160250e+00
  7.2417569e-01
 -3.1351485e+00
  9.7095633e-01
  8.1688896e-02
  1.8131727e+00
 -2.0637100e+00
  3.2158807e-01
 -1.1961991e+00
  1.2645311e+00
  1.3709484e+00
  1.5822148e+00
 -2.4412514e-01
  1.1804445e+00
 -6.5448689e-01
 -5.6286879e-02
  3.2902870e+00
 -1.7972980e-01
 -9.0305954e-01
  3.9934268e+00
 -1.7900656e-01
 -9.5301640e-01
 -4.7116251e+00
 -6.9348736e+00
  2.4728079e+00
 -8.7558135e-02
  1.6924376e+00
  9.2241830e-01
 -7.7175790e-01
  7.4422204e-01
  6.1518826e+00
  3.5010347e+00
 -2.0469463e+00
  3.0819657e+00
 -1.7760864e+00
 -1.9130322e-01
 -3.3326895e+00
  1.0412915e+00
 -4.5598370e-01
 -2.0296023e+00
 -8.4862328e-01
 -1.2338692e+00
  5.9606791e-01
  2.3236358e+00
 -1.9616364e+00
 -3.7370193e+00
  6.9494462e-01
  1.3384340e+00
  1.3809986e+00
 -2.3401827e-02
 -2.7714131e+00
 -2.2321904e-01
  1.3726534e+00
  1.5481838e+00
  3.1657523e-01
 -8.2779586e-01
  6.1087847e-01
  1.9245235e+00
  2.2337284e+00
  4.6156492e+00
  3.4185249e-01
  2.1006164e-01
 -2.0385408e+00
 -2.2644529e+00
  2.9801598e+00
 -1.8042026e+00
  8.1414029e-02
  1.4765822e+00
 -3.0659449e+00
  7.2485703e-01
  2.0192818e-01
 -2.4061131e+00
  6.4493656e-01
 -4.5018098e-01
 -2.7326119e+00
  3.7438028e+00
 -4.8315859e+00
  1.8107834e+00
 -1.0735472e+00
  8.2283896e-01
 -5.2297693e-01
 -1.3524383e-01
  9.1272688e-01
  4.0039825e+00
 -3.6890832e-01
  3.5893347e+00
 -1.9204404e+00
  2.0231216e+00
 -8.0670971e-01
  3.1880791e+00
 -2.0263677e+00
 -3.1149011e+00
 -7.4202323e-01
  2.4924320e-01
 -1.3814051e+00
 -2.0016712e-01
  1.7528335e+00
 -6.7697787e+00
  3.7696733e+00
 -1.4981828e+00
 -2.1895976e-01
  3.1803570e+00
 -1.2009354e+00
  5.0904737e+00
 -5.6690317e-01
 -4.7568521e+00
  1.4913597e+00
 -6.9754887e-01
  3.5035586e+00
  1.0528332e+00
 -6.0297036e-01
  2.2876396e+00
 -1.2988100e+00
  6.7988181e-01
  7.5088727e-01
  3.2358640e-01
 -1.7468010e+00
  1.3203708e+00
  4.5349636e+00
 -1.3058770e+00
 -1.7431600e+00
 -1.1581181e-01
 -5.5786128e+00
 -1.5980521e+00
  7.6099056e-01
  2.0867689e+00
 -3.7880204e+00
 -2.6274292e+00
  1.8977621e+00
 -1.6122574e+00
 -2.9364711e-01
  2.7034879e-03
  1.9433731e+00
  2.3893523e+00
  3.2542253e+00
 -9.0207167e-02
  1.7742723e+00
  1.5939184e+00
  6.0532999e+00
  4.6475366e-02
  3.9993365e+00
  1.4610476e+00
  8.1609970e-01
 -5.8830476e+00
  4.3772757e-01
 -3.0572608e-01
  5.6959629e-01
 -6.7567241e-01
  3.3935201e+00
 -4.9301523e-01
  4.6900302e-01
  1.7015258e+00
  7.4557126e-01
 -6.0104475e+00
  2.4347575e-01
  1.7302806e+00
  2.8470271e+00
 -5.8456683e-01
 -5.3667073e+00
  1.6448327e+00
 -2.8327200e+00
  2.4787443e+00
  6.3321197e-01
  2.4854598e+00
 -1.2338690e+00
  2.1334782e+00
  8.8600397e-01
  2.4817362e+00
 -8.3332680e-02
  9.5003235e-01
 -1.3410453e+00
 -5.1338773e+00
 -4.9335253e-01
 -1.1774230e-01
 -1.4861051e+00
 -2.6494965e-01
 -2.1605124e+00
  7.8167930e+00
 -2.1484694e+00
 -9.2403376e-01
  1.1078551e+00
 -2.6048058e-01
  3.2463400e+00
 -1.7199069e+00
  4.3259411e+00
 -3.7932827e+00
  3.3292890e+00
 -1.1124855e+00
  4.1229348e+00
  1.4812787e+00
  7.3581761e-01
 -4.6245346e+00
 -1.4311187e+00
  2.3748852e-01
  1.8869236e-01
 -6.2707394e-01
 -1.1617016e+00
 -3.3014863e+00
 -4.7226868e+00
 -5.1531844e+00
 -1.8523701e-01
 -2.2625139e-01
  2.1786685e+00
  5.1154405e-01
 -4.4366851e+00
  2.0610332e+00
  9.2494112e-01
  5.3948611e-01
  1.5496420e+00
  2.8561525e+00
  3.3573668e+00
  1.9130743e+00
 -5.4957914e-01
  6.6103435e-01
  1.5141963e+00
  1.9887509e+00
 -1.1445767e+00
 -1.3133094e+00
 -4.1604146e-01
  6.6598719e-01
 -2.8091371e+00
  8.3278441e-01
 -1.8696568e+00
  1.8220865e+00
  3.7861657e-01
  5.1395273e+00
 -5.9297457e+00
 -2.9032311e+00
  8.1202102e-01
  3.6643124e+00
 -9.3734503e-01
 -1.5707849e+00
  3.1030157e-01
  5.3236075e-04
 -5.3198824e+00
 -2.0526571e+00
  1.9497473e+00
 -3.1264343e+00
  7.3164088e-01
 -3.1949701e+00
 -8.9429498e-01
 -2.9950380e+00
 -7.1520400e-01
 -3.8539405e+00
  1.7052573e+00
  3.4654433e-01
  3.8690240e+00
  1.8273526e+00
  1.0816143e+00
 -1.5289557e-01
  3.2431064e+00
  4.0498133e+00
  2.3946834e-01
 -2.0340543e+00
 -8.0893290e-01
  2.0822034e+00
 -5.1236498e-01
  2.9428167e+00
 -1.0326289e+00
  2.0006526e+00
  8.3470088e-01
  8.7871265e-01
  8.4910977e-01
  1.6476722e+00
 -4.9034901e+00
  3.1488389e-01
 -1.0762206e+00
  4.2808855e-01
  2.7738836e+00
 -3.2135477e+00
  1.1220938e+00
 -3.1624057e+00
 -1.6640491e+00
  7.1286459e+00
  2.6331100e+00
 -9.5329314e-01
 -8.9012015e-01
  1.2345150e+00
  2.7610669e+00
 -2.7770802e-01
  8.7591064e-01
  5.7724714e-03
  6.3449717e+00
  8.2748097e-01
 -3.6625955e+00
 -1.9521565e+00
  3.9123259e+00
  2.1959763e+00
  2.1606319e-01
  4.7579620e-02
  2.4277582e+00
  1.0429523e+00
  4.5608335e+00
 -1.2130512e+00
 -1.4067985e+00
 -8.4941399e-01
  3.1438825e+00
 -2.5368416e+00
  1.5311670e+00
 -6.7881280e-01
 -3.5088263e+00
  7.8706011e-02
  7.1417278e-01
  2.7738497e+00
  3.5452361e+00
 -1.1444401e+00
  5.0749022e-01
  4.9863228e-01
  5.1452546e+00
  2.8522635e-01
 -1.7566546e+00
  2.0197403e+00
 -1.0001698e+00
  1.1463954e+00
  1.2626140e+00
 -2.1641421e+00
  1.7581271e+00
  4.8653692e-01
  1.2036958e+00
 -1.3052622e+00
 -3.6550455e+00
 -3.8264722e-01
  4.3839410e-01
 -1.8301376e+00
 -8.4176588e-01
  1.1085364e+00
  2.7487695e-01
 -5.0232887e-01
 -1.6385063e+00
 -3.5848727e+00
  1.1832998e+00
  5.5540657e+00
  8.2468075e-01
 -9.5013708e-01
 -6.5127993e-01
  4.6697764e+00
 -2.5567966e+00
 -2.1763890e+00
 -2.1798351e-01
 -4.0933156e+00
 -2.4834323e-01
  1.2807869e+00
  6.5741432e-01
 -1.4676088e+00
 -5.4154986e-01
  7.5254357e-01
 -1.3065842e-01
  5.9877843e-01
  8.6345798e-01
 -1.7708060e+00
 -4.3962979e+00
  1.0403261e+00
 -7.9345810e-01
 -3.4764931e-01
 -4.6478281e+00
  2.0040770e+00
 -2.0291591e-01
  1.8460594e+00
 -3.1885250e+00
  1.9425907e+00
  4.3963327e+00
  2.1908174e+00
  4.5168206e-02
  1.4423512e-01
  1.2887949e+00
  6.1220592e-01
 -9.1328293e-01
 -1.4714610e-02
 -6.6432405e-01
 -8.8540131e-01
  1.7164729e+00
  3.1331451e+00
  1.2242258e+00
  1.0822066e+00
 -1.0093095e+00
 -6.1475569e-01
  2.8654339e+00
 -4.9618878e+00
 -3.5783601e+00
 -4.8267335e-01
 -2.5128641e+00
  7.6723003e+00
  2.1741016e+00
 -2.1975992e+00
 -4.2730528e-01
  1.2660502e+00
  2.4517245e+00
 -1.0752602e+00
  5.5588228e-01
 -3.0592737e+00
  2.1467812e+00
 -2.7173407e+00
 -1.2057831e+00
 -3.9176250e+00
  1.6555816e+00
 -1.6465197e+00
 -3.1150713e+00
 -2.6561995e+00
  1.7127689e+00
 -1.1109374e+00
  2.9911301e+00
 -2.2898107e+00
 -1.1740086e+00
 -9.6467358e-01
 -1.2644259e+00
 -7.9276338e-03
 -5.7481761e+00
 -1.6232201e+00
 -3.2189605e+00
 -1.2092541e+00
  4.1340075e+00
  4.1704268e+00
  2.2731478e+00
  2.7242105e+00
 -2.0217843e+00
 -1.0501589e+00
 -3.2650983e+00
 -3.4884703e-01
  3.0431342e+00
  9.5032156e-01
 -2.6649678e-01
  1.6235414e+00
 -3.0059142e+00
 -5.5681247e-01
 -9.2095441e-01
  8.1486821e-01
 -1.6847683e+00
 -2.8231335e-01
  4.0864177e+00
 -4.3572426e+00
  1.8078227e+00
 -6.9479656e+00
  3.5641661e+00
 -9.9589014e-01
  2.2796454e-01
 -1.9538801e+00
  6.8046939e-01
  2.0057263e+00
  5.6486326e-01
  9.1299105e-01
  3.3488894e-01
 -5.9469825e-01
 -1.6589803e+00
 -3.2123103e+00
  2.6108835e+00
 -5.7301790e-01
 -1.5568364e+00
 -2.6999491e-01
 -4.7615461e+00
  1.7125510e+00
 -1.3478971e+00
 -1.4759276e+00
  9.9474788e-02
  1.7464902e+00
  7.8136355e-01
  3.9694412e+00
 -5.0297041e+00
  2.5560777e+00
 -3.2536597e+00
  8.8747543e-01
  1.7463416e+00
  8.0191606e-01
 -2.0167041e+00
 -1.3025959e+00
 -1.9410872e+00
  2.8489203e+00
  2.5810695e+00
  2.5661709e+00
  6.1073027e+00
  3.3688736e+00
 -2.6966600e+00
  2.0285482e+00
 -2.7965870e+00
 -7.3378861e-01
 -3.0081806e+00
  1.8074561e+00
  2.0344412e+00
 -2.8973980e+00
 -1.7957727e+00
  8.7161320e-01
  2.1242499e+00
 -5.7851315e-01
 -9.8335171e-01
 -4.1811517e-01
  3.9434856e-01
 -2.3125279e+00
  3.4711754e-01
  2.8645837e+00
 -2.1724734e+00
 -6.7161363e-01
 -3.5931466e+00
  2.5865958e+00
  9.5080948e-01
 -1.5783292e+00
 -1.2482827e+00
 -5.0819582e-01
 -9.6702015e-01
 -1.8773481e+00
 -1.0994757e+00
 -2.6343803e+00
 -1.1994573e+00
 -1.5652237e+00
  7.9817784e-01
 -1.2654597e+00
 -8.4450966e-01
 -3.3313780e+00
  2.6071548e+00
  6.3601484e+00
 -4.7949486e+00
  3.9123645e-01
  2.7055063e+00
  4.9453349e+00
 -3.1663909e+00
  1.5449846e-01
 -2.9274924e+00
  5.1227862e-01
  5.9850097e-01
  1.7372003e-01
 -7.9155707e-01
 -4.1372447e+00
  2.7592531e-01
  2.4544427e-01
  1.7154315e+00
  6.8636519e-01
 -3.0560076e+00
 -1.1191944e+00
  2.9899700e+00
  3.3568275e-01
  2.6154003e+00
 -9.2492628e-01
  2.9052048e+00
  2.0096960e+00
  1.1471113e+00
  1.1751879e+00
  2.1804702e+00
 -4.1179767e+00
  1.0137680e+00
  1.4200056e+00
  1.1089196e+00
 -3.2847641e+00
  8.2071364e-02
  2.4054442e-01
 -7.2834277e-01
  3.3926472e-01
 -2.9580412e+00
  5.4082429e-01
 -2.5292867e-01
 -3.2194188e+00
  5.1612389e-01
  1.1432271e-01
  1.2674199e+00
 -3.8110104e-01
  2.0880144e+00
  1.3621856e+00
  6.5809917e-01
 -4.2393093e+00
  2.8962371e+00
 -5.7781329e+00
 -1.8572575e+00
  1.7965271e+00
  9.3025923e-01
 -2.1949191e+00
 -3.6537812e+00
  3.7112634e+00
  1.2663120e+00
  4.9259386e+00
 -2.5219748e+00
  3.5545748e-01
 -1.5457457e+00
  1.7721050e+00
  1.1258157e+00
 -1.1847341e+00
  2.0437294e-01
  1.1865492e+00
 -2.8751051e+00
  8.5924935e-01
 -3.6728532e+00
  7.6389557e-01
  3.7516956e+00
  2.4354558e+00
  2.8367910e+00
  3.3679765e-01
  2.7884519e+00
  3.3242750e+00
  1.8202744e+00
 -1.5875220e-02
 -1.5454150e+00
 -1.6041663e-01
  2.6678607e+00
 -6.6577709e-01
  4.1248724e-03
  1.9507182e+00
  2.9802722e-01
  2.0331404e+00
 -7.4560297e-01
 -2.8022988e+00
  4.2493157e+00
 -2.7967515e+00
  9.1688886e-02
  1.1667570e+00
  6.1706251e-01
  1.7972276e+00
 -6.5240580e-01
 -7.2949934e-01
  1.4671661e+00
  2.1618709e-01
 -2.9678326e+00
 -1.9360456e+00
 -3.6326275e+00
  1.6499033e+00
 -1.7472317e+00
 -9.2793036e-01
 -2.4755569e+00
  2.0875733e-01
 -2.5295324e+00
 -2.9667246e+00
 -1.1150216e+00
  1.8011581e+00
  2.1612992e+00
 -4.0912470e-01
  1.2735912e+00
  4.6937364e-01
  2.2515030e+00
  4.8232758e-01
  1.5826362e+00
 -2.2748020e-01
 -1.2425668e+00
  1.4356871e+00
 -1.3976748e+00
 -1.2399241e+00
  5.5471051e-01
  1.8894309e+00
 -3.2404084e+00
  2.0770021e-01
  5.3296608e-01
  2.7107940e+00
  2.3380423e+00
  1.1116775e+00
 -4.9322920e+00
  6.1022013e-01
  4.1618128e+00
 -2.0873599e+00
  3.6339357e+00
  1.2753451e-01
 -8.5103780e-01
  1.5708489e+00
  1.5064843e+00
 -2.6566048e+00
 -1.0501313e+00
 -1.5828378e+00
  6.4455175e-01
 -4.3362617e-02
  7.5942636e-02
  3.4587417e+00
  4.1231894e+00
 -1.9861188e+00
 -1.0632865e-01
  3.2259216e+00
 -1.4828598e+00
 -8.5966271e-01
  3.2603850e+00
 -2.4152741e+00
  5.5390000e-01
  2.6308000e+00
  3.1818695e+00
  7.6508844e-01
 -2.3510895e+00
  3.9269700e+00
 -4.4962141e-01
  1.1035306e+00
  2.1454918e+00
 -1.7569824e+00
  3.0191114e+00
  3.9069146e-02
 -6.6836734e+00
  4.7799325e-01
 -1.9898179e+00
 -1.3547428e+00
  2.7916473e-01
  1.1292162e+00
  1.7603939e+00
  8.4885120e-01
  3.3752472e+00
 -7.4379337e-01
  1.2742143e+00
 -2.0537975e+00
 -4.3876429e+00
 -1.7193111e+00
 -5.7422686e-01
  3.2256994e+00
 -3.9700007e+00
  1.3641565e+00
 -2.6934109e+00
 -2.1134703e+00
  2.6289043e+00
  3.5058739e+00
 -1.9420954e+00
  9.1733809e+00
 -2.8636129e+00
  1.0452417e-01
  9.9564657e-02
  1.6285839e+00
 -4.4358245e-01
 -1.5499378e+00
  9.2160159e-01
  1.0049251e-01
  3.5250432e+00
 -3.5196282e-02
 -1.1858232e+00
  2.4265621e+00
  2.1649201e+00
  1.0821269e+00
  1.9543850e+00
  6.3433850e-01
 -7.6242852e-01
  6.4639920e-01
 -1.1624762e+00
 -4.4490406e-01
  2.6505342e+00
 -1.4943495e-02
  2.3301008e+00
 -1.0116707e-01
 -4.0814548e+00
 -1.1078427e+00
  1.8109933e+00
 -1.1512233e+00
 -3.2264823e-01
  2.6294968e+00
 -1.8312500e+00
 -2.3153422e+00
 -1.4443973e+00
  4.4347107e-01
  1.8138095e+00
  1.9765921e-01
  3.6342428e+00
 -2.8362856e+00
 -1.5447298e+00
 -4.7624460e-01
  1.4727551e+00
  1.4710513e+00
 -7.8460830e-01
 -2.3798117e-01
  4.9468575e+00
  9.5208609e-01
 -6.5844810e-01
 -3.7571481e-01
  2.7006485e+00
 -1.1171719e+00
  1.5920548e+00
 -7.8344077e-01
 -1.6836623e+00
 -1.7701758e+00
  1.1766633e+00
  1.1494091e+00
  1.5478648e+00
  4.2708387e+00
 -6.7039704e-01
 -1.2359593e+00
 -4.7408051e+00
  3.8532782e-01
 -2.7698452e+00
  2.7252889e+00
  1.4917401e+00
  2.2075560e+00
  3.6639402e+00
 -2.8574975e+00
 -1.9684908e-01
  3.1773576e-01
  4.1125971e-01
 -1.8799241e+00
  2.8144953e+00
 -1.1837983e-01
  8.9394605e-01
  6.7839170e-01
 -6.8710476e-01
 -8.5624903e-01
 -5.2890795e-01
  4.4585243e-01
  1.3956031e-01
  2.0900664e+00
 -1.5080595e+00
  2.3483806e+00
  3.8458624e+00
 -9.8609589e-02
 -9.9561270e-03
  5.0892722e-02
  8.3905399e-01
  8.3020520e-01
 -4.2615673e-01
 -3.9638993e-01
  2.3671634e+00
 -1.1548120e+00
 -1.9256829e+00
  3.3625062e+00
 -3.2012136e+00
 -1.9397033e+00
  9.7552085e-01
 -1.0609671e+00
 -4.4225580e-01
  3.9058971e+00
 -1.7494112e+00
  2.6666334e+00
  1.1219122e+00
 -6.3845164e-01
 -1.3719333e+00
 -1.8699164e+00
 -3.2469454e+00
 -2.2961571e+00
  9.4349027e-02
  8.5457438e-01
 -2.2030723e+00
  2.8866920e+00
 -7.2723663e-01
 -3.5765278e-01
  2.1848373e+00
  1.4810774e-01
 -6.2625515e-01
  9.8845804e-01
 -2.8172424e+00
 -2.7342060e-01
  1.9978178e+00
  1.6578119e+00
 -7.8743860e-02
 -2.0901618e+00
 -1.5789256e+00
  7.8897059e-01
  2.5266817e+00
  7.8798480e+00
  1.9633337e+00
  3.8398669e+00
 -1.7059255e+00
 -3.1336360e+00
 -1.9944903e+00
 -1.1013520e+00
 -1.0934024e+00
 -4.8624845e+00
  6.4581430e-01
 -1.3723991e+00
 -6.8840110e-01
  1.7852963e+00
 -6.8120354e-01
  1.5225127e+00
  3.1672451e+00
 -8.8480109e-01
 -1.9546936e+00
 -2.3785582e-01
  3.8586993e+00
  2.1082101e+00
 -7.7583522e-01
  3.5188630e-01
  2.7497957e+00
 -2.1382685e+00
 -1.0872699e+00
 -2.3978417e+00
  3.1324866e+00
  1.0877647e-01
  1.1924665e-01
 -3.4730980e+00
  2.2180393e+00
  2.7271894e-01
  6.4660317e-01
  1.1965252e+00
 -3.8241228e-01
  3.0118755e-01
  8.5179985e-01
 -1.5918832e+00
  1.7845240e+00
 -6.0960903e+00
  4.6064824e-01
  4.6427636e+00
 -2.4901830e-01
 -4.2891393e+00
 -1.3182861e+00
  2.8548902e-01
  4.3821865e-01
 -4.0792727e+00
 -2.0356851e+00
 -4.1656971e-01
 -1.6569443e+00
 -4.0964804e+00
 -1.0492377e+00
 -8.2323259e-01
  5.1891241e-02
  2.2136781e+00
 -5.7353610e-01
 -4.5980754e+00
 -9.6174401e-01
  1.6244643e+00
  8.2518072e+00
 -1.8537811e+00
  2.8179073e+00
  1.0667629e+00
 -5.1371568e-01
  5.4376221e-01
 -2.5000003e-01
 -3.7712948e+00
 -8.5939832e-02
 -8.3599377e-01
 -1.9518235e+00
 -4.8896799e+00
 -1.9680482e-01
 -4.0753150e+00
  4.6251708e-01
  2.5499470e+00
  1.3615484e+00
 -1.9681894e+00
 -2.2683425e+00
  2.1678939e-01
 -4.7116485e+00
  7.9930747e-01
 -4.5049897e-01
 -4.3662450e-01
 -5.1545238e-01
  4.5535681e-01
  3.9158447e+00
  3.0188090e-01
 -2.6805434e+00
 -3.7666732e-01
  1.5077368e+00
 -1.2316039e+00
  5.6543380e-01
 -3.0893869e+00
  6.9950670e-01
  2.4228413e+00
  7.2923923e-01
 -4.9969119e-01
 -1.2358841e-01
  2.9454589e+00
  1.2983003e+00
 -3.0909266e+00
  3.9727995e-01
 -6.6827774e-01
 -4.9148154e-01
  1.8218657e+00
  2.2839552e-01
 -2.5165012e+00
  2.8044277e-01
  1.4983158e-01
  1.5015038e+00
 -9.5189941e-01
  6.8977299e+00
 -2.8544960e+00
  4.1658907e+00
  1.4087673e-02
 -2.4846101e+00
  9.8862046e-01
  1.3212016e+00
 -1.0446130e+00
  9.2562151e-01
  3.6850138e+00
 -1.4218296e+00
  1.6947638e+00
  3.2811859e+00
  4.0684295e+00
  9.6078217e-01
  4.3063102e+00
  1.1484701e-02
  3.7121794e+00
  4.2323494e-01
 -3.0784038e-01
  4.5524833e-01
  5.1694924e-01
  2.7963390e+00
 -3.0304414e-01
 -2.9110012e+00
  2.1829808e+00
  2.4537721e-01
 -8.6780411e-01
  9.4237757e-01
 -2.4471317e-01
 -4.0302247e-02
  2.1011291e+00
 -3.7641203e+00
 -4.4522099e+00
  1.4233834e-01
 -4.6041651e+00
 -1.8488151e+00
 -2.1643362e+00
  5.6391392e+00
  2.8439715e+00
  7.8789610e-01
 -7.8882253e-01
 -6.0460019e-01
  2.8092009e-01
  9.5122147e-01
  1.3734303e-01
  2.3289316e+00
 -3.1203339e+00
 -1.1612115e+00
 -1.4861461e+00
 -2.1896544e-01
 -7.5975704e-01
 -9.9304032e-01
 -4.3374033e+00
  3.1313631e-01
 -4.8062634e-01
  7.7934879e-01
 -1.7665267e-01
  2.5666065e+00
 -1.2472854e+00
 -5.4863685e-01
  5.9216371e+00
 -1.9338806e+00
 -1.8134180e+00
  1.3515931e+00
  1.5637714e+00
 -2.0510650e+00
 -1.2134376e+00
 -2.2329183e+00
  1.2682439e+00
 -3.9913249e+00
  2.3107488e+00
  2.8248060e+00
  1.5047975e+00
 -3.2825913e+00
 -1.6489215e+00
  7.6165783e-01
 -4.6194756e-01
  1.4927484e-02
 -3.7757957e-01
  2.7667454e-01
 -1.0429313e+00
 -2.7096598e+00
 -7.2196591e-01
 -3.5022743e+00
  4.6198940e-01
 -3.4507927e-01
  1.0191534e+00
 -1.5608548e+00
 -3.7631747e-01
 -1.9800761e+00
 -1.7975479e+00
  3.7494075e-01
 -5.9830844e-01
 -1.0845896e+00
  2.4930472e+00
 -2.5620186e-01
 -4.3075714e+00
  4.4622006e+00
 -2.2225823e+00
 -2.7828538e-01
  1.6742798e+00
 -1.8178561e+00
  1.3485634e+00
 -1.7194346e+00
  2.1206210e+00
 -5.6405574e-02
  2.5539208e-02
 -1.8369812e-01
 -2.9270353e+00
 -2.4141593e+00
  2.0419226e+00
  1.1027588e+00
  8.7826544e-01
 -1.7650357e+00
 -4.2361579e+00
  3.6702099e+00
  1.3314682e+00
 -4.9397802e-01
 -3.1797166e+00
 -9.4532928e+00
  1.2034260e+00
 -1.1705611e+00
  6.7335866e-02
 -1.0853952e+00
  9.4237816e-01
 -7.0664871e-01
  3.6894231e+00
  1.3160201e+00
  5.4083407e-01
 -1.0467952e+00
  1.2102226e+00
  1.1445050e+00
 -2.1473820e+00
  4.7470002e+00
  1.1847213e-01
 -3.1547914e+00
  1.2794540e+00
  8.4410143e-01
 -1.3780211e+00
 -1.0005674e+00
 -3.3112669e+00
  7.1627092e-01
  6.4973563e-01
  2.4148064e+00
 -3.2154758e+00
  1.1265472e+00
 -3.4318988e+00
  1.0633064e-01
 -7.2467452e-01
  5.1095352e+00
  4.2057896e+00
 -6.6058087e-01
 -5.5326390e-01
 -1.1117889e+00
  2.0061440e+00
  1.3617418e+00
  1.0255636e+00
 -1.8572007e+00
  3.6016318e-01
  4.4708470e-01
  2.2125486e-01
  1.1187545e+00
  1.6565859e-01
 -1.7712402e+00
  9.2014503e-01
  1.5970719e+00
  2.4021966e+00
 -1.2885458e+00
  1.2104816e+00
 -9.5478946e-01
  1.6988093e+00
 -3.0795863e+00
  5.0364156e+00
 -1.9366851e-01
  3.9219236e-01
  3.4673944e+00
  1.9223864e+00
 -3.5466914e+00
 -4.4797522e-01
  2.2586682e+00
 -2.5035851e+00
 -4.1409236e-01
  1.2751703e+00
  1.0963352e-01
 -1.7711260e+00
  1.3285877e-01
 -1.2085372e+00
 -3.0151176e-01
 -4.0643654e+00
  2.2700903e+00
 -3.3220835e+00
  2.7048695e+00
 -9.5723224e-01
  1.7332072e+00
 -4.0638277e-01
 -1.2525103e+00
  9.7901887e-01
  2.2724479e-01
  3.5383615e+00
 -3.2078664e+00
 -2.5820154e-01
  2.5425508e+00
  2.3614903e-01
  2.6881957e-01
  5.0244892e-01
  3.6867435e+00
  1.7344137e+00
  1.0360881e+00
  2.1823530e+00
 -1.7331532e+00
 -5.8978209e+00
 -1.7280347e+00
  1.7763174e+00
 -4.9333282e+00
  3.9577097e-01
  1.5218762e+00
 -5.5776864e-01
  2.3524809e-01
 -3.1741467e+00
 -3.1341853e+00
 -3.5386291e+00
 -1.3533004e-02
 -2.2434812e+00
 -2.4808514e-01
  2.8420961e+00
  3.8277013e+00
  1.4033624e+00
  1.1453144e-01
  2.8669745e-01
 -4.1892424e+00
 -2.3798606e-01
 -2.1944163e+00
  4.8349476e-01
  2.5130434e+00
  1.3708092e-01
 -4.7998315e-01
  2.4654346e+00
  8.1889181e+00
 -2.9299457e+00
 -6.5449104e+00
 -8.1619132e-01
 -1.7082151e+00
 -1.2680476e+00
  3.1497529e-01
 -2.0449924e-01
 -1.6272600e-01
 -7.4157085e+00
  2.1565926e+00
 -1.5868139e+00
  1.0450341e+00
 -3.9644539e+00
  3.0321248e+00
  1.9167873e+00
  4.1889551e-01
 -1.1711215e+00
 -2.0323138e+00
  2.5259733e-01
  8.9339465e-01
  5.2534837e-01
 -2.1389662e-01
  1.0854279e+00
 -4.7817841e-01
 -2.0153193e+00
  8.9500085e-02
 -3.4460933e+00
  2.3929818e+00
  1.2887902e+00
  5.4762924e-01
  2.3173103e+00
 -1.0017414e-01
 -1.2309139e+00
 -1.1866128e+00
 -2.9718254e+00
 -1.5043087e+00
  1.3429906e+00
  1.4883386e+00
 -1.0255992e+00
 -1.6193070e+00
  2.0296984e+00
  1.9501997e+00
  4.5088181e-01
 -9.3695676e-01
 -2.4310031e+00
  1.0825238e+00
 -2.3163222e-01
 -9.0282899e-01
  1.5352857e+00
  5.8772011e+00
 -1.9045085e-01
  6.8319454e+00
 -8.8510418e+00
  1.6676511e-01
 -1.8291280e-01
 -1.2249624e+00
  2.8681011e+00
  2.3879287e+00
  4.2833543e+00
  3.9209199e-01
  9.4364399e-01
  5.4989233e+00
 -3.0042097e-01
 -4.4110450e-01
 -2.5757637e-02
  7.9436703e+00
 -6.1061734e-01
  6.2926716e-01
 -2.1373136e+00
 -3.8162726e-01
  1.8880033e+00
 -1.4865803e+00
 -1.9122740e+00
 -1.9564853e+00
  1.8743261e+00
  4.2718949e+00
  2.2467237e+00
 -4.0475807e+00
 -3.8427824e-01
  4.9649558e+00
 -3.0539072e+00
  2.2789589e-01
 -4.1126118e+00
 -3.7024367e+00
 -7.8198996e+00
  5.7663336e-02
 -2.0030432e+00
 -1.1244865e-01
  3.9616406e-01
  9.0144271e-01
  1.1488429e-01
  4.4401131e+00
 -1.2253889e-01
 -2.5823343e-01
 -3.7391803e+00
  1.5096149e+00
 -5.2308974e+00
  3.5487549e+00
  1.0644028e+00
  1.9117547e+00
  4.8738818e+00
 -3.3315809e+00
  2.6428976e+00
  1.8611279e+00
 -4.3894377e+00
  1.0631759e+00
  1.2075040e+00
  2.2805083e+00
  7.2745943e-01
  4.8943084e-01
 -2.2744634e+00
  1.9804637e-01
 -1.1788704e+00
  1.1500967e+00
  5.4013033e+00
 -9.9736685e-01
 -5.0255437e+00
  2.8243039e+00
  7.4258429e-01
 -8.9556056e-01
  2.4574797e+00
  2.6948457e+00
 -1.2850164e+00
  3.7214410e-01
 -1.4786733e+00
 -2.0654912e+00
 -1.8706692e+00
 -4.7546091e+00
  4.7820282e+00
  2.3459954e+00
 -4.2049332e+00
  2.1082299e+00
  3.8485928e+00
 -2.4190955e-01
 -3.6371801e+00
  1.1250601e+00
  9.9438703e-01
 -2.7097282e+00
 -2.3396995e+00
 -1.5528779e-01
  5.7293987e-01
 -6.7696434e-01
 -7.4519122e-01
  1.7410690e-01
  3.8129044e-01
  3.2600226e+00
  5.4129720e+00
 -6.4225370e-01
 -5.1361728e-01
 -2.3329725e+00
  1.9113201e+00
 -3.7988482e+00
  2.9501114e+00
  1.9574559e+00
  7.4049830e+00
  3.6046016e+00
  1.1932648e+00
  8.0916524e-02
  3.5181215e-01
 -1.2299812e+00
 -7.9230267e-01
 -2.9447815e-01
  3.0429959e+00
  9.2694029e-02
 -4.0850167e+00
  4.9764452e+00
  9.7924149e-01
 -9.6705997e-01
 -5.3877127e-01
  4.4150877e-01
  3.5220873e-01
 -5.7874537e+00
  2.4116423e+00
  2.6343040e+00
 -2.1507680e+00
  1.1985955e+00
 -1.1725746e+00
 -8.1287158e-01
  2.1238813e+00
 -8.3840787e-01
  6.4649310e+00
 -6.1130257e+00
 -2.7437681e-01
  1.1800706e+00
 -1.4612625e+00
 -3.1512988e-01
  2.9165894e-01
 -1.3381993e+00
 -2.5981374e+00
 -1.5841869e-01
 -5.9422106e-02
  1.4996299e+00
 -1.6771518e+00
 -7.3321259e-01
 -4.9200120e+00
  2.8355017e+00
 -1.4531545e-01
 -1.2738693e+00
 -6.0890935e-02
  2.2068019e+00
  4.4444546e-01
  1.0418286e+00
 -9.5250410e-01
 -1.6026333e-02
  3.1347368e+00
  1.1835964e+00
  3.5602627e+00
  9.8725915e-01
 -1.5068904e+00
 -2.4578239e-01
  9.8937094e-01
 -2.7631998e+00
  1.2139622e+00
  1.0375636e+00
  1.3831601e+00
  4.5735595e-01
 -1.8443304e+00
  4.3085036e+00
 -7.1301837e+00
 -2.5260017e+00
  1.6424086e+00
 -5.4746556e-01
  2.1442485e+00
  4.3722597e-01
 -2.6298151e+00
 -3.1292683e-01
  5.0823665e+00
 -4.3362460e+00
 -4.7443175e-01
 -8.1702316e-01
 -6.8358082e-01
  3.2797557e-01
 -5.9381747e+00
 -2.9517276e+00
 -4.5356649e-01
  2.0248520e+00
  3.2220733e+00
  1.1131279e+00
 -2.9036862e-01
  5.5576301e-01
  1.0485532e+00
 -2.4934535e+00
 -1.2324107e+00
  9.2108339e-01
 -1.0194747e+00
 -5.4037994e-01
  1.5093526e+00
  2.0034025e+00
  4.2079233e-02
 -7.9361305e-02
 -3.0536683e+00
  3.6290226e+00
  3.7514424e-01
 -3.1180100e+00
 -3.8179181e+00
 -2.3504043e+00
  2.2864389e+00
 -1.9303337e+00
 -7.3647372e-02
 -4.3367061e-01
 -9.1026318e-01
  2.0171397e+00
  4.6982443e-01
  1.4355593e+00
 -7.7276325e-01
 -1.7775643e+00
  3.4458530e-01
  1.8932177e+00
 -9.6022624e-01
 -2.9138720e+00
  2.5265174e+00
 -1.6885906e-01
  3.1058354e+00
  1.5721664e+00
 -2.4487987e+00
 -2.5462749e+00
 -4.3911238e+00
  1.6787255e+00
 -9.5850271e-01
  1.8473576e+00
  2.8038526e+00
  2.8219151e-01
 -3.4463522e-01
 -1.3965542e+00
  3.4291124e+00
  2.2671112e-01
  3.2766037e+00
  3.7063046e+00
 -2.1948045e-01
 -2.2004395e+00
 -1.4506056e+00
 -2.6954589e+00
  2.8249712e+00
  1.5239236e+00
  4.3931336e+00
 -5.8121878e-01
  1.9417229e-01
  4.5339428e-02
  5.0465661e-01
 -1.4825354e+00
 -6.5553284e-01
 -5.7696122e-01
 -5.6588680e-01
  1.4874120e+00
  5.5912828e+00
 -2.5602891e+00
 -1.5836861e+00
  3.0005367e+00
 -2.8855562e-01
 -5.7674098e-01
 -4.7845731e+00
 -2.0797992e+00
 -3.8702124e-01
 -3.0662479e+00
  1.9228420e+00
  1.0756114e-01
  4.9291687e+00
  1.2406647e+00
  3.5979326e+00
  1.9441231e+00
 -3.6041517e+00
  1.6184323e-02
 -1.3634357e+00
  3.5356202e+00
 -8.8177091e-01
 -1.1544589e+00
  4.1695652e+00
 -4.5828065e-01
 -3.7909832e+00
 -3.0455661e-01
  4.2291818e+00
 -1.5295486e+00
 -4.6565571e+00
 -1.3422185e+00
 -3.3637369e+00
 -2.3333676e+00
  4.9173251e-01
  1.0853696e+00
 -1.2308668e+00
  3.3111024e-01
  9.5810401e-01
  1.0420091e-01
  1.4354696e+00
 -1.9840195e+00
 -2.2391257e+00
 -6.6110057e-01
  4.4768579e-02
  3.0004913e-01
  3.4778571e+00
 -1.5653466e+00
 -8.5063374e-01
 -9.0585673e-01
 -9.8528139e-02
 -1.5173048e+00
 -5.5312508e-01
 -2.2515209e+00
  8.4361687e+00
  1.3619761e+00
  7.5328559e-01
 -5.4131448e-01
 -4.5516485e-01
 -2.3678622e+00
 -6.5867662e+00
  3.2596412e+00
  4.1804612e-03
  9.4603324e-01
  1.6802809e+00
  2.8376338e+00
 -7.5675255e-01
  1.2376336e-01
 -3.0806735e-01
  5.0456059e-01
  1.2630798e-01
  8.3640224e-01
  6.0364938e-01
  1.7201444e+00
 -2.8298988e+00
  4.7152123e+00
 -5.4533595e-01
  1.8412447e+00
 -3.6850307e+00
  3.1620193e+00
  5.3852010e-01
  1.8411428e+00
  4.6424909e+00
  1.5833331e+00
  7.7614498e-01
  1.2124062e-02
 -8.4795260e-01
 -1.6017765e-02
  1.9279784e+00
  5.0729985e+00
  3.0882642e-02
  9.4032305e-01
  2.8868682e+00
  2.8610306e+00
  1.3725259e+00
 -1.2584478e+00
  4.5133553e+00
  1.4977208e+00
  1.5416046e+00
 -3.2414147e-01
  1.1866742e+00
  1.2668141e+00
 -2.2178729e-01
  2.7448139e+00
 -5.7026230e-02
  3.2812440e+00
 -3.4448485e+00
  8.5038394e-01
  6.1189568e-01
  1.1213632e-01
 -2.6944500e-01
  2.1804192e+00
  2.3957088e+00
 -2.6781301e+00
 -1.5306177e+00
 -8.6999238e-02
  9.5910376e-01
  8.9477378e-01
 -2.2408132e-01
  2.5004818e+00
  2.5313526e-01
  7.7019078e-01
  8.5502875e-01
  4.5627865e-01
  1.3945404e+00
  2.6471210e+00
 -6.8678051e-01
  1.9200513e+00
 -1.0991494e-01
 -9.4855022e-01
 -1.4858317e-01
  1.6034470e+00
 -2.3240800e+00
 -7.4141920e-01
  2.8008931e+00
  4.2543921e+00
  1.9730645e-01
 -4.9923325e-01
 -8.5165873e-02
 -1.5066645e+00
  2.1537073e+00
  1.1845601e+00
 -3.5597792e+00
 -2.7069920e-01
  6.9507647e-01
 -3.3227041e-01
 -4.5692759e+00
  9.6830142e-01
  1.7238039e-01
 -2.7173715e+00
  1.8681315e+00
 -3.4818559e+00
 -2.3117290e+00
  2.1573684e+00
  2.2008874e+00
 -1.7547543e+00
 -1.0009584e+00
  7.1686643e-01
  6.9553095e-01
  2.8808098e+00
  9.8245871e-01
 -2.2268746e+00
 -2.7285206e+00
 -1.9936315e+00
  1.5842991e-01
  4.0691538e+00
 -5.2570713e-01
 -1.1449305e+00
  1.1837099e+00
  3.0345080e+00
  3.8325820e+00
 -1.6114537e+00
  2.1264355e-01
  3.7130454e+00
  5.6241193e+00
  1.2148035e+00
 -2.7538557e-02
  6.3758934e-01
 -5.9076291e-01
 -1.9986572e+00
 -1.2926314e+00
  7.1254587e-01
 -9.4685638e-01
 -2.4739840e+00
  4.6646222e-01
  2.9894676e+00
  3.3281818e-03
  1.1310837e+00
  4.6613417e+00
  7.6419866e-01
 -4.0466991e-01
 -2.2374904e+00
 -7.6710582e-01
 -1.2725587e+00
 -2.1799765e+00
 -4.0251210e-01
  1.8698754e+00
  4.8641324e+00
 -4.5977935e-01
 -2.1195362e+00
 -9.6789551e-01
 -3.0252452e+00
 -6.3070267e-01
  3.1283653e-01
  5.4910266e-01
  6.5759230e-01
  2.1041005e+00
  2.9227827e+00
  3.4877243e+00
  2.2187290e-01
 -7.0152706e-01
 -3.7156131e+00
  4.4157720e+00
  3.0397437e+00
  2.8881707e+00
 -6.4655268e-01
 -8.3018655e-01
  5.9294152e-01
  1.4381066e-02
 -3.2959569e+00
 -3.6792040e+00
 -2.1199176e+00
 -2.6642588e-01
  1.9427770e-01
 -6.7583913e-01
  2.6348221e+00
 -7.8782016e-01
 -2.6158247e+00
 -1.9533992e+00
 -1.7223326e+00
  2.0935538e+00
  2.0568817e+00
 -5.5884094e+00
  1.5464143e+00
  1.7739844e+00
 -3.6071191e+00
  7.5884712e-01
  1.3238399e-01
 -5.8911598e-01
  2.9532129e-01
 -2.3095310e+00
  5.8909124e-01
  7.6406401e-01
 -3.0105269e+00
  8.8624227e-01
  4.0131960e+00
 -1.8811837e+00
  1.4527038e+00
 -2.9565102e-01
  3.6053009e+00
 -2.1418462e+00
 -1.7928616e+00
  1.5709409e+00
  2.5397141e+00
 -1.2749275e+00
 -8.9706188e-01
  1.1956563e+00
 -3.3135078e+00
 -4.2085185e+00
 -5.8085072e-01
 -7.2153443e-01
 -9.3837154e-01
 -9.8333967e-01
 -7.4467903e-01
  4.5021218e-01
 -6.0131156e-01
 -1.4436392e+00
  1.1405646e+00
 -1.7664077e-02
  6.0828447e-01
 -1.1632590e+00
 -3.5181952e+00
 -3.7636595e+00
  3.1140177e+00
 -9.6181944e-02
  2.1228244e+00
 -1.5230095e+00
  1.2958810e-01
  9.6838009e-01
 -3.9797764e+00
 -6.9685090e-01
  1.4998538e+00
 -2.9976925e-01
 -6.7367768e-03
  9.6519694e-02
 -1.7199030e+00
  4.5893393e+00
 -5.8979683e-02
  1.4176613e+00
 -5.1648355e+00
 -9.3692881e-01
  5.4366331e+00
  6.3756287e-01
  1.7268558e+00
  7.6272476e-01
  2.0141754e+00
  8.7903053e-01
 -2.1243775e+00
  6.5000840e-03
  1.4573815e+00
 -1.8104765e-01
  2.8605747e+00
  2.1568458e+00
  5.2651060e-01
  1.2549635e+00
 -2.9078153e-01
 -5.3375411e+00
  1.8960479e+00
  1.9461801e+00
 -7.9970777e-01
 -7.7496625e-02
  2.6599374e+00
 -3.4829943e+00
 -3.0297265e+00
  1.0790011e+00
  1.3165287e+00
 -3.2243490e-01
  3.2563682e+00
 -1.2480186e+00
 -1.4244896e+00
  2.0569634e+00
 -4.1773480e-01
  4.1765690e+00
  9.4284093e-01
  6.7292243e-01
 -1.2633507e+00
 -3.6792881e+00
  1.5265130e+00
 -5.6051793e+00
 -2.8552961e-01
  8.0724591e-01
 -3.1436186e+00
 -8.7562943e-01
 -2.5363092e+00
  9.2200661e-01
 -1.0508225e+00
 -3.8081150e+00
 -1.6209784e+00
  9.7903544e-01
  1.2885773e-01
  8.9947528e-01
  5.1931734e+00
  1.3193661e-01
  8.2211357e-01
  1.7377245e+00
 -1.2817185e+00
  1.3254143e+00
 -1.2690626e+00
 -3.4035697e+00
 -2.1843605e+00
  2.0191185e+00
  1.3833377e+00
 -2.7967584e-01
 -8.3700228e-01
 -8.7410137e-03
 -1.7078581e-01
 -3.5574956e+00
  2.6807284e+00
  9.9460676e-02
  5.8063604e-02
  2.3085032e+00
 -7.3081875e-01
 -6.4952999e-01
  2.2216489e+00
 -6.1879849e-01
  1.3503897e+00
  3.9025545e+00
  2.4153156e+00
 -4.3102175e-01
 -3.7937703e+00
  2.6409726e+00
 -1.7030141e+00
 -1.8914374e+00
  3.0691051e-01
 -1.6709236e+00
  3.2911389e+00
 -1.1760092e-01
  1.5738698e+00
 -1.2259242e-01
 -7.7223919e-02
  4.0981255e+00
 -1.2030222e+00
 -2.7835953e+00
  2.0357680e-02
  7.4155509e-01
  9.7087020e-01
 -1.2608736e+00
 -2.3782597e+00
  2.5329661e+00
 -3.5120752e-01
 -2.4992421e+00
 -3.9578211e+00
 -9.6049052e-01
 -1.1065779e+00
  1.5921824e+00
 -2.9745622e+00
 -1.8775865e+00
 -9.1172594e-01
  3.6287756e+00
  1.1321520e+00
  1.6054089e+00
 -4.2042065e+00
 -4.1690521e+00
  1.8816696e+00
  7.2305083e-01
 -2.9326110e+00
 -1.3496592e+00
 -1.7877687e+00
 -3.3660944e+00
  1.4064678e+00
 -1.5628078e+00
  2.9252021e+00
  3.8125093e+00
 -5.4502149e+00
  3.7252412e+00
 -7.3183197e-01
  1.3163693e-01
  5.2278600e+00
 -1.0051976e-01
  3.3981872e+00
  2.0695410e+00
  3.2651656e+00
  2.2892461e+00
  1.0555869e+00
  1.2142259e+00
 -3.5038393e+00
  9.1181445e-01
  1.6421996e-01
 -1.6469077e+00
 -3.6532373e+00
  3.9549756e-01
 -1.5736094e+00
 -2.2608423e+00
 -1.8109493e+00
  3.3099439e+00
 -4.1128526e+00
  1.1083640e+00
  6.7152143e-01
  1.0776920e+00
  1.4968121e-01
 -3.5357615e-01
 -1.6936412e+00
 -6.4137496e-02
  9.1931239e-02
  8.3067447e-01
  4.7766823e-01
 -9.5368707e-01
  8.4666841e-02
  2.1841678e-01
  6.1118752e-01
 -2.6129339e+00
  2.4463837e+00
  9.3343675e-01
 -2.5495964e-01
  4.1435570e-02
 -3.4999502e-01
  1.0962500e-01
  2.1968853e+00
  9.2647392e-01
 -2.1724418e-01
  3.4096575e-01
 -1.8194279e-01
  1.9179728e+00
  4.5715594e-01
 -1.5813617e+00
 -3.6867577e-01
 -1.4310234e+00
 -1.3202878e+00
 -1.9987169e-01
 -1.9836321e+00
  6.6937417e-01
 -3.3762574e-01
  6.5679473e-01
  2.2763011e-01
 -5.6304485e-02
 -3.4314010e-01
 -7.2586998e-02
  1.0383506e-01
 -9.4875708e+00
  3.1366591e+00
  5.0924275e-02
 -1.8885863e+00
  2.8852586e-02
  6.1108255e-01
  9.7532117e-01
  3.0796993e+00
 -7.6568019e-01
  1.3042367e+00
  4.7997537e-01
 -1.9808504e-01
 -1.6805300e+00
 -4.7584432e-01
  8.1595200e-01
 -9.2044914e-01
  4.4669163e-01
  8.1615561e-01
  1.8951987e+00
 -1.1490508e+00
 -3.3824513e+00
 -8.7496340e-01
  6.8258476e-01
  2.3223619e+00
  2.9068241e+00
  2.3096900e+00
  2.4054296e+00
 -4.9890068e-01
  2.3564252e-01
  2.4822472e-01
 -7.3149681e-02
  9.9882700e-02
  1.8905903e+00
  2.4285333e+00
  6.6047020e-02
  2.8511662e+00
  3.5552111e+00
  6.0737413e-01
 -1.2767161e+00
  1.1787363e+00
  1.5822047e+00
 -2.2413566e+00
  3.3240137e+00
  4.5786214e-01
  2.6346108e-01
  8.0536222e-01
 -7.7669626e-01
 -9.9544960e-01
  1.0478134e-01
  1.0002700e+00
 -1.5700113e+00
  3.9711776e-01
 -1.7160118e+00
 -9.9478900e-02
 -3.4154153e+00
  5.0137514e-01
  2.1155546e+00
 -1.3849075e+00
 -4.4046187e+00
 -1.2358599e+00
  2.5250852e+00
  2.3408434e+00
 -9.9674031e-02
 -1.6206924e+00
  3.4911126e-01
 -6.2138492e-01
 -5.1121622e-01
  2.1115487e+00
 -3.5429835e+00
 -1.4279022e+00
  2.6435339e+00
  2.2708614e+00
 -2.3472637e-02
  4.4002265e-01
  3.1154835e+00
  3.7577301e-01
 -7.0203753e+00
  1.2877178e+00
  2.1722262e+00
 -1.3109077e+00
 -1.8626335e+00
  9.3795669e-01
  3.5925102e-01
 -3.5413935e+00
  2.8290920e+00
 -1.9602573e+00
 -2.6675670e+00
 -6.5773988e-01
 -4.2923030e-01
  1.8054366e-02
 -2.8422937e+00
 -4.3875828e+00
  1.7240596e-01
  1.9974314e+00
 -2.6272735e-01
  8.3162737e-01
  9.0385091e-01
 -1.1722933e+00
  1.1453358e+00
  1.5540376e+00
 -3.6197355e+00
  4.3577242e+00
 -3.4993371e-01
 -6.7565328e-01
 -1.8955648e+00
 -3.9747343e+00
 -1.2825961e+00
 -3.2513633e-01
  4.6261139e+00
 -4.1517615e-04
  5.0741496e+00
 -2.2376125e+00
 -4.1607060e+00
  1.4196110e+00
  2.2160056e+00
  1.6582421e+00
 -2.0494008e-01
 -3.5932735e-01
 -4.6751207e-01
 -3.5361116e+00
 -2.4964972e+00
  1.4355063e+00
 -1.4089901e+00
 -1.5063624e+00
  5.7707191e+00
  2.7614241e+00
 -1.3090346e+00
  2.0278959e+00
 -1.3726970e+00
 -1.3388640e+00
  1.2602042e+00
 -4.4323483e-01
 -9.8570436e-01
  1.0510392e-01
  1.7821889e+00
 -2.0253963e+00
  2.5842299e+00
 -4.3644257e+00
  1.7637331e+00
 -2.3158634e+00
  4.9651617e-01
 -1.0235059e+00
  2.5125754e+00
  3.9188194e-01
 -2.3983841e+00
  7.1906066e-01
  3.3793348e-01
 -1.6950740e+00
  2.4007480e+00
 -2.4801495e+00
  1.3723533e+00
  7.9950958e-01
  4.6976349e-01
 -1.9463738e+00
  9.2890024e-01
 -9.3207908e-01
 -1.7462578e-01
 -6.7754602e+00
  7.2300059e-01
  5.3245211e+00
  4.5271987e-01
 -6.7919856e-01
  1.9129144e+00
  3.4513664e+00
 -1.2149073e+00
  4.2513056e+00
 -1.1576990e+00
 -9.1551679e-01
 -1.8324068e+00
 -1.4203824e+00
  8.0462343e-01
  4.4782395e+00
  1.1319280e+00
  1.5749559e+00
 -2.2140009e+00
 -5.9722602e-01
  1.0947738e+00
  1.1033416e-01
  1.6127290e+00
 -8.3123744e-01
  3.9612734e-01
  2.5887997e+00
  1.9755372e+00
 -1.7415379e+00
 -1.0450426e+00
 -2.0739020e-01
 -4.5647758e-01
 -1.2905029e+00
 -1.6079155e+00
 -1.9477557e+00
 -1.7575902e+00
  2.7261138e+00
  6.6051714e-02
 -5.3367147e+00
  1.9369742e+00
 -6.2062597e+00
 -1.4518360e+00
  3.0383985e-02
 -6.2685394e-01
 -1.4827508e+00
 -8.6607188e-03
 -3.1766253e+00
 -1.0855151e+00
  8.4894383e-01
 -3.5974520e-01
  6.3958466e-01
  3.3126137e+00
 -1.1602960e+00
 -1.4458536e+00
  2.0636547e+00
 -2.1953051e+00
 -8.6899057e-02
 -4.1198561e-01
 -8.2185340e-01
  1.5023004e+00
 -2.1027222e+00
 -1.0758942e+00
  2.3227483e-01
 -4.3769789e-01
 -3.5516315e+00
  4.4144589e-01
 -1.9628084e+00
 -6.7342240e-01
 -8.0433732e-01
  1.3811395e+00
 -1.2740940e-01
  3.9048275e-01
  4.3014121e-01
  6.8484879e-01
 -5.3020496e+00
  1.2794449e+00
  1.8446298e+00
 -2.0162036e+00
 -2.9689639e+00
 -1.8949890e+00
 -9.4663376e-01
 -3.5167346e+00
  2.0720882e+00
 -1.9497353e+00
  2.3409956e+00
  3.4335682e+00
 -1.8182915e+00
  6.8791538e-01
  8.9688838e-01
 -1.3484706e-01
  8.7761676e-01
  2.7342882e+00
  2.4959362e+00
  6.5930927e-01
  4.6514006e+00
  2.5171034e+00
 -2.9183888e-01
 -1.6853554e+00
  1.8057956e+00
 -2.4914904e+00
 -4.3030500e-02
  1.4153942e+00
 -1.4855254e+00
 -5.7400805e-01
 -2.2151804e+00
 -1.8007508e-01
 -2.6148379e+00
 -3.8994086e+00
 -6.2307656e-01
 -6.8426782e-01
 -2.9815900e-01
 -6.9392467e-01
  3.8302760e+00
 -5.8695561e-01
 -1.1141306e+00
 -3.2331131e-02
  2.7090180e-01
 -1.5365185e+00
 -1.1058617e+00
 -2.0422888e+00
 -7.7014394e-02
  3.3404279e-01
  8.7749863e-01
 -7.7578282e+00
  1.2649102e+00
  3.7078723e-01
  3.0286163e-01
 -1.7868823e-01
  1.2089628e+00
 -9.3274570e-01
  7.5261605e-01
 -8.5740554e-01
 -3.3975837e+00
  7.2274077e-01
  7.2485453e-01
  1.5885962e+00
  3.1355214e+00
  1.0459820e+00
 -2.1040003e+00
 -2.8508118e-01
  1.1706338e+00
  2.1880466e-01
 -5.4173571e-01
  1.1981423e+00
  2.9548144e+00
 -1.2460036e+00
 -2.1161768e+00
  4.3507986e+00
  2.5638518e+00
 -6.2943673e-01
 -1.4310446e+00
  1.3322612e+00
  8.5459495e-01
  1.4703256e+00
 -1.3353544e+00
 -3.2167225e+00
  3.1256089e-01
 -1.1368544e+00
 -1.5493999e+00
  3.6740541e-01
 -9.8390192e-01
 -2.1150416e-01
  4.7761863e-01
 -6.5538192e-01
  2.2309957e+00
 -7.2453064e-01
 -1.9618728e+00
  5.5021867e-02
  4.7143030e-01
  8.3538842e-01
 -4.6190459e-01
  3.8471320e-01
  2.2595725e+00
 -5.1849395e-01
 -2.5425951e+00
 -2.2004704e+00
 -2.4754949e+00
 -1.9071656e+00
  2.6200316e+00
  8.7472928e-01
  1.5548534e+00
  3.4795315e+00
 -3.4367073e-01
  2.2409916e+00
  2.8029869e+00
 -1.1967978e+00
  9.5267504e-01
  1.1235150e+00
 -1.7963750e+00
  1.6778454e+00
 -1.3213375e+00
 -3.5792077e+00
  4.7996685e-02
 -1.9525666e+00
 -1.2889879e+00
  1.4086945e+00
 -1.6318902e+00
 -6.7007113e-01
 -1.6160390e+00
 -5.3535300e-01
 -5.4967296e-01
 -1.5043554e+00
 -2.4033687e+00
 -2.5861020e+00
 -4.3663392e+00
  5.0516829e+00
  5.2444019e+00
  2.3304675e+00
  2.8552666e+00
 -3.6827421e-01
 -2.1593494e+00
  1.4135931e+00
 -1.7456558e+00
  9.0264219e-01
 -3.0275664e-01
  2.9365437e+00
 -2.9076943e+00
  2.0409563e+00
  4.5753244e-01
  1.6088535e-01
  1.8755530e+00
 -3.6186759e+00
 -5.2116752e-01
 -2.9417533e-01
 -3.5961308e+00
 -1.9114898e+00
  6.1396378e-01
  2.3051503e+00
  1.8565669e+00
  2.0077348e+00
 -6.8907392e-01
 -1.5686337e+00
 -1.9034082e+00
 -9.9138474e-01
  2.3945358e+00
 -4.8092347e-01
  5.4356470e+00
 -5.7008209e+00
  3.3393774e+00
  1.6034467e+00
  1.2224461e+00
  3.1075184e+00
 -1.5777390e+00
 -1.1559882e+00
  5.1754808e-01
  1.9914797e-01
 -7.6009262e-01
 -4.5829678e+00
  4.0819058e+00
 -7.6410294e-02
 -2.4023907e+00
  2.2007289e+00
  4.0132646e-02
  2.9291147e-01
 -4.9189734e-01
 -2.2471842e-01
 -1.8152454e+00
 -9.5531708e-01
 -1.1958653e+00
 -1.4826958e+00
 -3.9179798e-02
  5.3482747e-01
 -2.2243617e+00
  2.4934442e+00
  7.4411666e-01
 -2.5938807e+00
  1.1013526e+00
 -2.0111108e+00
  1.0224274e+00
  2.0867081e+00
 -8.1225085e-01
  3.9888825e+00
 -2.1357479e+00
  3.1163507e+00
 -1.3205930e+00
 -1.9740560e+00
  1.1988651e+00
  1.0697798e+00
 -2.0099869e+00
  2.2759582e-01
 -2.9915311e+00
  2.9080760e+00
 -1.0934563e+00
  8.9150631e-01
  7.4856311e-01
  8.0501497e-01
  9.0482485e-01
  7.9908258e-01
 -2.2175665e+00
 -1.3561927e+00
  4.3964794e-01
 -1.3764476e+00
  2.4878950e-01
  1.2555130e+00
  4.6795759e-01
  5.9199685e-01
  8.6416763e-01
 -7.6821548e-01
 -4.5484260e-01
 -2.4804316e-01
  3.8804784e-03
  4.3204641e+00
  2.5148654e+00
  5.0415993e+00
  1.7271392e+00
  3.1296244e-01
 -3.3174896e+00
 -1.0580688e+00
  2.5667424e+00
  6.0236394e-01
  3.3953628e-01
  2.8689027e+00
  6.2103295e-01
 -4.5498953e+00
 -5.9773654e-01
 -1.9397016e+00
 -4.3915337e-01
 -2.4167864e+00
 -6.1545796e+00
 -5.5015440e+00
 -2.0105364e+00
 -7.9232544e-01
  1.4130588e+00
 -2.7130220e+00
 -4.5611970e-02
  9.9173963e-02
  2.5176817e-01
  1.8071765e-01
  1.1291414e+00
 -7.3686546e-01
 -2.8228364e+00
  2.7542589e+00
 -1.4271580e+00
  1.1175488e+00
  2.9076517e-01
  6.7435751e+00
  1.8357235e+00
  8.9059567e-01
 -7.5402794e+00
 -6.3687879e-01
 -3.2829533e+00
  2.1492438e+00
 -1.6656705e+00
 -1.0745565e+00
 -1.1920228e+00
  9.3560684e-01
 -3.5106325e+00
 -4.7186961e+00
 -1.4335754e+00
  1.7297467e+00
 -1.4471602e+00
 -5.3598185e+00
 -6.0701162e-01
 -1.3400904e+00
 -1.1755933e+00
  1.7888384e+00
  2.4835320e-01
 -4.2825258e-01
 -2.8749437e+00
 -6.2651104e-01
  1.0967873e-01
 -5.2742763e+00
  1.1671253e-01
 -5.1565003e-01
 -2.5099297e+00
 -1.8594977e-01
  3.9054191e+00
  2.2846951e+00
  9.6893281e-01
 -2.5523851e+00
  4.5605302e+00
 -2.7150655e+00
  1.2376732e+00
  4.1437674e+00
 -2.2023439e+00
 -2.8432682e-01
 -1.0980704e-01
 -1.2352386e+00
  1.1110090e+00
 -3.7920918e+00
  8.3437449e-01
  2.3703034e+00
 -7.3385978e-01
 -2.5776401e+00
  5.6582585e-02
 -1.0283445e+00
 -2.4709616e+00
 -9.9862212e-01
  4.4770193e-01
  2.5256355e+00
  2.8617060e-01
 -3.0850587e+00
  1.3913279e+00
 -1.2427489e+00
  7.0814997e-01
  9.4750375e-01
  5.6562600e+00
 -2.0585222e+00
  5.0740415e-01
  1.2313585e-01
 -1.7781508e+00
  1.1770569e+00
 -5.4220384e-01
 -3.6466532e+00
 -1.7803931e-01
 -5.8101422e-01
 -1.5666984e+00
  1.5518527e+00
  1.0272719e+00
 -4.0392569e-01
  3.2069153e-01
  4.6811515e-01
 -5.4744542e-01
 -9.3476939e-01
 -4.6444025e+00
 -1.5877783e-01
 -1.7624974e+00
  3.8436453e+00
  1.1169916e+00
 -1.9599392e+00
  1.3423566e+00
 -2.8454208e+00
  4.8714912e-01
 -3.6363554e+00
 -1.1750888e+00
  4.2662892e+00
 -9.6268058e-01
  8.7484896e-01
  9.6989238e-01
  5.9625489e-01
  8.3513111e-01
  1.9516627e-01
  5.1584258e+00
  1.5398510e+00
  1.3272483e+00
  3.6298828e+00
  1.2650987e+00
 -1.7403218e+00
  7.5847042e-01
 -5.5129969e-01
  1.8928291e+00
 -3.0778959e-01
  1.8964510e+00
  1.1929729e+00
 -1.6157289e+00
  4.2790771e+00
  1.6091225e-01
  2.2417733e-01
  1.4488748e-01
  2.2201033e+00
  2.8952427e+00
 -1.5791981e+00
 -1.0747336e+00
 -1.2776317e-01
  4.4175640e-02
  8.8608307e-01
 -3.4030709e+00
  2.3399053e+00
  1.0469791e+00
  2.2457240e+00
 -1.9166148e+00
 -6.1783333e+00
  3.4470205e+00
 -1.9606897e-01
  8.8058037e-01
  3.4690011e-01
 -1.4018594e-01
  1.6501340e+00
  2.8833268e+00
 -2.5381565e+00
 -1.3163872e+00
 -1.1149976e+00
  1.0207693e-01
  3.7246661e+00
  5.4446399e-01
 -4.4818532e-01
  1.4876553e+00
  3.9335299e-01
 -2.3374344e-01
  1.9359366e+00
 -3.6364913e+00
 -2.6680186e+00
  1.8576157e+00
  1.6308194e+00
  1.5958081e+00
 -8.3588552e-01
 -7.8428471e-01
 -2.0049796e+00
 -2.1695530e+00
 -4.3264055e+00
 -5.7319417e+00
 -2.2889743e+00
  6.8342781e-01
 -3.9533684e+00
  5.9556198e-01
 -1.6031997e+00
  5.1392508e+00
  3.5071502e+00
  1.5287417e+00
  4.4054704e+00
 -2.3970156e+00
 -4.3067160e+00
 -9.5212597e-01
 -9.0244311e-01
 -3.4645479e+00
 -2.1139307e+00
 -7.2188246e-01
 -1.4991183e-02
  7.3530346e-01
 -2.4306002e+00
 -4.1635938e+00
 -9.3715954e-01
  1.0965393e-01
  2.3172345e+00
 -1.5813828e+00
 -2.7914250e+00
 -3.1206305e+00
  8.7983131e-01
  1.6948244e-01
  7.4329443e+00
  1.7749908e+00
 -1.0233933e+00
  2.5727267e+00
 -1.0619874e+00
  4.1295290e-01
  1.1411346e+00
  1.9796426e+00
  3.5555289e+00
  3.2441506e-01
 -6.3315749e+00
  6.6650891e-01
 -8.8404870e-01
 -3.0970447e+00
  5.6036000e+00
  4.7770944e+00
  8.5517034e-02
 -7.2998422e-01
  6.9273091e-03
 -6.3270050e-01
 -4.5636020e+00
  1.3409573e+00
  1.5000043e+00
  6.4999509e-01
  1.1449705e+00
 -2.6701438e+00
  9.1652915e-02
 -8.8370286e-02
 -1.5421915e+00
  1.5058434e+00
 -2.6000102e+00
  3.5852492e-01
  1.9648747e+00
 -7.9478186e-01
 -5.1869410e-01
 -1.8744645e+00
  1.4723104e+00
 -5.7167011e-01
 -4.9750495e+00
 -1.7678975e+00
 -1.9307768e-01
 -3.1874211e+00
  1.6777667e+00
 -3.3484019e-02
  3.4789629e+00
 -3.2092469e+00
  1.5984786e-01
  9.1590863e-01
  3.4524169e+00
 -6.1939649e-02
  5.6587821e-01
 -1.6542574e+00
  4.5224309e-01
 -3.8137293e-01
  3.3288865e+00
 -5.8365263e-02
  7.2662318e-01
 -7.8212118e-01
 -2.4870028e+00
 -7.3196344e+00
  2.0421076e+00
 -3.9833072e-01
  1.9270903e+00
 -4.4497535e-01
 -3.1750689e+00
  7.2587150e-01
 -1.3948298e+00
 -2.1932268e+00
  1.1096153e-02
  1.5636094e+00
  5.3409064e-01
  5.4087768e+00
  8.9718825e-01
  3.5032191e+00
  1.7249879e+00
  1.0562850e+00
  4.5109739e+00
  5.3241587e-01
 -1.1377779e+00
 -4.4973111e+00
 -2.9767799e+00
 -9.0139216e-01
 -2.5502241e+00
 -4.0174991e-01
  1.5520850e+00
  1.5623935e+00
 -4.4104137e+00
  7.9356951e-01
  1.0919875e-01
 -3.5540030e+00
 -2.4816430e+00
  2.0005400e+00
 -1.2620714e+00
  4.4651628e+00
  4.9298143e+00
 -2.4565563e+00
  1.9222348e+00
  3.5905423e+00
  2.2422781e+00
 -1.6112453e+00
 -6.3489449e-01
  8.1247407e-01
 -1.2031902e+00
  1.1327008e+00
 -2.2416890e-01
 -8.1723821e-01
 -2.2728913e-01
  3.0005889e+00
  2.2468836e+00
  2.9001281e-01
  2.2258687e-01
  9.3460232e-01
 -1.5574239e+00
 -2.0451441e+00
  3.0620725e+00
  1.2157403e+00
  2.6200202e-01
 -2.5035210e+00
  5.4797173e-01
  5.4092273e-02
  2.5768214e-01
  6.8328641e-02
 -1.5640834e-01
  3.9428661e+00
 -7.8536421e-01
  4.0866747e+00
  7.0278841e-01
  5.2140242e-01
  3.0520710e-01
 -2.4461186e+00
  8.2991219e-01
 -1.4691100e+00
  2.5839427e+00
 -1.3760774e+00
 -4.5156679e-01
 -1.0151861e+00
 -4.3209662e+00
 -1.1314802e+00
  1.6818292e+00
  3.8747957e-01
 -1.9125402e-01
 -5.5735798e+00
 -8.2280084e-02
  2.3889492e+00
 -2.7347061e-01
  6.9877005e+00
 -7.9016316e-01
  2.7177494e+00
  3.9204485e+00
 -9.6095622e-01
 -2.1888769e-01
 -4.9883618e+00
  1.7276537e-01
 -1.8915079e+00
 -2.1786101e-01
  1.5923938e+00
 -1.8015411e+00
  2.9447179e+00
 -3.5876582e+00
 -5.0503554e+00
 -3.2342517e+00
 -3.7917876e-01
  3.2453289e+00
 -1.8110293e-01
  1.6299525e+00
  2.6276426e+00
  7.1594214e-01
  1.4333491e+00
 -4.5463291e-01
  7.6875377e-01
 -4.7936468e+00
 -7.4433351e-01
 -3.7829688e-01
 -4.8850474e+00
 -1.1046085e+00
 -1.3841769e+00
  7.8847492e-01
  1.6536064e+00
 -5.2322078e+00
 -1.6513956e-01
 -7.7979438e-02
 -2.5646467e+00
 -1.1499320e+00
 -1.0655459e-01
  6.7804784e-01
  1.3158171e-01
 -1.7220180e+00
  1.4941655e+00
  9.2117113e-01
 -2.4119668e+00
 -1.5218728e+00
 -2.3956466e+00
 -1.2832706e+00
  3.9420763e-01
  5.4205233e-01
  1.5064180e+00
 -1.2151594e-01
  4.6654983e+00
  4.5917974e+00
  2.4450686e+00
 -3.6777797e-01
  1.1599197e-01
  2.6344359e-02
 -8.6909133e-01
 -1.3584037e+00
  6.1640782e+00
 -9.8406971e-01
 -2.9233446e+00
 -2.7112498e+00
 -8.3674514e-01
 -9.1601402e-01
  2.2793072e-01
 -1.2356189e+00
  2.3735285e+00
 -3.3785942e-01
  4.1194777e+00
 -1.6811233e+00
 -1.4670293e+00
 -4.2680576e-01
  5.0611544e-01
  6.7000166e-02
 -6.1670170e+00
  2.1316168e+00
 -1.3358026e+00
 -1.7381214e+00
 -5.4931560e+00
 -1.3967593e+00
 -1.4951430e-01
 -1.5370013e+00
  5.9591424e-01
 -1.3659161e-01
  6.3177472e-01
 -4.8119739e-02
 -2.8160834e-01
 -1.8493184e-01
  3.4270995e+00
  1.1046501e+00
  4.4419613e+00
  2.9390869e+00
  2.8806407e+00
  2.7440510e+00
 -7.8348416e-01
  6.2816209e-01
 -1.5903423e+00
  1.4438214e+00
  3.6151042e+00
 -2.4253507e+00
 -1.7922156e+00
 -2.4654524e+00
 -3.7562294e+00
  1.5514464e+00
 -1.1428946e-01
 -6.6069186e-02
  4.6813992e-01
 -1.0249735e-01
  1.1967976e+00
 -4.5851555e-01
 -1.1394322e+00
  5.1633751e-01
 -5.0669396e-01
 -2.1218860e+00
  2.0075347e+00
 -7.8974164e-01
 -2.0598991e+00
  9.0883255e-01
  3.0513253e+00
  9.0886354e-03
  2.0574381e+00
  5.0203604e-01
 -2.9678270e-01
 -1.4830437e+00
 -3.0480554e+00
  1.8208821e+00
 -6.8065009e+00
  3.0852386e-01
  1.7175620e+00
 -3.4409220e+00
 -1.4490150e+00
 -4.4150825e+00
 -6.3338894e-01
 -1.8994542e+00
 -1.8286544e+00
  2.1325755e+00
 -1.5850273e+00
  3.9767096e+00
  6.7944235e-01
  2.2449884e+00
  2.2533300e+00
  2.9356760e-01
  9.9396336e-01
 -6.8060571e-01
 -1.7450370e+00
  3.6467645e-01
 -1.4389404e+00
  3.2695103e+00
 -2.1726949e+00
 -3.8980274e+00
 -3.2533345e+00
 -3.2911506e-01
 -4.2276063e+00
  6.8870807e-01
  4.6913257e+00
  3.7101269e+00
 -8.4172487e-01
  6.1449778e-01
 -1.0138565e+00
 -1.8846751e+00
  3.9187738e-01
 -1.1920979e+00
  7.4903309e-01
  2.6915002e-01
 -1.3853785e-01
 -4.4094473e-01
 -1.4692860e+00
  3.6395317e-01
 -1.0568881e+00
 -2.4581721e-01
  2.3925228e+00
  2.3655967e-01
  6.3914448e-01
 -1.4590617e+00
 -2.9043200e+00
  5.6108946e-01
 -2.9963130e-01
 -8.7858713e-01
  3.3283079e+00
 -3.6253661e-01
 -1.2131064e+00
 -2.6159201e+00
 -9.0206850e-01
 -1.2759997e+00
 -7.4984437e-01
  1.3122804e+00
 -2.9056852e+00
  3.1496890e+00
  2.5265932e+00
  1.7165791e+00
  4.4523244e+00
  3.9181178e+00
  5.5992734e-01
 -2.3975761e+00
  1.1594439e+00
 -5.1687746e+00
 -1.9161553e+00
  1.0891006e+00
 -1.5197873e+00
  6.0464978e-01
  3.1150508e-01
  4.8556948e+00
  5.9248590e+00
 -4.7835630e-01
 -2.4107468e+00
  5.3350515e+00
 -5.9664947e-01
 -4.8064466e+00
 -1.4345199e+00
  7.6405548e-02
  1.1898763e+00
  3.9240282e+00
  4.8828176e-01
 -4.5928252e-01
  4.5258293e+00
  1.4752402e+00
 -3.7492603e-01
 -3.0805914e+00
 -1.5191435e+00
  1.3186023e+00
 -1.5280490e+00
 -4.8731111e-02
 -1.0029233e+00
 -6.0269022e+00
  7.2719586e-01
  1.9451910e+00
 -7.6949164e-02
 -2.3060098e+00
  5.0074811e+00
  7.9278344e-01
  4.7281870e-01
  6.5959849e+00
  5.6195205e-01
 -4.9455407e-01
  2.5054667e+00
  5.0329967e+00
  5.9348993e+00
  8.7522280e-01
  6.4250865e+00
  5.2470279e-01
 -2.0168338e+00
  6.2941790e-01
 -2.8493268e+00
  1.6100826e+00
  2.9961920e+00
  2.0424991e+00
  2.0115528e+00
  6.7924041e-01
  9.3609476e-01
  2.7261022e-01
  5.9659886e-01
  2.1085153e+00
  9.4329178e-01
  8.3801115e-01
  1.2674983e+00
  5.4758058e+00
  2.8262668e+00
  1.7838969e+00
  1.0044152e+00
 -8.1988996e-01
 -4.8096988e-02
  2.0344883e-01
  3.8316638e+00
  3.3102980e+00
 -5.9285059e+00
  7.8073144e-04
 -2.0628920e+00
  1.9682474e-02
  4.3040643e+00
 -2.6334367e+00
 -7.7393633e-01
  5.0050478e+00
 -2.4006524e+00
  2.2373805e+00
 -5.7621706e-01
  1.6161913e+00
 -6.0669959e-01
  1.3908660e-01
 -2.1834710e+00
 -9.4347978e-01
  1.6227738e+00
 -1.6252649e+00
 -1.7592163e+00
  3.0406027e+00
  5.2096620e+00
  9.3456846e-01
 -2.1884559e-01
  2.2137696e-01
  8.5630226e-01
 -6.8294775e-01
  7.1061933e-01
 -5.3874688e+00
 -1.0935880e+00
  1.9960356e+00
 -1.8094840e+00
  1.9405291e+00
  3.3072710e+00
 -6.0188621e-01
 -2.0127914e+00
  2.4264932e+00
 -4.3315630e+00
  3.7220695e+00
  1.5664712e+00
 -2.2375317e+00
  3.0734994e+00
  1.8545264e+00
  1.4926493e+00
  4.6128264e-01
  1.3130751e+00
 -3.5326428e+00
 -1.0040519e+00
 -1.6655254e+00
 -3.0394292e+00
  7.9271656e-01
  1.7875352e+00
 -3.4020259e+00
  2.9314271e-01
  3.1499505e+00
  2.1084823e-02
 -4.4721460e+00
  3.1643400e+00
 -1.8555835e+00
  9.2523128e-01
  1.4183395e+00
  1.4156406e+00
 -1.4326990e-02
  3.1938760e+00
  1.4668670e+00
 -9.6960086e-01
 -4.5680161e+00
 -8.5428524e-01
  1.4171423e+00
  1.2661428e+00
 -3.0650423e+00
 -9.6814221e-01
 -1.5874712e+00
  1.7224039e+00
 -8.0881625e-01
  3.3927209e+00
 -4.1869044e-01
 -3.1286758e-01
  3.6625998e+00
 -2.3685181e+00
  4.3898182e+00
  3.5641861e+00
 -5.1549459e-01
 -2.5418794e+00
 -3.9618387e+00
 -4.9014753e-01
 -3.3436394e-01
  1.1702284e+00
 -2.6959109e+00
 -1.2949054e+00
  4.1100666e-02
  8.2458615e-01
  1.4686612e+00
  2.4411054e+00
 -3.4334474e+00
 -3.9372847e+00
  8.6505222e-01
  8.7253040e-01
  1.2334337e+00
 -2.5069845e+00
  1.3474016e+00
 -1.0725898e+00
  4.7676161e-02
  2.3294573e+00
 -9.0181965e-01
 -4.8657060e-02
  3.4251616e+00
  1.9411246e+00
 -8.5150003e-01
 -3.0903287e+00
 -3.0777609e+00
 -2.2439711e+00
  1.3633235e+00
  2.3125753e+00
  1.8784425e+00
 -2.1873771e-01
 -4.6845522e+00
  2.1007819e+00
  4.7944851e+00
  5.7711148e-01
 -1.3156126e-01
 -9.6314251e-02
 -1.0640424e+00
 -2.5018373e+00
  4.1399390e-01
  1.3940124e-01
  1.3415315e+00
  3.2048204e+00
  1.1509854e+00
 -2.7797282e+00
 -4.2962626e-02
 -2.0273268e+00
  2.4092364e+00
  1.3225895e+00
  3.0886903e-01
  3.4547460e+00
 -3.2505016e+00
  8.8382286e-01
 -6.1237454e-01
 -1.6416144e+00
  5.1098025e-01
  1.9977766e+00
  9.6940547e-01
  1.0466381e+00
  2.8764179e+00
 -8.0212569e-01
  5.2577138e-01
  4.0049953e+00
 -9.6797988e-02
  2.0649543e+00
 -9.1208655e-01
 -4.7151270e+00
  1.3980573e+00
  2.2553251e+00
 -3.9040968e-01
 -1.7064161e+00
  2.2742162e+00
  2.5606966e+00
  2.4208803e+00
  5.5797577e-01
 -6.7011279e-01
  1.0225947e+00
 -1.2573071e+00
 -2.7898796e+00
 -5.2468276e-01
 -1.3421059e+00
  3.4423325e+00
 -9.4397372e-01
 -5.3353596e+00
  5.8180380e-01
 -7.7011937e-01
  8.2099891e-01
 -2.6791918e-01
  1.5729523e+00
  3.7382376e+00
 -1.6971452e+00
  8.7513232e-01
 -2.3232570e+00
 -2.0021801e+00
  3.3960140e+00
 -1.1440943e+00
  2.8057144e+00
  3.7348378e-01
  1.1249926e+00
 -2.6771015e-01
 -4.3520093e+00
  8.6415797e-01
  1.5632443e+00
  1.8566711e+00
  1.5208895e+00
 -3.8105747e-01
  4.8006277e+00
  4.3821483e+00
 -3.1309199e+00
 -2.5792918e+00
  1.6507895e+00
  3.3068709e+00
 -3.3261409e+00
 -2.0303135e+00
  1.4315511e+00
  4.7651143e+00
  3.2398009e+00
 -1.3813615e+00
 -1.1300968e+00
 -2.7819479e+00
  1.5036657e+00
 -7.9315752e-02
 -2.8277946e+00
 -5.0578517e-01
 -2.7521036e+00
  1.8761876e-01
 -4.1238329e-01
 -9.5300841e-01
  1.3185242e+00
  2.7470195e+00
  1.1558007e+00
  2.2632396e+00
  1.1559327e+00
  1.9437668e+00
 -3.5612164e+00
  1.5499910e+00
 -8.3921742e-01
  2.4000046e+00
 -1.1953810e+00
  2.9620993e+00
 -8.2635343e-01
  6.8837380e-01
 -3.9599994e-01
  3.2636771e+00
 -1.2866304e+00
 -2.2489081e-01
  1.1412737e+00
 -7.7879554e-01
  5.2186143e-01
 -6.1093622e-01
  1.7337003e+00
  2.4354979e-01
 -1.7609427e-02
 -4.1294992e-01
  2.4533663e+00
  1.3484471e+00
  5.0878782e+00
  2.0713966e+00
  1.1763135e+00
 -2.9017222e+00
 -2.2504046e+00
  1.0266315e-02
  2.3042407e+00
 -1.9356209e-01
 -1.7489073e+00
  3.7536619e+00
  6.1096653e-02
  5.4800611e+00
 -1.2977757e+00
  1.4756987e+00
 -1.9563853e+00
 -1.4165754e+00
  6.2804580e-01
  7.2426265e-01
 -1.3222183e-01
  3.8160613e-01
  2.2393622e+00
  2.0523939e-01
 -1.1423466e+00
  6.4268217e+00
  2.3030989e+00
  2.3033864e+00
  6.4701217e-01
  2.7959857e+00
  3.3017733e+00
 -4.5429617e-01
  2.7985892e+00
  2.6397200e+00
 -3.0597168e-01
  1.3890532e+00
  2.3042912e+00
  8.0245441e-01
  1.7192280e+00
  6.9297755e-01
  2.1459386e+00
 -2.9672303e+00
 -1.1218970e+00
  1.8787270e+00
  2.2382321e+00
 -8.3933920e-02
 -3.8816776e+00
  1.5868649e+00
 -6.6764611e-01
 -2.5900292e-01
  8.8318205e-01
  1.8428379e+00
  3.3553855e+00
  8.4484237e-01
 -4.0143791e-01
  2.2272912e-01
  1.6358045e+00
 -3.1051397e-02
 -4.8365455e+00
  7.7189338e-01
  1.4174089e+00
 -9.6965069e-01
  3.0201287e+00
  6.5027556e+00
  1.9716619e+00
 -3.8612598e-01
 -3.6177154e+00
  7.6821911e-01
  2.9306202e+00
 -2.2662704e+00
 -6.4297289e-01
  6.9653130e-01
 -2.3776121e+00
 -5.6049047e+00
 -2.0616553e+00
  4.6713085e+00
 -7.7322042e-01
  1.0501760e+00
 -2.0927007e+00
 -6.7965037e-01
 -6.0009508e+00
 -4.9931931e-01
  2.0408840e+00
  2.6839771e+00
  3.1257596e+00
  1.4022495e+00
  1.9311924e+00
 -1.6120434e+00
 -2.5062516e+00
  3.2044086e+00
 -3.4809041e-01
  3.9275169e-02
 -1.2886560e+00
 -3.1006386e+00
 -5.8808279e-01
  6.4207368e+00
  1.4287112e+00
  2.6407967e+00
 -3.5172372e+00
  6.6995728e-01
  2.9472890e+00
 -2.4768908e+00
  2.5089433e+00
  2.1596986e-01
  3.3767910e+00
 -1.3261064e+00
  1.6438032e+00
 -1.2759061e+00
  2.6005809e+00
 -6.0231274e-01
 -1.4054103e+00
  1.4048533e+00
 -1.0259682e+00
  6.3899457e-01
  6.7975277e-01
  3.6100239e-01
 -2.1278219e+00
 -1.4418708e+00
 -3.4735451e+00
 -1.9174891e+00
 -1.0880460e-01
  4.9010643e-01
 -1.4052373e+00
  2.8931713e+00
 -1.3101940e+00
  2.1848853e+00
  1.1928453e+00
 -1.1838348e+00
 -3.3690593e+00
  3.3536916e+00
 -5.6764859e-01
  2.0552197e+00
  4.9415107e+00
  3.0544553e+00
 -4.4999037e+00
  3.5757141e+00
  2.2795209e-01
 -4.8330104e-01
 -4.9849239e-01
 -1.4364526e+00
 -4.8786712e+00
  5.1177368e+00
  7.4339461e+00
 -4.0186763e-01
 -3.9542983e+00
 -1.7734840e+00
  2.0763743e+00
  1.4554380e+00
  5.1599064e+00
 -4.8069182e-01
  5.3317428e-01
 -6.0977602e-01
  1.8038841e+00
 -1.3222704e-02
  1.2388172e+00
 -7.3827255e-01
  1.6988909e+00
  1.6588076e+00
 -2.9021224e-01
  4.0170441e+00
  5.9199649e-01
  9.3761468e-01
  2.2415018e+00
 -8.8854712e-01
 -1.1844484e+00
 -1.7470829e-01
 -8.1985205e-01
 -2.6091167e-01
 -8.8440394e-01
  1.3192710e+00
  1.4007394e+00
  5.7093773e+00
  5.6704884e+00
 -1.3389051e-01
 -2.9807179e+00
 -1.0284879e-01
 -1.3202008e+00
  3.3689585e+00
  6.5936826e-02
 -1.5929465e+00
 -5.5033460e-02
  1.1798775e-01
 -1.5157825e+00
 -2.2315614e+00
 -4.9010563e-01
  1.1017740e+00
 -1.0642645e+00
  1.2013837e+00
 -3.2292290e+00
 -1.0202724e-01
 -5.2186003e+00
 -8.9221001e-01
  2.7607150e+00
  4.8852582e+00
  3.4554476e-01
  1.1427929e-01
 -1.6018573e+00
 -3.0872073e+00
  4.4872928e+00
  1.8495058e-01
  2.2842405e+00
  3.0647044e+00
 -3.0640358e-01
 -1.3683443e+00
 -1.1320975e+00
  2.1495739e-01
 -8.8634580e-01
 -1.2566735e-01
  1.8527938e+00
 -4.2622852e+00
  4.0800467e+00
 -4.3233190e+00
 -1.9702892e+00
  1.5424322e+00
 -1.2526765e-01
  1.4511672e-01
 -1.0478972e+00
 -4.3596253e+00
  6.6287889e+00
  4.0202856e-01
  9.9297541e-01
  2.4153528e+00
 -5.7858998e-01
 -3.2540135e+00
  2.2285252e+00
 -3.8873551e+00
  2.2214272e+00
  1.5375289e+00
  1.5293013e+00
 -3.2184937e+00
 -1.1492605e+00
 -2.1845369e+00
 -3.5829024e+00
  1.5780445e+00
 -2.2355400e-01
  2.6448054e+00
 -5.2667582e-01
  1.3279287e+00
 -1.8140211e+00
  1.9881001e+00
 -4.3327478e-01
  4.0151867e-01
  2.5213999e-01
  7.5372659e-02
  1.3866695e+00
 -1.5110985e+00
 -2.0553496e+00
  2.6582379e+00
 -1.3802593e+00
 -3.0347652e+00
 -3.4162486e+00
  3.9367807e+00
 -4.4978237e+00
  1.2584319e+00
  3.5238166e+00
 -5.8200586e-01
  3.1355596e+00
 -2.0890741e+00
  3.1610601e+00
  3.8801529e+00
 -4.8171226e-02
  1.4259915e+00
  4.9845156e-01
  9.4317836e-01
  7.8027940e-01
 -8.7731040e-01
  1.5045248e+00
  1.6005282e+00
  2.1635883e+00
  1.9645784e+00
 -3.8785725e+00
 -2.2181749e+00
  9.9390942e-01
 -1.6761547e+00
  5.6606281e-01
 -2.2778828e-01
 -2.7558532e-01
 -1.8948311e-01
 -2.4526923e+00
 -2.1929791e+00
 -1.9462200e+00
 -1.3286079e+00
 -5.1835098e+00
  5.5435166e+00
  1.4280781e+00
  1.1455650e+00
 -2.4289870e-01
  4.7656968e-01
  4.8648748e+00
  2.1903307e+00
 -2.5360997e+00
 -2.8266423e+00
  4.7952223e+00
 -5.5476761e-01
  1.2642155e+00
  2.4083583e+00
  3.1346995e-01
  1.7665009e+00
 -1.7193849e+00
  1.8496748e+00
  7.5994080e-01
  2.3512836e+00
  3.1732647e+00
 -3.0590031e+00
 -2.3880494e+00
 -1.4945599e+00
  1.1977872e+00
  4.4167742e-02
  1.9881850e-01
 -2.6587105e-01
 -2.7175914e-02
  3.4827163e+00
  1.5297370e+00
 -3.5832733e-01
  4.0969908e-01
 -1.8844821e+00
 -2.6356995e+00
 -7.1843851e-01
 -6.3613826e-01
 -1.4463918e+00
 -5.5835927e-01
 -5.3926736e-01
 -3.8790500e-01
  8.3388358e-01
  6.6719279e-03
 -5.5675416e+00
  2.7253647e+00
  2.8047261e-01
 -1.2502068e-01
  9.5483318e-02
  1.5410337e+00
 -2.7201617e+00
  8.5643041e-01
  1.5360534e-01
  2.9769669e+00
 -8.4174764e-01
  1.8591416e+00
  9.5412188e+00
 -1.5839134e+00
 -7.4053580e-01
 -4.1343808e-01
  1.8394207e+00
 -5.7738811e-01
 -9.0679926e-01
 -5.7859844e-01
 -1.1662339e+00
  5.3430767e+00
  3.1696882e+00
 -2.0387332e+00
  3.3710160e+00
  3.5737791e+00
 -5.1842370e+00
  1.4095056e+00
 -4.2858142e-01
  8.4880841e-01
  1.2346451e+00
 -2.8159916e+00
  2.7744701e+00
 -8.4621683e-02
  3.1932738e-01
 -7.0927148e+00
  4.5847974e+00
 -3.0328784e+00
  2.8562635e-01
 -1.3352139e+00
  1.6536889e+00
  2.5281572e+00
 -3.1841121e+00
 -1.5436368e+00
  9.9517393e-01
 -4.9383616e-01
 -2.4353881e+00
  6.6466039e-01
  7.6307738e-01
  1.3038749e+00
  1.6933960e+00
 -1.3913684e+00
 -2.4057577e+00
 -2.7677050e+00
  3.0869930e+00
  1.4393319e+00
 -4.7825980e+00
  1.8348960e+00
  6.4247024e-01
 -6.3860261e-01
 -2.7297544e+00
 -1.0818702e+00
 -2.5688505e-01
  1.6744434e+00
  9.0190804e-01
 -2.7487929e+00
  8.2922661e-01
  8.4739459e-01
 -2.3076284e+00
  3.2167571e+00
  1.0476273e+00
  1.5351939e+00
 -2.1059221e-01
 -1.7132916e+00
 -6.6413027e-01
 -2.8293359e+00
 -5.7590914e-01
 -2.7502251e+00
 -3.1623354e+00
  4.3975514e-01
  1.3344462e+00
 -1.5475940e+00
  1.2341852e+00
  5.7558765e+00
  9.4440943e-01
 -9.3280917e-01
 -2.3390973e+00
  1.7362241e+00
  2.6010396e+00
 -7.4857152e-01
  4.3452460e-01
 -9.8267740e-01
 -2.5857439e+00
 -2.1492288e+00
 -1.0963727e+00
  1.2080896e+00
 -3.1878335e+00
 -3.6909288e-01
 -7.9701924e+00
 -9.1085249e-01
  1.1052758e+00
  1.6692843e+00
  3.7198002e+00
 -1.0479872e+00
 -5.2119403e+00
  2.7401769e+00
  3.2195492e+00
 -9.5352244e-01
 -3.8846838e-01
 -2.0034964e+00
 -5.5317914e-01
 -2.3019960e+00
  2.3787412e-01
 -1.8815315e+00
  5.7657421e-01
  5.2821594e-01
  1.6524315e+00
  2.7017334e+00
 -4.2597189e+00
 -2.0001185e-01
  5.3355273e-02
  2.7258735e+00
 -1.6893109e+00
  4.5528948e-02
  2.1481066e+00
 -2.7344120e+00
  1.1815209e+00
  2.2929468e+00
 -1.1890948e+00
  3.6890905e+00
  1.8878677e+00
 -2.2631744e-01
 -1.4131206e+00
  2.2673128e+00
 -3.7524152e+00
 -2.1194587e+00
 -3.0701542e-01
 -3.1088734e+00
 -2.1773818e+00
  4.7615173e-01
 -2.6757512e+00
  2.1930912e+00
  2.6302519e+00
  2.2840865e+00
  2.1717963e+00
  3.4083793e+00
  7.4227363e-01
  2.6966579e+00
  3.6938686e+00
  1.2366970e+00
 -8.0270666e-01
 -1.8550407e+00
 -4.2606950e-01
 -1.1579739e+00
  3.4829125e-01
  2.2848108e+00
  1.6943429e+00
  9.9580467e-01
  1.7899670e-01
  2.1681027e+00
 -2.3502779e+00
 -2.2966461e+00
  6.4389402e-01
  1.3823049e+00
  1.3138338e+00
  1.2568887e+00
 -3.5981232e-01
 -1.3983722e+00
 -1.7358141e+00
 -5.9246725e-01
  1.8423415e+00
  2.9237626e+00
 -2.6113150e+00
  6.3488278e+00
  1.8989571e+00
 -3.9356880e+00
 -3.4236448e+00
  5.8929723e-02
 -3.3627529e+00
 -3.3928908e-02
  3.2434905e+00
 -2.0199134e+00
  5.4614282e-01
  2.2273374e-01
 -2.2230020e-01
  6.7377478e-01
  3.8008790e+00
 -2.6811209e+00
 -2.0663517e+00
  1.0368477e+00
  1.6101884e+00
  5.4884443e+00
  6.0198516e-01
 -3.5322872e-01
 -8.6677247e-01
  2.7939549e-01
  3.5297010e+00
  2.3391938e+00
 -2.5174940e+00
  3.4577949e+00
 -2.3501080e-01
  2.0526381e+00
 -6.7638910e-01
  9.2485660e-01
  2.9916139e+00
 -4.9940839e+00
 -4.4847326e+00
  2.4287694e+00
 -1.9442016e+00
  5.0340459e-02
 -1.9888577e-01
 -1.1264799e+00
 -1.0722610e+00
 -8.2035506e-01
 -4.0598541e-01
 -2.8900167e-01
  7.1276718e-01
  3.7731285e+00
  2.7508631e+00
 -5.1397127e-01
  1.1763380e+00
  3.5568302e+00
  1.8275197e+00
  4.2810512e-01
 -4.3277440e+00
 -3.4675336e-01
  1.0256302e+00
  9.7741890e-01
  1.4697865e-01
 -1.0913160e+00
  3.4482644e+00
 -3.6044784e+00
  1.8728176e+00
 -2.8610110e-01
 -1.6015193e+00
  4.7388759e+00
 -3.6745894e-01
 -1.0050583e-01
 -3.0310946e-02
 -4.0687257e-01
  3.4376162e-01
  3.3338218e+00
  8.9413387e-01
  4.1352403e-01
 -4.8935834e-01
 -5.5434356e+00
 -1.5252870e+00
 -3.4335618e+00
  7.3130763e-01
 -1.0342171e+00
 -3.7853594e+00
 -2.2066462e+00
  1.4491841e+00
  1.2737367e+00
  3.3097432e+00
 -1.1849540e+00
  8.5310358e-01
  4.6670896e-01
  4.8437657e+00
 -3.1959084e-01
  1.2025319e+00
 -2.9303477e+00
  1.0093422e+00
 -1.0795648e+00
  9.4979852e-01
  2.4898277e-01
 -1.4116344e+00
 -3.1573114e+00
 -1.1645616e-02
  3.3115065e+00
 -9.5512486e-01
 -1.7744536e+00
  1.2907833e-02
  2.2113822e+00
 -9.5860529e-01
 -2.6997232e+00
  2.7948135e-01
  4.2906823e+00
  3.4387655e+00
 -9.6462107e-01
  7.8322595e-01
  2.8373327e-02
 -3.8634374e+00
  6.6070372e-01
  1.1360497e+00
 -4.8919570e-01
 -2.3984592e+00
  8.0331874e-01
 -1.6825700e-01
 -3.9306092e-01
 -1.4982244e+00
  1.4149270e+00
  1.5959826e+00
 -1.3041067e+00
 -5.1531911e+00
 -1.9685483e+00
  5.1993474e-02
 -3.8711131e+00
  2.0120726e+00
  2.1519380e+00
 -4.0415559e+00
  3.1623781e+00
  4.9638569e-01
  9.3709028e-01
  1.9985542e+00
 -3.4996259e+00
  2.7307253e+00
  3.5631754e+00
 -7.2359258e-01
  9.0541434e-01
 -3.2442970e+00
  6.7341930e-01
  1.8754027e+00
 -1.5908197e+00
 -2.2379208e+00
  1.3475969e+00
 -3.2172763e-01
  7.9845917e-01
 -2.8494152e-01
  8.1952506e-01
 -1.7457312e+00
  1.2833109e+00
  2.8282118e+00
 -2.0062861e+00
 -1.1641710e+00
  2.4295232e+00
  8.0482221e-01
  2.5568788e+00
 -3.6302035e+00
 -6.2205029e-01
  2.2100396e+00
  5.1058894e-01
 -1.8805504e-01
  1.8868176e+00
 -1.9736470e+00
  4.8199983e+00
  1.6500063e+00
 -4.6879745e+00
 -1.1095868e+00
 -1.1614180e+00
  1.4619585e+00
 -1.1313424e+00
 -2.9959736e+00
 -1.7608203e+00
  3.4484935e-01
  4.0942022e-01
 -2.3031406e+00
  8.4589809e-01
 -2.2665739e+00
 -4.7262225e+00
  9.9827075e-01
 -2.9769902e+00
 -3.0999589e+00
 -7.9399329e-01
 -7.3516673e-01
 -4.5000620e+00
 -3.2516422e+00
 -4.4345775e+00
  2.8226466e+00
 -2.4057491e+00
 -6.5448132e+00
 -3.4444525e+00
  3.1209438e+00
 -2.8085995e+00
 -2.3563001e+00
 -2.9648619e+00
 -4.0578690e+00
 -2.9569457e+00
  5.9566802e-01
 -1.7987050e+00
  7.9187089e-01
  1.2002004e+00
 -7.1259212e-01
  3.4457703e+00
  1.2896638e+00
  3.5437913e+00
 -5.1283779e+00
  2.7688944e+00
  1.6034118e+00
 -3.8845855e-01
 -2.7593362e+00
  1.8322870e+00
 -2.9318464e+00
 -3.2295698e-01
  3.6026698e-01
 -1.6972519e+00
  4.2991743e+00
 -2.8008480e+00
  6.0774245e+00
  1.5471178e+00
  2.5564623e-01
  2.8583505e+00
  1.1786220e+00
 -3.4752915e+00
  2.4253395e+00
  3.2690561e-01
 -6.0317075e-01
  5.7426697e-01
 -2.9531652e-01
  9.0675014e-01
  2.6729753e+00
  1.4818521e+00
 -2.3392203e+00
  5.8361733e-01
 -1.1373787e+00
  9.3043786e-01
  3.8287625e-02
  7.0808834e-01
  2.5586839e+00
 -3.5538247e+00
  1.7502677e+00
  4.5673800e-01
 -2.6827896e+00
  2.5580974e+00
  4.4079757e+00
  4.9332895e+00
 -5.9379828e-01
 -2.8062358e+00
 -3.9044055e-01
  1.4890040e+00
 -7.7649713e-01
  7.1461493e-01
 -6.9894207e-01
 -3.9949232e-01
  1.9502458e-01
 -3.1214523e-01
  1.0634048e+00
  4.1208044e-01
  5.7827550e-01
  1.4563413e+00
  6.4519334e-01
  2.4583979e+00
 -1.0181396e+00
 -8.9188662e+00
  4.0343368e-01
  8.5932389e-02
 -2.1193296e-01
 -5.0248995e+00
 -1.3525298e+00
  2.5000322e+00
  7.5160527e-01
 -1.2413336e+00
  5.1785499e-02
  2.6101513e+00
 -1.3215806e+00
 -9.6439922e-01
  4.1099539e+00
 -1.6123059e+00
 -3.0196919e+00
  2.2784834e+00
  8.8201302e-01
 -1.9318827e+00
  9.5050311e-01
  6.2674665e+00
  7.0345306e-01
  1.4755000e+00
 -2.4367537e+00
 -8.7994641e-01
 -1.9941704e+00
 -2.6016562e+00
 -1.6934081e+00
  8.1365132e-01
 -2.4892068e+00
  4.4432747e-01
  6.0858536e-01
  1.6868018e-01
  6.3380200e-01
  1.7703632e+00
 -2.5844254e+00
 -1.3971106e+00
 -1.1782417e-01
 -1.6394579e+00
  9.6220672e-01
 -3.2734277e+00
 -1.3852757e+00
  3.5279384e-01
  2.7564404e+00
 -5.4400325e-01
  6.2701993e+00
  1.0995376e+00
  2.8691125e+00
  4.9226475e+00
  1.6372790e+00
 -2.1935954e+00
 -2.5467334e+00
 -3.3940870e-01
  1.0276749e+00
  1.2783308e+00
 -2.1258836e+00
 -9.6825558e-01
 -2.4853508e+00
  4.3284631e+00
 -1.2492906e+00
 -1.3111920e+00
 -5.1522398e+00
  2.3095806e+00
 -3.4296403e+00
 -7.8854597e-01
  2.2728546e-01
 -4.5987444e+00
  3.0758592e-01
 -1.3126036e+00
  6.8605036e-02
  5.7919568e-01
 -1.6833065e+00
 -1.1904614e+00
  1.5766259e+00
 -2.3892992e+00
  6.1811817e-01
 -2.5156385e-01
  2.2630911e+00
  1.7230150e+00
  2.3901558e+00
 -2.5500941e+00
 -2.3228967e+00
  1.1061144e+00
 -5.2617407e-01
  3.8040998e+00
  3.7183952e+00
  5.3043342e+00
  1.3247188e+00
  2.9609296e+00
 -3.4518869e+00
 -4.6176454e-01
  3.7632282e+00
 -3.0738134e+00
 -4.5305338e+00
 -4.7696910e+00
  2.0764651e+00
  3.4919477e+00
 -6.8203902e-01
  5.8755388e+00
  3.0686655e+00
 -2.9403467e+00
  1.7062764e+00
  1.4018611e+00
  1.1435181e+00
  2.0468163e+00
 -8.9962173e-01
  2.0345757e+00
  2.5923014e+00
 -2.9997530e+00
 -2.8418262e+00
  2.6104963e-01
  2.6526926e+00
  1.6699444e+00
 -3.8868949e-01
  1.0853109e+00
 -3.6345631e-01
 -4.7758369e+00
  2.6898313e+00
 -2.9730666e-01
  1.3364158e+00
  7.9651284e-01
 -2.7253002e-02
 -9.5144337e-01
  4.4005651e+00
  8.6035633e-01
  3.3878186e+00
  9.7694165e-01
  9.6588063e-01
  2.2826476e+00
  3.2695534e+00
 -3.3392844e+00
  8.9549655e-01
  5.3756082e-01
 -3.9098485e+00
 -6.7819887e-01
  4.0489907e+00
 -1.3038348e+00
 -3.8518085e+00
  1.4882599e+00
 -3.1584477e-01
 -1.3131634e+00
 -1.2598947e+00
 -2.9601109e+00
  4.0258804e-01
  6.3298559e+00
  2.5850053e+00
  1.4007021e+00
  1.8245044e+00
 -1.0944734e+00
  2.5056014e+00
  2.3274891e-01
  7.2114873e+00
 -1.7654144e+00
 -5.9577340e-01
 -1.3180013e+00
  7.7931696e-01
 -1.1885762e+00
 -7.5137269e-01
 -5.2347302e-01
 -3.6330569e-01
 -3.6341599e-01
 -1.3669745e+00
  9.5272785e-01
  2.3726583e+00
  3.4418242e+00
  8.3090508e-01
  1.3797286e+00
  2.6841158e-01
 -2.5188646e-01
  2.1847072e+00
 -2.0693915e+00
  2.3072670e+00
 -1.6053725e+00
  2.5437100e+00
  3.6044991e+00
  5.1879492e+00
  1.8528018e+00
  1.3949112e+00
  2.3959205e+00
  2.2053587e+00
 -6.2552166e-01
  2.9563811e-03
  7.7503490e-01
 -3.8675408e+00
 -3.0579746e+00
 -6.4347506e-01
 -2.4143739e-01
  1.3514435e+00
  2.7423582e+00
 -2.2089596e+00
  2.8396914e+00
  5.4370087e-01
  1.9575137e+00
  2.3425660e+00
 -1.4640687e+00
 -5.0328004e-01
  8.3708370e-01
 -1.3762264e+00
 -1.4668900e+00
 -1.5939656e+00
  2.1023331e+00
 -1.9626671e+00
 -4.5914851e-02
  2.4367735e-01
 -2.2336910e+00
  5.0519142e+00
  6.8667543e-01
 -4.5076737e-01
  6.2824547e-01
 -2.1963315e+00
 -8.8826287e-01
  1.7367438e+00
 -9.3539411e-01
 -2.9971581e+00
  1.7158681e+00
  1.3356640e+00
 -1.7919344e+00
 -2.7373692e-01
 -1.6721184e+00
  6.3734422e+00
 -1.0683638e+00
 -4.7040430e-01
 -4.3821263e+00
 -4.3969598e+00
  3.5146651e+00
 -2.4733356e-01
  2.0505159e+00
  7.1870124e-01
  3.0664527e-01
 -2.1382177e+00
  7.1362442e-01
  3.1074586e+00
  1.0374756e+00
  1.2501136e+00
 -1.3931955e+00
  1.1569135e+00
 -5.2500725e-01
 -3.0052862e+00
 -9.5086616e-01
  2.8482299e+00
  4.5117145e+00
  3.0415287e+00
  5.7756815e+00
  3.5150620e-01
 -8.8998812e-01
 -7.7240491e-01
  1.1473064e+00
  3.6454835e+00
  3.5076115e+00
  2.1222949e-01
 -1.2066541e-01
 -1.3468549e+00
 -2.0706773e+00
 -4.3049312e+00
  1.7451181e+00
 -5.8016014e+00
 -3.3357904e+00
 -3.9435952e+00
  3.4894362e-01
 -2.4748868e-01
 -3.8987920e-02
 -8.1147444e-01
 -1.9940593e+00
 -2.3582687e+00
 -3.8545578e+00
 -3.3623222e-02
 -3.5152771e+00
 -1.5042156e+00
 -1.5837404e+00
  3.5220866e+00
  3.1264129e+00
 -2.2236755e+00
  4.4485984e+00
  1.8487751e+00
  2.5833073e+00
  1.5379817e+00
  1.1139675e+00
  9.8803443e-01
 -2.4727871e+00
  3.9378762e+00
 -2.6201169e+00
  1.1017418e+00
  2.4059322e+00
  5.2147663e-01
 -1.5254956e+00
 -1.4582896e+00
  9.0787429e-01
 -3.4564510e-01
 -4.4897294e+00
 -1.3987622e+00
  4.5499599e-01
 -8.4093279e-01
 -2.5971634e+00
 -5.6684699e+00
  2.5828223e+00
  4.8893590e+00
 -1.5847325e-01
  3.1182092e-01
  1.6998305e+00
 -3.8862917e+00
 -2.9777048e+00
  1.9507073e-03
  1.4982542e+00
 -2.8017042e+00
  9.8121965e-01
 -8.5310824e-02
  3.6463416e+00
 -4.2701185e-01
 -4.6929717e-01
  2.0305090e-01
  1.6052513e+00
  3.2152138e+00
  2.3028638e+00
  3.4362781e+00
  2.4555988e+00
  9.3040824e-02
 -1.3670901e+00
 -2.0422783e+00
 -5.2387148e-02
 -2.1458583e+00
 -3.0240874e+00
 -1.3361135e+00
  1.1340250e+00
  2.1638556e+00
  2.1512377e+00
  4.1416211e+00
 -1.7329894e+00
  9.0047044e-01
  1.2325236e+00
  1.4924508e-01
 -7.0265287e-01
  5.2977562e-01
  9.2555285e-02
  2.9984200e+00
 -3.4343319e+00
 -1.4725635e+00
 -2.9698851e+00
  9.6239257e-01
  1.3033608e+00
  3.4297767e+00
 -1.2792407e+00
  5.5670280e+00
  6.1056747e+00
 -2.7836743e-01
  2.8098261e+00
 -3.3688560e-01
  4.8267531e-01
 -1.6117726e-01
 -2.1912280e-01
 -1.2809844e-01
 -8.5037482e-01
  3.4308202e+00
  1.6708820e+00
  2.0915637e+00
 -4.2125928e-01
 -1.6264802e+00
  1.3219585e+00
 -6.0970461e-01
 -2.1855142e+00
  3.7657627e-01
  7.5078785e-02
  3.7533717e+00
  1.9174882e+00
  7.9322302e-01
 -2.8836930e-01
 -4.2216520e+00
  2.4661856e+00
 -2.5113609e+00
 -3.2275395e+00
  3.3111970e+00
  1.2245038e+00
  8.8790560e-01
  4.3205128e+00
 -4.0659982e-01
  4.8175750e+00
  2.0437799e+00
  2.3010461e+00
 -4.2743917e+00
  2.9346440e+00
 -1.0453973e+00
  2.3169909e+00
  1.5922419e+00
  4.6516806e-01
 -9.0791464e-01
 -2.7450635e+00
  9.3515337e-01
 -2.2860503e+00
  4.9801067e-01
  6.9505411e-01
  5.7880826e+00
 -1.6277202e+00
 -2.8107839e+00
 -2.2545259e+00
  1.3769886e-01
  5.5961676e-02
 -7.4070352e-01
 -1.3536580e+00
 -2.2585752e+00
 -2.1767590e+00
 -2.5615685e+00
 -1.9370784e+00
  7.8004313e-01
  3.5015314e+00
  4.4337082e+00
  7.7652448e-01
 -2.8281462e+00
  2.6953042e+00
  1.0104562e-01
 -8.0989844e-01
  1.2218699e+00
 -2.1942231e-01
  1.1372616e+00
  6.6072941e-01
 -4.8320690e-01
 -3.2459209e+00
 -3.7676411e+00
 -1.6427596e+00
 -2.7606537e+00
 -4.1699128e+00
 -1.5117387e+00
  2.1025283e+00
  3.4787600e+00
 -5.1269274e+00
 -6.0575432e-01
 -3.1631273e-01
  1.2084911e+00
  2.3214571e+00
 -1.3037907e+00
  2.8414698e+00
 -7.8753483e-01
  9.5557660e-01
 -1.3506222e+00
  1.3475136e+00
 -3.4331453e+00
 -1.2872547e+00
 -2.9228354e+00
  1.2974415e+00
 -8.8895667e-01
  1.3464648e+00
  3.8340240e+00
  1.2055146e+00
  4.6984468e+00
  1.2626276e+00
 -2.2549804e-01
 -5.0373492e+00
 -2.6100451e-01
  3.8985817e+00
 -5.5883545e-01
 -1.0550855e-01
  2.7439294e+00
 -5.7007188e-01
  2.3385868e+00
  1.8208658e+00
  2.1679366e+00
  1.8151137e+00
 -4.1742432e-01
 -2.6151922e+00
  1.6907374e+00
 -1.8863361e+00
 -1.0737989e+00
  4.8744190e-01
  2.5146928e+00
  7.2718829e-01
 -1.3182422e+00
 -5.4192446e-02
  2.7036235e-02
  5.8481556e-01
  8.8264304e-01
  7.1060290e+00
 -3.4409761e-01
  1.7540886e+00
  1.7182839e-01
  4.1308589e+00
 -4.1914159e-01
  3.8656968e-01
 -1.9140818e+00
 -2.5965416e-01
  3.9544828e+00
 -9.8491907e-03
  4.3080111e+00
 -2.1347802e+00
 -1.2834301e+00
  3.3210046e+00
  1.0442055e+00
 -5.2297074e-01
  1.8262184e+00
  1.6210439e+00
 -2.6166017e+00
 -7.5567263e-01
 -8.4856504e-01
  5.5570579e-01
 -5.2007766e+00
 -3.9017732e+00
 -6.6882420e-01
  2.1168101e+00
  2.2422061e+00
 -3.2873052e-01
  2.0358560e+00
 -2.2665045e+00
  4.1399598e+00
  8.6046124e-01
  1.4708111e+00
 -1.3416194e+00
 -5.5330119e+00
  1.4805567e+00
 -1.1819289e+00
 -1.2128667e+00
  1.7383975e+00
  4.1492376e+00
 -9.9238658e-01
 -2.0741732e-01
  1.4672989e+00
 -1.3384764e+00
 -4.7203982e-01
  1.2285081e+00
  4.2086282e-01
  4.8827615e-01
 -4.4355364e+00
 -1.0152125e-01
  4.9635071e-01
 -4.6530495e+00
 -5.3056993e+00
 -1.1502420e+00
  6.1965562e-02
  3.3756645e+00
 -2.8569776e-01
 -1.1226217e+00
 -4.7144585e+00
 -3.0168302e+00
 -1.3718125e+00
  2.3760009e-01
  3.9503276e+00
  3.0870068e+00
 -1.0914191e+00
 -1.9348637e+00
 -1.8806145e+00
 -2.0566732e-03
 -3.7598498e+00
 -4.3427367e+00
 -4.9439293e-01
 -8.0474055e-01
 -1.9469517e+00
  8.0524474e-02
 -3.1328990e+00
 -2.6612568e+00
  3.1378978e-01
 -9.8514371e-02
  1.1612297e+00
 -6.6957283e-01
  3.3988953e+00
 -3.7521371e-01
 -3.8276937e+00
 -2.4008527e+00
 -4.0395608e+00
 -2.2594333e+00
 -3.8267680e-02
  7.0808578e-01
 -3.1062799e+00
  4.6237817e+00
  5.9614158e-01
 -7.7863014e-01
  4.0734038e-01
  7.9773581e-01
 -9.7786695e-01
  2.5524545e+00
 -1.3262749e-01
  3.8806193e+00
  1.5233443e+00
 -2.9052460e-01
 -4.4657178e+00
 -3.4233570e-01
 -4.3062668e+00
 -2.1297636e+00
  1.0260209e+00
 -2.7749971e-01
  1.9607774e+00
  1.4858245e+00
 -5.2190232e-01
 -4.2188227e-01
 -4.7493961e-01
 -4.8690300e+00
  3.5482147e+00
  4.0622371e-01
 -5.0346413e+00
 -3.3174207e+00
  5.7883406e-01
 -3.8946319e+00
  3.9822958e+00
  1.4439826e+00
 -1.2321427e+00
 -3.5717108e+00
  1.6936569e-01
 -3.4054559e-01
 -4.9498034e+00
 -3.7963519e+00
  5.7882011e-01
 -2.0391164e+00
 -7.3427403e-01
  1.0660511e-01
 -1.9673865e+00
  6.5171385e-01
  4.8533723e-01
 -1.0137688e+00
 -2.1569881e-01
  2.2208452e+00
  2.2825520e+00
  1.1095304e+00
 -3.9488792e+00
  1.7819246e+00
  2.4120622e+00
  3.0411559e-01
  1.1470941e+00
 -9.1900915e-01
 -3.5344848e-01
  3.1320465e+00
  1.8886003e+00
  3.9027207e+00
 -1.9469943e+00
  6.3227177e-01
  3.3569171e+00
  1.1311964e+00
 -6.2115984e+00
  3.4162910e+00
 -1.0356345e+00
 -2.8928943e+00
  1.5530804e-01
 -2.8182654e+00
  2.2168741e+00
 -1.9689414e-01
 -3.1809227e+00
 -2.1777973e+00
  1.6529326e+00
  2.0274148e+00
  2.0601428e+00
 -1.6011953e-01
 -1.8173554e+00
  3.9888744e+00
 -6.2513727e-01
 -4.3240905e+00
  1.9075117e+00
 -2.2513959e+00
 -7.4644029e-01
  2.1916742e+00
 -1.3513291e+00
 -4.8894377e+00
 -3.4818661e+00
  4.3312365e-01
 -7.1763582e+00
  2.9718524e-01
 -4.7372036e+00
 -2.8557141e+00
 -1.6470295e+00
 -4.6068759e+00
 -3.0752006e+00
 -5.0796566e+00
  3.5987282e+00
  2.1053479e+00
  3.3438332e+00
 -6.5891582e-01
 -1.4097266e+00
 -5.6849933e-01
 -4.7296128e-01
 -7.6748982e-02
  3.9961975e+00
 -5.1783757e+00
 -2.1752653e+00
  3.6246839e+00
 -1.2131585e+00
  1.3296369e-01
  1.4762357e+00
 -3.7224932e+00
 -3.1296341e+00
 -1.5325236e+00
  2.0262289e+00
 -7.9182905e-01
  2.3135532e-01
  1.8058933e+00
 -9.8709023e-01
  1.0650711e+00
  8.4295928e-01
 -1.3513847e-01
  1.1730788e+00
 -1.2040370e+00
  5.9637374e-01
 -3.6868411e-01
 -4.7027519e-01
 -1.6878254e+00
 -4.6006709e-01
  8.2576561e-01
 -7.0815498e-01
  3.0497336e-01
  4.9588479e-02
  1.2638711e+00
  2.0933983e-01
  2.7712789e-01
  1.0200626e-01
 -6.4164817e-02
  1.9857705e+00
 -1.9410411e+00
 -1.4722441e+00
  1.7577550e+00
 -4.8240244e-01
  2.7276847e-01
  1.5416501e-02
 -1.3672677e-01
 -1.0547614e+00
  9.7336248e-03
  6.0214292e-02
 -9.8997635e-01
 -2.9930103e-01
  5.0538383e-02
  1.3650299e+00
  1.6174141e-01
  1.7383908e+00
 -7.3272389e-01
 -4.9031746e-01
 -1.6854858e+00
  6.4275014e-01
 -4.4258777e-04
 -1.6707649e+00
 -5.4269421e-01
  9.6364278e-01
  2.0280059e-01
 -1.3550426e+00
  3.6280498e-01
 -3.6931479e-01
 -4.8828822e-01
  1.2461238e-01
 -3.8316267e+00
  5.4139872e+00
  2.9590111e+00
 -2.8896251e+00
 -1.3080178e+00
  5.0121701e-01
 -7.8342244e-02
 -2.3915291e+00
 -9.1715109e-01
  1.6550734e+00
 -3.0651689e-03
  1.6346291e-02
  2.2888355e+00
 -4.6610703e+00
  1.1369354e+00
 -4.9109158e-01
 -2.6402311e+00
  2.8566211e-02
 -1.5806974e+00
  3.9469092e+00
  1.1421721e+00
 -3.6251199e+00
 -5.6533372e-01
 -2.2865909e-01
  1.8777453e+00
 -2.5353553e+00
 -2.8038526e+00
  3.6107368e+00
  1.9059498e+00
  2.8611765e+00
 -8.3229524e-01
  6.8109875e+00
  5.3259664e+00
 -1.0749135e+00
 -6.6169983e-01
 -2.8477283e+00
 -3.6087844e+00
  2.7515182e-01
  1.8913167e+00
  8.0544865e-01
  2.3739512e+00
 -1.3541801e+00
 -1.6128373e+00
 -2.4125793e+00
 -5.0057673e-01
  3.7583766e+00
 -9.8502916e-01
 -1.6916609e+00
 -3.7921479e+00
 -5.0914556e-01
 -2.9196839e+00
  2.4887667e+00
 -4.9593633e-01
  2.7967193e+00
 -1.3646479e+00
  1.6699980e+00
  5.5835468e-01
  2.0579395e+00
 -4.4834080e-01
  5.6306010e-01
  9.9106187e-01
  1.3721944e+00
 -2.6226323e+00
  3.6135906e-01
 -1.4514678e+00
  3.9389126e+00
 -6.6635817e-01
  4.4811833e-01
  3.5386270e-01
 -4.5346153e-01
 -3.5828834e+00
 -1.1523091e+00
 -7.6390541e-01
 -2.2557781e+00
 -2.9194877e+00
 -4.4531164e-01
  3.7999389e-01
  5.1283255e+00
  2.7186048e+00
  1.2199888e+00
 -3.4947717e+00
 -2.3021929e+00
  2.0878177e+00
  3.5958488e+00
 -8.3394785e+00
  8.7816417e-01
 -3.2345316e-01
  7.6686227e-01
 -4.1539901e-01
 -2.1349576e+00
 -3.9126885e-01
  1.0643039e+00
  2.5975413e+00
  1.9416673e-01
  7.7384567e-01
  2.4679697e+00
  2.7305722e+00
 -2.0824845e+00
  1.3749036e+00
 -1.2226951e+00
  3.3799200e+00
  2.2751327e+00
 -4.2561871e-01
 -3.6719429e-01
  2.7778466e+00
  1.1323514e+00
 -1.9260702e-01
  7.2718477e-01
 -5.2967265e-02
 -1.9196411e+00
 -1.1244266e+00
 -4.4015927e+00
  1.9892277e+00
  8.1642449e-01
  2.5085628e-01
  8.9567119e-01
 -1.1706896e+00
  2.9863019e+00
  3.7749505e+00
  7.9329127e-01
 -3.8026246e-01
  4.6044311e-01
  1.8691251e+00
 -3.6009316e+00
  3.1507063e+00
  2.9386597e+00
 -9.1318119e-01
 -1.1917477e+00
  7.3131877e-01
 -1.9291146e+00
 -2.0992305e+00
 -4.4289351e+00
 -3.5176890e+00
 -3.2539182e+00
 -6.0546503e+00
 -1.9419252e+00
 -4.8660082e-01
  9.8062116e-01
  1.4094648e+00
 -1.7411712e+00
 -1.1149098e+00
 -3.4478688e+00
  3.8151366e-01
 -1.0257693e-01
  1.1885082e+00
 -2.1298242e+00
  2.8724313e+00
 -8.0842340e-01
  3.4178832e-01
 -1.2324702e+00
  2.6086094e+00
 -4.2684117e-01
 -1.2150834e+00
 -2.4342680e+00
 -1.6692367e+00
 -1.7867492e+00
 -1.2635317e+00
 -2.0480484e-01
 -6.1629730e-01
  1.0416496e+00
  1.1928980e+00
  2.8443215e+00
  2.6456714e+00
  7.8852159e-01
  4.6193862e-01
 -2.3310871e+00
  9.2885189e-02
  2.1850653e+00
 -1.3666273e+00
  2.5324275e+00
  8.5763998e+00
 -3.1191928e+00
 -2.8887758e+00
  1.0836906e+00
 -7.1431106e-01
  5.1328504e-01
 -3.1377399e+00
  6.4490789e-01
  3.1750820e+00
  1.3456812e+00
  7.8645509e-01
  1.4659994e+00
 -3.5373822e-01
 -1.7950330e+00
  2.2068453e+00
 -1.8283126e-01
 -4.0746921e-01
  3.1394944e+00
  1.0649055e-01
 -7.8764462e+00
 -2.5913427e+00
 -2.5914426e+00
 -4.4847341e+00
 -9.8799115e-01
 -6.9758457e-01
  1.9522171e+00
  2.7346697e-01
 -2.7581575e+00
 -5.8619273e-01
  1.0095588e+00
 -6.6938887e+00
  4.4360147e+00
 -3.2670605e-01
 -5.2793331e+00
  1.1877624e+00
 -4.6330395e+00
  1.3921232e+00
  2.7254908e+00
 -1.2077309e-01
  1.0036721e+00
  7.3139229e+00
 -1.5445117e+00
  5.4278526e+00
  3.0259674e+00
 -7.2168195e-01
 -2.9448378e-01
  7.5880151e+00
 -1.8149508e+00
  1.7109182e+00
 -1.0127232e+00
 -3.4484190e-01
  1.5126959e+00
 -5.5741868e+00
  2.3571844e+00
 -2.8785586e+00
 -6.8575644e+00
 -1.0809858e+00
  5.1454034e+00
  1.6295129e+00
  1.8753700e+00
  1.1167013e-01
 -1.8085796e+00
 -1.3329103e+00
  4.8737111e+00
  1.2862072e+00
 -1.4034950e+00
 -2.2436182e+00
 -5.5112171e-01
 -6.6297525e-01
  8.9647478e-01
  3.7228730e-01
 -2.4054854e+00
 -5.6394273e-01
  2.0143633e+00
 -8.5605673e-02
 -1.0891360e+00
  2.9656007e+00
  6.3682830e-01
  7.6783216e-01
  4.3461251e+00
  3.5464742e+00
 -1.5971394e-01
 -2.9587338e+00
 -2.2694323e+00
 -1.0400742e+00
  1.0737357e-01
 -2.4592378e+00
  3.7845305e-01
  1.8515154e+00
 -1.9418565e+00
  1.2213079e+00
 -1.4792827e-01
 -1.0915103e+00
  1.7671720e+00
 -1.2464490e+00
  5.7809222e-01
  1.3753195e+00
 -1.3691583e-01
  3.4057369e+00
 -3.1502471e+00
  3.3598220e+00
  1.2805685e-04
 -3.2102418e+00
  3.6515480e-01
  5.9532118e+00
 -2.6695158e+00
 -3.0634391e+00
 -5.3435721e-02
 -1.2828652e+00
 -1.1064696e+00
 -2.2744808e+00
 -8.8027388e-01
 -6.0937953e-01
 -3.7864380e+00
 -3.6492665e+00
 -4.2902818e+00
  2.8276250e+00
  1.4898133e-01
  8.4362879e+00
  2.2031920e+00
 -1.2127765e+00
  1.9163446e+00
 -5.9564859e-01
  3.1726658e-01
 -2.8224561e+00
  2.5577085e+00
 -4.1605699e-01
 -6.1841822e-01
  1.8318058e+00
 -2.6675971e+00
  9.5354313e-01
  6.8355745e-01
  2.1756239e+00
  2.2762744e+00
  2.4435931e-01
 -7.4488735e-01
  1.2575749e-01
  6.9956464e-01
 -4.4961090e+00
 -2.9676196e-01
 -2.2394693e+00
  1.6912772e-01
 -1.8071033e+00
 -1.2074333e+00
  4.7155672e-01
 -2.8481021e+00
  2.3495622e+00
  1.2995647e+00
  6.4333239e+00
 -6.1975402e-01
 -1.8980937e-01
  3.1869438e+00
  5.7551150e+00
 -7.1151310e-01
  1.0907180e+00
 -7.2673553e-01
  1.3184639e+00
 -2.9016095e-01
  2.5529024e-01
 -9.8321420e-01
  9.1416264e-01
  4.5992526e-01
  9.7618937e-01
  2.2820697e+00
 -7.4943411e-01
 -3.1871269e+00
  1.8501967e+00
  6.2780249e-01
 -2.4134550e+00
  1.5842502e+00
 -4.4292312e+00
  3.2591770e+00
  1.1070018e+00
 -1.0990764e+00
 -2.5897369e+00
  2.4548397e+00
 -4.2475984e-01
  2.7796965e+00
  1.0228354e+01
  1.6028383e+00
  1.0390834e+00
  2.1081533e+00
  2.3972058e+00
 -6.4751887e-01
  1.7157840e+00
  4.9016547e-01
  1.0816585e+00
  1.3165501e+00
 -1.1099766e+00
  8.7979251e-01
  1.5395296e+00
 -6.0683793e-01
 -1.0621660e+00
  1.8875945e+00
 -2.8928306e+00
 -1.0740335e+00
 -1.6906400e+00
 -1.2839488e+00
  3.5965512e+00
 -3.4408331e+00
  2.0921731e+00
  1.0512340e+00
 -8.7049976e-03
  3.2641678e+00
 -2.6303768e+00
 -4.4561310e+00
 -8.9499128e-01
  2.5801229e+00
 -1.6621654e+00
 -2.9708738e+00
  6.7161697e-01
 -1.2522523e+00
  3.0943089e+00
 -3.2796001e+00
 -5.0261354e-01
  1.2202593e+00
 -6.4380145e-01
 -3.1126165e+00
 -2.7455175e+00
 -1.7573777e+00
 -4.5007133e-01
 -1.0207958e+00
  1.6967503e+00
  3.0669608e+00
  3.7971392e+00
 -3.1174991e+00
 -1.1398426e+00
 -3.6030221e-01
  2.4696119e+00
 -2.2152212e+00
 -2.5294702e+00
  1.8840743e+00
  3.6739237e+00
 -6.8215084e-01
 -2.3531930e+00
  1.4523355e+00
 -6.0086334e-01
  1.1998166e+00
 -1.7632672e+00
  2.2130218e+00
  3.5894749e+00
  2.9108205e+00
 -1.0409021e+00
  7.4784085e-03
  3.6531241e+00
  4.4106543e-01
 -3.4854598e+00
 -3.7967973e+00
 -3.8559341e-01
 -2.5540044e+00
 -3.9463380e-01
  1.8542906e+00
 -1.1542189e+00
  1.4644486e+00
  3.0425026e+00
  2.4156134e+00
 -2.4746103e+00
  1.4219215e+00
  6.2436378e-01
  1.0934796e+00
 -3.9803248e-02
  2.6278894e+00
  2.4612756e+00
  3.2299142e+00
 -1.7855540e-01
  3.8885915e+00
 -2.3339477e+00
 -1.4979343e-01
 -2.8612452e+00
  4.8954654e-01
  2.0652931e+00
  3.6303942e+00
  3.8524780e-01
 -6.7901969e-01
 -3.7068706e+00
  1.4509939e+00
  1.3601680e+00
  1.9062647e-01
  3.2699165e-01
 -1.9057760e+00
  2.3981208e-01
 -5.0139904e-01
 -9.4692871e-02
 -4.7557563e-02
 -1.5402206e+00
 -1.9342173e+00
  3.6529958e-01
 -2.9930298e+00
  2.8850019e+00
 -8.2688653e-01
  2.8437254e+00
  2.6123936e+00
 -3.8756685e+00
  5.3074449e-02
 -3.4614699e+00
  4.8964744e+00
 -2.3747280e+00
  3.3601320e-01
  5.9982270e-01
  6.5226851e+00
 -2.9935997e+00
  1.9554961e+00
  4.7837749e+00
  2.1056824e+00
 -2.8589237e+00
  1.4869037e+00
 -1.6458027e-01
 -5.6292629e-01
  1.3420376e+00
  4.6262841e+00
  1.5753280e+00
  1.1309705e+00
  2.9717312e+00
 -8.2489860e-01
 -1.2456396e+00
 -1.5373147e+00
  6.8250543e-01
 -8.3801289e+00
  3.0351020e-03
 -1.8709708e+00
 -7.5175442e-02
 -1.9336969e+00
  3.2769623e-01
  2.2818246e+00
 -3.9116338e-01
 -3.1239820e-01
  1.4912738e+00
 -3.1839684e-01
 -4.2081991e-01
  1.8857203e+00
  2.9789346e-01
 -1.3996719e-01
  6.4590603e-01
 -1.2433130e+00
  1.8319755e+00
  1.6402549e+00
 -1.4672370e+00
  1.3011371e+00
  6.3045400e-01
  8.2572496e-01
 -1.7146946e+00
 -4.2024913e+00
  1.9080017e+00
 -1.8877789e+00
  1.4636087e+00
  2.3773286e+00
 -8.2943255e-01
  1.1167278e+00
 -4.8007137e-01
  3.7824002e-01
 -9.8771381e-01
  4.3143070e-01
  5.8419752e+00
 -1.4418498e+00
 -2.3841414e-01
 -1.2069120e+00
 -7.4576342e-01
  8.7074709e-01
 -5.9620142e+00
  2.2509201e+00
 -3.6441987e+00
 -2.3557106e-01
 -8.0998164e-01
 -1.7817677e+00
 -6.9156480e-01
  9.9495888e-01
  1.8161154e-01
  1.0594213e+00
  1.1972890e+00
  5.0957769e-01
  1.7668766e+00
 -1.7657970e+00
 -1.5155491e+00
 -3.3516905e+00
 -2.6731232e-01
  6.6545480e-01
 -4.5027089e+00
 -3.1931469e+00
 -9.0396082e-01
 -1.2501558e+00
  2.3172560e+00
 -2.1068277e+00
  2.1787331e+00
  1.1258307e+00
  5.6507297e+00
  1.2098724e+00
 -1.4979230e+00
  6.8447983e-01
 -1.1163153e-01
  4.5893912e+00
 -9.7757685e-01
 -8.2858428e-03
  1.5610592e-01
  2.6955411e+00
  2.1317914e+00
  6.1963053e+00
  4.0388468e-01
 -1.1931800e+00
 -1.8795161e+00
 -3.6974126e-01
  8.1967455e-01
 -1.0631379e+00
  1.3066100e+00
 -4.3395007e-01
  6.7558527e+00
 -3.0030578e-01
  1.8790430e-01
 -1.5497482e+00
  1.8297092e+00
 -2.1723336e-01
  7.6772583e-01
  4.4559583e-02
 -1.1677151e+00
 -8.8049334e-01
 -3.4919521e-01
  5.1728163e+00
  2.2616789e+00
 -2.7627332e+00
  7.1840382e-01
  2.2655252e-01
 -9.0428603e-01
  2.3625572e+00
  3.8289270e+00
 -9.6430874e-01
  3.6106994e+00
  7.2064525e-01
  1.4371595e-01
  3.1635395e-01
 -2.2522743e+00
 -2.3732264e+00
 -4.3606365e-01
 -1.8114219e+00
 -1.5775326e-01
 -1.0714910e+00
  6.1761580e+00
  1.0699791e+00
 -2.2545102e+00
  1.4460521e+00
 -4.0413028e-01
 -4.8295122e-01
  2.0355132e+00
 -1.1209912e+00
 -1.2815729e+00
  6.4216393e-01
 -3.2263353e+00
  1.6813582e+00
  2.4838755e+00
  1.6044794e+00
  7.7522928e-01
  3.3017990e-01
  3.7773445e-01
  1.1896526e+00
  8.5057527e-02
  2.8623623e-01
  1.8328327e+00
  3.7828022e-01
 -1.0565422e+00
 -6.7017422e+00
  6.0411868e+00
  1.3796824e-01
 -2.7360594e+00
  4.6013004e-01
 -6.8397653e-01
 -2.2976382e+00
  1.7978340e+00
  1.6911830e+00
 -3.7533510e-01
  1.1649371e+00
  2.5011668e+00
 -5.0680885e+00
 -1.7677565e+00
  2.5780809e+00
  1.0691290e+00
  2.2822793e-01
